<neuralNetwork>
    <neuron name = "0" type = "sensor" linkName = "Link0" />
    <neuron name = "1" type = "sensor" linkName = "Link6" />
    <neuron name = "2" type = "sensor" linkName = "Link7" />
    <neuron name = "3" type = "motor"  jointName = "Link0_Link1" />
    <neuron name = "4" type = "motor"  jointName = "Link1_Link2" />
    <neuron name = "5" type = "motor"  jointName = "Link2_Link3" />
    <neuron name = "6" type = "motor"  jointName = "Link3_Link4" />
    <neuron name = "7" type = "motor"  jointName = "Link3_Link5" />
    <neuron name = "8" type = "motor"  jointName = "Link2_Link6" />
    <neuron name = "9" type = "motor"  jointName = "Link1_Link7" />
    <synapse sourceNeuronName = "0" targetNeuronName = "3" weight = "-0.08592984367817413" />
    <synapse sourceNeuronName = "0" targetNeuronName = "4" weight = "0.45402551322938645" />
    <synapse sourceNeuronName = "0" targetNeuronName = "5" weight = "-0.9264319951356768" />
    <synapse sourceNeuronName = "0" targetNeuronName = "6" weight = "0.4512759167530944" />
    <synapse sourceNeuronName = "0" targetNeuronName = "7" weight = "0.024380453263516566" />
    <synapse sourceNeuronName = "0" targetNeuronName = "8" weight = "0.8595623299767581" />
    <synapse sourceNeuronName = "0" targetNeuronName = "9" weight = "-0.6557682133334062" />
    <synapse sourceNeuronName = "1" targetNeuronName = "3" weight = "-0.5857295093810022" />
    <synapse sourceNeuronName = "1" targetNeuronName = "4" weight = "-0.9041915685482762" />
    <synapse sourceNeuronName = "1" targetNeuronName = "5" weight = "0.29378573045488876" />
    <synapse sourceNeuronName = "1" targetNeuronName = "6" weight = "-0.35816659895317216" />
    <synapse sourceNeuronName = "1" targetNeuronName = "7" weight = "0.24897137568154815" />
    <synapse sourceNeuronName = "1" targetNeuronName = "8" weight = "-0.4202586593209592" />
    <synapse sourceNeuronName = "1" targetNeuronName = "9" weight = "0.8025793657189901" />
    <synapse sourceNeuronName = "2" targetNeuronName = "3" weight = "0.46392115544610313" />
    <synapse sourceNeuronName = "2" targetNeuronName = "4" weight = "0.7477853448290255" />
    <synapse sourceNeuronName = "2" targetNeuronName = "5" weight = "-0.5348549327287342" />
    <synapse sourceNeuronName = "2" targetNeuronName = "6" weight = "0.3953588036932121" />
    <synapse sourceNeuronName = "2" targetNeuronName = "7" weight = "-0.06731925392182325" />
    <synapse sourceNeuronName = "2" targetNeuronName = "8" weight = "-0.5968989446830308" />
    <synapse sourceNeuronName = "2" targetNeuronName = "9" weight = "-0.566652120477712" />
</neuralNetwork>