<neuralNetwork>
    <neuron name = "0" type = "sensor" linkName = "Link1" />
    <neuron name = "1" type = "sensor" linkName = "Link3" />
    <neuron name = "2" type = "sensor" linkName = "Link4" />
    <neuron name = "3" type = "sensor" linkName = "Link5" />
    <neuron name = "4" type = "sensor" linkName = "Link6" />
    <neuron name = "5" type = "motor"  jointName = "Link0_Link1" />
    <neuron name = "6" type = "motor"  jointName = "Link0_Link2" />
    <neuron name = "7" type = "motor"  jointName = "Link1_Link3" />
    <neuron name = "8" type = "motor"  jointName = "Link0_Link4" />
    <neuron name = "9" type = "motor"  jointName = "Link1_Link5" />
    <neuron name = "10" type = "motor"  jointName = "Link5_Link6" />
    <synapse sourceNeuronName = "0" targetNeuronName = "5" weight = "-0.6038649996854155" />
    <synapse sourceNeuronName = "0" targetNeuronName = "6" weight = "-0.8258568226883352" />
    <synapse sourceNeuronName = "0" targetNeuronName = "7" weight = "0.901417520641681" />
    <synapse sourceNeuronName = "0" targetNeuronName = "8" weight = "-0.7606012347069406" />
    <synapse sourceNeuronName = "0" targetNeuronName = "9" weight = "0.2571071405738101" />
    <synapse sourceNeuronName = "0" targetNeuronName = "10" weight = "-0.1261593860883976" />
    <synapse sourceNeuronName = "1" targetNeuronName = "5" weight = "0.6088407466659489" />
    <synapse sourceNeuronName = "1" targetNeuronName = "6" weight = "-0.7027518467109797" />
    <synapse sourceNeuronName = "1" targetNeuronName = "7" weight = "-0.7930645300179768" />
    <synapse sourceNeuronName = "1" targetNeuronName = "8" weight = "-0.13462401021015213" />
    <synapse sourceNeuronName = "1" targetNeuronName = "9" weight = "-0.6336903995788055" />
    <synapse sourceNeuronName = "1" targetNeuronName = "10" weight = "0.7239133510835734" />
    <synapse sourceNeuronName = "2" targetNeuronName = "5" weight = "0.5093645686170647" />
    <synapse sourceNeuronName = "2" targetNeuronName = "6" weight = "0.48428502156836073" />
    <synapse sourceNeuronName = "2" targetNeuronName = "7" weight = "-0.5800695108394489" />
    <synapse sourceNeuronName = "2" targetNeuronName = "8" weight = "-0.9179626792286648" />
    <synapse sourceNeuronName = "2" targetNeuronName = "9" weight = "0.20949546609103287" />
    <synapse sourceNeuronName = "2" targetNeuronName = "10" weight = "-0.7976011750577827" />
    <synapse sourceNeuronName = "3" targetNeuronName = "5" weight = "0.8827283527118119" />
    <synapse sourceNeuronName = "3" targetNeuronName = "6" weight = "0.03800297920216544" />
    <synapse sourceNeuronName = "3" targetNeuronName = "7" weight = "0.37662565340712373" />
    <synapse sourceNeuronName = "3" targetNeuronName = "8" weight = "-0.7954284399235301" />
    <synapse sourceNeuronName = "3" targetNeuronName = "9" weight = "-0.8074752861515859" />
    <synapse sourceNeuronName = "3" targetNeuronName = "10" weight = "0.4903480999660188" />
    <synapse sourceNeuronName = "4" targetNeuronName = "5" weight = "-0.039697173852604184" />
    <synapse sourceNeuronName = "4" targetNeuronName = "6" weight = "-0.015066107340161006" />
    <synapse sourceNeuronName = "4" targetNeuronName = "7" weight = "0.34052852740587936" />
    <synapse sourceNeuronName = "4" targetNeuronName = "8" weight = "-0.921526784670401" />
    <synapse sourceNeuronName = "4" targetNeuronName = "9" weight = "-0.6001004570953423" />
    <synapse sourceNeuronName = "4" targetNeuronName = "10" weight = "0.8122077603231579" />
</neuralNetwork>