<neuralNetwork>
    <neuron name = "0" type = "sensor" linkName = "Link2" />
    <neuron name = "1" type = "sensor" linkName = "Link3" />
    <neuron name = "2" type = "sensor" linkName = "Link4" />
    <neuron name = "3" type = "sensor" linkName = "Link8" />
    <neuron name = "4" type = "motor"  jointName = "Link0_Link1" />
    <neuron name = "5" type = "motor"  jointName = "Link1_Link2" />
    <neuron name = "6" type = "motor"  jointName = "Link2_Link3" />
    <neuron name = "7" type = "motor"  jointName = "Link2_Link4" />
    <neuron name = "8" type = "motor"  jointName = "Link3_Link5" />
    <neuron name = "9" type = "motor"  jointName = "Link1_Link6" />
    <neuron name = "10" type = "motor"  jointName = "Link6_Link7" />
    <neuron name = "11" type = "motor"  jointName = "Link4_Link8" />
    <synapse sourceNeuronName = "0" targetNeuronName = "4" weight = "-0.37165850503759024" />
    <synapse sourceNeuronName = "0" targetNeuronName = "5" weight = "0.6767284219213612" />
    <synapse sourceNeuronName = "0" targetNeuronName = "6" weight = "-0.3057819806190354" />
    <synapse sourceNeuronName = "0" targetNeuronName = "7" weight = "0.7981999585630839" />
    <synapse sourceNeuronName = "0" targetNeuronName = "8" weight = "-0.14850555409543698" />
    <synapse sourceNeuronName = "0" targetNeuronName = "9" weight = "-0.47569624864873483" />
    <synapse sourceNeuronName = "0" targetNeuronName = "10" weight = "0.8738149594019378" />
    <synapse sourceNeuronName = "0" targetNeuronName = "11" weight = "0.7984100446376967" />
    <synapse sourceNeuronName = "1" targetNeuronName = "4" weight = "0.8099678443108713" />
    <synapse sourceNeuronName = "1" targetNeuronName = "5" weight = "-0.40822731615665697" />
    <synapse sourceNeuronName = "1" targetNeuronName = "6" weight = "0.31815901284392223" />
    <synapse sourceNeuronName = "1" targetNeuronName = "7" weight = "0.5599252682642639" />
    <synapse sourceNeuronName = "1" targetNeuronName = "8" weight = "-0.62957413365977" />
    <synapse sourceNeuronName = "1" targetNeuronName = "9" weight = "0.05265736810632071" />
    <synapse sourceNeuronName = "1" targetNeuronName = "10" weight = "-0.5831130855995055" />
    <synapse sourceNeuronName = "1" targetNeuronName = "11" weight = "-0.34759335657592594" />
    <synapse sourceNeuronName = "2" targetNeuronName = "4" weight = "0.8461982727241457" />
    <synapse sourceNeuronName = "2" targetNeuronName = "5" weight = "0.779769940420582" />
    <synapse sourceNeuronName = "2" targetNeuronName = "6" weight = "0.5348543263097831" />
    <synapse sourceNeuronName = "2" targetNeuronName = "7" weight = "-0.5056360903507746" />
    <synapse sourceNeuronName = "2" targetNeuronName = "8" weight = "-0.3524354857492693" />
    <synapse sourceNeuronName = "2" targetNeuronName = "9" weight = "-0.36532001883081233" />
    <synapse sourceNeuronName = "2" targetNeuronName = "10" weight = "0.35901788769536536" />
    <synapse sourceNeuronName = "2" targetNeuronName = "11" weight = "0.25576322153675335" />
    <synapse sourceNeuronName = "3" targetNeuronName = "4" weight = "0.7063543986362852" />
    <synapse sourceNeuronName = "3" targetNeuronName = "5" weight = "0.23072063943724808" />
    <synapse sourceNeuronName = "3" targetNeuronName = "6" weight = "-0.3845715827830001" />
    <synapse sourceNeuronName = "3" targetNeuronName = "7" weight = "-0.5115166978323744" />
    <synapse sourceNeuronName = "3" targetNeuronName = "8" weight = "0.9373523469447289" />
    <synapse sourceNeuronName = "3" targetNeuronName = "9" weight = "0.7191382577780892" />
    <synapse sourceNeuronName = "3" targetNeuronName = "10" weight = "-0.8170335645884461" />
    <synapse sourceNeuronName = "3" targetNeuronName = "11" weight = "-0.43122243933858284" />
</neuralNetwork>