<neuralNetwork>
    <neuron name = "0" type = "sensor" linkName = "Link0" />
    <neuron name = "1" type = "sensor" linkName = "Link2" />
    <neuron name = "2" type = "sensor" linkName = "Link6" />
    <neuron name = "3" type = "sensor" linkName = "Link8" />
    <neuron name = "4" type = "sensor" linkName = "Link9" />
    <neuron name = "5" type = "motor"  jointName = "Link0_Link1" />
    <neuron name = "6" type = "motor"  jointName = "Link1_Link2" />
    <neuron name = "7" type = "motor"  jointName = "Link2_Link3" />
    <neuron name = "8" type = "motor"  jointName = "Link3_Link4" />
    <neuron name = "9" type = "motor"  jointName = "Link1_Link5" />
    <neuron name = "10" type = "motor"  jointName = "Link3_Link6" />
    <neuron name = "11" type = "motor"  jointName = "Link1_Link7" />
    <neuron name = "12" type = "motor"  jointName = "Link2_Link8" />
    <neuron name = "13" type = "motor"  jointName = "Link1_Link9" />
    <synapse sourceNeuronName = "0" targetNeuronName = "5" weight = "0.4808402255287394" />
    <synapse sourceNeuronName = "0" targetNeuronName = "6" weight = "0.45157015665469213" />
    <synapse sourceNeuronName = "0" targetNeuronName = "7" weight = "0.6563866765456186" />
    <synapse sourceNeuronName = "0" targetNeuronName = "8" weight = "0.15660007499521233" />
    <synapse sourceNeuronName = "0" targetNeuronName = "9" weight = "0.6696960342392209" />
    <synapse sourceNeuronName = "0" targetNeuronName = "10" weight = "0.7583965573735667" />
    <synapse sourceNeuronName = "0" targetNeuronName = "11" weight = "0.8735035677446585" />
    <synapse sourceNeuronName = "0" targetNeuronName = "12" weight = "0.5483667711376052" />
    <synapse sourceNeuronName = "0" targetNeuronName = "13" weight = "-0.14750218021206862" />
    <synapse sourceNeuronName = "1" targetNeuronName = "5" weight = "0.4322931890696122" />
    <synapse sourceNeuronName = "1" targetNeuronName = "6" weight = "-0.6596600815914835" />
    <synapse sourceNeuronName = "1" targetNeuronName = "7" weight = "0.7037876006592994" />
    <synapse sourceNeuronName = "1" targetNeuronName = "8" weight = "-0.21855524067245358" />
    <synapse sourceNeuronName = "1" targetNeuronName = "9" weight = "-0.4288606735142062" />
    <synapse sourceNeuronName = "1" targetNeuronName = "10" weight = "-0.4590286983423535" />
    <synapse sourceNeuronName = "1" targetNeuronName = "11" weight = "0.9660358708343739" />
    <synapse sourceNeuronName = "1" targetNeuronName = "12" weight = "0.40915116953828123" />
    <synapse sourceNeuronName = "1" targetNeuronName = "13" weight = "-0.8979444393316858" />
    <synapse sourceNeuronName = "2" targetNeuronName = "5" weight = "0.7323982388629089" />
    <synapse sourceNeuronName = "2" targetNeuronName = "6" weight = "0.8770200670132047" />
    <synapse sourceNeuronName = "2" targetNeuronName = "7" weight = "0.937041321131793" />
    <synapse sourceNeuronName = "2" targetNeuronName = "8" weight = "-0.9557000287473338" />
    <synapse sourceNeuronName = "2" targetNeuronName = "9" weight = "0.012794555187578993" />
    <synapse sourceNeuronName = "2" targetNeuronName = "10" weight = "-0.7816822234884364" />
    <synapse sourceNeuronName = "2" targetNeuronName = "11" weight = "-0.09541299670092207" />
    <synapse sourceNeuronName = "2" targetNeuronName = "12" weight = "0.36713155452773294" />
    <synapse sourceNeuronName = "2" targetNeuronName = "13" weight = "-0.3420237580294976" />
    <synapse sourceNeuronName = "3" targetNeuronName = "5" weight = "0.49481186553400414" />
    <synapse sourceNeuronName = "3" targetNeuronName = "6" weight = "0.459923429303273" />
    <synapse sourceNeuronName = "3" targetNeuronName = "7" weight = "0.10254092242348789" />
    <synapse sourceNeuronName = "3" targetNeuronName = "8" weight = "-0.3806004037630708" />
    <synapse sourceNeuronName = "3" targetNeuronName = "9" weight = "-0.22177502891483636" />
    <synapse sourceNeuronName = "3" targetNeuronName = "10" weight = "-0.34799670870095856" />
    <synapse sourceNeuronName = "3" targetNeuronName = "11" weight = "-0.8189679753835293" />
    <synapse sourceNeuronName = "3" targetNeuronName = "12" weight = "-0.27481172717555036" />
    <synapse sourceNeuronName = "3" targetNeuronName = "13" weight = "0.3087894794911039" />
    <synapse sourceNeuronName = "4" targetNeuronName = "5" weight = "0.4427146714632295" />
    <synapse sourceNeuronName = "4" targetNeuronName = "6" weight = "-0.9017211450162452" />
    <synapse sourceNeuronName = "4" targetNeuronName = "7" weight = "0.4164411338759906" />
    <synapse sourceNeuronName = "4" targetNeuronName = "8" weight = "-0.39813046624034487" />
    <synapse sourceNeuronName = "4" targetNeuronName = "9" weight = "0.6530247245819918" />
    <synapse sourceNeuronName = "4" targetNeuronName = "10" weight = "0.8391429391498246" />
    <synapse sourceNeuronName = "4" targetNeuronName = "11" weight = "-0.49261744782054473" />
    <synapse sourceNeuronName = "4" targetNeuronName = "12" weight = "-0.8120359225096554" />
    <synapse sourceNeuronName = "4" targetNeuronName = "13" weight = "0.6702047096476871" />
</neuralNetwork>