<neuralNetwork>
    <neuron name = "0" type = "sensor" linkName = "Link0" />
    <neuron name = "1" type = "sensor" linkName = "Link3" />
    <neuron name = "2" type = "sensor" linkName = "Link6" />
    <neuron name = "3" type = "sensor" linkName = "Link9" />
    <neuron name = "4" type = "motor"  jointName = "Link0_Link1" />
    <neuron name = "5" type = "motor"  jointName = "Link0_Link2" />
    <neuron name = "6" type = "motor"  jointName = "Link2_Link3" />
    <neuron name = "7" type = "motor"  jointName = "Link1_Link4" />
    <neuron name = "8" type = "motor"  jointName = "Link4_Link5" />
    <neuron name = "9" type = "motor"  jointName = "Link0_Link6" />
    <neuron name = "10" type = "motor"  jointName = "Link5_Link7" />
    <neuron name = "11" type = "motor"  jointName = "Link4_Link8" />
    <neuron name = "12" type = "motor"  jointName = "Link5_Link9" />
    <synapse sourceNeuronName = "0" targetNeuronName = "4" weight = "0.4714034778256859" />
    <synapse sourceNeuronName = "0" targetNeuronName = "5" weight = "0.5687052081454296" />
    <synapse sourceNeuronName = "0" targetNeuronName = "6" weight = "-0.8029911870112103" />
    <synapse sourceNeuronName = "0" targetNeuronName = "7" weight = "0.27948725878758407" />
    <synapse sourceNeuronName = "0" targetNeuronName = "8" weight = "-0.7906080210487247" />
    <synapse sourceNeuronName = "0" targetNeuronName = "9" weight = "-0.5346255239615454" />
    <synapse sourceNeuronName = "0" targetNeuronName = "10" weight = "0.8960234428430265" />
    <synapse sourceNeuronName = "0" targetNeuronName = "11" weight = "0.015110991829104803" />
    <synapse sourceNeuronName = "0" targetNeuronName = "12" weight = "-0.8000698841700546" />
    <synapse sourceNeuronName = "1" targetNeuronName = "4" weight = "0.36400948563269386" />
    <synapse sourceNeuronName = "1" targetNeuronName = "5" weight = "-0.007144793218220258" />
    <synapse sourceNeuronName = "1" targetNeuronName = "6" weight = "0.37036342738202377" />
    <synapse sourceNeuronName = "1" targetNeuronName = "7" weight = "-0.8592353688892602" />
    <synapse sourceNeuronName = "1" targetNeuronName = "8" weight = "0.9241734697064727" />
    <synapse sourceNeuronName = "1" targetNeuronName = "9" weight = "-0.7891991749163676" />
    <synapse sourceNeuronName = "1" targetNeuronName = "10" weight = "0.8568931089535692" />
    <synapse sourceNeuronName = "1" targetNeuronName = "11" weight = "-0.30915119178977823" />
    <synapse sourceNeuronName = "1" targetNeuronName = "12" weight = "-0.37965658134159397" />
    <synapse sourceNeuronName = "2" targetNeuronName = "4" weight = "-0.4710645093316308" />
    <synapse sourceNeuronName = "2" targetNeuronName = "5" weight = "-0.8849522966158181" />
    <synapse sourceNeuronName = "2" targetNeuronName = "6" weight = "-0.2474193179697448" />
    <synapse sourceNeuronName = "2" targetNeuronName = "7" weight = "-0.4700704431388316" />
    <synapse sourceNeuronName = "2" targetNeuronName = "8" weight = "0.32506269521136333" />
    <synapse sourceNeuronName = "2" targetNeuronName = "9" weight = "0.34408084058928745" />
    <synapse sourceNeuronName = "2" targetNeuronName = "10" weight = "-0.7356533282099837" />
    <synapse sourceNeuronName = "2" targetNeuronName = "11" weight = "0.456934703363975" />
    <synapse sourceNeuronName = "2" targetNeuronName = "12" weight = "0.1566476674480699" />
    <synapse sourceNeuronName = "3" targetNeuronName = "4" weight = "0.2414148647228589" />
    <synapse sourceNeuronName = "3" targetNeuronName = "5" weight = "0.7525393826843776" />
    <synapse sourceNeuronName = "3" targetNeuronName = "6" weight = "0.4197593397447561" />
    <synapse sourceNeuronName = "3" targetNeuronName = "7" weight = "0.7358312871878474" />
    <synapse sourceNeuronName = "3" targetNeuronName = "8" weight = "-0.08829097519302742" />
    <synapse sourceNeuronName = "3" targetNeuronName = "9" weight = "0.34899651282618205" />
    <synapse sourceNeuronName = "3" targetNeuronName = "10" weight = "0.5926243231830839" />
    <synapse sourceNeuronName = "3" targetNeuronName = "11" weight = "0.5755493709460937" />
    <synapse sourceNeuronName = "3" targetNeuronName = "12" weight = "0.6206908650919563" />
</neuralNetwork>