<neuralNetwork>
    <neuron name = "0" type = "sensor" linkName = "Link0" />
    <neuron name = "1" type = "sensor" linkName = "Link1" />
    <neuron name = "2" type = "sensor" linkName = "Link2" />
    <neuron name = "3" type = "sensor" linkName = "Link3" />
    <neuron name = "4" type = "sensor" linkName = "Link4" />
    <neuron name = "5" type = "sensor" linkName = "Link5" />
    <neuron name = "6" type = "sensor" linkName = "Link8" />
    <neuron name = "7" type = "sensor" linkName = "Link9" />
    <neuron name = "8" type = "motor"  jointName = "Link0_Link1" />
    <neuron name = "9" type = "motor"  jointName = "Link0_Link2" />
    <neuron name = "10" type = "motor"  jointName = "Link1_Link3" />
    <neuron name = "11" type = "motor"  jointName = "Link3_Link4" />
    <neuron name = "12" type = "motor"  jointName = "Link3_Link5" />
    <neuron name = "13" type = "motor"  jointName = "Link5_Link6" />
    <neuron name = "14" type = "motor"  jointName = "Link4_Link7" />
    <neuron name = "15" type = "motor"  jointName = "Link4_Link8" />
    <neuron name = "16" type = "motor"  jointName = "Link0_Link9" />
    <neuron name = "17" type = "motor"  jointName = "Link2_Link10" />
    <synapse sourceNeuronName = "0" targetNeuronName = "8" weight = "-0.04703797296001011" />
    <synapse sourceNeuronName = "0" targetNeuronName = "9" weight = "0.3361011299636951" />
    <synapse sourceNeuronName = "0" targetNeuronName = "10" weight = "0.3007145559945674" />
    <synapse sourceNeuronName = "0" targetNeuronName = "11" weight = "0.31777450385872097" />
    <synapse sourceNeuronName = "0" targetNeuronName = "12" weight = "-0.4880253908064136" />
    <synapse sourceNeuronName = "0" targetNeuronName = "13" weight = "-0.9919978227576072" />
    <synapse sourceNeuronName = "0" targetNeuronName = "14" weight = "-0.4159593111949307" />
    <synapse sourceNeuronName = "0" targetNeuronName = "15" weight = "-0.45721410272714524" />
    <synapse sourceNeuronName = "0" targetNeuronName = "16" weight = "-0.8430340802582483" />
    <synapse sourceNeuronName = "0" targetNeuronName = "17" weight = "0.22377065128764384" />
    <synapse sourceNeuronName = "1" targetNeuronName = "8" weight = "0.32510592936000404" />
    <synapse sourceNeuronName = "1" targetNeuronName = "9" weight = "-0.49918124637153216" />
    <synapse sourceNeuronName = "1" targetNeuronName = "10" weight = "-0.07866767605439118" />
    <synapse sourceNeuronName = "1" targetNeuronName = "11" weight = "0.8080190078734386" />
    <synapse sourceNeuronName = "1" targetNeuronName = "12" weight = "0.6843271495281189" />
    <synapse sourceNeuronName = "1" targetNeuronName = "13" weight = "0.04352013086581863" />
    <synapse sourceNeuronName = "1" targetNeuronName = "14" weight = "-0.9389298550222558" />
    <synapse sourceNeuronName = "1" targetNeuronName = "15" weight = "-0.2624003879032275" />
    <synapse sourceNeuronName = "1" targetNeuronName = "16" weight = "-0.2313976160642126" />
    <synapse sourceNeuronName = "1" targetNeuronName = "17" weight = "-0.631283962552561" />
    <synapse sourceNeuronName = "2" targetNeuronName = "8" weight = "-0.2504794323558912" />
    <synapse sourceNeuronName = "2" targetNeuronName = "9" weight = "0.7746415068542987" />
    <synapse sourceNeuronName = "2" targetNeuronName = "10" weight = "-0.12099673215151707" />
    <synapse sourceNeuronName = "2" targetNeuronName = "11" weight = "0.7774191060404945" />
    <synapse sourceNeuronName = "2" targetNeuronName = "12" weight = "0.24500329585151137" />
    <synapse sourceNeuronName = "2" targetNeuronName = "13" weight = "-0.9521291877690661" />
    <synapse sourceNeuronName = "2" targetNeuronName = "14" weight = "-0.3903208742673123" />
    <synapse sourceNeuronName = "2" targetNeuronName = "15" weight = "0.28788180830867804" />
    <synapse sourceNeuronName = "2" targetNeuronName = "16" weight = "0.9080584307021706" />
    <synapse sourceNeuronName = "2" targetNeuronName = "17" weight = "-0.0055069323721428365" />
    <synapse sourceNeuronName = "3" targetNeuronName = "8" weight = "-0.5822501348257674" />
    <synapse sourceNeuronName = "3" targetNeuronName = "9" weight = "0.7834116422717965" />
    <synapse sourceNeuronName = "3" targetNeuronName = "10" weight = "0.9274022079619828" />
    <synapse sourceNeuronName = "3" targetNeuronName = "11" weight = "-0.4438604093054561" />
    <synapse sourceNeuronName = "3" targetNeuronName = "12" weight = "0.6826901204743347" />
    <synapse sourceNeuronName = "3" targetNeuronName = "13" weight = "0.6558142571914083" />
    <synapse sourceNeuronName = "3" targetNeuronName = "14" weight = "-0.7536095165260548" />
    <synapse sourceNeuronName = "3" targetNeuronName = "15" weight = "0.0037695608235934763" />
    <synapse sourceNeuronName = "3" targetNeuronName = "16" weight = "0.17036072313009165" />
    <synapse sourceNeuronName = "3" targetNeuronName = "17" weight = "-0.6000097115338818" />
    <synapse sourceNeuronName = "4" targetNeuronName = "8" weight = "0.18887189472641008" />
    <synapse sourceNeuronName = "4" targetNeuronName = "9" weight = "0.7002556666870683" />
    <synapse sourceNeuronName = "4" targetNeuronName = "10" weight = "0.9409649725208966" />
    <synapse sourceNeuronName = "4" targetNeuronName = "11" weight = "0.8996767116940685" />
    <synapse sourceNeuronName = "4" targetNeuronName = "12" weight = "0.19704314741873397" />
    <synapse sourceNeuronName = "4" targetNeuronName = "13" weight = "-0.2222569835521333" />
    <synapse sourceNeuronName = "4" targetNeuronName = "14" weight = "-0.7970914815891512" />
    <synapse sourceNeuronName = "4" targetNeuronName = "15" weight = "0.5021697899577289" />
    <synapse sourceNeuronName = "4" targetNeuronName = "16" weight = "0.18914154112183956" />
    <synapse sourceNeuronName = "4" targetNeuronName = "17" weight = "-0.9981267184919109" />
    <synapse sourceNeuronName = "5" targetNeuronName = "8" weight = "-0.7602231863615938" />
    <synapse sourceNeuronName = "5" targetNeuronName = "9" weight = "-0.4307363479835362" />
    <synapse sourceNeuronName = "5" targetNeuronName = "10" weight = "-0.9639893469191134" />
    <synapse sourceNeuronName = "5" targetNeuronName = "11" weight = "0.08427270902334838" />
    <synapse sourceNeuronName = "5" targetNeuronName = "12" weight = "0.33332559232065506" />
    <synapse sourceNeuronName = "5" targetNeuronName = "13" weight = "0.5719050656340336" />
    <synapse sourceNeuronName = "5" targetNeuronName = "14" weight = "0.39248123830680637" />
    <synapse sourceNeuronName = "5" targetNeuronName = "15" weight = "-0.3577396283038179" />
    <synapse sourceNeuronName = "5" targetNeuronName = "16" weight = "-0.2597555260312119" />
    <synapse sourceNeuronName = "5" targetNeuronName = "17" weight = "-0.42030816505267454" />
    <synapse sourceNeuronName = "6" targetNeuronName = "8" weight = "0.1229596399665589" />
    <synapse sourceNeuronName = "6" targetNeuronName = "9" weight = "0.8477951294717339" />
    <synapse sourceNeuronName = "6" targetNeuronName = "10" weight = "0.6858586330699739" />
    <synapse sourceNeuronName = "6" targetNeuronName = "11" weight = "0.18209726571709806" />
    <synapse sourceNeuronName = "6" targetNeuronName = "12" weight = "-0.9702976604861775" />
    <synapse sourceNeuronName = "6" targetNeuronName = "13" weight = "0.7243356766430031" />
    <synapse sourceNeuronName = "6" targetNeuronName = "14" weight = "-0.8975514986426201" />
    <synapse sourceNeuronName = "6" targetNeuronName = "15" weight = "0.9793985744146685" />
    <synapse sourceNeuronName = "6" targetNeuronName = "16" weight = "0.6260451877678366" />
    <synapse sourceNeuronName = "6" targetNeuronName = "17" weight = "-0.2204672214879997" />
    <synapse sourceNeuronName = "7" targetNeuronName = "8" weight = "0.5661383690041204" />
    <synapse sourceNeuronName = "7" targetNeuronName = "9" weight = "0.12333997316921619" />
    <synapse sourceNeuronName = "7" targetNeuronName = "10" weight = "0.6376224439047922" />
    <synapse sourceNeuronName = "7" targetNeuronName = "11" weight = "0.8267754600005432" />
    <synapse sourceNeuronName = "7" targetNeuronName = "12" weight = "0.30151437854194074" />
    <synapse sourceNeuronName = "7" targetNeuronName = "13" weight = "0.2422580649715249" />
    <synapse sourceNeuronName = "7" targetNeuronName = "14" weight = "-0.9969218228388181" />
    <synapse sourceNeuronName = "7" targetNeuronName = "15" weight = "-0.09882930729861195" />
    <synapse sourceNeuronName = "7" targetNeuronName = "16" weight = "-0.33272765985831976" />
    <synapse sourceNeuronName = "7" targetNeuronName = "17" weight = "-0.05126511087892971" />
</neuralNetwork>