<neuralNetwork>
    <neuron name = "0" type = "sensor" linkName = "Link0" />
    <neuron name = "1" type = "sensor" linkName = "Link3" />
    <neuron name = "2" type = "sensor" linkName = "Link4" />
    <neuron name = "3" type = "sensor" linkName = "Link6" />
    <neuron name = "4" type = "sensor" linkName = "Link9" />
    <neuron name = "5" type = "motor"  jointName = "Link0_Link1" />
    <neuron name = "6" type = "motor"  jointName = "Link0_Link2" />
    <neuron name = "7" type = "motor"  jointName = "Link2_Link3" />
    <neuron name = "8" type = "motor"  jointName = "Link1_Link4" />
    <neuron name = "9" type = "motor"  jointName = "Link4_Link5" />
    <neuron name = "10" type = "motor"  jointName = "Link0_Link6" />
    <neuron name = "11" type = "motor"  jointName = "Link5_Link7" />
    <neuron name = "12" type = "motor"  jointName = "Link4_Link8" />
    <neuron name = "13" type = "motor"  jointName = "Link5_Link9" />
    <neuron name = "14" type = "motor"  jointName = "Link4_Link10" />
    <neuron name = "15" type = "motor"  jointName = "Link4_Link11" />
    <synapse sourceNeuronName = "0" targetNeuronName = "5" weight = "0.6377617367572666" />
    <synapse sourceNeuronName = "0" targetNeuronName = "6" weight = "-0.4115370831152101" />
    <synapse sourceNeuronName = "0" targetNeuronName = "7" weight = "-0.4274150639685499" />
    <synapse sourceNeuronName = "0" targetNeuronName = "8" weight = "0.5912719836748592" />
    <synapse sourceNeuronName = "0" targetNeuronName = "9" weight = "0.6204814157302654" />
    <synapse sourceNeuronName = "0" targetNeuronName = "10" weight = "0.14487329644400737" />
    <synapse sourceNeuronName = "0" targetNeuronName = "11" weight = "-0.7550223582193216" />
    <synapse sourceNeuronName = "0" targetNeuronName = "12" weight = "0.17499411357946615" />
    <synapse sourceNeuronName = "0" targetNeuronName = "13" weight = "0.08929768642256342" />
    <synapse sourceNeuronName = "0" targetNeuronName = "14" weight = "0.6739240496445773" />
    <synapse sourceNeuronName = "0" targetNeuronName = "15" weight = "-0.6308029678092733" />
    <synapse sourceNeuronName = "1" targetNeuronName = "5" weight = "0.43860779726068144" />
    <synapse sourceNeuronName = "1" targetNeuronName = "6" weight = "-0.6445607196796683" />
    <synapse sourceNeuronName = "1" targetNeuronName = "7" weight = "-0.992737587417414" />
    <synapse sourceNeuronName = "1" targetNeuronName = "8" weight = "0.3926259390335962" />
    <synapse sourceNeuronName = "1" targetNeuronName = "9" weight = "-0.6267948281162563" />
    <synapse sourceNeuronName = "1" targetNeuronName = "10" weight = "-0.08957837389209677" />
    <synapse sourceNeuronName = "1" targetNeuronName = "11" weight = "0.7151410820483624" />
    <synapse sourceNeuronName = "1" targetNeuronName = "12" weight = "-0.6149229169706105" />
    <synapse sourceNeuronName = "1" targetNeuronName = "13" weight = "0.7631707073963161" />
    <synapse sourceNeuronName = "1" targetNeuronName = "14" weight = "-0.8462692628439286" />
    <synapse sourceNeuronName = "1" targetNeuronName = "15" weight = "-0.6347622523591567" />
    <synapse sourceNeuronName = "2" targetNeuronName = "5" weight = "0.5531371635500613" />
    <synapse sourceNeuronName = "2" targetNeuronName = "6" weight = "-0.4477011551396144" />
    <synapse sourceNeuronName = "2" targetNeuronName = "7" weight = "0.28797542999243153" />
    <synapse sourceNeuronName = "2" targetNeuronName = "8" weight = "0.37439971632449853" />
    <synapse sourceNeuronName = "2" targetNeuronName = "9" weight = "0.7405234649507937" />
    <synapse sourceNeuronName = "2" targetNeuronName = "10" weight = "0.439675248793268" />
    <synapse sourceNeuronName = "2" targetNeuronName = "11" weight = "0.9997739650238984" />
    <synapse sourceNeuronName = "2" targetNeuronName = "12" weight = "0.012956419635065775" />
    <synapse sourceNeuronName = "2" targetNeuronName = "13" weight = "-0.21487287607647376" />
    <synapse sourceNeuronName = "2" targetNeuronName = "14" weight = "0.5515319703529213" />
    <synapse sourceNeuronName = "2" targetNeuronName = "15" weight = "0.59253194048923" />
    <synapse sourceNeuronName = "3" targetNeuronName = "5" weight = "-0.9529305462797026" />
    <synapse sourceNeuronName = "3" targetNeuronName = "6" weight = "-0.3200267189229382" />
    <synapse sourceNeuronName = "3" targetNeuronName = "7" weight = "-0.8143124937659172" />
    <synapse sourceNeuronName = "3" targetNeuronName = "8" weight = "-0.3107679985398064" />
    <synapse sourceNeuronName = "3" targetNeuronName = "9" weight = "0.7518315371958213" />
    <synapse sourceNeuronName = "3" targetNeuronName = "10" weight = "0.6046461434182693" />
    <synapse sourceNeuronName = "3" targetNeuronName = "11" weight = "-0.6378583826580415" />
    <synapse sourceNeuronName = "3" targetNeuronName = "12" weight = "0.4389196797169834" />
    <synapse sourceNeuronName = "3" targetNeuronName = "13" weight = "0.5966061670878158" />
    <synapse sourceNeuronName = "3" targetNeuronName = "14" weight = "-0.9457071005470958" />
    <synapse sourceNeuronName = "3" targetNeuronName = "15" weight = "-0.5162034916897484" />
    <synapse sourceNeuronName = "4" targetNeuronName = "5" weight = "-0.4190517492580079" />
    <synapse sourceNeuronName = "4" targetNeuronName = "6" weight = "-0.7874636828244961" />
    <synapse sourceNeuronName = "4" targetNeuronName = "7" weight = "0.3407612158936226" />
    <synapse sourceNeuronName = "4" targetNeuronName = "8" weight = "-0.9076415479762794" />
    <synapse sourceNeuronName = "4" targetNeuronName = "9" weight = "-0.9402143024588774" />
    <synapse sourceNeuronName = "4" targetNeuronName = "10" weight = "0.7132275108404771" />
    <synapse sourceNeuronName = "4" targetNeuronName = "11" weight = "0.6776599983146812" />
    <synapse sourceNeuronName = "4" targetNeuronName = "12" weight = "0.20290015413117723" />
    <synapse sourceNeuronName = "4" targetNeuronName = "13" weight = "0.9408964975727201" />
    <synapse sourceNeuronName = "4" targetNeuronName = "14" weight = "-0.8567036329885538" />
    <synapse sourceNeuronName = "4" targetNeuronName = "15" weight = "0.25772028639966016" />
</neuralNetwork>