<neuralNetwork>
    <neuron name = "0" type = "sensor" linkName = "Link1" />
    <neuron name = "1" type = "sensor" linkName = "Link3" />
    <neuron name = "2" type = "sensor" linkName = "Link4" />
    <neuron name = "3" type = "sensor" linkName = "Link5" />
    <neuron name = "4" type = "motor"  jointName = "Link0_Link1" />
    <neuron name = "5" type = "motor"  jointName = "Link0_Link2" />
    <neuron name = "6" type = "motor"  jointName = "Link0_Link3" />
    <neuron name = "7" type = "motor"  jointName = "Link1_Link4" />
    <neuron name = "8" type = "motor"  jointName = "Link4_Link5" />
    <synapse sourceNeuronName = "0" targetNeuronName = "4" weight = "0.6567942382950558" />
    <synapse sourceNeuronName = "0" targetNeuronName = "5" weight = "0.9830460395421963" />
    <synapse sourceNeuronName = "0" targetNeuronName = "6" weight = "0.2663538630465623" />
    <synapse sourceNeuronName = "0" targetNeuronName = "7" weight = "-0.48892548983709005" />
    <synapse sourceNeuronName = "0" targetNeuronName = "8" weight = "-0.2462469321665295" />
    <synapse sourceNeuronName = "1" targetNeuronName = "4" weight = "0.44380080851449666" />
    <synapse sourceNeuronName = "1" targetNeuronName = "5" weight = "0.2815407327078745" />
    <synapse sourceNeuronName = "1" targetNeuronName = "6" weight = "0.3881446135814137" />
    <synapse sourceNeuronName = "1" targetNeuronName = "7" weight = "-0.43360205555201903" />
    <synapse sourceNeuronName = "1" targetNeuronName = "8" weight = "-0.4388160907603851" />
    <synapse sourceNeuronName = "2" targetNeuronName = "4" weight = "-0.6580945490651506" />
    <synapse sourceNeuronName = "2" targetNeuronName = "5" weight = "-0.03459265688036717" />
    <synapse sourceNeuronName = "2" targetNeuronName = "6" weight = "0.07303355163486258" />
    <synapse sourceNeuronName = "2" targetNeuronName = "7" weight = "-0.0671584232631155" />
    <synapse sourceNeuronName = "2" targetNeuronName = "8" weight = "-0.00912242336495539" />
    <synapse sourceNeuronName = "3" targetNeuronName = "4" weight = "-0.2272878716176423" />
    <synapse sourceNeuronName = "3" targetNeuronName = "5" weight = "0.5537287834880185" />
    <synapse sourceNeuronName = "3" targetNeuronName = "6" weight = "-0.3365014608006218" />
    <synapse sourceNeuronName = "3" targetNeuronName = "7" weight = "0.3512572054513541" />
    <synapse sourceNeuronName = "3" targetNeuronName = "8" weight = "-0.18421739963834893" />
</neuralNetwork>