<neuralNetwork>
    <neuron name = "0" type = "sensor" linkName = "Link0" />
    <neuron name = "1" type = "sensor" linkName = "Link1" />
    <neuron name = "2" type = "sensor" linkName = "Link2" />
    <neuron name = "3" type = "sensor" linkName = "Link3" />
    <neuron name = "4" type = "sensor" linkName = "Link4" />
    <neuron name = "5" type = "sensor" linkName = "Link5" />
    <neuron name = "6" type = "sensor" linkName = "Link8" />
    <neuron name = "7" type = "sensor" linkName = "Link9" />
    <neuron name = "8" type = "motor"  jointName = "Link0_Link1" />
    <neuron name = "9" type = "motor"  jointName = "Link0_Link2" />
    <neuron name = "10" type = "motor"  jointName = "Link1_Link3" />
    <neuron name = "11" type = "motor"  jointName = "Link3_Link4" />
    <neuron name = "12" type = "motor"  jointName = "Link3_Link5" />
    <neuron name = "13" type = "motor"  jointName = "Link5_Link6" />
    <neuron name = "14" type = "motor"  jointName = "Link4_Link7" />
    <neuron name = "15" type = "motor"  jointName = "Link4_Link8" />
    <neuron name = "16" type = "motor"  jointName = "Link0_Link9" />
    <neuron name = "17" type = "motor"  jointName = "Link2_Link10" />
    <synapse sourceNeuronName = "0" targetNeuronName = "8" weight = "0.8626275627753772" />
    <synapse sourceNeuronName = "0" targetNeuronName = "9" weight = "0.7188092908609147" />
    <synapse sourceNeuronName = "0" targetNeuronName = "10" weight = "0.6877061850881105" />
    <synapse sourceNeuronName = "0" targetNeuronName = "11" weight = "-0.551544148925089" />
    <synapse sourceNeuronName = "0" targetNeuronName = "12" weight = "-0.004751915644317872" />
    <synapse sourceNeuronName = "0" targetNeuronName = "13" weight = "0.27059561927461684" />
    <synapse sourceNeuronName = "0" targetNeuronName = "14" weight = "0.40210579572983063" />
    <synapse sourceNeuronName = "0" targetNeuronName = "15" weight = "-0.6258053314581637" />
    <synapse sourceNeuronName = "0" targetNeuronName = "16" weight = "0.37168168927513245" />
    <synapse sourceNeuronName = "0" targetNeuronName = "17" weight = "-0.715131749192071" />
    <synapse sourceNeuronName = "1" targetNeuronName = "8" weight = "-0.1552722070553525" />
    <synapse sourceNeuronName = "1" targetNeuronName = "9" weight = "-0.8647231640649851" />
    <synapse sourceNeuronName = "1" targetNeuronName = "10" weight = "-0.09767394108994876" />
    <synapse sourceNeuronName = "1" targetNeuronName = "11" weight = "0.9084371088302008" />
    <synapse sourceNeuronName = "1" targetNeuronName = "12" weight = "0.8172530943971885" />
    <synapse sourceNeuronName = "1" targetNeuronName = "13" weight = "-0.14336698039847673" />
    <synapse sourceNeuronName = "1" targetNeuronName = "14" weight = "0.02247308236437262" />
    <synapse sourceNeuronName = "1" targetNeuronName = "15" weight = "-0.9738323309068555" />
    <synapse sourceNeuronName = "1" targetNeuronName = "16" weight = "0.7203988946714313" />
    <synapse sourceNeuronName = "1" targetNeuronName = "17" weight = "-0.6099319870930588" />
    <synapse sourceNeuronName = "2" targetNeuronName = "8" weight = "0.467007367464773" />
    <synapse sourceNeuronName = "2" targetNeuronName = "9" weight = "0.568821435429838" />
    <synapse sourceNeuronName = "2" targetNeuronName = "10" weight = "0.5382985974267078" />
    <synapse sourceNeuronName = "2" targetNeuronName = "11" weight = "-0.20872563458445326" />
    <synapse sourceNeuronName = "2" targetNeuronName = "12" weight = "-0.22132689823536555" />
    <synapse sourceNeuronName = "2" targetNeuronName = "13" weight = "-0.29485521707461104" />
    <synapse sourceNeuronName = "2" targetNeuronName = "14" weight = "0.41274693382703753" />
    <synapse sourceNeuronName = "2" targetNeuronName = "15" weight = "-0.6405951231334983" />
    <synapse sourceNeuronName = "2" targetNeuronName = "16" weight = "0.9410074057399263" />
    <synapse sourceNeuronName = "2" targetNeuronName = "17" weight = "0.12013269762595491" />
    <synapse sourceNeuronName = "3" targetNeuronName = "8" weight = "0.1379011438723916" />
    <synapse sourceNeuronName = "3" targetNeuronName = "9" weight = "0.8719103626021476" />
    <synapse sourceNeuronName = "3" targetNeuronName = "10" weight = "-0.4277936731010967" />
    <synapse sourceNeuronName = "3" targetNeuronName = "11" weight = "0.24847840541322608" />
    <synapse sourceNeuronName = "3" targetNeuronName = "12" weight = "-0.4337186847776433" />
    <synapse sourceNeuronName = "3" targetNeuronName = "13" weight = "-0.2650057075588623" />
    <synapse sourceNeuronName = "3" targetNeuronName = "14" weight = "0.36286697387702227" />
    <synapse sourceNeuronName = "3" targetNeuronName = "15" weight = "0.6586212951326678" />
    <synapse sourceNeuronName = "3" targetNeuronName = "16" weight = "0.3996303936697583" />
    <synapse sourceNeuronName = "3" targetNeuronName = "17" weight = "0.8840518989453812" />
    <synapse sourceNeuronName = "4" targetNeuronName = "8" weight = "0.11681404037870857" />
    <synapse sourceNeuronName = "4" targetNeuronName = "9" weight = "0.12380415736460604" />
    <synapse sourceNeuronName = "4" targetNeuronName = "10" weight = "-0.5172050147551372" />
    <synapse sourceNeuronName = "4" targetNeuronName = "11" weight = "-0.2888261573912172" />
    <synapse sourceNeuronName = "4" targetNeuronName = "12" weight = "-0.022284099846516137" />
    <synapse sourceNeuronName = "4" targetNeuronName = "13" weight = "0.3173063609518936" />
    <synapse sourceNeuronName = "4" targetNeuronName = "14" weight = "-0.770336475946702" />
    <synapse sourceNeuronName = "4" targetNeuronName = "15" weight = "-0.4076130251639798" />
    <synapse sourceNeuronName = "4" targetNeuronName = "16" weight = "-0.16801405010591175" />
    <synapse sourceNeuronName = "4" targetNeuronName = "17" weight = "-0.1458229073326136" />
    <synapse sourceNeuronName = "5" targetNeuronName = "8" weight = "0.6091684313198718" />
    <synapse sourceNeuronName = "5" targetNeuronName = "9" weight = "0.8217745025393459" />
    <synapse sourceNeuronName = "5" targetNeuronName = "10" weight = "-0.998345761519482" />
    <synapse sourceNeuronName = "5" targetNeuronName = "11" weight = "0.06828897533928502" />
    <synapse sourceNeuronName = "5" targetNeuronName = "12" weight = "0.9320576479593279" />
    <synapse sourceNeuronName = "5" targetNeuronName = "13" weight = "-0.49661716149800395" />
    <synapse sourceNeuronName = "5" targetNeuronName = "14" weight = "0.7117919179442098" />
    <synapse sourceNeuronName = "5" targetNeuronName = "15" weight = "-0.7578946717594426" />
    <synapse sourceNeuronName = "5" targetNeuronName = "16" weight = "-0.31314376997617344" />
    <synapse sourceNeuronName = "5" targetNeuronName = "17" weight = "0.07371795889388433" />
    <synapse sourceNeuronName = "6" targetNeuronName = "8" weight = "0.02118184452521099" />
    <synapse sourceNeuronName = "6" targetNeuronName = "9" weight = "0.9512732189538617" />
    <synapse sourceNeuronName = "6" targetNeuronName = "10" weight = "0.49970232107956436" />
    <synapse sourceNeuronName = "6" targetNeuronName = "11" weight = "0.28630076955808526" />
    <synapse sourceNeuronName = "6" targetNeuronName = "12" weight = "-0.08058538504814616" />
    <synapse sourceNeuronName = "6" targetNeuronName = "13" weight = "0.2376944242458623" />
    <synapse sourceNeuronName = "6" targetNeuronName = "14" weight = "-0.02995623607522302" />
    <synapse sourceNeuronName = "6" targetNeuronName = "15" weight = "0.9047195556627694" />
    <synapse sourceNeuronName = "6" targetNeuronName = "16" weight = "0.853989515106413" />
    <synapse sourceNeuronName = "6" targetNeuronName = "17" weight = "0.2428502315150649" />
    <synapse sourceNeuronName = "7" targetNeuronName = "8" weight = "-0.7452974655792977" />
    <synapse sourceNeuronName = "7" targetNeuronName = "9" weight = "-0.44920123629755304" />
    <synapse sourceNeuronName = "7" targetNeuronName = "10" weight = "-0.18502901430409202" />
    <synapse sourceNeuronName = "7" targetNeuronName = "11" weight = "-0.7995903522855212" />
    <synapse sourceNeuronName = "7" targetNeuronName = "12" weight = "0.7111867452108236" />
    <synapse sourceNeuronName = "7" targetNeuronName = "13" weight = "-0.7641133772958704" />
    <synapse sourceNeuronName = "7" targetNeuronName = "14" weight = "0.9188909790044277" />
    <synapse sourceNeuronName = "7" targetNeuronName = "15" weight = "-0.4323661565852608" />
    <synapse sourceNeuronName = "7" targetNeuronName = "16" weight = "0.7949181716626581" />
    <synapse sourceNeuronName = "7" targetNeuronName = "17" weight = "-0.956918348623907" />
</neuralNetwork>