<neuralNetwork>
    <neuron name = "0" type = "sensor" linkName = "Link0" />
    <neuron name = "1" type = "sensor" linkName = "Link1" />
    <neuron name = "2" type = "sensor" linkName = "Link3" />
    <neuron name = "3" type = "sensor" linkName = "Link4" />
    <neuron name = "4" type = "sensor" linkName = "Link5" />
    <neuron name = "5" type = "motor"  jointName = "Link0_Link1" />
    <neuron name = "6" type = "motor"  jointName = "Link0_Link2" />
    <neuron name = "7" type = "motor"  jointName = "Link2_Link3" />
    <neuron name = "8" type = "motor"  jointName = "Link3_Link4" />
    <neuron name = "9" type = "motor"  jointName = "Link3_Link5" />
    <synapse sourceNeuronName = "0" targetNeuronName = "5" weight = "0.4286054866560667" />
    <synapse sourceNeuronName = "0" targetNeuronName = "6" weight = "-0.2108226702562721" />
    <synapse sourceNeuronName = "0" targetNeuronName = "7" weight = "0.01845395251075721" />
    <synapse sourceNeuronName = "0" targetNeuronName = "8" weight = "0.18445759706629716" />
    <synapse sourceNeuronName = "0" targetNeuronName = "9" weight = "0.3786602044743501" />
    <synapse sourceNeuronName = "1" targetNeuronName = "5" weight = "0.40114777802702806" />
    <synapse sourceNeuronName = "1" targetNeuronName = "6" weight = "0.5186736853094105" />
    <synapse sourceNeuronName = "1" targetNeuronName = "7" weight = "-0.9233378508186982" />
    <synapse sourceNeuronName = "1" targetNeuronName = "8" weight = "-0.1817367015098761" />
    <synapse sourceNeuronName = "1" targetNeuronName = "9" weight = "-0.5235846664902768" />
    <synapse sourceNeuronName = "2" targetNeuronName = "5" weight = "-0.06727613046591863" />
    <synapse sourceNeuronName = "2" targetNeuronName = "6" weight = "-0.7751662827369072" />
    <synapse sourceNeuronName = "2" targetNeuronName = "7" weight = "-0.7934229648470108" />
    <synapse sourceNeuronName = "2" targetNeuronName = "8" weight = "0.011755730135747156" />
    <synapse sourceNeuronName = "2" targetNeuronName = "9" weight = "0.3883070618868465" />
    <synapse sourceNeuronName = "3" targetNeuronName = "5" weight = "-0.5340015279733581" />
    <synapse sourceNeuronName = "3" targetNeuronName = "6" weight = "0.4912144915912382" />
    <synapse sourceNeuronName = "3" targetNeuronName = "7" weight = "-0.54566098364913" />
    <synapse sourceNeuronName = "3" targetNeuronName = "8" weight = "0.2822177056012658" />
    <synapse sourceNeuronName = "3" targetNeuronName = "9" weight = "-0.8157021540127933" />
    <synapse sourceNeuronName = "4" targetNeuronName = "5" weight = "0.8790787234176123" />
    <synapse sourceNeuronName = "4" targetNeuronName = "6" weight = "-0.8940799445151466" />
    <synapse sourceNeuronName = "4" targetNeuronName = "7" weight = "-0.06565362323920709" />
    <synapse sourceNeuronName = "4" targetNeuronName = "8" weight = "-0.6277076136953241" />
    <synapse sourceNeuronName = "4" targetNeuronName = "9" weight = "-0.40295918042616985" />
</neuralNetwork>