<neuralNetwork>
    <neuron name = "0" type = "sensor" linkName = "Link0" />
    <neuron name = "1" type = "sensor" linkName = "Link1" />
    <neuron name = "2" type = "sensor" linkName = "Link2" />
    <neuron name = "3" type = "sensor" linkName = "Link3" />
    <neuron name = "4" type = "sensor" linkName = "Link4" />
    <neuron name = "5" type = "sensor" linkName = "Link5" />
    <neuron name = "6" type = "sensor" linkName = "Link8" />
    <neuron name = "7" type = "sensor" linkName = "Link9" />
    <neuron name = "8" type = "motor"  jointName = "Link0_Link1" />
    <neuron name = "9" type = "motor"  jointName = "Link0_Link2" />
    <neuron name = "10" type = "motor"  jointName = "Link1_Link3" />
    <neuron name = "11" type = "motor"  jointName = "Link3_Link4" />
    <neuron name = "12" type = "motor"  jointName = "Link3_Link5" />
    <neuron name = "13" type = "motor"  jointName = "Link5_Link6" />
    <neuron name = "14" type = "motor"  jointName = "Link4_Link7" />
    <neuron name = "15" type = "motor"  jointName = "Link4_Link8" />
    <neuron name = "16" type = "motor"  jointName = "Link0_Link9" />
    <neuron name = "17" type = "motor"  jointName = "Link2_Link10" />
    <neuron name = "18" type = "motor"  jointName = "Link5_Link11" />
    <synapse sourceNeuronName = "0" targetNeuronName = "8" weight = "-0.17630446146306333" />
    <synapse sourceNeuronName = "0" targetNeuronName = "9" weight = "0.6066003513458986" />
    <synapse sourceNeuronName = "0" targetNeuronName = "10" weight = "-0.11016308955224074" />
    <synapse sourceNeuronName = "0" targetNeuronName = "11" weight = "0.41098945096378947" />
    <synapse sourceNeuronName = "0" targetNeuronName = "12" weight = "0.9781290785641334" />
    <synapse sourceNeuronName = "0" targetNeuronName = "13" weight = "-0.20121628618699083" />
    <synapse sourceNeuronName = "0" targetNeuronName = "14" weight = "0.160774049959437" />
    <synapse sourceNeuronName = "0" targetNeuronName = "15" weight = "-0.607418749731655" />
    <synapse sourceNeuronName = "0" targetNeuronName = "16" weight = "-0.22574780580663112" />
    <synapse sourceNeuronName = "0" targetNeuronName = "17" weight = "0.9067682961739449" />
    <synapse sourceNeuronName = "0" targetNeuronName = "18" weight = "0.11518278228542966" />
    <synapse sourceNeuronName = "1" targetNeuronName = "8" weight = "-0.07935404020711911" />
    <synapse sourceNeuronName = "1" targetNeuronName = "9" weight = "-0.7730808352552103" />
    <synapse sourceNeuronName = "1" targetNeuronName = "10" weight = "0.28637358330603324" />
    <synapse sourceNeuronName = "1" targetNeuronName = "11" weight = "-0.9368083323645613" />
    <synapse sourceNeuronName = "1" targetNeuronName = "12" weight = "0.6926824208128377" />
    <synapse sourceNeuronName = "1" targetNeuronName = "13" weight = "0.32986375236719345" />
    <synapse sourceNeuronName = "1" targetNeuronName = "14" weight = "0.1709394450842039" />
    <synapse sourceNeuronName = "1" targetNeuronName = "15" weight = "0.3450944968409593" />
    <synapse sourceNeuronName = "1" targetNeuronName = "16" weight = "-0.5416350744182516" />
    <synapse sourceNeuronName = "1" targetNeuronName = "17" weight = "-0.8921549742634172" />
    <synapse sourceNeuronName = "1" targetNeuronName = "18" weight = "0.39148709522769054" />
    <synapse sourceNeuronName = "2" targetNeuronName = "8" weight = "0.4616004268241205" />
    <synapse sourceNeuronName = "2" targetNeuronName = "9" weight = "-0.5947278461418244" />
    <synapse sourceNeuronName = "2" targetNeuronName = "10" weight = "0.23980039563313715" />
    <synapse sourceNeuronName = "2" targetNeuronName = "11" weight = "-0.3292691217480226" />
    <synapse sourceNeuronName = "2" targetNeuronName = "12" weight = "-0.5193536149154032" />
    <synapse sourceNeuronName = "2" targetNeuronName = "13" weight = "-0.45599933138939885" />
    <synapse sourceNeuronName = "2" targetNeuronName = "14" weight = "-0.7504836948501767" />
    <synapse sourceNeuronName = "2" targetNeuronName = "15" weight = "-0.7375594376003938" />
    <synapse sourceNeuronName = "2" targetNeuronName = "16" weight = "-0.521977454497667" />
    <synapse sourceNeuronName = "2" targetNeuronName = "17" weight = "0.5714251701813136" />
    <synapse sourceNeuronName = "2" targetNeuronName = "18" weight = "0.00928301903478812" />
    <synapse sourceNeuronName = "3" targetNeuronName = "8" weight = "0.6134520170159798" />
    <synapse sourceNeuronName = "3" targetNeuronName = "9" weight = "-0.6220177185767659" />
    <synapse sourceNeuronName = "3" targetNeuronName = "10" weight = "-0.01518459459985566" />
    <synapse sourceNeuronName = "3" targetNeuronName = "11" weight = "0.05577381452946528" />
    <synapse sourceNeuronName = "3" targetNeuronName = "12" weight = "-0.09890370910931967" />
    <synapse sourceNeuronName = "3" targetNeuronName = "13" weight = "-0.5949521878823825" />
    <synapse sourceNeuronName = "3" targetNeuronName = "14" weight = "0.02834655715410972" />
    <synapse sourceNeuronName = "3" targetNeuronName = "15" weight = "-0.7431463175540411" />
    <synapse sourceNeuronName = "3" targetNeuronName = "16" weight = "-0.8950039382359782" />
    <synapse sourceNeuronName = "3" targetNeuronName = "17" weight = "0.6065650955715123" />
    <synapse sourceNeuronName = "3" targetNeuronName = "18" weight = "-0.51433144196287" />
    <synapse sourceNeuronName = "4" targetNeuronName = "8" weight = "-0.8038293532413818" />
    <synapse sourceNeuronName = "4" targetNeuronName = "9" weight = "0.28058636393511116" />
    <synapse sourceNeuronName = "4" targetNeuronName = "10" weight = "0.18843027805022783" />
    <synapse sourceNeuronName = "4" targetNeuronName = "11" weight = "0.794247188973835" />
    <synapse sourceNeuronName = "4" targetNeuronName = "12" weight = "-0.5079587690330811" />
    <synapse sourceNeuronName = "4" targetNeuronName = "13" weight = "0.1621233466294012" />
    <synapse sourceNeuronName = "4" targetNeuronName = "14" weight = "-0.10464864484311232" />
    <synapse sourceNeuronName = "4" targetNeuronName = "15" weight = "0.6603088019294803" />
    <synapse sourceNeuronName = "4" targetNeuronName = "16" weight = "-0.5231447426371751" />
    <synapse sourceNeuronName = "4" targetNeuronName = "17" weight = "0.26359300097504246" />
    <synapse sourceNeuronName = "4" targetNeuronName = "18" weight = "0.4413657016242625" />
    <synapse sourceNeuronName = "5" targetNeuronName = "8" weight = "0.18838899527995046" />
    <synapse sourceNeuronName = "5" targetNeuronName = "9" weight = "-0.41021405477859707" />
    <synapse sourceNeuronName = "5" targetNeuronName = "10" weight = "-0.8682484815690088" />
    <synapse sourceNeuronName = "5" targetNeuronName = "11" weight = "-0.7700402903306518" />
    <synapse sourceNeuronName = "5" targetNeuronName = "12" weight = "-0.9068366719762109" />
    <synapse sourceNeuronName = "5" targetNeuronName = "13" weight = "-0.9850543769618547" />
    <synapse sourceNeuronName = "5" targetNeuronName = "14" weight = "0.653445259035045" />
    <synapse sourceNeuronName = "5" targetNeuronName = "15" weight = "0.7567554582872658" />
    <synapse sourceNeuronName = "5" targetNeuronName = "16" weight = "0.8613630684089273" />
    <synapse sourceNeuronName = "5" targetNeuronName = "17" weight = "0.2240803081217373" />
    <synapse sourceNeuronName = "5" targetNeuronName = "18" weight = "0.3088483901456094" />
    <synapse sourceNeuronName = "6" targetNeuronName = "8" weight = "0.7189056540718153" />
    <synapse sourceNeuronName = "6" targetNeuronName = "9" weight = "-0.6900182498819429" />
    <synapse sourceNeuronName = "6" targetNeuronName = "10" weight = "0.06938078550078086" />
    <synapse sourceNeuronName = "6" targetNeuronName = "11" weight = "-0.36934885824926433" />
    <synapse sourceNeuronName = "6" targetNeuronName = "12" weight = "0.7183796321790381" />
    <synapse sourceNeuronName = "6" targetNeuronName = "13" weight = "-0.24533407883190117" />
    <synapse sourceNeuronName = "6" targetNeuronName = "14" weight = "0.8847046650848671" />
    <synapse sourceNeuronName = "6" targetNeuronName = "15" weight = "-0.16775771347928092" />
    <synapse sourceNeuronName = "6" targetNeuronName = "16" weight = "0.9245029075858435" />
    <synapse sourceNeuronName = "6" targetNeuronName = "17" weight = "0.37120237617545104" />
    <synapse sourceNeuronName = "6" targetNeuronName = "18" weight = "-0.2986704461662837" />
    <synapse sourceNeuronName = "7" targetNeuronName = "8" weight = "0.825237527480843" />
    <synapse sourceNeuronName = "7" targetNeuronName = "9" weight = "-0.16576344436275092" />
    <synapse sourceNeuronName = "7" targetNeuronName = "10" weight = "-0.8995353380899254" />
    <synapse sourceNeuronName = "7" targetNeuronName = "11" weight = "-0.5113036202125605" />
    <synapse sourceNeuronName = "7" targetNeuronName = "12" weight = "0.8891692990211444" />
    <synapse sourceNeuronName = "7" targetNeuronName = "13" weight = "0.36723934195263275" />
    <synapse sourceNeuronName = "7" targetNeuronName = "14" weight = "-0.6419636708955476" />
    <synapse sourceNeuronName = "7" targetNeuronName = "15" weight = "0.10839680065306267" />
    <synapse sourceNeuronName = "7" targetNeuronName = "16" weight = "-0.06571122985710609" />
    <synapse sourceNeuronName = "7" targetNeuronName = "17" weight = "-0.6510622796772636" />
    <synapse sourceNeuronName = "7" targetNeuronName = "18" weight = "-0.42211098160830995" />
</neuralNetwork>