<neuralNetwork>
    <neuron name = "0" type = "sensor" linkName = "Link0" />
    <neuron name = "1" type = "sensor" linkName = "Link1" />
    <neuron name = "2" type = "sensor" linkName = "Link2" />
    <neuron name = "3" type = "sensor" linkName = "Link4" />
    <neuron name = "4" type = "sensor" linkName = "Link6" />
    <neuron name = "5" type = "motor"  jointName = "Link0_Link1" />
    <neuron name = "6" type = "motor"  jointName = "Link1_Link2" />
    <neuron name = "7" type = "motor"  jointName = "Link0_Link3" />
    <neuron name = "8" type = "motor"  jointName = "Link0_Link4" />
    <neuron name = "9" type = "motor"  jointName = "Link4_Link5" />
    <neuron name = "10" type = "motor"  jointName = "Link3_Link6" />
    <neuron name = "11" type = "motor"  jointName = "Link6_Link7" />
    <neuron name = "12" type = "motor"  jointName = "Link6_Link8" />
    <neuron name = "13" type = "motor"  jointName = "Link1_Link9" />
    <synapse sourceNeuronName = "0" targetNeuronName = "5" weight = "0.45131313134961726" />
    <synapse sourceNeuronName = "0" targetNeuronName = "6" weight = "-0.39255036140980537" />
    <synapse sourceNeuronName = "0" targetNeuronName = "7" weight = "-0.9074423072997237" />
    <synapse sourceNeuronName = "0" targetNeuronName = "8" weight = "0.6110265989509238" />
    <synapse sourceNeuronName = "0" targetNeuronName = "9" weight = "-0.42182115772476636" />
    <synapse sourceNeuronName = "0" targetNeuronName = "10" weight = "0.2925743142075148" />
    <synapse sourceNeuronName = "0" targetNeuronName = "11" weight = "0.8470427104462113" />
    <synapse sourceNeuronName = "0" targetNeuronName = "12" weight = "0.8726956584882892" />
    <synapse sourceNeuronName = "0" targetNeuronName = "13" weight = "0.18228413685342892" />
    <synapse sourceNeuronName = "1" targetNeuronName = "5" weight = "0.5440269363573185" />
    <synapse sourceNeuronName = "1" targetNeuronName = "6" weight = "-0.9720411102679971" />
    <synapse sourceNeuronName = "1" targetNeuronName = "7" weight = "-0.23010825953092717" />
    <synapse sourceNeuronName = "1" targetNeuronName = "8" weight = "0.729932080546668" />
    <synapse sourceNeuronName = "1" targetNeuronName = "9" weight = "-0.858011787578687" />
    <synapse sourceNeuronName = "1" targetNeuronName = "10" weight = "0.15235932326653634" />
    <synapse sourceNeuronName = "1" targetNeuronName = "11" weight = "0.8751982472464614" />
    <synapse sourceNeuronName = "1" targetNeuronName = "12" weight = "-0.21191089723420742" />
    <synapse sourceNeuronName = "1" targetNeuronName = "13" weight = "-0.5877166883258291" />
    <synapse sourceNeuronName = "2" targetNeuronName = "5" weight = "-0.2752196985906956" />
    <synapse sourceNeuronName = "2" targetNeuronName = "6" weight = "-0.058067282411222054" />
    <synapse sourceNeuronName = "2" targetNeuronName = "7" weight = "0.5235468034083268" />
    <synapse sourceNeuronName = "2" targetNeuronName = "8" weight = "-0.8024214530013662" />
    <synapse sourceNeuronName = "2" targetNeuronName = "9" weight = "0.2526634929779714" />
    <synapse sourceNeuronName = "2" targetNeuronName = "10" weight = "0.4459373431467597" />
    <synapse sourceNeuronName = "2" targetNeuronName = "11" weight = "0.976687147972694" />
    <synapse sourceNeuronName = "2" targetNeuronName = "12" weight = "0.5239186879671727" />
    <synapse sourceNeuronName = "2" targetNeuronName = "13" weight = "-0.08593347632169324" />
    <synapse sourceNeuronName = "3" targetNeuronName = "5" weight = "0.5721410586613884" />
    <synapse sourceNeuronName = "3" targetNeuronName = "6" weight = "0.3550173825856342" />
    <synapse sourceNeuronName = "3" targetNeuronName = "7" weight = "-0.8659644920959153" />
    <synapse sourceNeuronName = "3" targetNeuronName = "8" weight = "0.11244787777445642" />
    <synapse sourceNeuronName = "3" targetNeuronName = "9" weight = "0.6676610462219459" />
    <synapse sourceNeuronName = "3" targetNeuronName = "10" weight = "-0.11147897336698476" />
    <synapse sourceNeuronName = "3" targetNeuronName = "11" weight = "-0.09755617621935975" />
    <synapse sourceNeuronName = "3" targetNeuronName = "12" weight = "-0.9607394283160011" />
    <synapse sourceNeuronName = "3" targetNeuronName = "13" weight = "0.7727078737241222" />
    <synapse sourceNeuronName = "4" targetNeuronName = "5" weight = "-0.9989451966162064" />
    <synapse sourceNeuronName = "4" targetNeuronName = "6" weight = "-0.4002336597249134" />
    <synapse sourceNeuronName = "4" targetNeuronName = "7" weight = "-0.8554230224234989" />
    <synapse sourceNeuronName = "4" targetNeuronName = "8" weight = "-0.8512623612316021" />
    <synapse sourceNeuronName = "4" targetNeuronName = "9" weight = "-0.9871694657193189" />
    <synapse sourceNeuronName = "4" targetNeuronName = "10" weight = "-0.5663111221896959" />
    <synapse sourceNeuronName = "4" targetNeuronName = "11" weight = "0.020067164767386236" />
    <synapse sourceNeuronName = "4" targetNeuronName = "12" weight = "-0.7024428766777635" />
    <synapse sourceNeuronName = "4" targetNeuronName = "13" weight = "0.29396237183839324" />
</neuralNetwork>