<neuralNetwork>
    <neuron name = "0" type = "sensor" linkName = "Link1" />
    <neuron name = "1" type = "sensor" linkName = "Link2" />
    <neuron name = "2" type = "sensor" linkName = "Link5" />
    <neuron name = "3" type = "sensor" linkName = "Link6" />
    <neuron name = "4" type = "sensor" linkName = "Link8" />
    <neuron name = "5" type = "motor"  jointName = "Link0_Link1" />
    <neuron name = "6" type = "motor"  jointName = "Link0_Link2" />
    <neuron name = "7" type = "motor"  jointName = "Link2_Link3" />
    <neuron name = "8" type = "motor"  jointName = "Link3_Link4" />
    <neuron name = "9" type = "motor"  jointName = "Link1_Link5" />
    <neuron name = "10" type = "motor"  jointName = "Link2_Link6" />
    <neuron name = "11" type = "motor"  jointName = "Link5_Link7" />
    <neuron name = "12" type = "motor"  jointName = "Link2_Link8" />
    <synapse sourceNeuronName = "0" targetNeuronName = "5" weight = "0.204023021285356" />
    <synapse sourceNeuronName = "0" targetNeuronName = "6" weight = "0.45187969523806015" />
    <synapse sourceNeuronName = "0" targetNeuronName = "7" weight = "-0.07736050412202555" />
    <synapse sourceNeuronName = "0" targetNeuronName = "8" weight = "-0.32791398136979155" />
    <synapse sourceNeuronName = "0" targetNeuronName = "9" weight = "0.9889808431435647" />
    <synapse sourceNeuronName = "0" targetNeuronName = "10" weight = "0.3499917792437435" />
    <synapse sourceNeuronName = "0" targetNeuronName = "11" weight = "-0.2989020865886556" />
    <synapse sourceNeuronName = "0" targetNeuronName = "12" weight = "-0.8086317494046271" />
    <synapse sourceNeuronName = "1" targetNeuronName = "5" weight = "0.19980952465340862" />
    <synapse sourceNeuronName = "1" targetNeuronName = "6" weight = "-0.5104688493161089" />
    <synapse sourceNeuronName = "1" targetNeuronName = "7" weight = "-0.2514570651778867" />
    <synapse sourceNeuronName = "1" targetNeuronName = "8" weight = "0.8820527457094192" />
    <synapse sourceNeuronName = "1" targetNeuronName = "9" weight = "-0.38702209256512576" />
    <synapse sourceNeuronName = "1" targetNeuronName = "10" weight = "0.8598901299358814" />
    <synapse sourceNeuronName = "1" targetNeuronName = "11" weight = "-0.11653254851964778" />
    <synapse sourceNeuronName = "1" targetNeuronName = "12" weight = "0.23195050005674567" />
    <synapse sourceNeuronName = "2" targetNeuronName = "5" weight = "0.4077725059550512" />
    <synapse sourceNeuronName = "2" targetNeuronName = "6" weight = "-0.09736648293186922" />
    <synapse sourceNeuronName = "2" targetNeuronName = "7" weight = "0.7766164389811168" />
    <synapse sourceNeuronName = "2" targetNeuronName = "8" weight = "-0.06651388192099628" />
    <synapse sourceNeuronName = "2" targetNeuronName = "9" weight = "0.7454703648915806" />
    <synapse sourceNeuronName = "2" targetNeuronName = "10" weight = "-0.3694860906680759" />
    <synapse sourceNeuronName = "2" targetNeuronName = "11" weight = "0.7305788614739983" />
    <synapse sourceNeuronName = "2" targetNeuronName = "12" weight = "0.47084418959102425" />
    <synapse sourceNeuronName = "3" targetNeuronName = "5" weight = "-0.267095616527405" />
    <synapse sourceNeuronName = "3" targetNeuronName = "6" weight = "0.6628768864908294" />
    <synapse sourceNeuronName = "3" targetNeuronName = "7" weight = "0.0387343515614238" />
    <synapse sourceNeuronName = "3" targetNeuronName = "8" weight = "-0.7396463016584507" />
    <synapse sourceNeuronName = "3" targetNeuronName = "9" weight = "0.7054413209214891" />
    <synapse sourceNeuronName = "3" targetNeuronName = "10" weight = "-0.17640228182486717" />
    <synapse sourceNeuronName = "3" targetNeuronName = "11" weight = "-0.9204651566964042" />
    <synapse sourceNeuronName = "3" targetNeuronName = "12" weight = "0.5223255561300173" />
    <synapse sourceNeuronName = "4" targetNeuronName = "5" weight = "-0.040516119742834755" />
    <synapse sourceNeuronName = "4" targetNeuronName = "6" weight = "-0.5691650104198107" />
    <synapse sourceNeuronName = "4" targetNeuronName = "7" weight = "-0.5535316224842977" />
    <synapse sourceNeuronName = "4" targetNeuronName = "8" weight = "-0.32527455132795535" />
    <synapse sourceNeuronName = "4" targetNeuronName = "9" weight = "0.7818717980359893" />
    <synapse sourceNeuronName = "4" targetNeuronName = "10" weight = "0.6887222986733319" />
    <synapse sourceNeuronName = "4" targetNeuronName = "11" weight = "0.9853108809008491" />
    <synapse sourceNeuronName = "4" targetNeuronName = "12" weight = "0.9997395578843311" />
</neuralNetwork>