<neuralNetwork>
    <neuron name = "0" type = "sensor" linkName = "Link5" />
    <neuron name = "1" type = "sensor" linkName = "Link10" />
    <neuron name = "2" type = "sensor" linkName = "Link11" />
    <neuron name = "3" type = "sensor" linkName = "Link12" />
    <neuron name = "4" type = "sensor" linkName = "Link13" />
    <neuron name = "5" type = "motor"  jointName = "Link0_Link1" />
    <neuron name = "6" type = "motor"  jointName = "Link0_Link2" />
    <neuron name = "7" type = "motor"  jointName = "Link0_Link3" />
    <neuron name = "8" type = "motor"  jointName = "Link1_Link4" />
    <neuron name = "9" type = "motor"  jointName = "Link4_Link5" />
    <neuron name = "10" type = "motor"  jointName = "Link0_Link6" />
    <neuron name = "11" type = "motor"  jointName = "Link2_Link7" />
    <neuron name = "12" type = "motor"  jointName = "Link2_Link8" />
    <neuron name = "13" type = "motor"  jointName = "Link0_Link9" />
    <neuron name = "14" type = "motor"  jointName = "Link1_Link10" />
    <neuron name = "15" type = "motor"  jointName = "Link2_Link11" />
    <neuron name = "16" type = "motor"  jointName = "Link2_Link12" />
    <neuron name = "17" type = "motor"  jointName = "Link10_Link13" />
    <synapse sourceNeuronName = "0" targetNeuronName = "5" weight = "-0.6166119878733316" />
    <synapse sourceNeuronName = "0" targetNeuronName = "6" weight = "0.058145670583841236" />
    <synapse sourceNeuronName = "0" targetNeuronName = "7" weight = "0.5553867527794241" />
    <synapse sourceNeuronName = "0" targetNeuronName = "8" weight = "0.4324355012830068" />
    <synapse sourceNeuronName = "0" targetNeuronName = "9" weight = "0.31180990716243717" />
    <synapse sourceNeuronName = "0" targetNeuronName = "10" weight = "0.5787218108621515" />
    <synapse sourceNeuronName = "0" targetNeuronName = "11" weight = "0.9579202665921245" />
    <synapse sourceNeuronName = "0" targetNeuronName = "12" weight = "0.8182185253543357" />
    <synapse sourceNeuronName = "0" targetNeuronName = "13" weight = "-0.2337404538215644" />
    <synapse sourceNeuronName = "0" targetNeuronName = "14" weight = "0.2807706555557181" />
    <synapse sourceNeuronName = "0" targetNeuronName = "15" weight = "-0.8304272917721367" />
    <synapse sourceNeuronName = "0" targetNeuronName = "16" weight = "0.08117947272225967" />
    <synapse sourceNeuronName = "0" targetNeuronName = "17" weight = "0.9801056854291934" />
    <synapse sourceNeuronName = "1" targetNeuronName = "5" weight = "0.25413230377428686" />
    <synapse sourceNeuronName = "1" targetNeuronName = "6" weight = "0.636808578531338" />
    <synapse sourceNeuronName = "1" targetNeuronName = "7" weight = "-0.9488396100664542" />
    <synapse sourceNeuronName = "1" targetNeuronName = "8" weight = "0.436779530071951" />
    <synapse sourceNeuronName = "1" targetNeuronName = "9" weight = "0.31308017376511144" />
    <synapse sourceNeuronName = "1" targetNeuronName = "10" weight = "-0.5395256630025302" />
    <synapse sourceNeuronName = "1" targetNeuronName = "11" weight = "0.8393997250085268" />
    <synapse sourceNeuronName = "1" targetNeuronName = "12" weight = "-0.9326971997080258" />
    <synapse sourceNeuronName = "1" targetNeuronName = "13" weight = "-0.13763253657186025" />
    <synapse sourceNeuronName = "1" targetNeuronName = "14" weight = "0.8619079604749764" />
    <synapse sourceNeuronName = "1" targetNeuronName = "15" weight = "0.9852271035980891" />
    <synapse sourceNeuronName = "1" targetNeuronName = "16" weight = "0.32098205625689236" />
    <synapse sourceNeuronName = "1" targetNeuronName = "17" weight = "-0.39274180892443544" />
    <synapse sourceNeuronName = "2" targetNeuronName = "5" weight = "0.6065162945515343" />
    <synapse sourceNeuronName = "2" targetNeuronName = "6" weight = "-0.9205519206126784" />
    <synapse sourceNeuronName = "2" targetNeuronName = "7" weight = "0.14848390591203153" />
    <synapse sourceNeuronName = "2" targetNeuronName = "8" weight = "-0.7481112009586206" />
    <synapse sourceNeuronName = "2" targetNeuronName = "9" weight = "0.275170983471247" />
    <synapse sourceNeuronName = "2" targetNeuronName = "10" weight = "0.24072807899415372" />
    <synapse sourceNeuronName = "2" targetNeuronName = "11" weight = "0.6114696562983435" />
    <synapse sourceNeuronName = "2" targetNeuronName = "12" weight = "-0.3961724210468107" />
    <synapse sourceNeuronName = "2" targetNeuronName = "13" weight = "0.040248746536553526" />
    <synapse sourceNeuronName = "2" targetNeuronName = "14" weight = "0.8668337188587245" />
    <synapse sourceNeuronName = "2" targetNeuronName = "15" weight = "-0.08456415367863834" />
    <synapse sourceNeuronName = "2" targetNeuronName = "16" weight = "-0.6528915841337914" />
    <synapse sourceNeuronName = "2" targetNeuronName = "17" weight = "0.288735043087474" />
    <synapse sourceNeuronName = "3" targetNeuronName = "5" weight = "-0.1358215858224885" />
    <synapse sourceNeuronName = "3" targetNeuronName = "6" weight = "0.24271273855699782" />
    <synapse sourceNeuronName = "3" targetNeuronName = "7" weight = "-0.2058218100383915" />
    <synapse sourceNeuronName = "3" targetNeuronName = "8" weight = "-0.5023477436372843" />
    <synapse sourceNeuronName = "3" targetNeuronName = "9" weight = "-0.8587463834286497" />
    <synapse sourceNeuronName = "3" targetNeuronName = "10" weight = "-0.7811949979753623" />
    <synapse sourceNeuronName = "3" targetNeuronName = "11" weight = "-0.2848550481651435" />
    <synapse sourceNeuronName = "3" targetNeuronName = "12" weight = "0.4742850128265994" />
    <synapse sourceNeuronName = "3" targetNeuronName = "13" weight = "-0.047947785966641954" />
    <synapse sourceNeuronName = "3" targetNeuronName = "14" weight = "-0.4914629612752348" />
    <synapse sourceNeuronName = "3" targetNeuronName = "15" weight = "0.8724949953489693" />
    <synapse sourceNeuronName = "3" targetNeuronName = "16" weight = "-0.7362368270512645" />
    <synapse sourceNeuronName = "3" targetNeuronName = "17" weight = "0.8334178774778958" />
    <synapse sourceNeuronName = "4" targetNeuronName = "5" weight = "0.033911508403208" />
    <synapse sourceNeuronName = "4" targetNeuronName = "6" weight = "-0.21075544841494276" />
    <synapse sourceNeuronName = "4" targetNeuronName = "7" weight = "-0.2322370951447421" />
    <synapse sourceNeuronName = "4" targetNeuronName = "8" weight = "0.7503588210841394" />
    <synapse sourceNeuronName = "4" targetNeuronName = "9" weight = "0.0929305965825653" />
    <synapse sourceNeuronName = "4" targetNeuronName = "10" weight = "-0.7348274097645384" />
    <synapse sourceNeuronName = "4" targetNeuronName = "11" weight = "0.7712752590015242" />
    <synapse sourceNeuronName = "4" targetNeuronName = "12" weight = "-0.2651669035573587" />
    <synapse sourceNeuronName = "4" targetNeuronName = "13" weight = "0.4051661200018317" />
    <synapse sourceNeuronName = "4" targetNeuronName = "14" weight = "-0.03760954279080142" />
    <synapse sourceNeuronName = "4" targetNeuronName = "15" weight = "0.9009221793114612" />
    <synapse sourceNeuronName = "4" targetNeuronName = "16" weight = "0.5475866808811338" />
    <synapse sourceNeuronName = "4" targetNeuronName = "17" weight = "-0.945781890734479" />
</neuralNetwork>