<neuralNetwork>
    <neuron name = "0" type = "sensor" linkName = "Link6" />
    <neuron name = "1" type = "sensor" linkName = "Link11" />
    <neuron name = "2" type = "sensor" linkName = "Link12" />
    <neuron name = "3" type = "sensor" linkName = "Link13" />
    <neuron name = "4" type = "motor"  jointName = "Link0_Link1" />
    <neuron name = "5" type = "motor"  jointName = "Link1_Link2" />
    <neuron name = "6" type = "motor"  jointName = "Link2_Link3" />
    <neuron name = "7" type = "motor"  jointName = "Link1_Link4" />
    <neuron name = "8" type = "motor"  jointName = "Link1_Link5" />
    <neuron name = "9" type = "motor"  jointName = "Link0_Link6" />
    <neuron name = "10" type = "motor"  jointName = "Link5_Link7" />
    <neuron name = "11" type = "motor"  jointName = "Link3_Link8" />
    <neuron name = "12" type = "motor"  jointName = "Link5_Link9" />
    <neuron name = "13" type = "motor"  jointName = "Link8_Link10" />
    <neuron name = "14" type = "motor"  jointName = "Link4_Link11" />
    <neuron name = "15" type = "motor"  jointName = "Link10_Link12" />
    <neuron name = "16" type = "motor"  jointName = "Link11_Link13" />
    <synapse sourceNeuronName = "0" targetNeuronName = "4" weight = "-0.5694132115454107" />
    <synapse sourceNeuronName = "0" targetNeuronName = "5" weight = "0.7584723492332435" />
    <synapse sourceNeuronName = "0" targetNeuronName = "6" weight = "0.5795237011582743" />
    <synapse sourceNeuronName = "0" targetNeuronName = "7" weight = "-0.3964473668474364" />
    <synapse sourceNeuronName = "0" targetNeuronName = "8" weight = "0.15858771021275553" />
    <synapse sourceNeuronName = "0" targetNeuronName = "9" weight = "0.8114802656025528" />
    <synapse sourceNeuronName = "0" targetNeuronName = "10" weight = "0.5480024590444701" />
    <synapse sourceNeuronName = "0" targetNeuronName = "11" weight = "-0.08294262653603024" />
    <synapse sourceNeuronName = "0" targetNeuronName = "12" weight = "-0.6538257329201258" />
    <synapse sourceNeuronName = "0" targetNeuronName = "13" weight = "-0.6388759927536405" />
    <synapse sourceNeuronName = "0" targetNeuronName = "14" weight = "-0.8081564659035705" />
    <synapse sourceNeuronName = "0" targetNeuronName = "15" weight = "-0.8546901567979215" />
    <synapse sourceNeuronName = "0" targetNeuronName = "16" weight = "0.02298356372336685" />
    <synapse sourceNeuronName = "1" targetNeuronName = "4" weight = "-0.3313134383222549" />
    <synapse sourceNeuronName = "1" targetNeuronName = "5" weight = "-0.401314264663732" />
    <synapse sourceNeuronName = "1" targetNeuronName = "6" weight = "0.31545247701552426" />
    <synapse sourceNeuronName = "1" targetNeuronName = "7" weight = "0.15651978529950372" />
    <synapse sourceNeuronName = "1" targetNeuronName = "8" weight = "-0.47096373008911674" />
    <synapse sourceNeuronName = "1" targetNeuronName = "9" weight = "-0.15777781775117727" />
    <synapse sourceNeuronName = "1" targetNeuronName = "10" weight = "0.3731392246310514" />
    <synapse sourceNeuronName = "1" targetNeuronName = "11" weight = "-0.8226979758492039" />
    <synapse sourceNeuronName = "1" targetNeuronName = "12" weight = "-0.8593847939856218" />
    <synapse sourceNeuronName = "1" targetNeuronName = "13" weight = "-0.28935453871233086" />
    <synapse sourceNeuronName = "1" targetNeuronName = "14" weight = "0.2947669932713095" />
    <synapse sourceNeuronName = "1" targetNeuronName = "15" weight = "0.8390586108440574" />
    <synapse sourceNeuronName = "1" targetNeuronName = "16" weight = "-0.06396152918366949" />
    <synapse sourceNeuronName = "2" targetNeuronName = "4" weight = "0.8055234220293803" />
    <synapse sourceNeuronName = "2" targetNeuronName = "5" weight = "-0.8981795541845006" />
    <synapse sourceNeuronName = "2" targetNeuronName = "6" weight = "0.2821679344579908" />
    <synapse sourceNeuronName = "2" targetNeuronName = "7" weight = "0.8548106639380539" />
    <synapse sourceNeuronName = "2" targetNeuronName = "8" weight = "-0.43512403551367584" />
    <synapse sourceNeuronName = "2" targetNeuronName = "9" weight = "0.8102840747246924" />
    <synapse sourceNeuronName = "2" targetNeuronName = "10" weight = "0.2167055751146767" />
    <synapse sourceNeuronName = "2" targetNeuronName = "11" weight = "0.6924298090896166" />
    <synapse sourceNeuronName = "2" targetNeuronName = "12" weight = "-0.41997490244098845" />
    <synapse sourceNeuronName = "2" targetNeuronName = "13" weight = "0.6214136805060844" />
    <synapse sourceNeuronName = "2" targetNeuronName = "14" weight = "-0.739391708494638" />
    <synapse sourceNeuronName = "2" targetNeuronName = "15" weight = "0.7538439650323785" />
    <synapse sourceNeuronName = "2" targetNeuronName = "16" weight = "0.15083729865809303" />
    <synapse sourceNeuronName = "3" targetNeuronName = "4" weight = "-0.27172034148194335" />
    <synapse sourceNeuronName = "3" targetNeuronName = "5" weight = "0.7915284991117522" />
    <synapse sourceNeuronName = "3" targetNeuronName = "6" weight = "-0.9240293601858285" />
    <synapse sourceNeuronName = "3" targetNeuronName = "7" weight = "-0.9374622091653189" />
    <synapse sourceNeuronName = "3" targetNeuronName = "8" weight = "-0.9126279460159015" />
    <synapse sourceNeuronName = "3" targetNeuronName = "9" weight = "0.2825835130817598" />
    <synapse sourceNeuronName = "3" targetNeuronName = "10" weight = "0.2706387077933894" />
    <synapse sourceNeuronName = "3" targetNeuronName = "11" weight = "0.4266284659827042" />
    <synapse sourceNeuronName = "3" targetNeuronName = "12" weight = "0.20838028555621868" />
    <synapse sourceNeuronName = "3" targetNeuronName = "13" weight = "-0.23932837747692814" />
    <synapse sourceNeuronName = "3" targetNeuronName = "14" weight = "0.19174233182098854" />
    <synapse sourceNeuronName = "3" targetNeuronName = "15" weight = "-0.7521108330184958" />
    <synapse sourceNeuronName = "3" targetNeuronName = "16" weight = "0.7150889280925987" />
</neuralNetwork>