<neuralNetwork>
    <neuron name = "0" type = "sensor" linkName = "Link1" />
    <neuron name = "1" type = "sensor" linkName = "Link2" />
    <neuron name = "2" type = "sensor" linkName = "Link4" />
    <neuron name = "3" type = "sensor" linkName = "Link5" />
    <neuron name = "4" type = "sensor" linkName = "Link7" />
    <neuron name = "5" type = "motor"  jointName = "Link0_Link1" />
    <neuron name = "6" type = "motor"  jointName = "Link0_Link2" />
    <neuron name = "7" type = "motor"  jointName = "Link2_Link3" />
    <neuron name = "8" type = "motor"  jointName = "Link1_Link4" />
    <neuron name = "9" type = "motor"  jointName = "Link2_Link5" />
    <neuron name = "10" type = "motor"  jointName = "Link4_Link6" />
    <neuron name = "11" type = "motor"  jointName = "Link2_Link7" />
    <synapse sourceNeuronName = "0" targetNeuronName = "5" weight = "0.7022325694353562" />
    <synapse sourceNeuronName = "0" targetNeuronName = "6" weight = "0.15727370356333958" />
    <synapse sourceNeuronName = "0" targetNeuronName = "7" weight = "-0.06881333344092488" />
    <synapse sourceNeuronName = "0" targetNeuronName = "8" weight = "-0.6115822060283462" />
    <synapse sourceNeuronName = "0" targetNeuronName = "9" weight = "-0.3949330220636884" />
    <synapse sourceNeuronName = "0" targetNeuronName = "10" weight = "0.40124022776034796" />
    <synapse sourceNeuronName = "0" targetNeuronName = "11" weight = "0.17522559710847907" />
    <synapse sourceNeuronName = "1" targetNeuronName = "5" weight = "0.00937208917167709" />
    <synapse sourceNeuronName = "1" targetNeuronName = "6" weight = "0.8643497779519347" />
    <synapse sourceNeuronName = "1" targetNeuronName = "7" weight = "-0.616303269455236" />
    <synapse sourceNeuronName = "1" targetNeuronName = "8" weight = "0.2615544772464242" />
    <synapse sourceNeuronName = "1" targetNeuronName = "9" weight = "-0.17648296683703246" />
    <synapse sourceNeuronName = "1" targetNeuronName = "10" weight = "0.4452237970594912" />
    <synapse sourceNeuronName = "1" targetNeuronName = "11" weight = "0.08335470619633933" />
    <synapse sourceNeuronName = "2" targetNeuronName = "5" weight = "-0.5215662213561973" />
    <synapse sourceNeuronName = "2" targetNeuronName = "6" weight = "-0.8062711539867378" />
    <synapse sourceNeuronName = "2" targetNeuronName = "7" weight = "0.7076879543103467" />
    <synapse sourceNeuronName = "2" targetNeuronName = "8" weight = "-0.9612516807130982" />
    <synapse sourceNeuronName = "2" targetNeuronName = "9" weight = "-0.02443171686704959" />
    <synapse sourceNeuronName = "2" targetNeuronName = "10" weight = "0.9481754010655339" />
    <synapse sourceNeuronName = "2" targetNeuronName = "11" weight = "-0.6611354240370049" />
    <synapse sourceNeuronName = "3" targetNeuronName = "5" weight = "-0.1765142515183531" />
    <synapse sourceNeuronName = "3" targetNeuronName = "6" weight = "-0.32111871042697504" />
    <synapse sourceNeuronName = "3" targetNeuronName = "7" weight = "0.6857472637367499" />
    <synapse sourceNeuronName = "3" targetNeuronName = "8" weight = "0.0020625994619194454" />
    <synapse sourceNeuronName = "3" targetNeuronName = "9" weight = "0.46180746437773235" />
    <synapse sourceNeuronName = "3" targetNeuronName = "10" weight = "0.35542475651967487" />
    <synapse sourceNeuronName = "3" targetNeuronName = "11" weight = "-0.4022175602042226" />
    <synapse sourceNeuronName = "4" targetNeuronName = "5" weight = "0.5849157122198434" />
    <synapse sourceNeuronName = "4" targetNeuronName = "6" weight = "0.4465982798692798" />
    <synapse sourceNeuronName = "4" targetNeuronName = "7" weight = "-0.6116042486757287" />
    <synapse sourceNeuronName = "4" targetNeuronName = "8" weight = "0.19725713975437498" />
    <synapse sourceNeuronName = "4" targetNeuronName = "9" weight = "-0.40351911985493616" />
    <synapse sourceNeuronName = "4" targetNeuronName = "10" weight = "-0.5820473643965387" />
    <synapse sourceNeuronName = "4" targetNeuronName = "11" weight = "0.9325901921019419" />
</neuralNetwork>