<neuralNetwork>
    <neuron name = "0" type = "sensor" linkName = "Link1" />
    <neuron name = "1" type = "sensor" linkName = "Link3" />
    <neuron name = "2" type = "sensor" linkName = "Link5" />
    <neuron name = "3" type = "motor"  jointName = "Link0_Link1" />
    <neuron name = "4" type = "motor"  jointName = "Link0_Link2" />
    <neuron name = "5" type = "motor"  jointName = "Link0_Link3" />
    <neuron name = "6" type = "motor"  jointName = "Link3_Link4" />
    <neuron name = "7" type = "motor"  jointName = "Link3_Link5" />
    <neuron name = "8" type = "motor"  jointName = "Link5_Link6" />
    <neuron name = "9" type = "motor"  jointName = "Link2_Link7" />
    <neuron name = "10" type = "motor"  jointName = "Link2_Link8" />
    <synapse sourceNeuronName = "0" targetNeuronName = "3" weight = "0.5114098264412992" />
    <synapse sourceNeuronName = "0" targetNeuronName = "4" weight = "-0.8092543168955433" />
    <synapse sourceNeuronName = "0" targetNeuronName = "5" weight = "-0.7243832988976682" />
    <synapse sourceNeuronName = "0" targetNeuronName = "6" weight = "0.24242358265828767" />
    <synapse sourceNeuronName = "0" targetNeuronName = "7" weight = "0.04169533421328486" />
    <synapse sourceNeuronName = "0" targetNeuronName = "8" weight = "-0.3548175700789771" />
    <synapse sourceNeuronName = "0" targetNeuronName = "9" weight = "0.7985436813988163" />
    <synapse sourceNeuronName = "0" targetNeuronName = "10" weight = "0.9922158626988264" />
    <synapse sourceNeuronName = "1" targetNeuronName = "3" weight = "-0.44366407649260164" />
    <synapse sourceNeuronName = "1" targetNeuronName = "4" weight = "0.030530206693496487" />
    <synapse sourceNeuronName = "1" targetNeuronName = "5" weight = "0.4740456841811014" />
    <synapse sourceNeuronName = "1" targetNeuronName = "6" weight = "0.35739177909328856" />
    <synapse sourceNeuronName = "1" targetNeuronName = "7" weight = "-0.561968731489942" />
    <synapse sourceNeuronName = "1" targetNeuronName = "8" weight = "-0.1401887113946254" />
    <synapse sourceNeuronName = "1" targetNeuronName = "9" weight = "-0.4686166089332393" />
    <synapse sourceNeuronName = "1" targetNeuronName = "10" weight = "0.49766133965267567" />
    <synapse sourceNeuronName = "2" targetNeuronName = "3" weight = "0.2254118525610207" />
    <synapse sourceNeuronName = "2" targetNeuronName = "4" weight = "0.8007432327099826" />
    <synapse sourceNeuronName = "2" targetNeuronName = "5" weight = "-0.7831086515201207" />
    <synapse sourceNeuronName = "2" targetNeuronName = "6" weight = "0.43352141376945363" />
    <synapse sourceNeuronName = "2" targetNeuronName = "7" weight = "-0.3801924598256281" />
    <synapse sourceNeuronName = "2" targetNeuronName = "8" weight = "0.4320016240279616" />
    <synapse sourceNeuronName = "2" targetNeuronName = "9" weight = "0.07840704402023913" />
    <synapse sourceNeuronName = "2" targetNeuronName = "10" weight = "0.7115181335727943" />
</neuralNetwork>