<neuralNetwork>
    <neuron name = "0" type = "sensor" linkName = "Link6" />
    <neuron name = "1" type = "sensor" linkName = "Link11" />
    <neuron name = "2" type = "sensor" linkName = "Link12" />
    <neuron name = "3" type = "sensor" linkName = "Link13" />
    <neuron name = "4" type = "sensor" linkName = "Link14" />
    <neuron name = "5" type = "motor"  jointName = "Link0_Link1" />
    <neuron name = "6" type = "motor"  jointName = "Link1_Link2" />
    <neuron name = "7" type = "motor"  jointName = "Link2_Link3" />
    <neuron name = "8" type = "motor"  jointName = "Link1_Link4" />
    <neuron name = "9" type = "motor"  jointName = "Link1_Link5" />
    <neuron name = "10" type = "motor"  jointName = "Link0_Link6" />
    <neuron name = "11" type = "motor"  jointName = "Link5_Link7" />
    <neuron name = "12" type = "motor"  jointName = "Link3_Link8" />
    <neuron name = "13" type = "motor"  jointName = "Link5_Link9" />
    <neuron name = "14" type = "motor"  jointName = "Link8_Link10" />
    <neuron name = "15" type = "motor"  jointName = "Link4_Link11" />
    <neuron name = "16" type = "motor"  jointName = "Link10_Link12" />
    <neuron name = "17" type = "motor"  jointName = "Link11_Link13" />
    <neuron name = "18" type = "motor"  jointName = "Link9_Link14" />
    <synapse sourceNeuronName = "0" targetNeuronName = "5" weight = "-0.5519336103180397" />
    <synapse sourceNeuronName = "0" targetNeuronName = "6" weight = "-0.7704508104417855" />
    <synapse sourceNeuronName = "0" targetNeuronName = "7" weight = "-0.7979006180840604" />
    <synapse sourceNeuronName = "0" targetNeuronName = "8" weight = "0.04490575934510099" />
    <synapse sourceNeuronName = "0" targetNeuronName = "9" weight = "0.47265565882799976" />
    <synapse sourceNeuronName = "0" targetNeuronName = "10" weight = "0.5377032819977574" />
    <synapse sourceNeuronName = "0" targetNeuronName = "11" weight = "-0.571811936965199" />
    <synapse sourceNeuronName = "0" targetNeuronName = "12" weight = "0.8881603569308747" />
    <synapse sourceNeuronName = "0" targetNeuronName = "13" weight = "-0.32863421969405326" />
    <synapse sourceNeuronName = "0" targetNeuronName = "14" weight = "0.7741258992789308" />
    <synapse sourceNeuronName = "0" targetNeuronName = "15" weight = "-0.776714438589486" />
    <synapse sourceNeuronName = "0" targetNeuronName = "16" weight = "0.42361651828281377" />
    <synapse sourceNeuronName = "0" targetNeuronName = "17" weight = "-0.026187563820937898" />
    <synapse sourceNeuronName = "0" targetNeuronName = "18" weight = "0.2570875591585571" />
    <synapse sourceNeuronName = "1" targetNeuronName = "5" weight = "0.277966335371888" />
    <synapse sourceNeuronName = "1" targetNeuronName = "6" weight = "0.03799160164607551" />
    <synapse sourceNeuronName = "1" targetNeuronName = "7" weight = "0.924612670023998" />
    <synapse sourceNeuronName = "1" targetNeuronName = "8" weight = "0.7273307894963383" />
    <synapse sourceNeuronName = "1" targetNeuronName = "9" weight = "-0.16773163984891148" />
    <synapse sourceNeuronName = "1" targetNeuronName = "10" weight = "0.1783960304369212" />
    <synapse sourceNeuronName = "1" targetNeuronName = "11" weight = "-0.48658587856065405" />
    <synapse sourceNeuronName = "1" targetNeuronName = "12" weight = "0.3583767626341088" />
    <synapse sourceNeuronName = "1" targetNeuronName = "13" weight = "0.5452869378859344" />
    <synapse sourceNeuronName = "1" targetNeuronName = "14" weight = "0.3123301530316609" />
    <synapse sourceNeuronName = "1" targetNeuronName = "15" weight = "-0.37361350957224637" />
    <synapse sourceNeuronName = "1" targetNeuronName = "16" weight = "-0.5590268353824552" />
    <synapse sourceNeuronName = "1" targetNeuronName = "17" weight = "0.16205605638144238" />
    <synapse sourceNeuronName = "1" targetNeuronName = "18" weight = "0.918966978692767" />
    <synapse sourceNeuronName = "2" targetNeuronName = "5" weight = "-0.863370132065876" />
    <synapse sourceNeuronName = "2" targetNeuronName = "6" weight = "0.49321201769384637" />
    <synapse sourceNeuronName = "2" targetNeuronName = "7" weight = "-0.5096759759943332" />
    <synapse sourceNeuronName = "2" targetNeuronName = "8" weight = "-0.7120083891678002" />
    <synapse sourceNeuronName = "2" targetNeuronName = "9" weight = "-0.8690662631760906" />
    <synapse sourceNeuronName = "2" targetNeuronName = "10" weight = "-0.8147929747807181" />
    <synapse sourceNeuronName = "2" targetNeuronName = "11" weight = "0.23427560946902903" />
    <synapse sourceNeuronName = "2" targetNeuronName = "12" weight = "-0.389398776117458" />
    <synapse sourceNeuronName = "2" targetNeuronName = "13" weight = "0.8082128114913503" />
    <synapse sourceNeuronName = "2" targetNeuronName = "14" weight = "-0.2755824061650589" />
    <synapse sourceNeuronName = "2" targetNeuronName = "15" weight = "0.8102574164204104" />
    <synapse sourceNeuronName = "2" targetNeuronName = "16" weight = "-0.05392170906358418" />
    <synapse sourceNeuronName = "2" targetNeuronName = "17" weight = "0.4693718055757514" />
    <synapse sourceNeuronName = "2" targetNeuronName = "18" weight = "0.197414548978873" />
    <synapse sourceNeuronName = "3" targetNeuronName = "5" weight = "0.38874012098064825" />
    <synapse sourceNeuronName = "3" targetNeuronName = "6" weight = "-0.5422798065895569" />
    <synapse sourceNeuronName = "3" targetNeuronName = "7" weight = "-0.9560722925978276" />
    <synapse sourceNeuronName = "3" targetNeuronName = "8" weight = "0.8571432622913298" />
    <synapse sourceNeuronName = "3" targetNeuronName = "9" weight = "-0.749837401507053" />
    <synapse sourceNeuronName = "3" targetNeuronName = "10" weight = "0.792560088808038" />
    <synapse sourceNeuronName = "3" targetNeuronName = "11" weight = "0.8856477493181354" />
    <synapse sourceNeuronName = "3" targetNeuronName = "12" weight = "-0.4897905694653848" />
    <synapse sourceNeuronName = "3" targetNeuronName = "13" weight = "-0.6092107592503528" />
    <synapse sourceNeuronName = "3" targetNeuronName = "14" weight = "0.2819469447872873" />
    <synapse sourceNeuronName = "3" targetNeuronName = "15" weight = "-0.5138925577754136" />
    <synapse sourceNeuronName = "3" targetNeuronName = "16" weight = "-0.7798414814977936" />
    <synapse sourceNeuronName = "3" targetNeuronName = "17" weight = "0.7554472895961819" />
    <synapse sourceNeuronName = "3" targetNeuronName = "18" weight = "-0.3382315198161945" />
    <synapse sourceNeuronName = "4" targetNeuronName = "5" weight = "0.8699141356218554" />
    <synapse sourceNeuronName = "4" targetNeuronName = "6" weight = "0.6197008312268826" />
    <synapse sourceNeuronName = "4" targetNeuronName = "7" weight = "0.1808798206215967" />
    <synapse sourceNeuronName = "4" targetNeuronName = "8" weight = "0.6277018552494651" />
    <synapse sourceNeuronName = "4" targetNeuronName = "9" weight = "-0.3768270239788982" />
    <synapse sourceNeuronName = "4" targetNeuronName = "10" weight = "0.7212353634023323" />
    <synapse sourceNeuronName = "4" targetNeuronName = "11" weight = "-0.7234187857927243" />
    <synapse sourceNeuronName = "4" targetNeuronName = "12" weight = "0.3737063289496281" />
    <synapse sourceNeuronName = "4" targetNeuronName = "13" weight = "0.2622391119412084" />
    <synapse sourceNeuronName = "4" targetNeuronName = "14" weight = "-0.5354516036545567" />
    <synapse sourceNeuronName = "4" targetNeuronName = "15" weight = "-0.8758138382269633" />
    <synapse sourceNeuronName = "4" targetNeuronName = "16" weight = "-0.32379228537898674" />
    <synapse sourceNeuronName = "4" targetNeuronName = "17" weight = "-0.3971485734389286" />
    <synapse sourceNeuronName = "4" targetNeuronName = "18" weight = "-0.5591316208122423" />
</neuralNetwork>