<neuralNetwork>
    <neuron name = "0" type = "sensor" linkName = "Link1" />
    <neuron name = "1" type = "sensor" linkName = "Link3" />
    <neuron name = "2" type = "sensor" linkName = "Link5" />
    <neuron name = "3" type = "motor"  jointName = "Link0_Link1" />
    <neuron name = "4" type = "motor"  jointName = "Link0_Link2" />
    <neuron name = "5" type = "motor"  jointName = "Link0_Link3" />
    <neuron name = "6" type = "motor"  jointName = "Link3_Link4" />
    <neuron name = "7" type = "motor"  jointName = "Link3_Link5" />
    <neuron name = "8" type = "motor"  jointName = "Link5_Link6" />
    <neuron name = "9" type = "motor"  jointName = "Link2_Link7" />
    <neuron name = "10" type = "motor"  jointName = "Link5_Link8" />
    <synapse sourceNeuronName = "0" targetNeuronName = "3" weight = "-0.8170296552465606" />
    <synapse sourceNeuronName = "0" targetNeuronName = "4" weight = "0.9484129639575989" />
    <synapse sourceNeuronName = "0" targetNeuronName = "5" weight = "0.37350343157987487" />
    <synapse sourceNeuronName = "0" targetNeuronName = "6" weight = "0.7429660626090742" />
    <synapse sourceNeuronName = "0" targetNeuronName = "7" weight = "0.8578158295459133" />
    <synapse sourceNeuronName = "0" targetNeuronName = "8" weight = "0.3531709775515146" />
    <synapse sourceNeuronName = "0" targetNeuronName = "9" weight = "0.8666229597092785" />
    <synapse sourceNeuronName = "0" targetNeuronName = "10" weight = "0.40515775948510213" />
    <synapse sourceNeuronName = "1" targetNeuronName = "3" weight = "-0.7792638989904963" />
    <synapse sourceNeuronName = "1" targetNeuronName = "4" weight = "-0.99067050733913" />
    <synapse sourceNeuronName = "1" targetNeuronName = "5" weight = "-0.9759207875300746" />
    <synapse sourceNeuronName = "1" targetNeuronName = "6" weight = "-0.40362249239582115" />
    <synapse sourceNeuronName = "1" targetNeuronName = "7" weight = "-0.008889509683027041" />
    <synapse sourceNeuronName = "1" targetNeuronName = "8" weight = "0.5606871745168156" />
    <synapse sourceNeuronName = "1" targetNeuronName = "9" weight = "-0.6685309139532869" />
    <synapse sourceNeuronName = "1" targetNeuronName = "10" weight = "0.8032812063048307" />
    <synapse sourceNeuronName = "2" targetNeuronName = "3" weight = "-0.05816248021601034" />
    <synapse sourceNeuronName = "2" targetNeuronName = "4" weight = "-0.32384375951398336" />
    <synapse sourceNeuronName = "2" targetNeuronName = "5" weight = "0.9324617854041" />
    <synapse sourceNeuronName = "2" targetNeuronName = "6" weight = "-0.350599522497443" />
    <synapse sourceNeuronName = "2" targetNeuronName = "7" weight = "-0.5034142171272393" />
    <synapse sourceNeuronName = "2" targetNeuronName = "8" weight = "-0.7125717678397567" />
    <synapse sourceNeuronName = "2" targetNeuronName = "9" weight = "-0.8240200302977565" />
    <synapse sourceNeuronName = "2" targetNeuronName = "10" weight = "0.18243007116248777" />
</neuralNetwork>