<neuralNetwork>
    <neuron name = "0" type = "sensor" linkName = "Link1" />
    <neuron name = "1" type = "sensor" linkName = "Link2" />
    <neuron name = "2" type = "sensor" linkName = "Link3" />
    <neuron name = "3" type = "sensor" linkName = "Link4" />
    <neuron name = "4" type = "motor"  jointName = "Link0_Link1" />
    <neuron name = "5" type = "motor"  jointName = "Link1_Link2" />
    <neuron name = "6" type = "motor"  jointName = "Link0_Link3" />
    <neuron name = "7" type = "motor"  jointName = "Link2_Link4" />
    <neuron name = "8" type = "motor"  jointName = "Link0_Link5" />
    <neuron name = "9" type = "motor"  jointName = "Link3_Link6" />
    <synapse sourceNeuronName = "0" targetNeuronName = "4" weight = "-0.9387002601237633" />
    <synapse sourceNeuronName = "0" targetNeuronName = "5" weight = "0.18608188992979602" />
    <synapse sourceNeuronName = "0" targetNeuronName = "6" weight = "-0.7088843842817667" />
    <synapse sourceNeuronName = "0" targetNeuronName = "7" weight = "-0.2998069349233692" />
    <synapse sourceNeuronName = "0" targetNeuronName = "8" weight = "-0.510303957892696" />
    <synapse sourceNeuronName = "0" targetNeuronName = "9" weight = "-0.47144937656500474" />
    <synapse sourceNeuronName = "1" targetNeuronName = "4" weight = "-0.9787200063176602" />
    <synapse sourceNeuronName = "1" targetNeuronName = "5" weight = "-0.9296521469549677" />
    <synapse sourceNeuronName = "1" targetNeuronName = "6" weight = "-0.07939356945125842" />
    <synapse sourceNeuronName = "1" targetNeuronName = "7" weight = "-0.33992173971384054" />
    <synapse sourceNeuronName = "1" targetNeuronName = "8" weight = "-0.7850071876444769" />
    <synapse sourceNeuronName = "1" targetNeuronName = "9" weight = "0.864468928831251" />
    <synapse sourceNeuronName = "2" targetNeuronName = "4" weight = "-0.26023638731787124" />
    <synapse sourceNeuronName = "2" targetNeuronName = "5" weight = "-0.8131055352668544" />
    <synapse sourceNeuronName = "2" targetNeuronName = "6" weight = "-0.46454691646585644" />
    <synapse sourceNeuronName = "2" targetNeuronName = "7" weight = "0.9191005610105638" />
    <synapse sourceNeuronName = "2" targetNeuronName = "8" weight = "-0.7875757817466269" />
    <synapse sourceNeuronName = "2" targetNeuronName = "9" weight = "0.1658304938143642" />
    <synapse sourceNeuronName = "3" targetNeuronName = "4" weight = "-0.2475986216867485" />
    <synapse sourceNeuronName = "3" targetNeuronName = "5" weight = "0.13947035981105516" />
    <synapse sourceNeuronName = "3" targetNeuronName = "6" weight = "-0.3365986129901495" />
    <synapse sourceNeuronName = "3" targetNeuronName = "7" weight = "0.368158622176451" />
    <synapse sourceNeuronName = "3" targetNeuronName = "8" weight = "0.6249973451236555" />
    <synapse sourceNeuronName = "3" targetNeuronName = "9" weight = "-0.8965196044423387" />
</neuralNetwork>