<neuralNetwork>
    <neuron name = "0" type = "sensor" linkName = "Link1" />
    <neuron name = "1" type = "sensor" linkName = "Link2" />
    <neuron name = "2" type = "sensor" linkName = "Link5" />
    <neuron name = "3" type = "sensor" linkName = "Link7" />
    <neuron name = "4" type = "motor"  jointName = "Link0_Link1" />
    <neuron name = "5" type = "motor"  jointName = "Link0_Link2" />
    <neuron name = "6" type = "motor"  jointName = "Link2_Link3" />
    <neuron name = "7" type = "motor"  jointName = "Link3_Link4" />
    <neuron name = "8" type = "motor"  jointName = "Link1_Link5" />
    <neuron name = "9" type = "motor"  jointName = "Link5_Link6" />
    <neuron name = "10" type = "motor"  jointName = "Link2_Link7" />
    <synapse sourceNeuronName = "0" targetNeuronName = "4" weight = "-0.28334886577856855" />
    <synapse sourceNeuronName = "0" targetNeuronName = "5" weight = "-0.00914476037091183" />
    <synapse sourceNeuronName = "0" targetNeuronName = "6" weight = "0.2382186690984902" />
    <synapse sourceNeuronName = "0" targetNeuronName = "7" weight = "0.23519347937705382" />
    <synapse sourceNeuronName = "0" targetNeuronName = "8" weight = "-0.8531932421751647" />
    <synapse sourceNeuronName = "0" targetNeuronName = "9" weight = "-0.4917164138381478" />
    <synapse sourceNeuronName = "0" targetNeuronName = "10" weight = "-0.6299967008009504" />
    <synapse sourceNeuronName = "1" targetNeuronName = "4" weight = "-0.006999198995177647" />
    <synapse sourceNeuronName = "1" targetNeuronName = "5" weight = "-0.7456469775682608" />
    <synapse sourceNeuronName = "1" targetNeuronName = "6" weight = "-0.43458769128638797" />
    <synapse sourceNeuronName = "1" targetNeuronName = "7" weight = "-0.3337585970076009" />
    <synapse sourceNeuronName = "1" targetNeuronName = "8" weight = "-0.6123008187469683" />
    <synapse sourceNeuronName = "1" targetNeuronName = "9" weight = "-0.7448991410555899" />
    <synapse sourceNeuronName = "1" targetNeuronName = "10" weight = "0.493587182370685" />
    <synapse sourceNeuronName = "2" targetNeuronName = "4" weight = "-0.13998452078107704" />
    <synapse sourceNeuronName = "2" targetNeuronName = "5" weight = "0.7470700351196089" />
    <synapse sourceNeuronName = "2" targetNeuronName = "6" weight = "-0.07012246609035566" />
    <synapse sourceNeuronName = "2" targetNeuronName = "7" weight = "0.7715163525991713" />
    <synapse sourceNeuronName = "2" targetNeuronName = "8" weight = "-0.14166906440000204" />
    <synapse sourceNeuronName = "2" targetNeuronName = "9" weight = "-0.21073053429764754" />
    <synapse sourceNeuronName = "2" targetNeuronName = "10" weight = "-0.7574850755248119" />
    <synapse sourceNeuronName = "3" targetNeuronName = "4" weight = "-0.5224836897224687" />
    <synapse sourceNeuronName = "3" targetNeuronName = "5" weight = "-0.47888394647385035" />
    <synapse sourceNeuronName = "3" targetNeuronName = "6" weight = "-0.15637010599505197" />
    <synapse sourceNeuronName = "3" targetNeuronName = "7" weight = "0.5301718065959207" />
    <synapse sourceNeuronName = "3" targetNeuronName = "8" weight = "-0.9380022953911387" />
    <synapse sourceNeuronName = "3" targetNeuronName = "9" weight = "-0.22835604342938787" />
    <synapse sourceNeuronName = "3" targetNeuronName = "10" weight = "0.32745267390110344" />
</neuralNetwork>