<neuralNetwork>
    <neuron name = "0" type = "sensor" linkName = "Link1" />
    <neuron name = "1" type = "sensor" linkName = "Link2" />
    <neuron name = "2" type = "sensor" linkName = "Link3" />
    <neuron name = "3" type = "sensor" linkName = "Link4" />
    <neuron name = "4" type = "sensor" linkName = "Link5" />
    <neuron name = "5" type = "motor"  jointName = "Link0_Link1" />
    <neuron name = "6" type = "motor"  jointName = "Link0_Link2" />
    <neuron name = "7" type = "motor"  jointName = "Link2_Link3" />
    <neuron name = "8" type = "motor"  jointName = "Link1_Link4" />
    <neuron name = "9" type = "motor"  jointName = "Link1_Link5" />
    <neuron name = "10" type = "motor"  jointName = "Link0_Link6" />
    <synapse sourceNeuronName = "0" targetNeuronName = "5" weight = "-0.9518161071236348" />
    <synapse sourceNeuronName = "0" targetNeuronName = "6" weight = "-0.05112815227413536" />
    <synapse sourceNeuronName = "0" targetNeuronName = "7" weight = "-0.3491371718619891" />
    <synapse sourceNeuronName = "0" targetNeuronName = "8" weight = "0.49637069160531433" />
    <synapse sourceNeuronName = "0" targetNeuronName = "9" weight = "0.6793165824750285" />
    <synapse sourceNeuronName = "0" targetNeuronName = "10" weight = "0.03950400138081167" />
    <synapse sourceNeuronName = "1" targetNeuronName = "5" weight = "-0.3878845193216722" />
    <synapse sourceNeuronName = "1" targetNeuronName = "6" weight = "-0.180824631008762" />
    <synapse sourceNeuronName = "1" targetNeuronName = "7" weight = "-0.3100432905606958" />
    <synapse sourceNeuronName = "1" targetNeuronName = "8" weight = "-0.10143888240581922" />
    <synapse sourceNeuronName = "1" targetNeuronName = "9" weight = "-0.3967178646127878" />
    <synapse sourceNeuronName = "1" targetNeuronName = "10" weight = "-0.38973344739307514" />
    <synapse sourceNeuronName = "2" targetNeuronName = "5" weight = "-0.6052695062852829" />
    <synapse sourceNeuronName = "2" targetNeuronName = "6" weight = "-0.03983718734910502" />
    <synapse sourceNeuronName = "2" targetNeuronName = "7" weight = "-0.738417841467004" />
    <synapse sourceNeuronName = "2" targetNeuronName = "8" weight = "-0.19469175237491254" />
    <synapse sourceNeuronName = "2" targetNeuronName = "9" weight = "0.09180821073573897" />
    <synapse sourceNeuronName = "2" targetNeuronName = "10" weight = "-0.7734548100719472" />
    <synapse sourceNeuronName = "3" targetNeuronName = "5" weight = "-0.031023965768999684" />
    <synapse sourceNeuronName = "3" targetNeuronName = "6" weight = "-0.38487186760133874" />
    <synapse sourceNeuronName = "3" targetNeuronName = "7" weight = "0.4938710283218315" />
    <synapse sourceNeuronName = "3" targetNeuronName = "8" weight = "-0.8029468595414264" />
    <synapse sourceNeuronName = "3" targetNeuronName = "9" weight = "-0.7625901818167058" />
    <synapse sourceNeuronName = "3" targetNeuronName = "10" weight = "-0.4588403028356445" />
    <synapse sourceNeuronName = "4" targetNeuronName = "5" weight = "0.8788014248627178" />
    <synapse sourceNeuronName = "4" targetNeuronName = "6" weight = "0.8398851085650558" />
    <synapse sourceNeuronName = "4" targetNeuronName = "7" weight = "0.48042813585559063" />
    <synapse sourceNeuronName = "4" targetNeuronName = "8" weight = "0.6832468698605902" />
    <synapse sourceNeuronName = "4" targetNeuronName = "9" weight = "-0.4669069309004996" />
    <synapse sourceNeuronName = "4" targetNeuronName = "10" weight = "0.6252306456144361" />
</neuralNetwork>