<neuralNetwork>
    <neuron name = "0" type = "sensor" linkName = "Link1" />
    <neuron name = "1" type = "sensor" linkName = "Link6" />
    <neuron name = "2" type = "sensor" linkName = "Link11" />
    <neuron name = "3" type = "sensor" linkName = "Link12" />
    <neuron name = "4" type = "sensor" linkName = "Link13" />
    <neuron name = "5" type = "sensor" linkName = "Link14" />
    <neuron name = "6" type = "sensor" linkName = "Link15" />
    <neuron name = "7" type = "motor"  jointName = "Link0_Link1" />
    <neuron name = "8" type = "motor"  jointName = "Link1_Link2" />
    <neuron name = "9" type = "motor"  jointName = "Link2_Link3" />
    <neuron name = "10" type = "motor"  jointName = "Link1_Link4" />
    <neuron name = "11" type = "motor"  jointName = "Link1_Link5" />
    <neuron name = "12" type = "motor"  jointName = "Link0_Link6" />
    <neuron name = "13" type = "motor"  jointName = "Link5_Link7" />
    <neuron name = "14" type = "motor"  jointName = "Link3_Link8" />
    <neuron name = "15" type = "motor"  jointName = "Link5_Link9" />
    <neuron name = "16" type = "motor"  jointName = "Link8_Link10" />
    <neuron name = "17" type = "motor"  jointName = "Link4_Link11" />
    <neuron name = "18" type = "motor"  jointName = "Link10_Link12" />
    <neuron name = "19" type = "motor"  jointName = "Link11_Link13" />
    <neuron name = "20" type = "motor"  jointName = "Link3_Link14" />
    <neuron name = "21" type = "motor"  jointName = "Link13_Link15" />
    <synapse sourceNeuronName = "0" targetNeuronName = "7" weight = "0.9800358057297249" />
    <synapse sourceNeuronName = "0" targetNeuronName = "8" weight = "0.8483556771667855" />
    <synapse sourceNeuronName = "0" targetNeuronName = "9" weight = "0.9358335808385336" />
    <synapse sourceNeuronName = "0" targetNeuronName = "10" weight = "0.7434119500476444" />
    <synapse sourceNeuronName = "0" targetNeuronName = "11" weight = "-0.8002242993901374" />
    <synapse sourceNeuronName = "0" targetNeuronName = "12" weight = "0.4576437490783385" />
    <synapse sourceNeuronName = "0" targetNeuronName = "13" weight = "-0.5513582265380972" />
    <synapse sourceNeuronName = "0" targetNeuronName = "14" weight = "0.5681202404283234" />
    <synapse sourceNeuronName = "0" targetNeuronName = "15" weight = "0.3325917402085723" />
    <synapse sourceNeuronName = "0" targetNeuronName = "16" weight = "-0.9771203394789876" />
    <synapse sourceNeuronName = "0" targetNeuronName = "17" weight = "0.9714747107163664" />
    <synapse sourceNeuronName = "0" targetNeuronName = "18" weight = "0.2693045924472337" />
    <synapse sourceNeuronName = "0" targetNeuronName = "19" weight = "-0.39932937990154294" />
    <synapse sourceNeuronName = "0" targetNeuronName = "20" weight = "-0.7241509444263865" />
    <synapse sourceNeuronName = "0" targetNeuronName = "21" weight = "-0.06931699688947845" />
    <synapse sourceNeuronName = "1" targetNeuronName = "7" weight = "0.6505709626434475" />
    <synapse sourceNeuronName = "1" targetNeuronName = "8" weight = "0.7957954136710206" />
    <synapse sourceNeuronName = "1" targetNeuronName = "9" weight = "-0.17651994740965948" />
    <synapse sourceNeuronName = "1" targetNeuronName = "10" weight = "-0.19558665596637392" />
    <synapse sourceNeuronName = "1" targetNeuronName = "11" weight = "-0.003456202509144024" />
    <synapse sourceNeuronName = "1" targetNeuronName = "12" weight = "-0.49689088608918275" />
    <synapse sourceNeuronName = "1" targetNeuronName = "13" weight = "-0.759215104091381" />
    <synapse sourceNeuronName = "1" targetNeuronName = "14" weight = "0.6376906255236581" />
    <synapse sourceNeuronName = "1" targetNeuronName = "15" weight = "0.29832815960768433" />
    <synapse sourceNeuronName = "1" targetNeuronName = "16" weight = "0.4137207747127427" />
    <synapse sourceNeuronName = "1" targetNeuronName = "17" weight = "-0.2573070561857478" />
    <synapse sourceNeuronName = "1" targetNeuronName = "18" weight = "-0.9068523333423242" />
    <synapse sourceNeuronName = "1" targetNeuronName = "19" weight = "0.7528040796987849" />
    <synapse sourceNeuronName = "1" targetNeuronName = "20" weight = "0.540396800831497" />
    <synapse sourceNeuronName = "1" targetNeuronName = "21" weight = "0.9142104528025943" />
    <synapse sourceNeuronName = "2" targetNeuronName = "7" weight = "0.953194236067263" />
    <synapse sourceNeuronName = "2" targetNeuronName = "8" weight = "-0.5816424899410351" />
    <synapse sourceNeuronName = "2" targetNeuronName = "9" weight = "0.9349345263599353" />
    <synapse sourceNeuronName = "2" targetNeuronName = "10" weight = "-0.8685164479491034" />
    <synapse sourceNeuronName = "2" targetNeuronName = "11" weight = "-0.9369709706522498" />
    <synapse sourceNeuronName = "2" targetNeuronName = "12" weight = "0.07915582180776859" />
    <synapse sourceNeuronName = "2" targetNeuronName = "13" weight = "0.8025899155996818" />
    <synapse sourceNeuronName = "2" targetNeuronName = "14" weight = "-0.8029786810285338" />
    <synapse sourceNeuronName = "2" targetNeuronName = "15" weight = "0.7166401660476625" />
    <synapse sourceNeuronName = "2" targetNeuronName = "16" weight = "0.9558752026478028" />
    <synapse sourceNeuronName = "2" targetNeuronName = "17" weight = "0.4666795953178269" />
    <synapse sourceNeuronName = "2" targetNeuronName = "18" weight = "0.5297808562849959" />
    <synapse sourceNeuronName = "2" targetNeuronName = "19" weight = "0.17703228199960952" />
    <synapse sourceNeuronName = "2" targetNeuronName = "20" weight = "-0.13545897238718663" />
    <synapse sourceNeuronName = "2" targetNeuronName = "21" weight = "-0.7153864707084048" />
    <synapse sourceNeuronName = "3" targetNeuronName = "7" weight = "-0.7328283042947998" />
    <synapse sourceNeuronName = "3" targetNeuronName = "8" weight = "-0.5054250580804553" />
    <synapse sourceNeuronName = "3" targetNeuronName = "9" weight = "0.5509893331576075" />
    <synapse sourceNeuronName = "3" targetNeuronName = "10" weight = "0.9775102299278973" />
    <synapse sourceNeuronName = "3" targetNeuronName = "11" weight = "-0.6444962602967776" />
    <synapse sourceNeuronName = "3" targetNeuronName = "12" weight = "0.7940731864317738" />
    <synapse sourceNeuronName = "3" targetNeuronName = "13" weight = "-0.09008477283750449" />
    <synapse sourceNeuronName = "3" targetNeuronName = "14" weight = "0.9274032319883632" />
    <synapse sourceNeuronName = "3" targetNeuronName = "15" weight = "-0.6456214275282157" />
    <synapse sourceNeuronName = "3" targetNeuronName = "16" weight = "-0.1572308984327313" />
    <synapse sourceNeuronName = "3" targetNeuronName = "17" weight = "-0.719478664686974" />
    <synapse sourceNeuronName = "3" targetNeuronName = "18" weight = "0.7779636096070521" />
    <synapse sourceNeuronName = "3" targetNeuronName = "19" weight = "0.7348770233051869" />
    <synapse sourceNeuronName = "3" targetNeuronName = "20" weight = "-0.6674537515084784" />
    <synapse sourceNeuronName = "3" targetNeuronName = "21" weight = "-0.8997996235509162" />
    <synapse sourceNeuronName = "4" targetNeuronName = "7" weight = "-0.15223309024034126" />
    <synapse sourceNeuronName = "4" targetNeuronName = "8" weight = "-0.7294931464291645" />
    <synapse sourceNeuronName = "4" targetNeuronName = "9" weight = "0.8814900395571432" />
    <synapse sourceNeuronName = "4" targetNeuronName = "10" weight = "0.16628080439347026" />
    <synapse sourceNeuronName = "4" targetNeuronName = "11" weight = "-0.5941835760163889" />
    <synapse sourceNeuronName = "4" targetNeuronName = "12" weight = "-0.6069911706745175" />
    <synapse sourceNeuronName = "4" targetNeuronName = "13" weight = "0.656050050667923" />
    <synapse sourceNeuronName = "4" targetNeuronName = "14" weight = "0.02998147869568757" />
    <synapse sourceNeuronName = "4" targetNeuronName = "15" weight = "0.14210443142228146" />
    <synapse sourceNeuronName = "4" targetNeuronName = "16" weight = "-0.5376919008172989" />
    <synapse sourceNeuronName = "4" targetNeuronName = "17" weight = "-0.21207399436591134" />
    <synapse sourceNeuronName = "4" targetNeuronName = "18" weight = "0.8887208089848977" />
    <synapse sourceNeuronName = "4" targetNeuronName = "19" weight = "-0.15146401036293944" />
    <synapse sourceNeuronName = "4" targetNeuronName = "20" weight = "-0.010569173015702038" />
    <synapse sourceNeuronName = "4" targetNeuronName = "21" weight = "-0.3960950908416727" />
    <synapse sourceNeuronName = "5" targetNeuronName = "7" weight = "0.5319299788009448" />
    <synapse sourceNeuronName = "5" targetNeuronName = "8" weight = "-0.06453139638310668" />
    <synapse sourceNeuronName = "5" targetNeuronName = "9" weight = "0.6776164474599222" />
    <synapse sourceNeuronName = "5" targetNeuronName = "10" weight = "-0.8444645426393258" />
    <synapse sourceNeuronName = "5" targetNeuronName = "11" weight = "-0.3997087424746293" />
    <synapse sourceNeuronName = "5" targetNeuronName = "12" weight = "0.08079749864444707" />
    <synapse sourceNeuronName = "5" targetNeuronName = "13" weight = "0.5185428380013051" />
    <synapse sourceNeuronName = "5" targetNeuronName = "14" weight = "-0.21150299824624064" />
    <synapse sourceNeuronName = "5" targetNeuronName = "15" weight = "0.7865417176849236" />
    <synapse sourceNeuronName = "5" targetNeuronName = "16" weight = "-0.4061238523224382" />
    <synapse sourceNeuronName = "5" targetNeuronName = "17" weight = "-0.4422605785546041" />
    <synapse sourceNeuronName = "5" targetNeuronName = "18" weight = "-0.6722299527508309" />
    <synapse sourceNeuronName = "5" targetNeuronName = "19" weight = "0.20084476483925462" />
    <synapse sourceNeuronName = "5" targetNeuronName = "20" weight = "0.147177035926072" />
    <synapse sourceNeuronName = "5" targetNeuronName = "21" weight = "-0.10292539733150541" />
    <synapse sourceNeuronName = "6" targetNeuronName = "7" weight = "0.7159521128120634" />
    <synapse sourceNeuronName = "6" targetNeuronName = "8" weight = "-0.5277533126216245" />
    <synapse sourceNeuronName = "6" targetNeuronName = "9" weight = "0.1921704907191526" />
    <synapse sourceNeuronName = "6" targetNeuronName = "10" weight = "0.6570202301410526" />
    <synapse sourceNeuronName = "6" targetNeuronName = "11" weight = "0.9890572449332886" />
    <synapse sourceNeuronName = "6" targetNeuronName = "12" weight = "0.3515315503501717" />
    <synapse sourceNeuronName = "6" targetNeuronName = "13" weight = "-0.26581219198908235" />
    <synapse sourceNeuronName = "6" targetNeuronName = "14" weight = "0.25100154598501745" />
    <synapse sourceNeuronName = "6" targetNeuronName = "15" weight = "-0.4470666846081375" />
    <synapse sourceNeuronName = "6" targetNeuronName = "16" weight = "-0.6494229393633617" />
    <synapse sourceNeuronName = "6" targetNeuronName = "17" weight = "0.0440680502424724" />
    <synapse sourceNeuronName = "6" targetNeuronName = "18" weight = "-0.10982394191990807" />
    <synapse sourceNeuronName = "6" targetNeuronName = "19" weight = "0.8341623319197544" />
    <synapse sourceNeuronName = "6" targetNeuronName = "20" weight = "-0.005796029100762379" />
    <synapse sourceNeuronName = "6" targetNeuronName = "21" weight = "0.7081570264055428" />
</neuralNetwork>