<neuralNetwork>
    <neuron name = "0" type = "sensor" linkName = "Link1" />
    <neuron name = "1" type = "sensor" linkName = "Link2" />
    <neuron name = "2" type = "sensor" linkName = "Link4" />
    <neuron name = "3" type = "sensor" linkName = "Link5" />
    <neuron name = "4" type = "sensor" linkName = "Link6" />
    <neuron name = "5" type = "motor"  jointName = "Link0_Link1" />
    <neuron name = "6" type = "motor"  jointName = "Link0_Link2" />
    <neuron name = "7" type = "motor"  jointName = "Link0_Link3" />
    <neuron name = "8" type = "motor"  jointName = "Link1_Link4" />
    <neuron name = "9" type = "motor"  jointName = "Link2_Link5" />
    <neuron name = "10" type = "motor"  jointName = "Link4_Link6" />
    <neuron name = "11" type = "motor"  jointName = "Link1_Link7" />
    <neuron name = "12" type = "motor"  jointName = "Link7_Link8" />
    <synapse sourceNeuronName = "0" targetNeuronName = "5" weight = "0.39319238566252546" />
    <synapse sourceNeuronName = "0" targetNeuronName = "6" weight = "0.10153180576353771" />
    <synapse sourceNeuronName = "0" targetNeuronName = "7" weight = "0.34819813923248244" />
    <synapse sourceNeuronName = "0" targetNeuronName = "8" weight = "0.282014749140018" />
    <synapse sourceNeuronName = "0" targetNeuronName = "9" weight = "0.6858481289059253" />
    <synapse sourceNeuronName = "0" targetNeuronName = "10" weight = "0.041293722534310406" />
    <synapse sourceNeuronName = "0" targetNeuronName = "11" weight = "0.8620637165053155" />
    <synapse sourceNeuronName = "0" targetNeuronName = "12" weight = "0.03804455360989034" />
    <synapse sourceNeuronName = "1" targetNeuronName = "5" weight = "-0.764382893128055" />
    <synapse sourceNeuronName = "1" targetNeuronName = "6" weight = "-0.9227237835091608" />
    <synapse sourceNeuronName = "1" targetNeuronName = "7" weight = "-0.1649748500179602" />
    <synapse sourceNeuronName = "1" targetNeuronName = "8" weight = "0.4569303023605529" />
    <synapse sourceNeuronName = "1" targetNeuronName = "9" weight = "0.5101603643095449" />
    <synapse sourceNeuronName = "1" targetNeuronName = "10" weight = "0.47787274381168343" />
    <synapse sourceNeuronName = "1" targetNeuronName = "11" weight = "0.09978239424241786" />
    <synapse sourceNeuronName = "1" targetNeuronName = "12" weight = "0.5746795353831597" />
    <synapse sourceNeuronName = "2" targetNeuronName = "5" weight = "0.2594659753061075" />
    <synapse sourceNeuronName = "2" targetNeuronName = "6" weight = "-0.8527347706400676" />
    <synapse sourceNeuronName = "2" targetNeuronName = "7" weight = "0.8091930175390372" />
    <synapse sourceNeuronName = "2" targetNeuronName = "8" weight = "-0.2252223296106104" />
    <synapse sourceNeuronName = "2" targetNeuronName = "9" weight = "0.43432825595637814" />
    <synapse sourceNeuronName = "2" targetNeuronName = "10" weight = "0.8949009945797626" />
    <synapse sourceNeuronName = "2" targetNeuronName = "11" weight = "0.22610771874648172" />
    <synapse sourceNeuronName = "2" targetNeuronName = "12" weight = "-0.3632352231199667" />
    <synapse sourceNeuronName = "3" targetNeuronName = "5" weight = "0.4054970335618111" />
    <synapse sourceNeuronName = "3" targetNeuronName = "6" weight = "0.5334247728931403" />
    <synapse sourceNeuronName = "3" targetNeuronName = "7" weight = "-0.03131378528253115" />
    <synapse sourceNeuronName = "3" targetNeuronName = "8" weight = "-0.8472877967302399" />
    <synapse sourceNeuronName = "3" targetNeuronName = "9" weight = "-0.9928302598063647" />
    <synapse sourceNeuronName = "3" targetNeuronName = "10" weight = "-0.8647962535360423" />
    <synapse sourceNeuronName = "3" targetNeuronName = "11" weight = "-0.8641256481460347" />
    <synapse sourceNeuronName = "3" targetNeuronName = "12" weight = "-0.45040319649937843" />
    <synapse sourceNeuronName = "4" targetNeuronName = "5" weight = "-0.9075797569030188" />
    <synapse sourceNeuronName = "4" targetNeuronName = "6" weight = "0.471773089742318" />
    <synapse sourceNeuronName = "4" targetNeuronName = "7" weight = "0.9057868584117157" />
    <synapse sourceNeuronName = "4" targetNeuronName = "8" weight = "0.3600003249475914" />
    <synapse sourceNeuronName = "4" targetNeuronName = "9" weight = "0.9621941379838468" />
    <synapse sourceNeuronName = "4" targetNeuronName = "10" weight = "0.32056945808722737" />
    <synapse sourceNeuronName = "4" targetNeuronName = "11" weight = "-0.12795854881135504" />
    <synapse sourceNeuronName = "4" targetNeuronName = "12" weight = "-0.7228335692682906" />
</neuralNetwork>