<neuralNetwork>
    <neuron name = "0" type = "sensor" linkName = "Link1" />
    <neuron name = "1" type = "sensor" linkName = "Link2" />
    <neuron name = "2" type = "sensor" linkName = "Link5" />
    <neuron name = "3" type = "sensor" linkName = "Link6" />
    <neuron name = "4" type = "sensor" linkName = "Link8" />
    <neuron name = "5" type = "motor"  jointName = "Link0_Link1" />
    <neuron name = "6" type = "motor"  jointName = "Link0_Link2" />
    <neuron name = "7" type = "motor"  jointName = "Link2_Link3" />
    <neuron name = "8" type = "motor"  jointName = "Link3_Link4" />
    <neuron name = "9" type = "motor"  jointName = "Link1_Link5" />
    <neuron name = "10" type = "motor"  jointName = "Link2_Link6" />
    <neuron name = "11" type = "motor"  jointName = "Link5_Link7" />
    <neuron name = "12" type = "motor"  jointName = "Link2_Link8" />
    <neuron name = "13" type = "motor"  jointName = "Link5_Link9" />
    <synapse sourceNeuronName = "0" targetNeuronName = "5" weight = "-0.6161250699276433" />
    <synapse sourceNeuronName = "0" targetNeuronName = "6" weight = "-0.8224436489469809" />
    <synapse sourceNeuronName = "0" targetNeuronName = "7" weight = "-0.019609260060843514" />
    <synapse sourceNeuronName = "0" targetNeuronName = "8" weight = "-0.8428083990358233" />
    <synapse sourceNeuronName = "0" targetNeuronName = "9" weight = "0.49411858862895053" />
    <synapse sourceNeuronName = "0" targetNeuronName = "10" weight = "-0.5618883379951156" />
    <synapse sourceNeuronName = "0" targetNeuronName = "11" weight = "-0.9819496089946411" />
    <synapse sourceNeuronName = "0" targetNeuronName = "12" weight = "-0.5648694586833509" />
    <synapse sourceNeuronName = "0" targetNeuronName = "13" weight = "-0.784441846654129" />
    <synapse sourceNeuronName = "1" targetNeuronName = "5" weight = "-0.4413305436419941" />
    <synapse sourceNeuronName = "1" targetNeuronName = "6" weight = "-0.7735900182109161" />
    <synapse sourceNeuronName = "1" targetNeuronName = "7" weight = "0.6868202210238263" />
    <synapse sourceNeuronName = "1" targetNeuronName = "8" weight = "-0.6542346159119716" />
    <synapse sourceNeuronName = "1" targetNeuronName = "9" weight = "0.7942353069109003" />
    <synapse sourceNeuronName = "1" targetNeuronName = "10" weight = "0.9643413048808926" />
    <synapse sourceNeuronName = "1" targetNeuronName = "11" weight = "-0.7408650294397594" />
    <synapse sourceNeuronName = "1" targetNeuronName = "12" weight = "0.09090432044861907" />
    <synapse sourceNeuronName = "1" targetNeuronName = "13" weight = "0.804113640829381" />
    <synapse sourceNeuronName = "2" targetNeuronName = "5" weight = "0.892451402812406" />
    <synapse sourceNeuronName = "2" targetNeuronName = "6" weight = "0.9998766681556468" />
    <synapse sourceNeuronName = "2" targetNeuronName = "7" weight = "-0.07846514792056047" />
    <synapse sourceNeuronName = "2" targetNeuronName = "8" weight = "-0.2863760668357238" />
    <synapse sourceNeuronName = "2" targetNeuronName = "9" weight = "-0.28227692042507857" />
    <synapse sourceNeuronName = "2" targetNeuronName = "10" weight = "-0.08138729607948236" />
    <synapse sourceNeuronName = "2" targetNeuronName = "11" weight = "0.5182923058013673" />
    <synapse sourceNeuronName = "2" targetNeuronName = "12" weight = "-0.29058573835605195" />
    <synapse sourceNeuronName = "2" targetNeuronName = "13" weight = "-0.8209091360572007" />
    <synapse sourceNeuronName = "3" targetNeuronName = "5" weight = "0.5432084169677236" />
    <synapse sourceNeuronName = "3" targetNeuronName = "6" weight = "-0.7313730093833055" />
    <synapse sourceNeuronName = "3" targetNeuronName = "7" weight = "0.7017711227906267" />
    <synapse sourceNeuronName = "3" targetNeuronName = "8" weight = "0.5659360682024486" />
    <synapse sourceNeuronName = "3" targetNeuronName = "9" weight = "-0.32965459932051755" />
    <synapse sourceNeuronName = "3" targetNeuronName = "10" weight = "0.9884413417267222" />
    <synapse sourceNeuronName = "3" targetNeuronName = "11" weight = "0.9472549153025558" />
    <synapse sourceNeuronName = "3" targetNeuronName = "12" weight = "-0.28008904708295246" />
    <synapse sourceNeuronName = "3" targetNeuronName = "13" weight = "0.4968407887771791" />
    <synapse sourceNeuronName = "4" targetNeuronName = "5" weight = "0.048578905873041256" />
    <synapse sourceNeuronName = "4" targetNeuronName = "6" weight = "-0.9464630799680189" />
    <synapse sourceNeuronName = "4" targetNeuronName = "7" weight = "0.35113517909946124" />
    <synapse sourceNeuronName = "4" targetNeuronName = "8" weight = "-0.6557966555963557" />
    <synapse sourceNeuronName = "4" targetNeuronName = "9" weight = "-0.42086127994024003" />
    <synapse sourceNeuronName = "4" targetNeuronName = "10" weight = "0.24037346381136193" />
    <synapse sourceNeuronName = "4" targetNeuronName = "11" weight = "-0.7763667743040856" />
    <synapse sourceNeuronName = "4" targetNeuronName = "12" weight = "0.2534888861358038" />
    <synapse sourceNeuronName = "4" targetNeuronName = "13" weight = "0.7843784497153585" />
</neuralNetwork>