<neuralNetwork>
    <neuron name = "0" type = "sensor" linkName = "Link1" />
    <neuron name = "1" type = "sensor" linkName = "Link4" />
    <neuron name = "2" type = "sensor" linkName = "Link5" />
    <neuron name = "3" type = "sensor" linkName = "Link6" />
    <neuron name = "4" type = "sensor" linkName = "Link8" />
    <neuron name = "5" type = "motor"  jointName = "Link0_Link1" />
    <neuron name = "6" type = "motor"  jointName = "Link0_Link2" />
    <neuron name = "7" type = "motor"  jointName = "Link0_Link3" />
    <neuron name = "8" type = "motor"  jointName = "Link1_Link4" />
    <neuron name = "9" type = "motor"  jointName = "Link2_Link5" />
    <neuron name = "10" type = "motor"  jointName = "Link4_Link6" />
    <neuron name = "11" type = "motor"  jointName = "Link1_Link7" />
    <neuron name = "12" type = "motor"  jointName = "Link7_Link8" />
    <neuron name = "13" type = "motor"  jointName = "Link3_Link9" />
    <synapse sourceNeuronName = "0" targetNeuronName = "5" weight = "0.34786575308329115" />
    <synapse sourceNeuronName = "0" targetNeuronName = "6" weight = "-0.26422923491271066" />
    <synapse sourceNeuronName = "0" targetNeuronName = "7" weight = "-0.5796555761557367" />
    <synapse sourceNeuronName = "0" targetNeuronName = "8" weight = "0.135528011421147" />
    <synapse sourceNeuronName = "0" targetNeuronName = "9" weight = "0.43259508993885953" />
    <synapse sourceNeuronName = "0" targetNeuronName = "10" weight = "0.5186361115519684" />
    <synapse sourceNeuronName = "0" targetNeuronName = "11" weight = "-0.3001502660328512" />
    <synapse sourceNeuronName = "0" targetNeuronName = "12" weight = "0.21139474207451991" />
    <synapse sourceNeuronName = "0" targetNeuronName = "13" weight = "-0.5587330923705518" />
    <synapse sourceNeuronName = "1" targetNeuronName = "5" weight = "0.3846754244858348" />
    <synapse sourceNeuronName = "1" targetNeuronName = "6" weight = "-0.22142236275681704" />
    <synapse sourceNeuronName = "1" targetNeuronName = "7" weight = "-0.24883401398457838" />
    <synapse sourceNeuronName = "1" targetNeuronName = "8" weight = "0.5721272744384422" />
    <synapse sourceNeuronName = "1" targetNeuronName = "9" weight = "-0.4860325743472138" />
    <synapse sourceNeuronName = "1" targetNeuronName = "10" weight = "0.5239119282103752" />
    <synapse sourceNeuronName = "1" targetNeuronName = "11" weight = "0.37032394923969103" />
    <synapse sourceNeuronName = "1" targetNeuronName = "12" weight = "0.18688120165524813" />
    <synapse sourceNeuronName = "1" targetNeuronName = "13" weight = "0.7183861206209396" />
    <synapse sourceNeuronName = "2" targetNeuronName = "5" weight = "0.6644104282345662" />
    <synapse sourceNeuronName = "2" targetNeuronName = "6" weight = "0.75702555936526" />
    <synapse sourceNeuronName = "2" targetNeuronName = "7" weight = "-0.09959667893242674" />
    <synapse sourceNeuronName = "2" targetNeuronName = "8" weight = "0.024218107016391155" />
    <synapse sourceNeuronName = "2" targetNeuronName = "9" weight = "0.3906745510670844" />
    <synapse sourceNeuronName = "2" targetNeuronName = "10" weight = "-0.16323695215129796" />
    <synapse sourceNeuronName = "2" targetNeuronName = "11" weight = "0.5122925421112368" />
    <synapse sourceNeuronName = "2" targetNeuronName = "12" weight = "0.908449762418811" />
    <synapse sourceNeuronName = "2" targetNeuronName = "13" weight = "0.3895840084013762" />
    <synapse sourceNeuronName = "3" targetNeuronName = "5" weight = "0.6066002387552918" />
    <synapse sourceNeuronName = "3" targetNeuronName = "6" weight = "0.9234467524976133" />
    <synapse sourceNeuronName = "3" targetNeuronName = "7" weight = "0.3135251626472564" />
    <synapse sourceNeuronName = "3" targetNeuronName = "8" weight = "0.7682311093803282" />
    <synapse sourceNeuronName = "3" targetNeuronName = "9" weight = "-0.009265946715725448" />
    <synapse sourceNeuronName = "3" targetNeuronName = "10" weight = "-0.6062962152937952" />
    <synapse sourceNeuronName = "3" targetNeuronName = "11" weight = "-0.041153395882669086" />
    <synapse sourceNeuronName = "3" targetNeuronName = "12" weight = "0.10467008251076537" />
    <synapse sourceNeuronName = "3" targetNeuronName = "13" weight = "-0.5497156760527424" />
    <synapse sourceNeuronName = "4" targetNeuronName = "5" weight = "0.4401323280659326" />
    <synapse sourceNeuronName = "4" targetNeuronName = "6" weight = "-0.3146470114778097" />
    <synapse sourceNeuronName = "4" targetNeuronName = "7" weight = "0.858871002967319" />
    <synapse sourceNeuronName = "4" targetNeuronName = "8" weight = "-0.32301265783585964" />
    <synapse sourceNeuronName = "4" targetNeuronName = "9" weight = "0.5873198604544163" />
    <synapse sourceNeuronName = "4" targetNeuronName = "10" weight = "0.7469398686503324" />
    <synapse sourceNeuronName = "4" targetNeuronName = "11" weight = "0.17037903230466234" />
    <synapse sourceNeuronName = "4" targetNeuronName = "12" weight = "-0.639836912380682" />
    <synapse sourceNeuronName = "4" targetNeuronName = "13" weight = "0.8072106463079773" />
</neuralNetwork>