<neuralNetwork>
    <neuron name = "0" type = "sensor" linkName = "Link1" />
    <neuron name = "1" type = "sensor" linkName = "Link2" />
    <neuron name = "2" type = "sensor" linkName = "Link3" />
    <neuron name = "3" type = "sensor" linkName = "Link4" />
    <neuron name = "4" type = "motor"  jointName = "Link0_Link1" />
    <neuron name = "5" type = "motor"  jointName = "Link0_Link2" />
    <neuron name = "6" type = "motor"  jointName = "Link2_Link3" />
    <neuron name = "7" type = "motor"  jointName = "Link1_Link4" />
    <neuron name = "8" type = "motor"  jointName = "Link1_Link5" />
    <synapse sourceNeuronName = "0" targetNeuronName = "4" weight = "0.5955528068852707" />
    <synapse sourceNeuronName = "0" targetNeuronName = "5" weight = "-0.5868363481383054" />
    <synapse sourceNeuronName = "0" targetNeuronName = "6" weight = "0.6499622963987717" />
    <synapse sourceNeuronName = "0" targetNeuronName = "7" weight = "-0.19226551847259077" />
    <synapse sourceNeuronName = "0" targetNeuronName = "8" weight = "-0.4762429000887394" />
    <synapse sourceNeuronName = "1" targetNeuronName = "4" weight = "-0.6775383666960808" />
    <synapse sourceNeuronName = "1" targetNeuronName = "5" weight = "0.48779491096602023" />
    <synapse sourceNeuronName = "1" targetNeuronName = "6" weight = "-0.44945143999543546" />
    <synapse sourceNeuronName = "1" targetNeuronName = "7" weight = "0.8465971061083755" />
    <synapse sourceNeuronName = "1" targetNeuronName = "8" weight = "-0.49412521842157386" />
    <synapse sourceNeuronName = "2" targetNeuronName = "4" weight = "0.0912744166282653" />
    <synapse sourceNeuronName = "2" targetNeuronName = "5" weight = "-0.7498765160836001" />
    <synapse sourceNeuronName = "2" targetNeuronName = "6" weight = "-0.43116353547023967" />
    <synapse sourceNeuronName = "2" targetNeuronName = "7" weight = "0.6161982121565921" />
    <synapse sourceNeuronName = "2" targetNeuronName = "8" weight = "-0.7249541314346148" />
    <synapse sourceNeuronName = "3" targetNeuronName = "4" weight = "-0.7396722950566488" />
    <synapse sourceNeuronName = "3" targetNeuronName = "5" weight = "0.44650209434895594" />
    <synapse sourceNeuronName = "3" targetNeuronName = "6" weight = "-0.42505002406660797" />
    <synapse sourceNeuronName = "3" targetNeuronName = "7" weight = "0.21085633014914418" />
    <synapse sourceNeuronName = "3" targetNeuronName = "8" weight = "0.408357777180373" />
</neuralNetwork>