<neuralNetwork>
    <neuron name = "0" type = "sensor" linkName = "Link1" />
    <neuron name = "1" type = "sensor" linkName = "Link2" />
    <neuron name = "2" type = "sensor" linkName = "Link3" />
    <neuron name = "3" type = "sensor" linkName = "Link4" />
    <neuron name = "4" type = "sensor" linkName = "Link5" />
    <neuron name = "5" type = "motor"  jointName = "Link0_Link1" />
    <neuron name = "6" type = "motor"  jointName = "Link0_Link2" />
    <neuron name = "7" type = "motor"  jointName = "Link2_Link3" />
    <neuron name = "8" type = "motor"  jointName = "Link1_Link4" />
    <neuron name = "9" type = "motor"  jointName = "Link1_Link5" />
    <neuron name = "10" type = "motor"  jointName = "Link2_Link6" />
    <synapse sourceNeuronName = "0" targetNeuronName = "5" weight = "-0.7536689804306449" />
    <synapse sourceNeuronName = "0" targetNeuronName = "6" weight = "-0.48609011182593775" />
    <synapse sourceNeuronName = "0" targetNeuronName = "7" weight = "-0.07493853605523881" />
    <synapse sourceNeuronName = "0" targetNeuronName = "8" weight = "-0.636920231617824" />
    <synapse sourceNeuronName = "0" targetNeuronName = "9" weight = "0.4033029239442323" />
    <synapse sourceNeuronName = "0" targetNeuronName = "10" weight = "0.08181335978887705" />
    <synapse sourceNeuronName = "1" targetNeuronName = "5" weight = "-0.8570890032741021" />
    <synapse sourceNeuronName = "1" targetNeuronName = "6" weight = "-0.5433647470832388" />
    <synapse sourceNeuronName = "1" targetNeuronName = "7" weight = "0.29931056091112795" />
    <synapse sourceNeuronName = "1" targetNeuronName = "8" weight = "0.09520106678480555" />
    <synapse sourceNeuronName = "1" targetNeuronName = "9" weight = "0.5303477619132617" />
    <synapse sourceNeuronName = "1" targetNeuronName = "10" weight = "-0.19611449032128103" />
    <synapse sourceNeuronName = "2" targetNeuronName = "5" weight = "0.5601748944975251" />
    <synapse sourceNeuronName = "2" targetNeuronName = "6" weight = "0.37225522733012406" />
    <synapse sourceNeuronName = "2" targetNeuronName = "7" weight = "0.25572474782424237" />
    <synapse sourceNeuronName = "2" targetNeuronName = "8" weight = "0.3099716069984997" />
    <synapse sourceNeuronName = "2" targetNeuronName = "9" weight = "0.9803586697679572" />
    <synapse sourceNeuronName = "2" targetNeuronName = "10" weight = "-0.4193889939334885" />
    <synapse sourceNeuronName = "3" targetNeuronName = "5" weight = "-0.4667987274497436" />
    <synapse sourceNeuronName = "3" targetNeuronName = "6" weight = "0.15645783884763187" />
    <synapse sourceNeuronName = "3" targetNeuronName = "7" weight = "0.9222269618815637" />
    <synapse sourceNeuronName = "3" targetNeuronName = "8" weight = "-0.6397174030390205" />
    <synapse sourceNeuronName = "3" targetNeuronName = "9" weight = "-0.882387345975173" />
    <synapse sourceNeuronName = "3" targetNeuronName = "10" weight = "-0.704831322467441" />
    <synapse sourceNeuronName = "4" targetNeuronName = "5" weight = "0.8901009090369356" />
    <synapse sourceNeuronName = "4" targetNeuronName = "6" weight = "-0.072741915098129" />
    <synapse sourceNeuronName = "4" targetNeuronName = "7" weight = "-0.2942180401504424" />
    <synapse sourceNeuronName = "4" targetNeuronName = "8" weight = "0.0010322029285450007" />
    <synapse sourceNeuronName = "4" targetNeuronName = "9" weight = "0.6160341357136554" />
    <synapse sourceNeuronName = "4" targetNeuronName = "10" weight = "-0.7967846517094479" />
</neuralNetwork>