<neuralNetwork>
    <neuron name = "0" type = "sensor" linkName = "Link0" />
    <neuron name = "1" type = "sensor" linkName = "Link2" />
    <neuron name = "2" type = "sensor" linkName = "Link3" />
    <neuron name = "3" type = "sensor" linkName = "Link5" />
    <neuron name = "4" type = "sensor" linkName = "Link7" />
    <neuron name = "5" type = "sensor" linkName = "Link11" />
    <neuron name = "6" type = "motor"  jointName = "Link0_Link1" />
    <neuron name = "7" type = "motor"  jointName = "Link0_Link2" />
    <neuron name = "8" type = "motor"  jointName = "Link2_Link3" />
    <neuron name = "9" type = "motor"  jointName = "Link0_Link4" />
    <neuron name = "10" type = "motor"  jointName = "Link0_Link5" />
    <neuron name = "11" type = "motor"  jointName = "Link5_Link6" />
    <neuron name = "12" type = "motor"  jointName = "Link4_Link7" />
    <neuron name = "13" type = "motor"  jointName = "Link7_Link8" />
    <neuron name = "14" type = "motor"  jointName = "Link7_Link9" />
    <neuron name = "15" type = "motor"  jointName = "Link2_Link10" />
    <neuron name = "16" type = "motor"  jointName = "Link4_Link11" />
    <synapse sourceNeuronName = "0" targetNeuronName = "6" weight = "-0.0711264820052333" />
    <synapse sourceNeuronName = "0" targetNeuronName = "7" weight = "-0.9146421417424646" />
    <synapse sourceNeuronName = "0" targetNeuronName = "8" weight = "-0.9913717419310113" />
    <synapse sourceNeuronName = "0" targetNeuronName = "9" weight = "0.15663222632817986" />
    <synapse sourceNeuronName = "0" targetNeuronName = "10" weight = "0.4934534376411699" />
    <synapse sourceNeuronName = "0" targetNeuronName = "11" weight = "-0.535650934472617" />
    <synapse sourceNeuronName = "0" targetNeuronName = "12" weight = "-0.30012471935057783" />
    <synapse sourceNeuronName = "0" targetNeuronName = "13" weight = "-0.8066146351964623" />
    <synapse sourceNeuronName = "0" targetNeuronName = "14" weight = "-0.7505710419994849" />
    <synapse sourceNeuronName = "0" targetNeuronName = "15" weight = "-0.28488147103851036" />
    <synapse sourceNeuronName = "0" targetNeuronName = "16" weight = "-0.6418201214584747" />
    <synapse sourceNeuronName = "1" targetNeuronName = "6" weight = "0.9157387583528731" />
    <synapse sourceNeuronName = "1" targetNeuronName = "7" weight = "-0.793796727196411" />
    <synapse sourceNeuronName = "1" targetNeuronName = "8" weight = "0.5242089119754332" />
    <synapse sourceNeuronName = "1" targetNeuronName = "9" weight = "0.923302905083863" />
    <synapse sourceNeuronName = "1" targetNeuronName = "10" weight = "-0.14606848595630595" />
    <synapse sourceNeuronName = "1" targetNeuronName = "11" weight = "-0.9550224553509215" />
    <synapse sourceNeuronName = "1" targetNeuronName = "12" weight = "0.7169214091860177" />
    <synapse sourceNeuronName = "1" targetNeuronName = "13" weight = "-0.061192184514792025" />
    <synapse sourceNeuronName = "1" targetNeuronName = "14" weight = "-0.9351702883807378" />
    <synapse sourceNeuronName = "1" targetNeuronName = "15" weight = "-0.3716317146468493" />
    <synapse sourceNeuronName = "1" targetNeuronName = "16" weight = "0.7678887661640785" />
    <synapse sourceNeuronName = "2" targetNeuronName = "6" weight = "-0.7571289538546266" />
    <synapse sourceNeuronName = "2" targetNeuronName = "7" weight = "0.5196139065413949" />
    <synapse sourceNeuronName = "2" targetNeuronName = "8" weight = "0.5752506240300013" />
    <synapse sourceNeuronName = "2" targetNeuronName = "9" weight = "0.2667841155689201" />
    <synapse sourceNeuronName = "2" targetNeuronName = "10" weight = "0.7839454586225774" />
    <synapse sourceNeuronName = "2" targetNeuronName = "11" weight = "-0.7921965707883325" />
    <synapse sourceNeuronName = "2" targetNeuronName = "12" weight = "0.5262377570092247" />
    <synapse sourceNeuronName = "2" targetNeuronName = "13" weight = "0.061686076865687056" />
    <synapse sourceNeuronName = "2" targetNeuronName = "14" weight = "-0.5668571651307961" />
    <synapse sourceNeuronName = "2" targetNeuronName = "15" weight = "-0.21977105543863606" />
    <synapse sourceNeuronName = "2" targetNeuronName = "16" weight = "0.6966764497219455" />
    <synapse sourceNeuronName = "3" targetNeuronName = "6" weight = "-0.16421904941546162" />
    <synapse sourceNeuronName = "3" targetNeuronName = "7" weight = "-0.5197410070710136" />
    <synapse sourceNeuronName = "3" targetNeuronName = "8" weight = "0.46360985816164213" />
    <synapse sourceNeuronName = "3" targetNeuronName = "9" weight = "-0.8350939339725478" />
    <synapse sourceNeuronName = "3" targetNeuronName = "10" weight = "-0.023354480501392993" />
    <synapse sourceNeuronName = "3" targetNeuronName = "11" weight = "0.07518156797362652" />
    <synapse sourceNeuronName = "3" targetNeuronName = "12" weight = "0.37581382033382527" />
    <synapse sourceNeuronName = "3" targetNeuronName = "13" weight = "0.35848902334516697" />
    <synapse sourceNeuronName = "3" targetNeuronName = "14" weight = "-0.2158545886323342" />
    <synapse sourceNeuronName = "3" targetNeuronName = "15" weight = "0.8474981792403069" />
    <synapse sourceNeuronName = "3" targetNeuronName = "16" weight = "0.4733707931879174" />
    <synapse sourceNeuronName = "4" targetNeuronName = "6" weight = "-0.8303454514827762" />
    <synapse sourceNeuronName = "4" targetNeuronName = "7" weight = "-0.673537631823542" />
    <synapse sourceNeuronName = "4" targetNeuronName = "8" weight = "-0.39231718458164133" />
    <synapse sourceNeuronName = "4" targetNeuronName = "9" weight = "0.4472152312396822" />
    <synapse sourceNeuronName = "4" targetNeuronName = "10" weight = "0.16240194576840317" />
    <synapse sourceNeuronName = "4" targetNeuronName = "11" weight = "-0.8870824858056847" />
    <synapse sourceNeuronName = "4" targetNeuronName = "12" weight = "0.5362081667571623" />
    <synapse sourceNeuronName = "4" targetNeuronName = "13" weight = "0.997159791948254" />
    <synapse sourceNeuronName = "4" targetNeuronName = "14" weight = "-0.9243593402404546" />
    <synapse sourceNeuronName = "4" targetNeuronName = "15" weight = "-0.8707101687461507" />
    <synapse sourceNeuronName = "4" targetNeuronName = "16" weight = "-0.2093663664492713" />
    <synapse sourceNeuronName = "5" targetNeuronName = "6" weight = "-0.15203522042760742" />
    <synapse sourceNeuronName = "5" targetNeuronName = "7" weight = "-0.5579332824220264" />
    <synapse sourceNeuronName = "5" targetNeuronName = "8" weight = "-0.7934359980663914" />
    <synapse sourceNeuronName = "5" targetNeuronName = "9" weight = "0.764713259271891" />
    <synapse sourceNeuronName = "5" targetNeuronName = "10" weight = "0.20955035984524062" />
    <synapse sourceNeuronName = "5" targetNeuronName = "11" weight = "-0.4150292063940877" />
    <synapse sourceNeuronName = "5" targetNeuronName = "12" weight = "-0.5067150437999761" />
    <synapse sourceNeuronName = "5" targetNeuronName = "13" weight = "0.7170718547669692" />
    <synapse sourceNeuronName = "5" targetNeuronName = "14" weight = "0.012407008357380622" />
    <synapse sourceNeuronName = "5" targetNeuronName = "15" weight = "-0.39964927037737863" />
    <synapse sourceNeuronName = "5" targetNeuronName = "16" weight = "-0.6107010467085185" />
</neuralNetwork>