<neuralNetwork>
    <neuron name = "0" type = "sensor" linkName = "Link4" />
    <neuron name = "1" type = "sensor" linkName = "Link5" />
    <neuron name = "2" type = "sensor" linkName = "Link6" />
    <neuron name = "3" type = "sensor" linkName = "Link7" />
    <neuron name = "4" type = "sensor" linkName = "Link8" />
    <neuron name = "5" type = "motor"  jointName = "Link0_Link1" />
    <neuron name = "6" type = "motor"  jointName = "Link0_Link2" />
    <neuron name = "7" type = "motor"  jointName = "Link1_Link3" />
    <neuron name = "8" type = "motor"  jointName = "Link1_Link4" />
    <neuron name = "9" type = "motor"  jointName = "Link2_Link5" />
    <neuron name = "10" type = "motor"  jointName = "Link5_Link6" />
    <neuron name = "11" type = "motor"  jointName = "Link2_Link7" />
    <neuron name = "12" type = "motor"  jointName = "Link1_Link8" />
    <neuron name = "13" type = "motor"  jointName = "Link1_Link9" />
    <synapse sourceNeuronName = "0" targetNeuronName = "5" weight = "0.13768650639415148" />
    <synapse sourceNeuronName = "0" targetNeuronName = "6" weight = "0.7307645684235291" />
    <synapse sourceNeuronName = "0" targetNeuronName = "7" weight = "0.6763824760646009" />
    <synapse sourceNeuronName = "0" targetNeuronName = "8" weight = "0.9187620860094632" />
    <synapse sourceNeuronName = "0" targetNeuronName = "9" weight = "0.11355565528572065" />
    <synapse sourceNeuronName = "0" targetNeuronName = "10" weight = "-0.42325017556955635" />
    <synapse sourceNeuronName = "0" targetNeuronName = "11" weight = "-0.916228091795751" />
    <synapse sourceNeuronName = "0" targetNeuronName = "12" weight = "0.851205118847365" />
    <synapse sourceNeuronName = "0" targetNeuronName = "13" weight = "0.21343011535675682" />
    <synapse sourceNeuronName = "1" targetNeuronName = "5" weight = "-0.9497399131678719" />
    <synapse sourceNeuronName = "1" targetNeuronName = "6" weight = "0.31219442246633156" />
    <synapse sourceNeuronName = "1" targetNeuronName = "7" weight = "-0.9482224096616365" />
    <synapse sourceNeuronName = "1" targetNeuronName = "8" weight = "-0.6469013112457183" />
    <synapse sourceNeuronName = "1" targetNeuronName = "9" weight = "0.3202709455648143" />
    <synapse sourceNeuronName = "1" targetNeuronName = "10" weight = "0.7317640706183199" />
    <synapse sourceNeuronName = "1" targetNeuronName = "11" weight = "-0.15103195308139905" />
    <synapse sourceNeuronName = "1" targetNeuronName = "12" weight = "-0.49998955237530907" />
    <synapse sourceNeuronName = "1" targetNeuronName = "13" weight = "-0.24086621925669016" />
    <synapse sourceNeuronName = "2" targetNeuronName = "5" weight = "0.1615481460029664" />
    <synapse sourceNeuronName = "2" targetNeuronName = "6" weight = "-0.5491344628085075" />
    <synapse sourceNeuronName = "2" targetNeuronName = "7" weight = "-0.9934671931662151" />
    <synapse sourceNeuronName = "2" targetNeuronName = "8" weight = "0.4911308139570367" />
    <synapse sourceNeuronName = "2" targetNeuronName = "9" weight = "-0.6161252717172052" />
    <synapse sourceNeuronName = "2" targetNeuronName = "10" weight = "0.7521683085289994" />
    <synapse sourceNeuronName = "2" targetNeuronName = "11" weight = "-0.02689848012458751" />
    <synapse sourceNeuronName = "2" targetNeuronName = "12" weight = "-0.40477931246857835" />
    <synapse sourceNeuronName = "2" targetNeuronName = "13" weight = "0.7514442539613" />
    <synapse sourceNeuronName = "3" targetNeuronName = "5" weight = "-0.5835429545958224" />
    <synapse sourceNeuronName = "3" targetNeuronName = "6" weight = "-0.11954040664529741" />
    <synapse sourceNeuronName = "3" targetNeuronName = "7" weight = "-0.17731431603175785" />
    <synapse sourceNeuronName = "3" targetNeuronName = "8" weight = "0.6537400726936717" />
    <synapse sourceNeuronName = "3" targetNeuronName = "9" weight = "0.8943420624707143" />
    <synapse sourceNeuronName = "3" targetNeuronName = "10" weight = "-0.331247302856996" />
    <synapse sourceNeuronName = "3" targetNeuronName = "11" weight = "-0.7622248607707678" />
    <synapse sourceNeuronName = "3" targetNeuronName = "12" weight = "0.5127980685667131" />
    <synapse sourceNeuronName = "3" targetNeuronName = "13" weight = "0.7217186717847643" />
    <synapse sourceNeuronName = "4" targetNeuronName = "5" weight = "-0.6443835714920192" />
    <synapse sourceNeuronName = "4" targetNeuronName = "6" weight = "-0.9982982277351717" />
    <synapse sourceNeuronName = "4" targetNeuronName = "7" weight = "0.8085549530749465" />
    <synapse sourceNeuronName = "4" targetNeuronName = "8" weight = "-0.4827498957832419" />
    <synapse sourceNeuronName = "4" targetNeuronName = "9" weight = "-0.607871640737262" />
    <synapse sourceNeuronName = "4" targetNeuronName = "10" weight = "0.8024942655196683" />
    <synapse sourceNeuronName = "4" targetNeuronName = "11" weight = "-0.3747947531360032" />
    <synapse sourceNeuronName = "4" targetNeuronName = "12" weight = "-0.6240506457198571" />
    <synapse sourceNeuronName = "4" targetNeuronName = "13" weight = "-0.4215127335224842" />
</neuralNetwork>