<neuralNetwork>
    <neuron name = "0" type = "sensor" linkName = "Link1" />
    <neuron name = "1" type = "sensor" linkName = "Link4" />
    <neuron name = "2" type = "sensor" linkName = "Link5" />
    <neuron name = "3" type = "sensor" linkName = "Link6" />
    <neuron name = "4" type = "sensor" linkName = "Link8" />
    <neuron name = "5" type = "motor"  jointName = "Link0_Link1" />
    <neuron name = "6" type = "motor"  jointName = "Link0_Link2" />
    <neuron name = "7" type = "motor"  jointName = "Link0_Link3" />
    <neuron name = "8" type = "motor"  jointName = "Link1_Link4" />
    <neuron name = "9" type = "motor"  jointName = "Link2_Link5" />
    <neuron name = "10" type = "motor"  jointName = "Link4_Link6" />
    <neuron name = "11" type = "motor"  jointName = "Link1_Link7" />
    <neuron name = "12" type = "motor"  jointName = "Link7_Link8" />
    <neuron name = "13" type = "motor"  jointName = "Link6_Link9" />
    <synapse sourceNeuronName = "0" targetNeuronName = "5" weight = "-0.7944841703560988" />
    <synapse sourceNeuronName = "0" targetNeuronName = "6" weight = "0.49941187291187217" />
    <synapse sourceNeuronName = "0" targetNeuronName = "7" weight = "-0.1857888299181112" />
    <synapse sourceNeuronName = "0" targetNeuronName = "8" weight = "-0.035650544031851306" />
    <synapse sourceNeuronName = "0" targetNeuronName = "9" weight = "0.026919209721976145" />
    <synapse sourceNeuronName = "0" targetNeuronName = "10" weight = "-0.0007164923042608518" />
    <synapse sourceNeuronName = "0" targetNeuronName = "11" weight = "0.5079690251660294" />
    <synapse sourceNeuronName = "0" targetNeuronName = "12" weight = "-0.0726459148150762" />
    <synapse sourceNeuronName = "0" targetNeuronName = "13" weight = "-0.5458001641739891" />
    <synapse sourceNeuronName = "1" targetNeuronName = "5" weight = "0.48836108946089984" />
    <synapse sourceNeuronName = "1" targetNeuronName = "6" weight = "0.7302072733005633" />
    <synapse sourceNeuronName = "1" targetNeuronName = "7" weight = "-0.01936968325139321" />
    <synapse sourceNeuronName = "1" targetNeuronName = "8" weight = "-0.17419851977573497" />
    <synapse sourceNeuronName = "1" targetNeuronName = "9" weight = "-0.032249435534626336" />
    <synapse sourceNeuronName = "1" targetNeuronName = "10" weight = "-0.5009301614046411" />
    <synapse sourceNeuronName = "1" targetNeuronName = "11" weight = "-0.7165443699718619" />
    <synapse sourceNeuronName = "1" targetNeuronName = "12" weight = "-0.025658182004933083" />
    <synapse sourceNeuronName = "1" targetNeuronName = "13" weight = "-0.3068857077541105" />
    <synapse sourceNeuronName = "2" targetNeuronName = "5" weight = "-0.702129080083294" />
    <synapse sourceNeuronName = "2" targetNeuronName = "6" weight = "-0.8336028763853289" />
    <synapse sourceNeuronName = "2" targetNeuronName = "7" weight = "-0.9700282665837106" />
    <synapse sourceNeuronName = "2" targetNeuronName = "8" weight = "-0.22505087468679075" />
    <synapse sourceNeuronName = "2" targetNeuronName = "9" weight = "-0.8989741327379002" />
    <synapse sourceNeuronName = "2" targetNeuronName = "10" weight = "-0.1934560218900605" />
    <synapse sourceNeuronName = "2" targetNeuronName = "11" weight = "-0.44623510248005305" />
    <synapse sourceNeuronName = "2" targetNeuronName = "12" weight = "-0.80270349736391" />
    <synapse sourceNeuronName = "2" targetNeuronName = "13" weight = "-0.4705506574862055" />
    <synapse sourceNeuronName = "3" targetNeuronName = "5" weight = "0.5753446983813901" />
    <synapse sourceNeuronName = "3" targetNeuronName = "6" weight = "-0.3786366968165231" />
    <synapse sourceNeuronName = "3" targetNeuronName = "7" weight = "0.777396710230146" />
    <synapse sourceNeuronName = "3" targetNeuronName = "8" weight = "0.9159604337926601" />
    <synapse sourceNeuronName = "3" targetNeuronName = "9" weight = "0.8320248268059403" />
    <synapse sourceNeuronName = "3" targetNeuronName = "10" weight = "0.9884810511008275" />
    <synapse sourceNeuronName = "3" targetNeuronName = "11" weight = "0.8277474027365492" />
    <synapse sourceNeuronName = "3" targetNeuronName = "12" weight = "-0.6122923344271471" />
    <synapse sourceNeuronName = "3" targetNeuronName = "13" weight = "-0.300489412837317" />
    <synapse sourceNeuronName = "4" targetNeuronName = "5" weight = "0.6374232412901493" />
    <synapse sourceNeuronName = "4" targetNeuronName = "6" weight = "0.6127001905920384" />
    <synapse sourceNeuronName = "4" targetNeuronName = "7" weight = "0.9665953941598018" />
    <synapse sourceNeuronName = "4" targetNeuronName = "8" weight = "-0.730671881444416" />
    <synapse sourceNeuronName = "4" targetNeuronName = "9" weight = "0.4081244253097793" />
    <synapse sourceNeuronName = "4" targetNeuronName = "10" weight = "0.08595636618149083" />
    <synapse sourceNeuronName = "4" targetNeuronName = "11" weight = "-0.10579388489021957" />
    <synapse sourceNeuronName = "4" targetNeuronName = "12" weight = "-0.9486255346346157" />
    <synapse sourceNeuronName = "4" targetNeuronName = "13" weight = "0.8357321864175082" />
</neuralNetwork>