<neuralNetwork>
    <neuron name = "0" type = "sensor" linkName = "Link1" />
    <neuron name = "1" type = "sensor" linkName = "Link3" />
    <neuron name = "2" type = "sensor" linkName = "Link5" />
    <neuron name = "3" type = "motor"  jointName = "Link0_Link1" />
    <neuron name = "4" type = "motor"  jointName = "Link0_Link2" />
    <neuron name = "5" type = "motor"  jointName = "Link0_Link3" />
    <neuron name = "6" type = "motor"  jointName = "Link3_Link4" />
    <neuron name = "7" type = "motor"  jointName = "Link3_Link5" />
    <neuron name = "8" type = "motor"  jointName = "Link5_Link6" />
    <neuron name = "9" type = "motor"  jointName = "Link2_Link7" />
    <neuron name = "10" type = "motor"  jointName = "Link5_Link8" />
    <synapse sourceNeuronName = "0" targetNeuronName = "3" weight = "0.4798760167127869" />
    <synapse sourceNeuronName = "0" targetNeuronName = "4" weight = "-0.5881974054310954" />
    <synapse sourceNeuronName = "0" targetNeuronName = "5" weight = "0.329729777507082" />
    <synapse sourceNeuronName = "0" targetNeuronName = "6" weight = "-0.584421638849673" />
    <synapse sourceNeuronName = "0" targetNeuronName = "7" weight = "-0.4152728591003505" />
    <synapse sourceNeuronName = "0" targetNeuronName = "8" weight = "0.3082443097114127" />
    <synapse sourceNeuronName = "0" targetNeuronName = "9" weight = "0.7500909189858902" />
    <synapse sourceNeuronName = "0" targetNeuronName = "10" weight = "0.8656866817095241" />
    <synapse sourceNeuronName = "1" targetNeuronName = "3" weight = "0.7896003294152298" />
    <synapse sourceNeuronName = "1" targetNeuronName = "4" weight = "0.501103938146898" />
    <synapse sourceNeuronName = "1" targetNeuronName = "5" weight = "-0.22308472722600192" />
    <synapse sourceNeuronName = "1" targetNeuronName = "6" weight = "0.9593702711594903" />
    <synapse sourceNeuronName = "1" targetNeuronName = "7" weight = "-0.7464767668466521" />
    <synapse sourceNeuronName = "1" targetNeuronName = "8" weight = "0.45200112658295755" />
    <synapse sourceNeuronName = "1" targetNeuronName = "9" weight = "0.7087074439395586" />
    <synapse sourceNeuronName = "1" targetNeuronName = "10" weight = "-0.08686615077074777" />
    <synapse sourceNeuronName = "2" targetNeuronName = "3" weight = "-0.7946785343439209" />
    <synapse sourceNeuronName = "2" targetNeuronName = "4" weight = "0.4535396276872885" />
    <synapse sourceNeuronName = "2" targetNeuronName = "5" weight = "-0.4860161636433331" />
    <synapse sourceNeuronName = "2" targetNeuronName = "6" weight = "-0.002715370012083218" />
    <synapse sourceNeuronName = "2" targetNeuronName = "7" weight = "0.25601975593328885" />
    <synapse sourceNeuronName = "2" targetNeuronName = "8" weight = "0.3786043501094376" />
    <synapse sourceNeuronName = "2" targetNeuronName = "9" weight = "-0.4545912346994285" />
    <synapse sourceNeuronName = "2" targetNeuronName = "10" weight = "0.4435109205281913" />
</neuralNetwork>