<neuralNetwork>
    <neuron name = "0" type = "sensor" linkName = "Link0" />
    <neuron name = "1" type = "sensor" linkName = "Link2" />
    <neuron name = "2" type = "sensor" linkName = "Link3" />
    <neuron name = "3" type = "sensor" linkName = "Link5" />
    <neuron name = "4" type = "sensor" linkName = "Link7" />
    <neuron name = "5" type = "sensor" linkName = "Link11" />
    <neuron name = "6" type = "motor"  jointName = "Link0_Link1" />
    <neuron name = "7" type = "motor"  jointName = "Link0_Link2" />
    <neuron name = "8" type = "motor"  jointName = "Link2_Link3" />
    <neuron name = "9" type = "motor"  jointName = "Link0_Link4" />
    <neuron name = "10" type = "motor"  jointName = "Link0_Link5" />
    <neuron name = "11" type = "motor"  jointName = "Link5_Link6" />
    <neuron name = "12" type = "motor"  jointName = "Link4_Link7" />
    <neuron name = "13" type = "motor"  jointName = "Link7_Link8" />
    <neuron name = "14" type = "motor"  jointName = "Link7_Link9" />
    <neuron name = "15" type = "motor"  jointName = "Link2_Link10" />
    <neuron name = "16" type = "motor"  jointName = "Link6_Link11" />
    <synapse sourceNeuronName = "0" targetNeuronName = "6" weight = "-0.24203268019070068" />
    <synapse sourceNeuronName = "0" targetNeuronName = "7" weight = "-0.18134535701826948" />
    <synapse sourceNeuronName = "0" targetNeuronName = "8" weight = "0.8305657512124518" />
    <synapse sourceNeuronName = "0" targetNeuronName = "9" weight = "0.24307627177855262" />
    <synapse sourceNeuronName = "0" targetNeuronName = "10" weight = "0.010911206095382209" />
    <synapse sourceNeuronName = "0" targetNeuronName = "11" weight = "-0.6582446874668912" />
    <synapse sourceNeuronName = "0" targetNeuronName = "12" weight = "-0.23174001180753923" />
    <synapse sourceNeuronName = "0" targetNeuronName = "13" weight = "-0.4989221318188215" />
    <synapse sourceNeuronName = "0" targetNeuronName = "14" weight = "0.6448676918120118" />
    <synapse sourceNeuronName = "0" targetNeuronName = "15" weight = "-0.8273193836128236" />
    <synapse sourceNeuronName = "0" targetNeuronName = "16" weight = "-0.7220285763946861" />
    <synapse sourceNeuronName = "1" targetNeuronName = "6" weight = "-0.18448206095172082" />
    <synapse sourceNeuronName = "1" targetNeuronName = "7" weight = "0.9608221198852727" />
    <synapse sourceNeuronName = "1" targetNeuronName = "8" weight = "-0.6320016500390946" />
    <synapse sourceNeuronName = "1" targetNeuronName = "9" weight = "-0.1440324324514879" />
    <synapse sourceNeuronName = "1" targetNeuronName = "10" weight = "0.5621619066963806" />
    <synapse sourceNeuronName = "1" targetNeuronName = "11" weight = "0.5287052695275987" />
    <synapse sourceNeuronName = "1" targetNeuronName = "12" weight = "-0.41197511974583745" />
    <synapse sourceNeuronName = "1" targetNeuronName = "13" weight = "0.6553785929833893" />
    <synapse sourceNeuronName = "1" targetNeuronName = "14" weight = "-0.7396761000593262" />
    <synapse sourceNeuronName = "1" targetNeuronName = "15" weight = "-0.3509556241555072" />
    <synapse sourceNeuronName = "1" targetNeuronName = "16" weight = "-0.17510817086964736" />
    <synapse sourceNeuronName = "2" targetNeuronName = "6" weight = "-0.18569899199611872" />
    <synapse sourceNeuronName = "2" targetNeuronName = "7" weight = "-0.7922533644013368" />
    <synapse sourceNeuronName = "2" targetNeuronName = "8" weight = "0.6641053864556816" />
    <synapse sourceNeuronName = "2" targetNeuronName = "9" weight = "-0.7999259807366734" />
    <synapse sourceNeuronName = "2" targetNeuronName = "10" weight = "0.31912062022597754" />
    <synapse sourceNeuronName = "2" targetNeuronName = "11" weight = "0.11077029566274366" />
    <synapse sourceNeuronName = "2" targetNeuronName = "12" weight = "0.4668234429433433" />
    <synapse sourceNeuronName = "2" targetNeuronName = "13" weight = "0.35830608452274704" />
    <synapse sourceNeuronName = "2" targetNeuronName = "14" weight = "0.4038897165151931" />
    <synapse sourceNeuronName = "2" targetNeuronName = "15" weight = "-0.8388088389740709" />
    <synapse sourceNeuronName = "2" targetNeuronName = "16" weight = "0.843393415536714" />
    <synapse sourceNeuronName = "3" targetNeuronName = "6" weight = "0.16550927736403187" />
    <synapse sourceNeuronName = "3" targetNeuronName = "7" weight = "0.21073033234498584" />
    <synapse sourceNeuronName = "3" targetNeuronName = "8" weight = "-0.15840985919982398" />
    <synapse sourceNeuronName = "3" targetNeuronName = "9" weight = "-0.9844526874292241" />
    <synapse sourceNeuronName = "3" targetNeuronName = "10" weight = "0.4505583488620797" />
    <synapse sourceNeuronName = "3" targetNeuronName = "11" weight = "-0.8118994975131144" />
    <synapse sourceNeuronName = "3" targetNeuronName = "12" weight = "-0.7389867155072416" />
    <synapse sourceNeuronName = "3" targetNeuronName = "13" weight = "-0.8473635281606582" />
    <synapse sourceNeuronName = "3" targetNeuronName = "14" weight = "0.45730325074316536" />
    <synapse sourceNeuronName = "3" targetNeuronName = "15" weight = "-0.9938460163671221" />
    <synapse sourceNeuronName = "3" targetNeuronName = "16" weight = "-0.0843590372482117" />
    <synapse sourceNeuronName = "4" targetNeuronName = "6" weight = "0.494351091565455" />
    <synapse sourceNeuronName = "4" targetNeuronName = "7" weight = "-0.37745643402152274" />
    <synapse sourceNeuronName = "4" targetNeuronName = "8" weight = "0.6224841591923451" />
    <synapse sourceNeuronName = "4" targetNeuronName = "9" weight = "-0.09784884172525254" />
    <synapse sourceNeuronName = "4" targetNeuronName = "10" weight = "0.723269029088653" />
    <synapse sourceNeuronName = "4" targetNeuronName = "11" weight = "-0.3617824250263242" />
    <synapse sourceNeuronName = "4" targetNeuronName = "12" weight = "0.9414087033858733" />
    <synapse sourceNeuronName = "4" targetNeuronName = "13" weight = "0.8413978802405702" />
    <synapse sourceNeuronName = "4" targetNeuronName = "14" weight = "0.7003407955401526" />
    <synapse sourceNeuronName = "4" targetNeuronName = "15" weight = "-0.6235025698748098" />
    <synapse sourceNeuronName = "4" targetNeuronName = "16" weight = "-0.4810459273390628" />
    <synapse sourceNeuronName = "5" targetNeuronName = "6" weight = "0.9964230856113254" />
    <synapse sourceNeuronName = "5" targetNeuronName = "7" weight = "0.2633281251061219" />
    <synapse sourceNeuronName = "5" targetNeuronName = "8" weight = "-0.379280130540141" />
    <synapse sourceNeuronName = "5" targetNeuronName = "9" weight = "0.975388013044395" />
    <synapse sourceNeuronName = "5" targetNeuronName = "10" weight = "-0.41883538987419744" />
    <synapse sourceNeuronName = "5" targetNeuronName = "11" weight = "-0.3148783709882612" />
    <synapse sourceNeuronName = "5" targetNeuronName = "12" weight = "-0.27631684302484194" />
    <synapse sourceNeuronName = "5" targetNeuronName = "13" weight = "-0.9340004586439221" />
    <synapse sourceNeuronName = "5" targetNeuronName = "14" weight = "-0.10737882027325396" />
    <synapse sourceNeuronName = "5" targetNeuronName = "15" weight = "0.6498433790229681" />
    <synapse sourceNeuronName = "5" targetNeuronName = "16" weight = "0.04566247915359245" />
</neuralNetwork>