<neuralNetwork>
    <neuron name = "0" type = "sensor" linkName = "Link5" />
    <neuron name = "1" type = "sensor" linkName = "Link10" />
    <neuron name = "2" type = "sensor" linkName = "Link11" />
    <neuron name = "3" type = "motor"  jointName = "Link0_Link1" />
    <neuron name = "4" type = "motor"  jointName = "Link0_Link2" />
    <neuron name = "5" type = "motor"  jointName = "Link0_Link3" />
    <neuron name = "6" type = "motor"  jointName = "Link1_Link4" />
    <neuron name = "7" type = "motor"  jointName = "Link4_Link5" />
    <neuron name = "8" type = "motor"  jointName = "Link0_Link6" />
    <neuron name = "9" type = "motor"  jointName = "Link2_Link7" />
    <neuron name = "10" type = "motor"  jointName = "Link2_Link8" />
    <neuron name = "11" type = "motor"  jointName = "Link0_Link9" />
    <neuron name = "12" type = "motor"  jointName = "Link1_Link10" />
    <neuron name = "13" type = "motor"  jointName = "Link2_Link11" />
    <synapse sourceNeuronName = "0" targetNeuronName = "3" weight = "0.982909930057406" />
    <synapse sourceNeuronName = "0" targetNeuronName = "4" weight = "-0.6620119224160201" />
    <synapse sourceNeuronName = "0" targetNeuronName = "5" weight = "-0.5401256056285315" />
    <synapse sourceNeuronName = "0" targetNeuronName = "6" weight = "-0.45593912475680853" />
    <synapse sourceNeuronName = "0" targetNeuronName = "7" weight = "-0.28806670966702064" />
    <synapse sourceNeuronName = "0" targetNeuronName = "8" weight = "0.9150295464156537" />
    <synapse sourceNeuronName = "0" targetNeuronName = "9" weight = "0.41780618629483524" />
    <synapse sourceNeuronName = "0" targetNeuronName = "10" weight = "-0.5937763609941764" />
    <synapse sourceNeuronName = "0" targetNeuronName = "11" weight = "-0.20924410971618945" />
    <synapse sourceNeuronName = "0" targetNeuronName = "12" weight = "-0.23092790802263297" />
    <synapse sourceNeuronName = "0" targetNeuronName = "13" weight = "-0.14908924217632968" />
    <synapse sourceNeuronName = "1" targetNeuronName = "3" weight = "0.5112879133231898" />
    <synapse sourceNeuronName = "1" targetNeuronName = "4" weight = "0.021662271297582247" />
    <synapse sourceNeuronName = "1" targetNeuronName = "5" weight = "0.8446947143854597" />
    <synapse sourceNeuronName = "1" targetNeuronName = "6" weight = "-0.8190522603358985" />
    <synapse sourceNeuronName = "1" targetNeuronName = "7" weight = "0.05291212459168926" />
    <synapse sourceNeuronName = "1" targetNeuronName = "8" weight = "-0.8324573286322501" />
    <synapse sourceNeuronName = "1" targetNeuronName = "9" weight = "-0.5191452673087185" />
    <synapse sourceNeuronName = "1" targetNeuronName = "10" weight = "0.18256076456232506" />
    <synapse sourceNeuronName = "1" targetNeuronName = "11" weight = "-0.11427512969318987" />
    <synapse sourceNeuronName = "1" targetNeuronName = "12" weight = "-0.5043114158284583" />
    <synapse sourceNeuronName = "1" targetNeuronName = "13" weight = "-0.3112276374898253" />
    <synapse sourceNeuronName = "2" targetNeuronName = "3" weight = "0.8389611427567298" />
    <synapse sourceNeuronName = "2" targetNeuronName = "4" weight = "-0.4467256957404391" />
    <synapse sourceNeuronName = "2" targetNeuronName = "5" weight = "0.3736291267141283" />
    <synapse sourceNeuronName = "2" targetNeuronName = "6" weight = "0.41744106539090486" />
    <synapse sourceNeuronName = "2" targetNeuronName = "7" weight = "-0.6953984273616489" />
    <synapse sourceNeuronName = "2" targetNeuronName = "8" weight = "0.8402797306675358" />
    <synapse sourceNeuronName = "2" targetNeuronName = "9" weight = "-0.7824191636196038" />
    <synapse sourceNeuronName = "2" targetNeuronName = "10" weight = "0.3464835392215755" />
    <synapse sourceNeuronName = "2" targetNeuronName = "11" weight = "-0.07923313142349953" />
    <synapse sourceNeuronName = "2" targetNeuronName = "12" weight = "-0.08821902011442684" />
    <synapse sourceNeuronName = "2" targetNeuronName = "13" weight = "0.5790547374055335" />
</neuralNetwork>