<neuralNetwork>
    <neuron name = "0" type = "sensor" linkName = "Link1" />
    <neuron name = "1" type = "sensor" linkName = "Link2" />
    <neuron name = "2" type = "sensor" linkName = "Link3" />
    <neuron name = "3" type = "sensor" linkName = "Link4" />
    <neuron name = "4" type = "sensor" linkName = "Link5" />
    <neuron name = "5" type = "motor"  jointName = "Link0_Link1" />
    <neuron name = "6" type = "motor"  jointName = "Link0_Link2" />
    <neuron name = "7" type = "motor"  jointName = "Link2_Link3" />
    <neuron name = "8" type = "motor"  jointName = "Link1_Link4" />
    <neuron name = "9" type = "motor"  jointName = "Link1_Link5" />
    <neuron name = "10" type = "motor"  jointName = "Link2_Link6" />
    <synapse sourceNeuronName = "0" targetNeuronName = "5" weight = "0.3980132946772459" />
    <synapse sourceNeuronName = "0" targetNeuronName = "6" weight = "0.7388410624876205" />
    <synapse sourceNeuronName = "0" targetNeuronName = "7" weight = "-0.5341979305928442" />
    <synapse sourceNeuronName = "0" targetNeuronName = "8" weight = "0.6799918934784133" />
    <synapse sourceNeuronName = "0" targetNeuronName = "9" weight = "0.4558407096104755" />
    <synapse sourceNeuronName = "0" targetNeuronName = "10" weight = "-0.7687399227854173" />
    <synapse sourceNeuronName = "1" targetNeuronName = "5" weight = "-0.5704532876262913" />
    <synapse sourceNeuronName = "1" targetNeuronName = "6" weight = "-0.27314256086857647" />
    <synapse sourceNeuronName = "1" targetNeuronName = "7" weight = "-0.6779410498036254" />
    <synapse sourceNeuronName = "1" targetNeuronName = "8" weight = "0.5348085803105036" />
    <synapse sourceNeuronName = "1" targetNeuronName = "9" weight = "0.969905912129565" />
    <synapse sourceNeuronName = "1" targetNeuronName = "10" weight = "0.25040894250584667" />
    <synapse sourceNeuronName = "2" targetNeuronName = "5" weight = "-0.7921972216087816" />
    <synapse sourceNeuronName = "2" targetNeuronName = "6" weight = "0.8374713813397099" />
    <synapse sourceNeuronName = "2" targetNeuronName = "7" weight = "-0.977423005615313" />
    <synapse sourceNeuronName = "2" targetNeuronName = "8" weight = "0.7460469685149442" />
    <synapse sourceNeuronName = "2" targetNeuronName = "9" weight = "-0.36967134413868297" />
    <synapse sourceNeuronName = "2" targetNeuronName = "10" weight = "-0.2716383629879344" />
    <synapse sourceNeuronName = "3" targetNeuronName = "5" weight = "-0.5740874274341969" />
    <synapse sourceNeuronName = "3" targetNeuronName = "6" weight = "-0.7628894498179923" />
    <synapse sourceNeuronName = "3" targetNeuronName = "7" weight = "0.5790153279302863" />
    <synapse sourceNeuronName = "3" targetNeuronName = "8" weight = "0.04101718705188495" />
    <synapse sourceNeuronName = "3" targetNeuronName = "9" weight = "-0.5273476723426986" />
    <synapse sourceNeuronName = "3" targetNeuronName = "10" weight = "0.34540926349160195" />
    <synapse sourceNeuronName = "4" targetNeuronName = "5" weight = "-0.3046014050007737" />
    <synapse sourceNeuronName = "4" targetNeuronName = "6" weight = "0.1942908263895584" />
    <synapse sourceNeuronName = "4" targetNeuronName = "7" weight = "0.7790812470804505" />
    <synapse sourceNeuronName = "4" targetNeuronName = "8" weight = "0.9334867364014823" />
    <synapse sourceNeuronName = "4" targetNeuronName = "9" weight = "-0.07677848455534897" />
    <synapse sourceNeuronName = "4" targetNeuronName = "10" weight = "0.9780932785440548" />
</neuralNetwork>