<neuralNetwork>
    <neuron name = "0" type = "sensor" linkName = "Link6" />
    <neuron name = "1" type = "sensor" linkName = "Link11" />
    <neuron name = "2" type = "sensor" linkName = "Link12" />
    <neuron name = "3" type = "sensor" linkName = "Link13" />
    <neuron name = "4" type = "sensor" linkName = "Link14" />
    <neuron name = "5" type = "sensor" linkName = "Link15" />
    <neuron name = "6" type = "motor"  jointName = "Link0_Link1" />
    <neuron name = "7" type = "motor"  jointName = "Link1_Link2" />
    <neuron name = "8" type = "motor"  jointName = "Link2_Link3" />
    <neuron name = "9" type = "motor"  jointName = "Link1_Link4" />
    <neuron name = "10" type = "motor"  jointName = "Link1_Link5" />
    <neuron name = "11" type = "motor"  jointName = "Link0_Link6" />
    <neuron name = "12" type = "motor"  jointName = "Link5_Link7" />
    <neuron name = "13" type = "motor"  jointName = "Link3_Link8" />
    <neuron name = "14" type = "motor"  jointName = "Link5_Link9" />
    <neuron name = "15" type = "motor"  jointName = "Link8_Link10" />
    <neuron name = "16" type = "motor"  jointName = "Link4_Link11" />
    <neuron name = "17" type = "motor"  jointName = "Link10_Link12" />
    <neuron name = "18" type = "motor"  jointName = "Link11_Link13" />
    <neuron name = "19" type = "motor"  jointName = "Link3_Link14" />
    <neuron name = "20" type = "motor"  jointName = "Link13_Link15" />
    <synapse sourceNeuronName = "0" targetNeuronName = "6" weight = "0.471846695620594" />
    <synapse sourceNeuronName = "0" targetNeuronName = "7" weight = "0.7059062230523963" />
    <synapse sourceNeuronName = "0" targetNeuronName = "8" weight = "-0.1549517779175471" />
    <synapse sourceNeuronName = "0" targetNeuronName = "9" weight = "-0.12899012070232962" />
    <synapse sourceNeuronName = "0" targetNeuronName = "10" weight = "0.9131153978884525" />
    <synapse sourceNeuronName = "0" targetNeuronName = "11" weight = "-0.5076390960479735" />
    <synapse sourceNeuronName = "0" targetNeuronName = "12" weight = "0.49510211395750314" />
    <synapse sourceNeuronName = "0" targetNeuronName = "13" weight = "-0.13940328252398348" />
    <synapse sourceNeuronName = "0" targetNeuronName = "14" weight = "0.26687057827044347" />
    <synapse sourceNeuronName = "0" targetNeuronName = "15" weight = "-0.5496504563740876" />
    <synapse sourceNeuronName = "0" targetNeuronName = "16" weight = "-0.6136029574435622" />
    <synapse sourceNeuronName = "0" targetNeuronName = "17" weight = "-0.3375438492398657" />
    <synapse sourceNeuronName = "0" targetNeuronName = "18" weight = "-0.70221440733319" />
    <synapse sourceNeuronName = "0" targetNeuronName = "19" weight = "-0.20066405165808132" />
    <synapse sourceNeuronName = "0" targetNeuronName = "20" weight = "-0.3512687583344105" />
    <synapse sourceNeuronName = "1" targetNeuronName = "6" weight = "-0.8554544942091644" />
    <synapse sourceNeuronName = "1" targetNeuronName = "7" weight = "0.5499375360724839" />
    <synapse sourceNeuronName = "1" targetNeuronName = "8" weight = "0.2599345334814638" />
    <synapse sourceNeuronName = "1" targetNeuronName = "9" weight = "0.9971857769559622" />
    <synapse sourceNeuronName = "1" targetNeuronName = "10" weight = "0.13934105196657764" />
    <synapse sourceNeuronName = "1" targetNeuronName = "11" weight = "0.5611749269319888" />
    <synapse sourceNeuronName = "1" targetNeuronName = "12" weight = "-0.7386900884495551" />
    <synapse sourceNeuronName = "1" targetNeuronName = "13" weight = "0.6632819726574319" />
    <synapse sourceNeuronName = "1" targetNeuronName = "14" weight = "0.10814549152304576" />
    <synapse sourceNeuronName = "1" targetNeuronName = "15" weight = "0.7933672981848561" />
    <synapse sourceNeuronName = "1" targetNeuronName = "16" weight = "-0.2878398473437733" />
    <synapse sourceNeuronName = "1" targetNeuronName = "17" weight = "0.2868583085880645" />
    <synapse sourceNeuronName = "1" targetNeuronName = "18" weight = "-0.18753637405164625" />
    <synapse sourceNeuronName = "1" targetNeuronName = "19" weight = "-0.2847710934048755" />
    <synapse sourceNeuronName = "1" targetNeuronName = "20" weight = "-0.7201644379706604" />
    <synapse sourceNeuronName = "2" targetNeuronName = "6" weight = "0.20740132673109546" />
    <synapse sourceNeuronName = "2" targetNeuronName = "7" weight = "-0.32180993431073635" />
    <synapse sourceNeuronName = "2" targetNeuronName = "8" weight = "-0.1761287775451108" />
    <synapse sourceNeuronName = "2" targetNeuronName = "9" weight = "0.6987580573752388" />
    <synapse sourceNeuronName = "2" targetNeuronName = "10" weight = "-0.5062089769150806" />
    <synapse sourceNeuronName = "2" targetNeuronName = "11" weight = "-0.17550659994417583" />
    <synapse sourceNeuronName = "2" targetNeuronName = "12" weight = "0.08826626001306503" />
    <synapse sourceNeuronName = "2" targetNeuronName = "13" weight = "-0.6809827613997586" />
    <synapse sourceNeuronName = "2" targetNeuronName = "14" weight = "0.29283210894200296" />
    <synapse sourceNeuronName = "2" targetNeuronName = "15" weight = "0.6163370363249556" />
    <synapse sourceNeuronName = "2" targetNeuronName = "16" weight = "0.33891347550372086" />
    <synapse sourceNeuronName = "2" targetNeuronName = "17" weight = "0.2143800611277984" />
    <synapse sourceNeuronName = "2" targetNeuronName = "18" weight = "-0.026681168341299077" />
    <synapse sourceNeuronName = "2" targetNeuronName = "19" weight = "-0.46767799801279053" />
    <synapse sourceNeuronName = "2" targetNeuronName = "20" weight = "0.3017766373385711" />
    <synapse sourceNeuronName = "3" targetNeuronName = "6" weight = "-0.6819827672387" />
    <synapse sourceNeuronName = "3" targetNeuronName = "7" weight = "0.5163867140157565" />
    <synapse sourceNeuronName = "3" targetNeuronName = "8" weight = "0.33291015825560355" />
    <synapse sourceNeuronName = "3" targetNeuronName = "9" weight = "0.8729167010465122" />
    <synapse sourceNeuronName = "3" targetNeuronName = "10" weight = "0.9682152311788708" />
    <synapse sourceNeuronName = "3" targetNeuronName = "11" weight = "0.24962611014883995" />
    <synapse sourceNeuronName = "3" targetNeuronName = "12" weight = "0.19549631878089202" />
    <synapse sourceNeuronName = "3" targetNeuronName = "13" weight = "0.6278464970529463" />
    <synapse sourceNeuronName = "3" targetNeuronName = "14" weight = "0.5639208724948179" />
    <synapse sourceNeuronName = "3" targetNeuronName = "15" weight = "0.006326438853107241" />
    <synapse sourceNeuronName = "3" targetNeuronName = "16" weight = "-0.5311216256807731" />
    <synapse sourceNeuronName = "3" targetNeuronName = "17" weight = "-0.30236806852481224" />
    <synapse sourceNeuronName = "3" targetNeuronName = "18" weight = "-0.002346719354184623" />
    <synapse sourceNeuronName = "3" targetNeuronName = "19" weight = "-0.7247603414106676" />
    <synapse sourceNeuronName = "3" targetNeuronName = "20" weight = "0.09290165608393663" />
    <synapse sourceNeuronName = "4" targetNeuronName = "6" weight = "0.43708495639444434" />
    <synapse sourceNeuronName = "4" targetNeuronName = "7" weight = "0.3596417161997052" />
    <synapse sourceNeuronName = "4" targetNeuronName = "8" weight = "-0.028629032081307182" />
    <synapse sourceNeuronName = "4" targetNeuronName = "9" weight = "0.44722615580572733" />
    <synapse sourceNeuronName = "4" targetNeuronName = "10" weight = "-0.08032960594102945" />
    <synapse sourceNeuronName = "4" targetNeuronName = "11" weight = "0.050448267484839215" />
    <synapse sourceNeuronName = "4" targetNeuronName = "12" weight = "-0.8030778244551064" />
    <synapse sourceNeuronName = "4" targetNeuronName = "13" weight = "-0.37041209553941434" />
    <synapse sourceNeuronName = "4" targetNeuronName = "14" weight = "0.3535705173260275" />
    <synapse sourceNeuronName = "4" targetNeuronName = "15" weight = "-0.7098395133513231" />
    <synapse sourceNeuronName = "4" targetNeuronName = "16" weight = "0.4347160894753843" />
    <synapse sourceNeuronName = "4" targetNeuronName = "17" weight = "-0.9463049642622308" />
    <synapse sourceNeuronName = "4" targetNeuronName = "18" weight = "0.8595864925005452" />
    <synapse sourceNeuronName = "4" targetNeuronName = "19" weight = "0.15995183514380895" />
    <synapse sourceNeuronName = "4" targetNeuronName = "20" weight = "-0.03816954412522189" />
    <synapse sourceNeuronName = "5" targetNeuronName = "6" weight = "0.8968434458970125" />
    <synapse sourceNeuronName = "5" targetNeuronName = "7" weight = "-0.22853580942440965" />
    <synapse sourceNeuronName = "5" targetNeuronName = "8" weight = "0.7191579915252766" />
    <synapse sourceNeuronName = "5" targetNeuronName = "9" weight = "0.7666057542207303" />
    <synapse sourceNeuronName = "5" targetNeuronName = "10" weight = "0.1590222923087743" />
    <synapse sourceNeuronName = "5" targetNeuronName = "11" weight = "0.5992482302799402" />
    <synapse sourceNeuronName = "5" targetNeuronName = "12" weight = "0.32995040163858635" />
    <synapse sourceNeuronName = "5" targetNeuronName = "13" weight = "0.6712164472416673" />
    <synapse sourceNeuronName = "5" targetNeuronName = "14" weight = "-0.04955697987337859" />
    <synapse sourceNeuronName = "5" targetNeuronName = "15" weight = "0.8005989075857698" />
    <synapse sourceNeuronName = "5" targetNeuronName = "16" weight = "0.07073711699816676" />
    <synapse sourceNeuronName = "5" targetNeuronName = "17" weight = "-0.10729843682275497" />
    <synapse sourceNeuronName = "5" targetNeuronName = "18" weight = "0.29430588275640934" />
    <synapse sourceNeuronName = "5" targetNeuronName = "19" weight = "-0.18977855684380285" />
    <synapse sourceNeuronName = "5" targetNeuronName = "20" weight = "-0.6509813425325481" />
</neuralNetwork>