<neuralNetwork>
    <neuron name = "0" type = "sensor" linkName = "Link1" />
    <neuron name = "1" type = "sensor" linkName = "Link3" />
    <neuron name = "2" type = "sensor" linkName = "Link8" />
    <neuron name = "3" type = "motor"  jointName = "Link0_Link1" />
    <neuron name = "4" type = "motor"  jointName = "Link0_Link2" />
    <neuron name = "5" type = "motor"  jointName = "Link2_Link3" />
    <neuron name = "6" type = "motor"  jointName = "Link1_Link4" />
    <neuron name = "7" type = "motor"  jointName = "Link4_Link5" />
    <neuron name = "8" type = "motor"  jointName = "Link5_Link6" />
    <neuron name = "9" type = "motor"  jointName = "Link5_Link7" />
    <neuron name = "10" type = "motor"  jointName = "Link4_Link8" />
    <synapse sourceNeuronName = "0" targetNeuronName = "3" weight = "-0.4055772750221327" />
    <synapse sourceNeuronName = "0" targetNeuronName = "4" weight = "-0.9075949914007915" />
    <synapse sourceNeuronName = "0" targetNeuronName = "5" weight = "0.9213438244242123" />
    <synapse sourceNeuronName = "0" targetNeuronName = "6" weight = "0.18244726081600837" />
    <synapse sourceNeuronName = "0" targetNeuronName = "7" weight = "0.19076916274358413" />
    <synapse sourceNeuronName = "0" targetNeuronName = "8" weight = "0.2888901636515988" />
    <synapse sourceNeuronName = "0" targetNeuronName = "9" weight = "0.26143156378761856" />
    <synapse sourceNeuronName = "0" targetNeuronName = "10" weight = "-0.9786964411621872" />
    <synapse sourceNeuronName = "1" targetNeuronName = "3" weight = "0.6293061307870744" />
    <synapse sourceNeuronName = "1" targetNeuronName = "4" weight = "-0.5751747795407698" />
    <synapse sourceNeuronName = "1" targetNeuronName = "5" weight = "0.6295767725320505" />
    <synapse sourceNeuronName = "1" targetNeuronName = "6" weight = "0.5671673706924121" />
    <synapse sourceNeuronName = "1" targetNeuronName = "7" weight = "0.13850402640359438" />
    <synapse sourceNeuronName = "1" targetNeuronName = "8" weight = "0.8973027842755015" />
    <synapse sourceNeuronName = "1" targetNeuronName = "9" weight = "0.13426347823442275" />
    <synapse sourceNeuronName = "1" targetNeuronName = "10" weight = "-0.4118739588321372" />
    <synapse sourceNeuronName = "2" targetNeuronName = "3" weight = "0.4643782271415915" />
    <synapse sourceNeuronName = "2" targetNeuronName = "4" weight = "0.9406502424157301" />
    <synapse sourceNeuronName = "2" targetNeuronName = "5" weight = "-0.6634850487047277" />
    <synapse sourceNeuronName = "2" targetNeuronName = "6" weight = "0.6783396768834744" />
    <synapse sourceNeuronName = "2" targetNeuronName = "7" weight = "-0.956064355889956" />
    <synapse sourceNeuronName = "2" targetNeuronName = "8" weight = "0.2681790480219799" />
    <synapse sourceNeuronName = "2" targetNeuronName = "9" weight = "-0.10207594973587364" />
    <synapse sourceNeuronName = "2" targetNeuronName = "10" weight = "-0.4363820060222292" />
</neuralNetwork>