<neuralNetwork>
    <neuron name = "0" type = "sensor" linkName = "Link0" />
    <neuron name = "1" type = "sensor" linkName = "Link1" />
    <neuron name = "2" type = "sensor" linkName = "Link4" />
    <neuron name = "3" type = "sensor" linkName = "Link5" />
    <neuron name = "4" type = "sensor" linkName = "Link6" />
    <neuron name = "5" type = "sensor" linkName = "Link9" />
    <neuron name = "6" type = "motor"  jointName = "Link0_Link1" />
    <neuron name = "7" type = "motor"  jointName = "Link0_Link2" />
    <neuron name = "8" type = "motor"  jointName = "Link0_Link3" />
    <neuron name = "9" type = "motor"  jointName = "Link2_Link4" />
    <neuron name = "10" type = "motor"  jointName = "Link3_Link5" />
    <neuron name = "11" type = "motor"  jointName = "Link4_Link6" />
    <neuron name = "12" type = "motor"  jointName = "Link0_Link7" />
    <neuron name = "13" type = "motor"  jointName = "Link3_Link8" />
    <neuron name = "14" type = "motor"  jointName = "Link1_Link9" />
    <synapse sourceNeuronName = "0" targetNeuronName = "6" weight = "0.15615847315844333" />
    <synapse sourceNeuronName = "0" targetNeuronName = "7" weight = "0.8750003186660742" />
    <synapse sourceNeuronName = "0" targetNeuronName = "8" weight = "0.49661229440586596" />
    <synapse sourceNeuronName = "0" targetNeuronName = "9" weight = "0.6897384570844718" />
    <synapse sourceNeuronName = "0" targetNeuronName = "10" weight = "-0.7647851039582902" />
    <synapse sourceNeuronName = "0" targetNeuronName = "11" weight = "-0.4476116890189088" />
    <synapse sourceNeuronName = "0" targetNeuronName = "12" weight = "-0.23076032510170075" />
    <synapse sourceNeuronName = "0" targetNeuronName = "13" weight = "0.2591489099355042" />
    <synapse sourceNeuronName = "0" targetNeuronName = "14" weight = "0.5356132905693041" />
    <synapse sourceNeuronName = "1" targetNeuronName = "6" weight = "0.1344687446208619" />
    <synapse sourceNeuronName = "1" targetNeuronName = "7" weight = "0.5350804098057393" />
    <synapse sourceNeuronName = "1" targetNeuronName = "8" weight = "-0.2706901379752822" />
    <synapse sourceNeuronName = "1" targetNeuronName = "9" weight = "-0.8673468853071633" />
    <synapse sourceNeuronName = "1" targetNeuronName = "10" weight = "0.8242844225372943" />
    <synapse sourceNeuronName = "1" targetNeuronName = "11" weight = "-0.2549312127116603" />
    <synapse sourceNeuronName = "1" targetNeuronName = "12" weight = "0.0357485991859221" />
    <synapse sourceNeuronName = "1" targetNeuronName = "13" weight = "-0.38335870709639486" />
    <synapse sourceNeuronName = "1" targetNeuronName = "14" weight = "0.30648470533713623" />
    <synapse sourceNeuronName = "2" targetNeuronName = "6" weight = "-0.6291326388792726" />
    <synapse sourceNeuronName = "2" targetNeuronName = "7" weight = "-0.503763149554358" />
    <synapse sourceNeuronName = "2" targetNeuronName = "8" weight = "-0.7362267356718464" />
    <synapse sourceNeuronName = "2" targetNeuronName = "9" weight = "0.14765615502968554" />
    <synapse sourceNeuronName = "2" targetNeuronName = "10" weight = "-0.930442614335478" />
    <synapse sourceNeuronName = "2" targetNeuronName = "11" weight = "0.5755369928974865" />
    <synapse sourceNeuronName = "2" targetNeuronName = "12" weight = "0.8805184537060831" />
    <synapse sourceNeuronName = "2" targetNeuronName = "13" weight = "0.7277914284593574" />
    <synapse sourceNeuronName = "2" targetNeuronName = "14" weight = "0.947519978267044" />
    <synapse sourceNeuronName = "3" targetNeuronName = "6" weight = "0.8742670755336437" />
    <synapse sourceNeuronName = "3" targetNeuronName = "7" weight = "-0.9556337100258798" />
    <synapse sourceNeuronName = "3" targetNeuronName = "8" weight = "-0.6415931713983105" />
    <synapse sourceNeuronName = "3" targetNeuronName = "9" weight = "0.26937284628573366" />
    <synapse sourceNeuronName = "3" targetNeuronName = "10" weight = "-0.5784949983920591" />
    <synapse sourceNeuronName = "3" targetNeuronName = "11" weight = "0.43947306263448005" />
    <synapse sourceNeuronName = "3" targetNeuronName = "12" weight = "0.06859981696982143" />
    <synapse sourceNeuronName = "3" targetNeuronName = "13" weight = "-0.8607906359429969" />
    <synapse sourceNeuronName = "3" targetNeuronName = "14" weight = "0.9859768870521826" />
    <synapse sourceNeuronName = "4" targetNeuronName = "6" weight = "-0.4351409039480132" />
    <synapse sourceNeuronName = "4" targetNeuronName = "7" weight = "-0.39761460077295174" />
    <synapse sourceNeuronName = "4" targetNeuronName = "8" weight = "0.8006000773458024" />
    <synapse sourceNeuronName = "4" targetNeuronName = "9" weight = "0.7907372762829954" />
    <synapse sourceNeuronName = "4" targetNeuronName = "10" weight = "0.665163574679507" />
    <synapse sourceNeuronName = "4" targetNeuronName = "11" weight = "-0.4245855713884321" />
    <synapse sourceNeuronName = "4" targetNeuronName = "12" weight = "-0.7721083266845299" />
    <synapse sourceNeuronName = "4" targetNeuronName = "13" weight = "-0.5735160606144964" />
    <synapse sourceNeuronName = "4" targetNeuronName = "14" weight = "0.5430997404404714" />
    <synapse sourceNeuronName = "5" targetNeuronName = "6" weight = "-0.6095246414335127" />
    <synapse sourceNeuronName = "5" targetNeuronName = "7" weight = "-0.33448021910162673" />
    <synapse sourceNeuronName = "5" targetNeuronName = "8" weight = "0.921151896251494" />
    <synapse sourceNeuronName = "5" targetNeuronName = "9" weight = "-0.40586383191938924" />
    <synapse sourceNeuronName = "5" targetNeuronName = "10" weight = "0.7999967165020703" />
    <synapse sourceNeuronName = "5" targetNeuronName = "11" weight = "-0.2860370133968311" />
    <synapse sourceNeuronName = "5" targetNeuronName = "12" weight = "0.06692035994147782" />
    <synapse sourceNeuronName = "5" targetNeuronName = "13" weight = "-0.22961533096850517" />
    <synapse sourceNeuronName = "5" targetNeuronName = "14" weight = "0.1323251420657583" />
</neuralNetwork>