<neuralNetwork>
    <neuron name = "0" type = "sensor" linkName = "Link2" />
    <neuron name = "1" type = "sensor" linkName = "Link3" />
    <neuron name = "2" type = "sensor" linkName = "Link7" />
    <neuron name = "3" type = "sensor" linkName = "Link8" />
    <neuron name = "4" type = "sensor" linkName = "Link12" />
    <neuron name = "5" type = "sensor" linkName = "Link13" />
    <neuron name = "6" type = "motor"  jointName = "Link0_Link1" />
    <neuron name = "7" type = "motor"  jointName = "Link1_Link2" />
    <neuron name = "8" type = "motor"  jointName = "Link2_Link3" />
    <neuron name = "9" type = "motor"  jointName = "Link2_Link4" />
    <neuron name = "10" type = "motor"  jointName = "Link4_Link5" />
    <neuron name = "11" type = "motor"  jointName = "Link2_Link6" />
    <neuron name = "12" type = "motor"  jointName = "Link5_Link7" />
    <neuron name = "13" type = "motor"  jointName = "Link5_Link8" />
    <neuron name = "14" type = "motor"  jointName = "Link3_Link9" />
    <neuron name = "15" type = "motor"  jointName = "Link3_Link10" />
    <neuron name = "16" type = "motor"  jointName = "Link3_Link11" />
    <neuron name = "17" type = "motor"  jointName = "Link5_Link12" />
    <neuron name = "18" type = "motor"  jointName = "Link5_Link13" />
    <neuron name = "19" type = "motor"  jointName = "Link1_Link14" />
    <synapse sourceNeuronName = "0" targetNeuronName = "6" weight = "0.10290731874339265" />
    <synapse sourceNeuronName = "0" targetNeuronName = "7" weight = "-0.6290203057980166" />
    <synapse sourceNeuronName = "0" targetNeuronName = "8" weight = "0.7506385470713786" />
    <synapse sourceNeuronName = "0" targetNeuronName = "9" weight = "0.4059975651767451" />
    <synapse sourceNeuronName = "0" targetNeuronName = "10" weight = "0.017713967251739238" />
    <synapse sourceNeuronName = "0" targetNeuronName = "11" weight = "-0.0162603563881496" />
    <synapse sourceNeuronName = "0" targetNeuronName = "12" weight = "0.7161900013975218" />
    <synapse sourceNeuronName = "0" targetNeuronName = "13" weight = "-0.8623353983772939" />
    <synapse sourceNeuronName = "0" targetNeuronName = "14" weight = "0.1268167407578229" />
    <synapse sourceNeuronName = "0" targetNeuronName = "15" weight = "0.014476199775967258" />
    <synapse sourceNeuronName = "0" targetNeuronName = "16" weight = "-0.8500781248443103" />
    <synapse sourceNeuronName = "0" targetNeuronName = "17" weight = "0.6150445112138498" />
    <synapse sourceNeuronName = "0" targetNeuronName = "18" weight = "0.499802494296274" />
    <synapse sourceNeuronName = "0" targetNeuronName = "19" weight = "-0.33048651226788217" />
    <synapse sourceNeuronName = "1" targetNeuronName = "6" weight = "-0.7456524904422936" />
    <synapse sourceNeuronName = "1" targetNeuronName = "7" weight = "0.5128298502801192" />
    <synapse sourceNeuronName = "1" targetNeuronName = "8" weight = "0.3875535922291371" />
    <synapse sourceNeuronName = "1" targetNeuronName = "9" weight = "-0.06416841603784329" />
    <synapse sourceNeuronName = "1" targetNeuronName = "10" weight = "0.7760729570983325" />
    <synapse sourceNeuronName = "1" targetNeuronName = "11" weight = "-0.3102443697229924" />
    <synapse sourceNeuronName = "1" targetNeuronName = "12" weight = "-0.206173208458323" />
    <synapse sourceNeuronName = "1" targetNeuronName = "13" weight = "-0.7193053664385944" />
    <synapse sourceNeuronName = "1" targetNeuronName = "14" weight = "0.40167432910704703" />
    <synapse sourceNeuronName = "1" targetNeuronName = "15" weight = "-0.3846477290903567" />
    <synapse sourceNeuronName = "1" targetNeuronName = "16" weight = "0.050043949002664956" />
    <synapse sourceNeuronName = "1" targetNeuronName = "17" weight = "0.5045194336350967" />
    <synapse sourceNeuronName = "1" targetNeuronName = "18" weight = "-0.06940847582421483" />
    <synapse sourceNeuronName = "1" targetNeuronName = "19" weight = "-0.35520494764956556" />
    <synapse sourceNeuronName = "2" targetNeuronName = "6" weight = "0.4916426672345682" />
    <synapse sourceNeuronName = "2" targetNeuronName = "7" weight = "0.8017793528527546" />
    <synapse sourceNeuronName = "2" targetNeuronName = "8" weight = "0.9403164040230483" />
    <synapse sourceNeuronName = "2" targetNeuronName = "9" weight = "-0.27584849182467064" />
    <synapse sourceNeuronName = "2" targetNeuronName = "10" weight = "-0.3114709156462614" />
    <synapse sourceNeuronName = "2" targetNeuronName = "11" weight = "-0.3825135329291669" />
    <synapse sourceNeuronName = "2" targetNeuronName = "12" weight = "0.25896311172781905" />
    <synapse sourceNeuronName = "2" targetNeuronName = "13" weight = "-0.22303809248805395" />
    <synapse sourceNeuronName = "2" targetNeuronName = "14" weight = "0.9111355134193957" />
    <synapse sourceNeuronName = "2" targetNeuronName = "15" weight = "0.916159759170651" />
    <synapse sourceNeuronName = "2" targetNeuronName = "16" weight = "0.7006564463268927" />
    <synapse sourceNeuronName = "2" targetNeuronName = "17" weight = "0.7324886396838086" />
    <synapse sourceNeuronName = "2" targetNeuronName = "18" weight = "-0.3873334677433298" />
    <synapse sourceNeuronName = "2" targetNeuronName = "19" weight = "0.5477547015100677" />
    <synapse sourceNeuronName = "3" targetNeuronName = "6" weight = "0.016445231481922784" />
    <synapse sourceNeuronName = "3" targetNeuronName = "7" weight = "0.3586881884469477" />
    <synapse sourceNeuronName = "3" targetNeuronName = "8" weight = "-0.4933820578647654" />
    <synapse sourceNeuronName = "3" targetNeuronName = "9" weight = "0.6443315815615709" />
    <synapse sourceNeuronName = "3" targetNeuronName = "10" weight = "-0.5553785115155199" />
    <synapse sourceNeuronName = "3" targetNeuronName = "11" weight = "-0.498036956279833" />
    <synapse sourceNeuronName = "3" targetNeuronName = "12" weight = "0.2086455047451874" />
    <synapse sourceNeuronName = "3" targetNeuronName = "13" weight = "0.22252221576112885" />
    <synapse sourceNeuronName = "3" targetNeuronName = "14" weight = "-0.3676891253865209" />
    <synapse sourceNeuronName = "3" targetNeuronName = "15" weight = "0.7814695975438621" />
    <synapse sourceNeuronName = "3" targetNeuronName = "16" weight = "0.9665463091040849" />
    <synapse sourceNeuronName = "3" targetNeuronName = "17" weight = "0.14366020842038285" />
    <synapse sourceNeuronName = "3" targetNeuronName = "18" weight = "-0.5153678014628109" />
    <synapse sourceNeuronName = "3" targetNeuronName = "19" weight = "0.12514174328321692" />
    <synapse sourceNeuronName = "4" targetNeuronName = "6" weight = "0.7390304606151663" />
    <synapse sourceNeuronName = "4" targetNeuronName = "7" weight = "0.49271387223820273" />
    <synapse sourceNeuronName = "4" targetNeuronName = "8" weight = "-0.30603797970298374" />
    <synapse sourceNeuronName = "4" targetNeuronName = "9" weight = "0.7329302764773618" />
    <synapse sourceNeuronName = "4" targetNeuronName = "10" weight = "-0.9610320563666788" />
    <synapse sourceNeuronName = "4" targetNeuronName = "11" weight = "0.8033454204018111" />
    <synapse sourceNeuronName = "4" targetNeuronName = "12" weight = "0.5588234184824064" />
    <synapse sourceNeuronName = "4" targetNeuronName = "13" weight = "-0.5639900479487301" />
    <synapse sourceNeuronName = "4" targetNeuronName = "14" weight = "0.27362346237477175" />
    <synapse sourceNeuronName = "4" targetNeuronName = "15" weight = "0.23735616007861737" />
    <synapse sourceNeuronName = "4" targetNeuronName = "16" weight = "-0.9136578597298859" />
    <synapse sourceNeuronName = "4" targetNeuronName = "17" weight = "-0.819311241051403" />
    <synapse sourceNeuronName = "4" targetNeuronName = "18" weight = "-0.1391774621416031" />
    <synapse sourceNeuronName = "4" targetNeuronName = "19" weight = "-0.1915333413697473" />
    <synapse sourceNeuronName = "5" targetNeuronName = "6" weight = "-0.9029092696592742" />
    <synapse sourceNeuronName = "5" targetNeuronName = "7" weight = "-0.8721516939967504" />
    <synapse sourceNeuronName = "5" targetNeuronName = "8" weight = "0.4293268857714245" />
    <synapse sourceNeuronName = "5" targetNeuronName = "9" weight = "-0.706470260887132" />
    <synapse sourceNeuronName = "5" targetNeuronName = "10" weight = "-0.8599943921539097" />
    <synapse sourceNeuronName = "5" targetNeuronName = "11" weight = "-0.7621028703164159" />
    <synapse sourceNeuronName = "5" targetNeuronName = "12" weight = "0.4705434559385355" />
    <synapse sourceNeuronName = "5" targetNeuronName = "13" weight = "0.8114573481729201" />
    <synapse sourceNeuronName = "5" targetNeuronName = "14" weight = "-0.6365419443566189" />
    <synapse sourceNeuronName = "5" targetNeuronName = "15" weight = "0.6149876565540691" />
    <synapse sourceNeuronName = "5" targetNeuronName = "16" weight = "0.5838183820796568" />
    <synapse sourceNeuronName = "5" targetNeuronName = "17" weight = "0.32013021258617314" />
    <synapse sourceNeuronName = "5" targetNeuronName = "18" weight = "-0.7512174984471043" />
    <synapse sourceNeuronName = "5" targetNeuronName = "19" weight = "0.4355445637917563" />
</neuralNetwork>