<neuralNetwork>
    <neuron name = "0" type = "sensor" linkName = "Link0" />
    <neuron name = "1" type = "sensor" linkName = "Link1" />
    <neuron name = "2" type = "sensor" linkName = "Link2" />
    <neuron name = "3" type = "sensor" linkName = "Link3" />
    <neuron name = "4" type = "motor"  jointName = "Link0_Link1" />
    <neuron name = "5" type = "motor"  jointName = "Link0_Link2" />
    <neuron name = "6" type = "motor"  jointName = "Link0_Link3" />
    <neuron name = "7" type = "motor"  jointName = "Link0_Link4" />
    <neuron name = "8" type = "motor"  jointName = "Link4_Link5" />
    <synapse sourceNeuronName = "0" targetNeuronName = "4" weight = "0.2685369346633406" />
    <synapse sourceNeuronName = "0" targetNeuronName = "5" weight = "-0.50949545768631" />
    <synapse sourceNeuronName = "0" targetNeuronName = "6" weight = "0.9266371060589456" />
    <synapse sourceNeuronName = "0" targetNeuronName = "7" weight = "-0.43613017077351146" />
    <synapse sourceNeuronName = "0" targetNeuronName = "8" weight = "0.9099139427730669" />
    <synapse sourceNeuronName = "1" targetNeuronName = "4" weight = "0.5095075390302091" />
    <synapse sourceNeuronName = "1" targetNeuronName = "5" weight = "0.4649786966398155" />
    <synapse sourceNeuronName = "1" targetNeuronName = "6" weight = "0.3709639316847282" />
    <synapse sourceNeuronName = "1" targetNeuronName = "7" weight = "-0.4247492703167155" />
    <synapse sourceNeuronName = "1" targetNeuronName = "8" weight = "-0.30235993458835253" />
    <synapse sourceNeuronName = "2" targetNeuronName = "4" weight = "0.2632230786681746" />
    <synapse sourceNeuronName = "2" targetNeuronName = "5" weight = "-0.3929142668852601" />
    <synapse sourceNeuronName = "2" targetNeuronName = "6" weight = "0.2181980246390256" />
    <synapse sourceNeuronName = "2" targetNeuronName = "7" weight = "-0.2950557919657042" />
    <synapse sourceNeuronName = "2" targetNeuronName = "8" weight = "0.588970086093469" />
    <synapse sourceNeuronName = "3" targetNeuronName = "4" weight = "0.3995479964049611" />
    <synapse sourceNeuronName = "3" targetNeuronName = "5" weight = "0.024292075847569983" />
    <synapse sourceNeuronName = "3" targetNeuronName = "6" weight = "0.5435376823126146" />
    <synapse sourceNeuronName = "3" targetNeuronName = "7" weight = "0.18442088382376753" />
    <synapse sourceNeuronName = "3" targetNeuronName = "8" weight = "-0.6694007569583955" />
</neuralNetwork>