<neuralNetwork>
    <neuron name = "0" type = "sensor" linkName = "Link2" />
    <neuron name = "1" type = "sensor" linkName = "Link3" />
    <neuron name = "2" type = "sensor" linkName = "Link6" />
    <neuron name = "3" type = "sensor" linkName = "Link8" />
    <neuron name = "4" type = "sensor" linkName = "Link9" />
    <neuron name = "5" type = "motor"  jointName = "Link0_Link1" />
    <neuron name = "6" type = "motor"  jointName = "Link1_Link2" />
    <neuron name = "7" type = "motor"  jointName = "Link2_Link3" />
    <neuron name = "8" type = "motor"  jointName = "Link2_Link4" />
    <neuron name = "9" type = "motor"  jointName = "Link4_Link5" />
    <neuron name = "10" type = "motor"  jointName = "Link2_Link6" />
    <neuron name = "11" type = "motor"  jointName = "Link2_Link7" />
    <neuron name = "12" type = "motor"  jointName = "Link5_Link8" />
    <neuron name = "13" type = "motor"  jointName = "Link5_Link9" />
    <neuron name = "14" type = "motor"  jointName = "Link3_Link10" />
    <synapse sourceNeuronName = "0" targetNeuronName = "5" weight = "0.15713706197933575" />
    <synapse sourceNeuronName = "0" targetNeuronName = "6" weight = "-0.6068826567018424" />
    <synapse sourceNeuronName = "0" targetNeuronName = "7" weight = "0.8652159401256789" />
    <synapse sourceNeuronName = "0" targetNeuronName = "8" weight = "0.4139100233077053" />
    <synapse sourceNeuronName = "0" targetNeuronName = "9" weight = "0.09944775746092982" />
    <synapse sourceNeuronName = "0" targetNeuronName = "10" weight = "-0.9735493807699547" />
    <synapse sourceNeuronName = "0" targetNeuronName = "11" weight = "-0.45212285377990247" />
    <synapse sourceNeuronName = "0" targetNeuronName = "12" weight = "-0.7980413128546502" />
    <synapse sourceNeuronName = "0" targetNeuronName = "13" weight = "-0.4315411449565041" />
    <synapse sourceNeuronName = "0" targetNeuronName = "14" weight = "-0.2754668831729117" />
    <synapse sourceNeuronName = "1" targetNeuronName = "5" weight = "-0.8128646667727837" />
    <synapse sourceNeuronName = "1" targetNeuronName = "6" weight = "-0.21522699729891648" />
    <synapse sourceNeuronName = "1" targetNeuronName = "7" weight = "-0.8008126157035647" />
    <synapse sourceNeuronName = "1" targetNeuronName = "8" weight = "-0.684048448166451" />
    <synapse sourceNeuronName = "1" targetNeuronName = "9" weight = "-0.2335529924398001" />
    <synapse sourceNeuronName = "1" targetNeuronName = "10" weight = "-0.7551733999284029" />
    <synapse sourceNeuronName = "1" targetNeuronName = "11" weight = "0.7762207749657928" />
    <synapse sourceNeuronName = "1" targetNeuronName = "12" weight = "-0.9195810512864429" />
    <synapse sourceNeuronName = "1" targetNeuronName = "13" weight = "-0.17490009963858077" />
    <synapse sourceNeuronName = "1" targetNeuronName = "14" weight = "0.05969553763001634" />
    <synapse sourceNeuronName = "2" targetNeuronName = "5" weight = "-0.5767805708904803" />
    <synapse sourceNeuronName = "2" targetNeuronName = "6" weight = "0.5481789067445038" />
    <synapse sourceNeuronName = "2" targetNeuronName = "7" weight = "0.32245121716902014" />
    <synapse sourceNeuronName = "2" targetNeuronName = "8" weight = "0.2995099369035015" />
    <synapse sourceNeuronName = "2" targetNeuronName = "9" weight = "-0.31147086124081547" />
    <synapse sourceNeuronName = "2" targetNeuronName = "10" weight = "0.02821872793442126" />
    <synapse sourceNeuronName = "2" targetNeuronName = "11" weight = "-0.09475281430577898" />
    <synapse sourceNeuronName = "2" targetNeuronName = "12" weight = "0.8301657001209484" />
    <synapse sourceNeuronName = "2" targetNeuronName = "13" weight = "-0.9702393855688778" />
    <synapse sourceNeuronName = "2" targetNeuronName = "14" weight = "-0.1455006500510827" />
    <synapse sourceNeuronName = "3" targetNeuronName = "5" weight = "-0.38490254077459785" />
    <synapse sourceNeuronName = "3" targetNeuronName = "6" weight = "0.96843512389825" />
    <synapse sourceNeuronName = "3" targetNeuronName = "7" weight = "0.6842791314513959" />
    <synapse sourceNeuronName = "3" targetNeuronName = "8" weight = "-0.849355981747731" />
    <synapse sourceNeuronName = "3" targetNeuronName = "9" weight = "0.05920675133078701" />
    <synapse sourceNeuronName = "3" targetNeuronName = "10" weight = "-0.669404220962819" />
    <synapse sourceNeuronName = "3" targetNeuronName = "11" weight = "0.564370784051307" />
    <synapse sourceNeuronName = "3" targetNeuronName = "12" weight = "0.27009750144530265" />
    <synapse sourceNeuronName = "3" targetNeuronName = "13" weight = "0.983397146912045" />
    <synapse sourceNeuronName = "3" targetNeuronName = "14" weight = "-0.7087052361606236" />
    <synapse sourceNeuronName = "4" targetNeuronName = "5" weight = "0.22833485557356648" />
    <synapse sourceNeuronName = "4" targetNeuronName = "6" weight = "-0.8149010663809453" />
    <synapse sourceNeuronName = "4" targetNeuronName = "7" weight = "-0.5828600040798704" />
    <synapse sourceNeuronName = "4" targetNeuronName = "8" weight = "0.159505843714018" />
    <synapse sourceNeuronName = "4" targetNeuronName = "9" weight = "0.053156665480113885" />
    <synapse sourceNeuronName = "4" targetNeuronName = "10" weight = "0.29998431478471566" />
    <synapse sourceNeuronName = "4" targetNeuronName = "11" weight = "-0.35531860936724446" />
    <synapse sourceNeuronName = "4" targetNeuronName = "12" weight = "0.9021750383582305" />
    <synapse sourceNeuronName = "4" targetNeuronName = "13" weight = "0.6947262477174974" />
    <synapse sourceNeuronName = "4" targetNeuronName = "14" weight = "0.6662236193842863" />
</neuralNetwork>