<neuralNetwork>
    <neuron name = "0" type = "sensor" linkName = "Link0" />
    <neuron name = "1" type = "sensor" linkName = "Link3" />
    <neuron name = "2" type = "sensor" linkName = "Link4" />
    <neuron name = "3" type = "sensor" linkName = "Link5" />
    <neuron name = "4" type = "motor"  jointName = "Link0_Link1" />
    <neuron name = "5" type = "motor"  jointName = "Link0_Link2" />
    <neuron name = "6" type = "motor"  jointName = "Link2_Link3" />
    <neuron name = "7" type = "motor"  jointName = "Link3_Link4" />
    <neuron name = "8" type = "motor"  jointName = "Link3_Link5" />
    <synapse sourceNeuronName = "0" targetNeuronName = "4" weight = "0.8462232301437358" />
    <synapse sourceNeuronName = "0" targetNeuronName = "5" weight = "0.518461839930703" />
    <synapse sourceNeuronName = "0" targetNeuronName = "6" weight = "0.3877007142677913" />
    <synapse sourceNeuronName = "0" targetNeuronName = "7" weight = "-0.44303174692947045" />
    <synapse sourceNeuronName = "0" targetNeuronName = "8" weight = "0.13436571633958994" />
    <synapse sourceNeuronName = "1" targetNeuronName = "4" weight = "-0.761933490760754" />
    <synapse sourceNeuronName = "1" targetNeuronName = "5" weight = "0.08268283228581041" />
    <synapse sourceNeuronName = "1" targetNeuronName = "6" weight = "0.14870621077319068" />
    <synapse sourceNeuronName = "1" targetNeuronName = "7" weight = "-0.6900322740886384" />
    <synapse sourceNeuronName = "1" targetNeuronName = "8" weight = "0.5304197439857989" />
    <synapse sourceNeuronName = "2" targetNeuronName = "4" weight = "0.402803169831804" />
    <synapse sourceNeuronName = "2" targetNeuronName = "5" weight = "-0.8513378395681823" />
    <synapse sourceNeuronName = "2" targetNeuronName = "6" weight = "0.6340655367247523" />
    <synapse sourceNeuronName = "2" targetNeuronName = "7" weight = "0.46493843846883065" />
    <synapse sourceNeuronName = "2" targetNeuronName = "8" weight = "-0.5655665295030499" />
    <synapse sourceNeuronName = "3" targetNeuronName = "4" weight = "-0.004419689517882963" />
    <synapse sourceNeuronName = "3" targetNeuronName = "5" weight = "0.9238432184362178" />
    <synapse sourceNeuronName = "3" targetNeuronName = "6" weight = "-0.9110415467189381" />
    <synapse sourceNeuronName = "3" targetNeuronName = "7" weight = "-0.915323487133503" />
    <synapse sourceNeuronName = "3" targetNeuronName = "8" weight = "0.27446274195275855" />
</neuralNetwork>