<neuralNetwork>
    <neuron name = "0" type = "sensor" linkName = "Link2" />
    <neuron name = "1" type = "sensor" linkName = "Link5" />
    <neuron name = "2" type = "sensor" linkName = "Link6" />
    <neuron name = "3" type = "sensor" linkName = "Link7" />
    <neuron name = "4" type = "sensor" linkName = "Link8" />
    <neuron name = "5" type = "motor"  jointName = "Link0_Link1" />
    <neuron name = "6" type = "motor"  jointName = "Link1_Link2" />
    <neuron name = "7" type = "motor"  jointName = "Link2_Link3" />
    <neuron name = "8" type = "motor"  jointName = "Link1_Link4" />
    <neuron name = "9" type = "motor"  jointName = "Link1_Link5" />
    <neuron name = "10" type = "motor"  jointName = "Link3_Link6" />
    <neuron name = "11" type = "motor"  jointName = "Link0_Link7" />
    <neuron name = "12" type = "motor"  jointName = "Link1_Link8" />
    <synapse sourceNeuronName = "0" targetNeuronName = "5" weight = "0.4607481689988955" />
    <synapse sourceNeuronName = "0" targetNeuronName = "6" weight = "-0.6585918388283047" />
    <synapse sourceNeuronName = "0" targetNeuronName = "7" weight = "-0.3041784006343933" />
    <synapse sourceNeuronName = "0" targetNeuronName = "8" weight = "0.7594235084055319" />
    <synapse sourceNeuronName = "0" targetNeuronName = "9" weight = "0.37039902272065817" />
    <synapse sourceNeuronName = "0" targetNeuronName = "10" weight = "0.5762319269394676" />
    <synapse sourceNeuronName = "0" targetNeuronName = "11" weight = "0.8316497409105608" />
    <synapse sourceNeuronName = "0" targetNeuronName = "12" weight = "-0.4968617555596029" />
    <synapse sourceNeuronName = "1" targetNeuronName = "5" weight = "0.6837100659404844" />
    <synapse sourceNeuronName = "1" targetNeuronName = "6" weight = "0.14939546483841415" />
    <synapse sourceNeuronName = "1" targetNeuronName = "7" weight = "0.3600622697035938" />
    <synapse sourceNeuronName = "1" targetNeuronName = "8" weight = "-0.06847219502471402" />
    <synapse sourceNeuronName = "1" targetNeuronName = "9" weight = "0.821487625411988" />
    <synapse sourceNeuronName = "1" targetNeuronName = "10" weight = "0.5645674038479445" />
    <synapse sourceNeuronName = "1" targetNeuronName = "11" weight = "0.7487975842127577" />
    <synapse sourceNeuronName = "1" targetNeuronName = "12" weight = "0.9456359536612038" />
    <synapse sourceNeuronName = "2" targetNeuronName = "5" weight = "0.4409942355236509" />
    <synapse sourceNeuronName = "2" targetNeuronName = "6" weight = "0.6340762745508348" />
    <synapse sourceNeuronName = "2" targetNeuronName = "7" weight = "0.06492542515473398" />
    <synapse sourceNeuronName = "2" targetNeuronName = "8" weight = "0.21616701103597968" />
    <synapse sourceNeuronName = "2" targetNeuronName = "9" weight = "-0.49977123450059646" />
    <synapse sourceNeuronName = "2" targetNeuronName = "10" weight = "-0.6920835187005219" />
    <synapse sourceNeuronName = "2" targetNeuronName = "11" weight = "-0.284451487910125" />
    <synapse sourceNeuronName = "2" targetNeuronName = "12" weight = "0.2220445190557634" />
    <synapse sourceNeuronName = "3" targetNeuronName = "5" weight = "0.6570389093566784" />
    <synapse sourceNeuronName = "3" targetNeuronName = "6" weight = "-0.8284653300308493" />
    <synapse sourceNeuronName = "3" targetNeuronName = "7" weight = "-0.8474234860808212" />
    <synapse sourceNeuronName = "3" targetNeuronName = "8" weight = "0.85335135661074" />
    <synapse sourceNeuronName = "3" targetNeuronName = "9" weight = "-0.34291138714956704" />
    <synapse sourceNeuronName = "3" targetNeuronName = "10" weight = "0.8968602871565579" />
    <synapse sourceNeuronName = "3" targetNeuronName = "11" weight = "0.017525611708541167" />
    <synapse sourceNeuronName = "3" targetNeuronName = "12" weight = "0.007072039793895035" />
    <synapse sourceNeuronName = "4" targetNeuronName = "5" weight = "-0.5830536455317865" />
    <synapse sourceNeuronName = "4" targetNeuronName = "6" weight = "0.6141421309852213" />
    <synapse sourceNeuronName = "4" targetNeuronName = "7" weight = "0.12912913782779167" />
    <synapse sourceNeuronName = "4" targetNeuronName = "8" weight = "-0.9008061413921828" />
    <synapse sourceNeuronName = "4" targetNeuronName = "9" weight = "0.5027341250674651" />
    <synapse sourceNeuronName = "4" targetNeuronName = "10" weight = "0.326683703499808" />
    <synapse sourceNeuronName = "4" targetNeuronName = "11" weight = "0.9257927218777944" />
    <synapse sourceNeuronName = "4" targetNeuronName = "12" weight = "0.42450493852139015" />
</neuralNetwork>