<neuralNetwork>
    <neuron name = "0" type = "sensor" linkName = "Link0" />
    <neuron name = "1" type = "sensor" linkName = "Link4" />
    <neuron name = "2" type = "sensor" linkName = "Link5" />
    <neuron name = "3" type = "sensor" linkName = "Link6" />
    <neuron name = "4" type = "motor"  jointName = "Link0_Link1" />
    <neuron name = "5" type = "motor"  jointName = "Link0_Link2" />
    <neuron name = "6" type = "motor"  jointName = "Link0_Link3" />
    <neuron name = "7" type = "motor"  jointName = "Link2_Link4" />
    <neuron name = "8" type = "motor"  jointName = "Link3_Link5" />
    <neuron name = "9" type = "motor"  jointName = "Link4_Link6" />
    <neuron name = "10" type = "motor"  jointName = "Link0_Link7" />
    <neuron name = "11" type = "motor"  jointName = "Link3_Link8" />
    <synapse sourceNeuronName = "0" targetNeuronName = "4" weight = "0.17145136896974722" />
    <synapse sourceNeuronName = "0" targetNeuronName = "5" weight = "0.45974424720276774" />
    <synapse sourceNeuronName = "0" targetNeuronName = "6" weight = "-0.9579591726495307" />
    <synapse sourceNeuronName = "0" targetNeuronName = "7" weight = "0.04659531390875071" />
    <synapse sourceNeuronName = "0" targetNeuronName = "8" weight = "-0.004702777323194907" />
    <synapse sourceNeuronName = "0" targetNeuronName = "9" weight = "-0.3144698880434029" />
    <synapse sourceNeuronName = "0" targetNeuronName = "10" weight = "-0.9571882991628946" />
    <synapse sourceNeuronName = "0" targetNeuronName = "11" weight = "0.29921486403522546" />
    <synapse sourceNeuronName = "1" targetNeuronName = "4" weight = "-0.9074022682089087" />
    <synapse sourceNeuronName = "1" targetNeuronName = "5" weight = "0.9118913903661194" />
    <synapse sourceNeuronName = "1" targetNeuronName = "6" weight = "-0.1870719585664926" />
    <synapse sourceNeuronName = "1" targetNeuronName = "7" weight = "0.6854150913549875" />
    <synapse sourceNeuronName = "1" targetNeuronName = "8" weight = "-0.9902769965802602" />
    <synapse sourceNeuronName = "1" targetNeuronName = "9" weight = "-0.9882228569477396" />
    <synapse sourceNeuronName = "1" targetNeuronName = "10" weight = "0.6022084421440954" />
    <synapse sourceNeuronName = "1" targetNeuronName = "11" weight = "-0.6374160021839101" />
    <synapse sourceNeuronName = "2" targetNeuronName = "4" weight = "-0.3353318941433501" />
    <synapse sourceNeuronName = "2" targetNeuronName = "5" weight = "-0.2467643440182874" />
    <synapse sourceNeuronName = "2" targetNeuronName = "6" weight = "-0.9194375216837758" />
    <synapse sourceNeuronName = "2" targetNeuronName = "7" weight = "0.9638042604941379" />
    <synapse sourceNeuronName = "2" targetNeuronName = "8" weight = "0.7467654765888465" />
    <synapse sourceNeuronName = "2" targetNeuronName = "9" weight = "0.5675703845226363" />
    <synapse sourceNeuronName = "2" targetNeuronName = "10" weight = "0.8534199556368953" />
    <synapse sourceNeuronName = "2" targetNeuronName = "11" weight = "-0.9907523931497557" />
    <synapse sourceNeuronName = "3" targetNeuronName = "4" weight = "0.6653784865296475" />
    <synapse sourceNeuronName = "3" targetNeuronName = "5" weight = "-0.42546212163960906" />
    <synapse sourceNeuronName = "3" targetNeuronName = "6" weight = "0.6718963995714968" />
    <synapse sourceNeuronName = "3" targetNeuronName = "7" weight = "-0.7760022587853841" />
    <synapse sourceNeuronName = "3" targetNeuronName = "8" weight = "0.531993597881574" />
    <synapse sourceNeuronName = "3" targetNeuronName = "9" weight = "0.11100392303677342" />
    <synapse sourceNeuronName = "3" targetNeuronName = "10" weight = "0.19825675985690094" />
    <synapse sourceNeuronName = "3" targetNeuronName = "11" weight = "-0.5851343163274376" />
</neuralNetwork>