<neuralNetwork>
    <neuron name = "0" type = "sensor" linkName = "Link1" />
    <neuron name = "1" type = "sensor" linkName = "Link3" />
    <neuron name = "2" type = "sensor" linkName = "Link7" />
    <neuron name = "3" type = "sensor" linkName = "Link9" />
    <neuron name = "4" type = "motor"  jointName = "Link0_Link1" />
    <neuron name = "5" type = "motor"  jointName = "Link0_Link2" />
    <neuron name = "6" type = "motor"  jointName = "Link2_Link3" />
    <neuron name = "7" type = "motor"  jointName = "Link1_Link4" />
    <neuron name = "8" type = "motor"  jointName = "Link4_Link5" />
    <neuron name = "9" type = "motor"  jointName = "Link5_Link6" />
    <neuron name = "10" type = "motor"  jointName = "Link6_Link7" />
    <neuron name = "11" type = "motor"  jointName = "Link5_Link8" />
    <neuron name = "12" type = "motor"  jointName = "Link4_Link9" />
    <synapse sourceNeuronName = "0" targetNeuronName = "4" weight = "-0.6488131781818305" />
    <synapse sourceNeuronName = "0" targetNeuronName = "5" weight = "-0.3855581458820079" />
    <synapse sourceNeuronName = "0" targetNeuronName = "6" weight = "-0.9294877696455668" />
    <synapse sourceNeuronName = "0" targetNeuronName = "7" weight = "0.9364650638705578" />
    <synapse sourceNeuronName = "0" targetNeuronName = "8" weight = "0.6571794213975914" />
    <synapse sourceNeuronName = "0" targetNeuronName = "9" weight = "0.7220927073359131" />
    <synapse sourceNeuronName = "0" targetNeuronName = "10" weight = "-0.7210505332360253" />
    <synapse sourceNeuronName = "0" targetNeuronName = "11" weight = "-0.8093478245753243" />
    <synapse sourceNeuronName = "0" targetNeuronName = "12" weight = "0.8083549593922772" />
    <synapse sourceNeuronName = "1" targetNeuronName = "4" weight = "-0.7476418678059542" />
    <synapse sourceNeuronName = "1" targetNeuronName = "5" weight = "-0.35731439450510494" />
    <synapse sourceNeuronName = "1" targetNeuronName = "6" weight = "-0.031941245434104815" />
    <synapse sourceNeuronName = "1" targetNeuronName = "7" weight = "-0.8552696255616494" />
    <synapse sourceNeuronName = "1" targetNeuronName = "8" weight = "0.6795873452133032" />
    <synapse sourceNeuronName = "1" targetNeuronName = "9" weight = "0.5513494348651262" />
    <synapse sourceNeuronName = "1" targetNeuronName = "10" weight = "-0.23906580424424306" />
    <synapse sourceNeuronName = "1" targetNeuronName = "11" weight = "0.5956980885195713" />
    <synapse sourceNeuronName = "1" targetNeuronName = "12" weight = "0.08499750113847448" />
    <synapse sourceNeuronName = "2" targetNeuronName = "4" weight = "0.08061998006671" />
    <synapse sourceNeuronName = "2" targetNeuronName = "5" weight = "0.02967896328599573" />
    <synapse sourceNeuronName = "2" targetNeuronName = "6" weight = "-0.334646707665476" />
    <synapse sourceNeuronName = "2" targetNeuronName = "7" weight = "0.37353887086902215" />
    <synapse sourceNeuronName = "2" targetNeuronName = "8" weight = "0.07997372201939879" />
    <synapse sourceNeuronName = "2" targetNeuronName = "9" weight = "0.7387752831739278" />
    <synapse sourceNeuronName = "2" targetNeuronName = "10" weight = "0.5822934728204698" />
    <synapse sourceNeuronName = "2" targetNeuronName = "11" weight = "0.9170003705671632" />
    <synapse sourceNeuronName = "2" targetNeuronName = "12" weight = "-0.6049435283514011" />
    <synapse sourceNeuronName = "3" targetNeuronName = "4" weight = "-0.8448235484890023" />
    <synapse sourceNeuronName = "3" targetNeuronName = "5" weight = "-0.0168838710956567" />
    <synapse sourceNeuronName = "3" targetNeuronName = "6" weight = "0.7710685255219241" />
    <synapse sourceNeuronName = "3" targetNeuronName = "7" weight = "0.9993574025299561" />
    <synapse sourceNeuronName = "3" targetNeuronName = "8" weight = "0.9389842394254391" />
    <synapse sourceNeuronName = "3" targetNeuronName = "9" weight = "-0.45122263858634604" />
    <synapse sourceNeuronName = "3" targetNeuronName = "10" weight = "0.34980055534409304" />
    <synapse sourceNeuronName = "3" targetNeuronName = "11" weight = "-0.3764846113340421" />
    <synapse sourceNeuronName = "3" targetNeuronName = "12" weight = "-0.6932536114921541" />
</neuralNetwork>