<neuralNetwork>
    <neuron name = "0" type = "sensor" linkName = "Link1" />
    <neuron name = "1" type = "sensor" linkName = "Link3" />
    <neuron name = "2" type = "sensor" linkName = "Link7" />
    <neuron name = "3" type = "sensor" linkName = "Link9" />
    <neuron name = "4" type = "motor"  jointName = "Link0_Link1" />
    <neuron name = "5" type = "motor"  jointName = "Link0_Link2" />
    <neuron name = "6" type = "motor"  jointName = "Link2_Link3" />
    <neuron name = "7" type = "motor"  jointName = "Link1_Link4" />
    <neuron name = "8" type = "motor"  jointName = "Link4_Link5" />
    <neuron name = "9" type = "motor"  jointName = "Link5_Link6" />
    <neuron name = "10" type = "motor"  jointName = "Link6_Link7" />
    <neuron name = "11" type = "motor"  jointName = "Link5_Link8" />
    <neuron name = "12" type = "motor"  jointName = "Link4_Link9" />
    <synapse sourceNeuronName = "0" targetNeuronName = "4" weight = "-0.4248979218423954" />
    <synapse sourceNeuronName = "0" targetNeuronName = "5" weight = "-0.143273797131374" />
    <synapse sourceNeuronName = "0" targetNeuronName = "6" weight = "0.7890016745801707" />
    <synapse sourceNeuronName = "0" targetNeuronName = "7" weight = "0.6373844895490683" />
    <synapse sourceNeuronName = "0" targetNeuronName = "8" weight = "0.08341879741084113" />
    <synapse sourceNeuronName = "0" targetNeuronName = "9" weight = "0.6918091551677925" />
    <synapse sourceNeuronName = "0" targetNeuronName = "10" weight = "0.3330457823231663" />
    <synapse sourceNeuronName = "0" targetNeuronName = "11" weight = "-0.32464642703736457" />
    <synapse sourceNeuronName = "0" targetNeuronName = "12" weight = "0.054511394431942195" />
    <synapse sourceNeuronName = "1" targetNeuronName = "4" weight = "0.11761554784622641" />
    <synapse sourceNeuronName = "1" targetNeuronName = "5" weight = "0.6014738095980481" />
    <synapse sourceNeuronName = "1" targetNeuronName = "6" weight = "0.5745017407582356" />
    <synapse sourceNeuronName = "1" targetNeuronName = "7" weight = "0.7891634543384742" />
    <synapse sourceNeuronName = "1" targetNeuronName = "8" weight = "0.9383276637332614" />
    <synapse sourceNeuronName = "1" targetNeuronName = "9" weight = "0.9926932220816584" />
    <synapse sourceNeuronName = "1" targetNeuronName = "10" weight = "-0.45142776256045125" />
    <synapse sourceNeuronName = "1" targetNeuronName = "11" weight = "-0.1840233730536851" />
    <synapse sourceNeuronName = "1" targetNeuronName = "12" weight = "-0.33735823381560937" />
    <synapse sourceNeuronName = "2" targetNeuronName = "4" weight = "-0.43018635364274727" />
    <synapse sourceNeuronName = "2" targetNeuronName = "5" weight = "-0.1948743103335644" />
    <synapse sourceNeuronName = "2" targetNeuronName = "6" weight = "0.2692689455190669" />
    <synapse sourceNeuronName = "2" targetNeuronName = "7" weight = "0.7560428616111632" />
    <synapse sourceNeuronName = "2" targetNeuronName = "8" weight = "-0.6705047439144558" />
    <synapse sourceNeuronName = "2" targetNeuronName = "9" weight = "-0.29728227011349295" />
    <synapse sourceNeuronName = "2" targetNeuronName = "10" weight = "-0.8789920173176295" />
    <synapse sourceNeuronName = "2" targetNeuronName = "11" weight = "0.3798253435515424" />
    <synapse sourceNeuronName = "2" targetNeuronName = "12" weight = "-0.9333075909151891" />
    <synapse sourceNeuronName = "3" targetNeuronName = "4" weight = "-0.5828924387584737" />
    <synapse sourceNeuronName = "3" targetNeuronName = "5" weight = "0.4650332647570907" />
    <synapse sourceNeuronName = "3" targetNeuronName = "6" weight = "-0.14672479804826555" />
    <synapse sourceNeuronName = "3" targetNeuronName = "7" weight = "-0.7306929881716107" />
    <synapse sourceNeuronName = "3" targetNeuronName = "8" weight = "-0.7413890563709786" />
    <synapse sourceNeuronName = "3" targetNeuronName = "9" weight = "-0.2103360765578206" />
    <synapse sourceNeuronName = "3" targetNeuronName = "10" weight = "-0.5622578565946947" />
    <synapse sourceNeuronName = "3" targetNeuronName = "11" weight = "0.4232214684413451" />
    <synapse sourceNeuronName = "3" targetNeuronName = "12" weight = "-0.7925142253761042" />
</neuralNetwork>