<neuralNetwork>
    <neuron name = "0" type = "sensor" linkName = "Link2" />
    <neuron name = "1" type = "sensor" linkName = "Link3" />
    <neuron name = "2" type = "sensor" linkName = "Link7" />
    <neuron name = "3" type = "motor"  jointName = "Link0_Link1" />
    <neuron name = "4" type = "motor"  jointName = "Link1_Link2" />
    <neuron name = "5" type = "motor"  jointName = "Link2_Link3" />
    <neuron name = "6" type = "motor"  jointName = "Link2_Link4" />
    <neuron name = "7" type = "motor"  jointName = "Link4_Link5" />
    <neuron name = "8" type = "motor"  jointName = "Link2_Link6" />
    <neuron name = "9" type = "motor"  jointName = "Link5_Link7" />
    <neuron name = "10" type = "motor"  jointName = "Link3_Link8" />
    <neuron name = "11" type = "motor"  jointName = "Link3_Link9" />
    <synapse sourceNeuronName = "0" targetNeuronName = "3" weight = "-0.9868502891975037" />
    <synapse sourceNeuronName = "0" targetNeuronName = "4" weight = "0.9961424071131051" />
    <synapse sourceNeuronName = "0" targetNeuronName = "5" weight = "0.09586763651519159" />
    <synapse sourceNeuronName = "0" targetNeuronName = "6" weight = "0.11886783055759609" />
    <synapse sourceNeuronName = "0" targetNeuronName = "7" weight = "-0.27771640101844697" />
    <synapse sourceNeuronName = "0" targetNeuronName = "8" weight = "-0.7045047259263717" />
    <synapse sourceNeuronName = "0" targetNeuronName = "9" weight = "-0.36879704509876077" />
    <synapse sourceNeuronName = "0" targetNeuronName = "10" weight = "-0.5384852584949154" />
    <synapse sourceNeuronName = "0" targetNeuronName = "11" weight = "0.9920206435974535" />
    <synapse sourceNeuronName = "1" targetNeuronName = "3" weight = "0.9916733532403761" />
    <synapse sourceNeuronName = "1" targetNeuronName = "4" weight = "-0.8663073429666355" />
    <synapse sourceNeuronName = "1" targetNeuronName = "5" weight = "-0.9355323958673627" />
    <synapse sourceNeuronName = "1" targetNeuronName = "6" weight = "0.6664972359213222" />
    <synapse sourceNeuronName = "1" targetNeuronName = "7" weight = "-0.8094344231521611" />
    <synapse sourceNeuronName = "1" targetNeuronName = "8" weight = "-0.9765695578040692" />
    <synapse sourceNeuronName = "1" targetNeuronName = "9" weight = "-0.039203829563255965" />
    <synapse sourceNeuronName = "1" targetNeuronName = "10" weight = "-0.9826399456830182" />
    <synapse sourceNeuronName = "1" targetNeuronName = "11" weight = "0.3948176971837789" />
    <synapse sourceNeuronName = "2" targetNeuronName = "3" weight = "-0.4513764926955335" />
    <synapse sourceNeuronName = "2" targetNeuronName = "4" weight = "0.9959941638118877" />
    <synapse sourceNeuronName = "2" targetNeuronName = "5" weight = "0.5625768256795689" />
    <synapse sourceNeuronName = "2" targetNeuronName = "6" weight = "-0.3199711420468405" />
    <synapse sourceNeuronName = "2" targetNeuronName = "7" weight = "-0.20574266647601225" />
    <synapse sourceNeuronName = "2" targetNeuronName = "8" weight = "0.4329315204041879" />
    <synapse sourceNeuronName = "2" targetNeuronName = "9" weight = "0.8181865430113893" />
    <synapse sourceNeuronName = "2" targetNeuronName = "10" weight = "-0.9952593999472417" />
    <synapse sourceNeuronName = "2" targetNeuronName = "11" weight = "-0.05066182607804559" />
</neuralNetwork>