<neuralNetwork>
    <neuron name = "0" type = "sensor" linkName = "Link0" />
    <neuron name = "1" type = "sensor" linkName = "Link4" />
    <neuron name = "2" type = "sensor" linkName = "Link5" />
    <neuron name = "3" type = "sensor" linkName = "Link6" />
    <neuron name = "4" type = "sensor" linkName = "Link9" />
    <neuron name = "5" type = "motor"  jointName = "Link0_Link1" />
    <neuron name = "6" type = "motor"  jointName = "Link0_Link2" />
    <neuron name = "7" type = "motor"  jointName = "Link0_Link3" />
    <neuron name = "8" type = "motor"  jointName = "Link2_Link4" />
    <neuron name = "9" type = "motor"  jointName = "Link3_Link5" />
    <neuron name = "10" type = "motor"  jointName = "Link4_Link6" />
    <neuron name = "11" type = "motor"  jointName = "Link0_Link7" />
    <neuron name = "12" type = "motor"  jointName = "Link3_Link8" />
    <neuron name = "13" type = "motor"  jointName = "Link1_Link9" />
    <synapse sourceNeuronName = "0" targetNeuronName = "5" weight = "-0.0432604738471849" />
    <synapse sourceNeuronName = "0" targetNeuronName = "6" weight = "-0.12945027584609914" />
    <synapse sourceNeuronName = "0" targetNeuronName = "7" weight = "-0.7950240602787446" />
    <synapse sourceNeuronName = "0" targetNeuronName = "8" weight = "0.6372210558909512" />
    <synapse sourceNeuronName = "0" targetNeuronName = "9" weight = "-0.007766950848245857" />
    <synapse sourceNeuronName = "0" targetNeuronName = "10" weight = "-0.33522043704282023" />
    <synapse sourceNeuronName = "0" targetNeuronName = "11" weight = "-0.04866021570793766" />
    <synapse sourceNeuronName = "0" targetNeuronName = "12" weight = "0.9785892723054384" />
    <synapse sourceNeuronName = "0" targetNeuronName = "13" weight = "0.27962505178858255" />
    <synapse sourceNeuronName = "1" targetNeuronName = "5" weight = "0.02479565591198485" />
    <synapse sourceNeuronName = "1" targetNeuronName = "6" weight = "0.29175745720689683" />
    <synapse sourceNeuronName = "1" targetNeuronName = "7" weight = "-0.1840220120980114" />
    <synapse sourceNeuronName = "1" targetNeuronName = "8" weight = "-0.4381179628142535" />
    <synapse sourceNeuronName = "1" targetNeuronName = "9" weight = "-0.32476736091900404" />
    <synapse sourceNeuronName = "1" targetNeuronName = "10" weight = "-0.6340744221086914" />
    <synapse sourceNeuronName = "1" targetNeuronName = "11" weight = "-0.08779296394897163" />
    <synapse sourceNeuronName = "1" targetNeuronName = "12" weight = "0.6962516037384987" />
    <synapse sourceNeuronName = "1" targetNeuronName = "13" weight = "-0.15892645429747376" />
    <synapse sourceNeuronName = "2" targetNeuronName = "5" weight = "0.6599013946320076" />
    <synapse sourceNeuronName = "2" targetNeuronName = "6" weight = "0.522470981772964" />
    <synapse sourceNeuronName = "2" targetNeuronName = "7" weight = "0.9024146102335182" />
    <synapse sourceNeuronName = "2" targetNeuronName = "8" weight = "-0.999388314726817" />
    <synapse sourceNeuronName = "2" targetNeuronName = "9" weight = "-0.5578775889540679" />
    <synapse sourceNeuronName = "2" targetNeuronName = "10" weight = "-0.07745519730212314" />
    <synapse sourceNeuronName = "2" targetNeuronName = "11" weight = "0.9245454648275706" />
    <synapse sourceNeuronName = "2" targetNeuronName = "12" weight = "-0.7668824784423591" />
    <synapse sourceNeuronName = "2" targetNeuronName = "13" weight = "0.09463748980803266" />
    <synapse sourceNeuronName = "3" targetNeuronName = "5" weight = "-0.09729792811768112" />
    <synapse sourceNeuronName = "3" targetNeuronName = "6" weight = "0.21103134607704455" />
    <synapse sourceNeuronName = "3" targetNeuronName = "7" weight = "0.24178267329937708" />
    <synapse sourceNeuronName = "3" targetNeuronName = "8" weight = "0.7488519149912758" />
    <synapse sourceNeuronName = "3" targetNeuronName = "9" weight = "0.8188927315982863" />
    <synapse sourceNeuronName = "3" targetNeuronName = "10" weight = "-0.792244454106841" />
    <synapse sourceNeuronName = "3" targetNeuronName = "11" weight = "-0.6510981182229547" />
    <synapse sourceNeuronName = "3" targetNeuronName = "12" weight = "0.4480310265431673" />
    <synapse sourceNeuronName = "3" targetNeuronName = "13" weight = "0.5897729390496294" />
    <synapse sourceNeuronName = "4" targetNeuronName = "5" weight = "-0.4147482600755359" />
    <synapse sourceNeuronName = "4" targetNeuronName = "6" weight = "-0.8304546540501045" />
    <synapse sourceNeuronName = "4" targetNeuronName = "7" weight = "-0.5705285740282748" />
    <synapse sourceNeuronName = "4" targetNeuronName = "8" weight = "-0.2872678254893226" />
    <synapse sourceNeuronName = "4" targetNeuronName = "9" weight = "0.38489737874648866" />
    <synapse sourceNeuronName = "4" targetNeuronName = "10" weight = "0.34162336519309444" />
    <synapse sourceNeuronName = "4" targetNeuronName = "11" weight = "0.9886027633411396" />
    <synapse sourceNeuronName = "4" targetNeuronName = "12" weight = "-0.7862116223035183" />
    <synapse sourceNeuronName = "4" targetNeuronName = "13" weight = "-0.728351123702639" />
</neuralNetwork>