<neuralNetwork>
    <neuron name = "0" type = "sensor" linkName = "Link2" />
    <neuron name = "1" type = "sensor" linkName = "Link5" />
    <neuron name = "2" type = "sensor" linkName = "Link7" />
    <neuron name = "3" type = "sensor" linkName = "Link9" />
    <neuron name = "4" type = "motor"  jointName = "Link0_Link1" />
    <neuron name = "5" type = "motor"  jointName = "Link1_Link2" />
    <neuron name = "6" type = "motor"  jointName = "Link0_Link3" />
    <neuron name = "7" type = "motor"  jointName = "Link3_Link4" />
    <neuron name = "8" type = "motor"  jointName = "Link0_Link5" />
    <neuron name = "9" type = "motor"  jointName = "Link1_Link6" />
    <neuron name = "10" type = "motor"  jointName = "Link3_Link7" />
    <neuron name = "11" type = "motor"  jointName = "Link6_Link8" />
    <neuron name = "12" type = "motor"  jointName = "Link3_Link9" />
    <synapse sourceNeuronName = "0" targetNeuronName = "4" weight = "0.500881992607074" />
    <synapse sourceNeuronName = "0" targetNeuronName = "5" weight = "-0.578058726750412" />
    <synapse sourceNeuronName = "0" targetNeuronName = "6" weight = "0.601470674684033" />
    <synapse sourceNeuronName = "0" targetNeuronName = "7" weight = "-0.4073773909462326" />
    <synapse sourceNeuronName = "0" targetNeuronName = "8" weight = "-0.4360607937429901" />
    <synapse sourceNeuronName = "0" targetNeuronName = "9" weight = "-0.8394428295696028" />
    <synapse sourceNeuronName = "0" targetNeuronName = "10" weight = "-0.6845961464006121" />
    <synapse sourceNeuronName = "0" targetNeuronName = "11" weight = "-0.6340879479182364" />
    <synapse sourceNeuronName = "0" targetNeuronName = "12" weight = "-0.059136806807807085" />
    <synapse sourceNeuronName = "1" targetNeuronName = "4" weight = "0.0904880726909143" />
    <synapse sourceNeuronName = "1" targetNeuronName = "5" weight = "0.9354180436358916" />
    <synapse sourceNeuronName = "1" targetNeuronName = "6" weight = "0.04894268428210902" />
    <synapse sourceNeuronName = "1" targetNeuronName = "7" weight = "-0.1878980518250235" />
    <synapse sourceNeuronName = "1" targetNeuronName = "8" weight = "0.5602909370725966" />
    <synapse sourceNeuronName = "1" targetNeuronName = "9" weight = "-0.11072440015339713" />
    <synapse sourceNeuronName = "1" targetNeuronName = "10" weight = "0.5986774515795743" />
    <synapse sourceNeuronName = "1" targetNeuronName = "11" weight = "0.486881330627398" />
    <synapse sourceNeuronName = "1" targetNeuronName = "12" weight = "-0.9264101432725358" />
    <synapse sourceNeuronName = "2" targetNeuronName = "4" weight = "-0.7242532749643154" />
    <synapse sourceNeuronName = "2" targetNeuronName = "5" weight = "-0.38865155680101693" />
    <synapse sourceNeuronName = "2" targetNeuronName = "6" weight = "-0.8170770348399952" />
    <synapse sourceNeuronName = "2" targetNeuronName = "7" weight = "0.38495386219606154" />
    <synapse sourceNeuronName = "2" targetNeuronName = "8" weight = "0.4091339835553758" />
    <synapse sourceNeuronName = "2" targetNeuronName = "9" weight = "-0.32803252709636" />
    <synapse sourceNeuronName = "2" targetNeuronName = "10" weight = "0.006793103758635954" />
    <synapse sourceNeuronName = "2" targetNeuronName = "11" weight = "-0.2903996960141484" />
    <synapse sourceNeuronName = "2" targetNeuronName = "12" weight = "-0.7460608886842126" />
    <synapse sourceNeuronName = "3" targetNeuronName = "4" weight = "0.9077723853602917" />
    <synapse sourceNeuronName = "3" targetNeuronName = "5" weight = "-0.4573866102128732" />
    <synapse sourceNeuronName = "3" targetNeuronName = "6" weight = "-0.5777279195220695" />
    <synapse sourceNeuronName = "3" targetNeuronName = "7" weight = "-0.6622601979341554" />
    <synapse sourceNeuronName = "3" targetNeuronName = "8" weight = "0.5089303448072822" />
    <synapse sourceNeuronName = "3" targetNeuronName = "9" weight = "-0.2307026974733164" />
    <synapse sourceNeuronName = "3" targetNeuronName = "10" weight = "-0.3943847171427055" />
    <synapse sourceNeuronName = "3" targetNeuronName = "11" weight = "0.5894880144224943" />
    <synapse sourceNeuronName = "3" targetNeuronName = "12" weight = "-0.5483088486394521" />
</neuralNetwork>