<neuralNetwork>
    <neuron name = "0" type = "sensor" linkName = "Link2" />
    <neuron name = "1" type = "sensor" linkName = "Link3" />
    <neuron name = "2" type = "sensor" linkName = "Link7" />
    <neuron name = "3" type = "sensor" linkName = "Link8" />
    <neuron name = "4" type = "sensor" linkName = "Link12" />
    <neuron name = "5" type = "sensor" linkName = "Link13" />
    <neuron name = "6" type = "motor"  jointName = "Link0_Link1" />
    <neuron name = "7" type = "motor"  jointName = "Link1_Link2" />
    <neuron name = "8" type = "motor"  jointName = "Link2_Link3" />
    <neuron name = "9" type = "motor"  jointName = "Link2_Link4" />
    <neuron name = "10" type = "motor"  jointName = "Link4_Link5" />
    <neuron name = "11" type = "motor"  jointName = "Link2_Link6" />
    <neuron name = "12" type = "motor"  jointName = "Link5_Link7" />
    <neuron name = "13" type = "motor"  jointName = "Link5_Link8" />
    <neuron name = "14" type = "motor"  jointName = "Link3_Link9" />
    <neuron name = "15" type = "motor"  jointName = "Link3_Link10" />
    <neuron name = "16" type = "motor"  jointName = "Link3_Link11" />
    <neuron name = "17" type = "motor"  jointName = "Link5_Link12" />
    <neuron name = "18" type = "motor"  jointName = "Link5_Link13" />
    <synapse sourceNeuronName = "0" targetNeuronName = "6" weight = "-0.37774511701131086" />
    <synapse sourceNeuronName = "0" targetNeuronName = "7" weight = "-0.7880279488222863" />
    <synapse sourceNeuronName = "0" targetNeuronName = "8" weight = "0.590748842476009" />
    <synapse sourceNeuronName = "0" targetNeuronName = "9" weight = "-0.8766236396242211" />
    <synapse sourceNeuronName = "0" targetNeuronName = "10" weight = "-0.7074357620621683" />
    <synapse sourceNeuronName = "0" targetNeuronName = "11" weight = "0.5879877357010823" />
    <synapse sourceNeuronName = "0" targetNeuronName = "12" weight = "0.4164977069567475" />
    <synapse sourceNeuronName = "0" targetNeuronName = "13" weight = "-0.8356106997965143" />
    <synapse sourceNeuronName = "0" targetNeuronName = "14" weight = "0.319544557484323" />
    <synapse sourceNeuronName = "0" targetNeuronName = "15" weight = "0.07765779232590986" />
    <synapse sourceNeuronName = "0" targetNeuronName = "16" weight = "-0.29562565501003957" />
    <synapse sourceNeuronName = "0" targetNeuronName = "17" weight = "0.8557625583527875" />
    <synapse sourceNeuronName = "0" targetNeuronName = "18" weight = "-0.36672188119683646" />
    <synapse sourceNeuronName = "1" targetNeuronName = "6" weight = "0.25219675178303325" />
    <synapse sourceNeuronName = "1" targetNeuronName = "7" weight = "0.6083459454659306" />
    <synapse sourceNeuronName = "1" targetNeuronName = "8" weight = "0.946201865430141" />
    <synapse sourceNeuronName = "1" targetNeuronName = "9" weight = "0.6489000166834602" />
    <synapse sourceNeuronName = "1" targetNeuronName = "10" weight = "-0.7981100943082458" />
    <synapse sourceNeuronName = "1" targetNeuronName = "11" weight = "0.25307987369907625" />
    <synapse sourceNeuronName = "1" targetNeuronName = "12" weight = "-0.6315080609788333" />
    <synapse sourceNeuronName = "1" targetNeuronName = "13" weight = "0.9908222245005271" />
    <synapse sourceNeuronName = "1" targetNeuronName = "14" weight = "0.7252545243163673" />
    <synapse sourceNeuronName = "1" targetNeuronName = "15" weight = "-0.10467581650012314" />
    <synapse sourceNeuronName = "1" targetNeuronName = "16" weight = "-0.18698064222770028" />
    <synapse sourceNeuronName = "1" targetNeuronName = "17" weight = "-0.10498236844223885" />
    <synapse sourceNeuronName = "1" targetNeuronName = "18" weight = "0.8558124920428423" />
    <synapse sourceNeuronName = "2" targetNeuronName = "6" weight = "-0.05095530029538953" />
    <synapse sourceNeuronName = "2" targetNeuronName = "7" weight = "-0.6045998310126486" />
    <synapse sourceNeuronName = "2" targetNeuronName = "8" weight = "-0.7962167397568856" />
    <synapse sourceNeuronName = "2" targetNeuronName = "9" weight = "-0.879745906134991" />
    <synapse sourceNeuronName = "2" targetNeuronName = "10" weight = "0.6126558021308037" />
    <synapse sourceNeuronName = "2" targetNeuronName = "11" weight = "-0.946506855605419" />
    <synapse sourceNeuronName = "2" targetNeuronName = "12" weight = "0.6116513130046222" />
    <synapse sourceNeuronName = "2" targetNeuronName = "13" weight = "-0.02570834569070013" />
    <synapse sourceNeuronName = "2" targetNeuronName = "14" weight = "0.49360771328449493" />
    <synapse sourceNeuronName = "2" targetNeuronName = "15" weight = "0.9710724986018859" />
    <synapse sourceNeuronName = "2" targetNeuronName = "16" weight = "0.009961514188619125" />
    <synapse sourceNeuronName = "2" targetNeuronName = "17" weight = "-0.08720981105269399" />
    <synapse sourceNeuronName = "2" targetNeuronName = "18" weight = "0.32273286321587014" />
    <synapse sourceNeuronName = "3" targetNeuronName = "6" weight = "0.25657437711385755" />
    <synapse sourceNeuronName = "3" targetNeuronName = "7" weight = "-0.04714530797948213" />
    <synapse sourceNeuronName = "3" targetNeuronName = "8" weight = "-0.5649053103395285" />
    <synapse sourceNeuronName = "3" targetNeuronName = "9" weight = "-0.2540343336433617" />
    <synapse sourceNeuronName = "3" targetNeuronName = "10" weight = "0.9509287016134338" />
    <synapse sourceNeuronName = "3" targetNeuronName = "11" weight = "-0.4486040048527469" />
    <synapse sourceNeuronName = "3" targetNeuronName = "12" weight = "0.08116350358219582" />
    <synapse sourceNeuronName = "3" targetNeuronName = "13" weight = "-0.8513384063540312" />
    <synapse sourceNeuronName = "3" targetNeuronName = "14" weight = "-0.054833900675642644" />
    <synapse sourceNeuronName = "3" targetNeuronName = "15" weight = "-0.25317290711570783" />
    <synapse sourceNeuronName = "3" targetNeuronName = "16" weight = "0.7666811977029959" />
    <synapse sourceNeuronName = "3" targetNeuronName = "17" weight = "0.07775510356502457" />
    <synapse sourceNeuronName = "3" targetNeuronName = "18" weight = "-0.3418413152733133" />
    <synapse sourceNeuronName = "4" targetNeuronName = "6" weight = "0.6722452491336355" />
    <synapse sourceNeuronName = "4" targetNeuronName = "7" weight = "-0.47419638955971943" />
    <synapse sourceNeuronName = "4" targetNeuronName = "8" weight = "0.3174482720686107" />
    <synapse sourceNeuronName = "4" targetNeuronName = "9" weight = "-0.07844785769203733" />
    <synapse sourceNeuronName = "4" targetNeuronName = "10" weight = "0.39303281599457685" />
    <synapse sourceNeuronName = "4" targetNeuronName = "11" weight = "0.4506674670324966" />
    <synapse sourceNeuronName = "4" targetNeuronName = "12" weight = "0.04182788137914151" />
    <synapse sourceNeuronName = "4" targetNeuronName = "13" weight = "-0.9829998324915887" />
    <synapse sourceNeuronName = "4" targetNeuronName = "14" weight = "-0.3539287878103241" />
    <synapse sourceNeuronName = "4" targetNeuronName = "15" weight = "-0.48899912796358036" />
    <synapse sourceNeuronName = "4" targetNeuronName = "16" weight = "-0.627823589692682" />
    <synapse sourceNeuronName = "4" targetNeuronName = "17" weight = "0.8099747421740138" />
    <synapse sourceNeuronName = "4" targetNeuronName = "18" weight = "-0.5160985725222547" />
    <synapse sourceNeuronName = "5" targetNeuronName = "6" weight = "-0.10230853013628916" />
    <synapse sourceNeuronName = "5" targetNeuronName = "7" weight = "0.22573941840795508" />
    <synapse sourceNeuronName = "5" targetNeuronName = "8" weight = "-0.7706217792242807" />
    <synapse sourceNeuronName = "5" targetNeuronName = "9" weight = "0.07709661987452354" />
    <synapse sourceNeuronName = "5" targetNeuronName = "10" weight = "-0.8930101543743401" />
    <synapse sourceNeuronName = "5" targetNeuronName = "11" weight = "0.533513221019531" />
    <synapse sourceNeuronName = "5" targetNeuronName = "12" weight = "0.6738674429737446" />
    <synapse sourceNeuronName = "5" targetNeuronName = "13" weight = "-0.1519963769079251" />
    <synapse sourceNeuronName = "5" targetNeuronName = "14" weight = "0.49009578839685597" />
    <synapse sourceNeuronName = "5" targetNeuronName = "15" weight = "-0.6170374340482165" />
    <synapse sourceNeuronName = "5" targetNeuronName = "16" weight = "0.40425521882952453" />
    <synapse sourceNeuronName = "5" targetNeuronName = "17" weight = "-0.40659286793078486" />
    <synapse sourceNeuronName = "5" targetNeuronName = "18" weight = "0.22384487342179704" />
</neuralNetwork>