<neuralNetwork>
    <neuron name = "0" type = "sensor" linkName = "Link1" />
    <neuron name = "1" type = "sensor" linkName = "Link3" />
    <neuron name = "2" type = "sensor" linkName = "Link7" />
    <neuron name = "3" type = "sensor" linkName = "Link9" />
    <neuron name = "4" type = "motor"  jointName = "Link0_Link1" />
    <neuron name = "5" type = "motor"  jointName = "Link0_Link2" />
    <neuron name = "6" type = "motor"  jointName = "Link2_Link3" />
    <neuron name = "7" type = "motor"  jointName = "Link1_Link4" />
    <neuron name = "8" type = "motor"  jointName = "Link4_Link5" />
    <neuron name = "9" type = "motor"  jointName = "Link5_Link6" />
    <neuron name = "10" type = "motor"  jointName = "Link6_Link7" />
    <neuron name = "11" type = "motor"  jointName = "Link5_Link8" />
    <neuron name = "12" type = "motor"  jointName = "Link4_Link9" />
    <synapse sourceNeuronName = "0" targetNeuronName = "4" weight = "0.2864974762425454" />
    <synapse sourceNeuronName = "0" targetNeuronName = "5" weight = "0.33965291013688415" />
    <synapse sourceNeuronName = "0" targetNeuronName = "6" weight = "0.11557114100801202" />
    <synapse sourceNeuronName = "0" targetNeuronName = "7" weight = "-0.8200118833961647" />
    <synapse sourceNeuronName = "0" targetNeuronName = "8" weight = "0.471876200202648" />
    <synapse sourceNeuronName = "0" targetNeuronName = "9" weight = "0.031022004111129764" />
    <synapse sourceNeuronName = "0" targetNeuronName = "10" weight = "0.49771408482651047" />
    <synapse sourceNeuronName = "0" targetNeuronName = "11" weight = "0.801266349343607" />
    <synapse sourceNeuronName = "0" targetNeuronName = "12" weight = "-0.924042967594126" />
    <synapse sourceNeuronName = "1" targetNeuronName = "4" weight = "0.8403707475033733" />
    <synapse sourceNeuronName = "1" targetNeuronName = "5" weight = "-0.32152064489133236" />
    <synapse sourceNeuronName = "1" targetNeuronName = "6" weight = "-0.30044857816218884" />
    <synapse sourceNeuronName = "1" targetNeuronName = "7" weight = "-0.9203537560122599" />
    <synapse sourceNeuronName = "1" targetNeuronName = "8" weight = "0.9772118278840642" />
    <synapse sourceNeuronName = "1" targetNeuronName = "9" weight = "-0.5584849384881629" />
    <synapse sourceNeuronName = "1" targetNeuronName = "10" weight = "-0.9344327899440614" />
    <synapse sourceNeuronName = "1" targetNeuronName = "11" weight = "-0.8889905277504637" />
    <synapse sourceNeuronName = "1" targetNeuronName = "12" weight = "-0.5723644754283177" />
    <synapse sourceNeuronName = "2" targetNeuronName = "4" weight = "0.7467891678246736" />
    <synapse sourceNeuronName = "2" targetNeuronName = "5" weight = "0.13777465785373888" />
    <synapse sourceNeuronName = "2" targetNeuronName = "6" weight = "0.7169800118593377" />
    <synapse sourceNeuronName = "2" targetNeuronName = "7" weight = "0.4163701833559579" />
    <synapse sourceNeuronName = "2" targetNeuronName = "8" weight = "0.05149046482785091" />
    <synapse sourceNeuronName = "2" targetNeuronName = "9" weight = "-0.15159519866893412" />
    <synapse sourceNeuronName = "2" targetNeuronName = "10" weight = "-0.7810814019314438" />
    <synapse sourceNeuronName = "2" targetNeuronName = "11" weight = "0.7208597095942184" />
    <synapse sourceNeuronName = "2" targetNeuronName = "12" weight = "0.6270414743585999" />
    <synapse sourceNeuronName = "3" targetNeuronName = "4" weight = "-0.7126423308312635" />
    <synapse sourceNeuronName = "3" targetNeuronName = "5" weight = "-0.9950839108150502" />
    <synapse sourceNeuronName = "3" targetNeuronName = "6" weight = "-0.3636132872375013" />
    <synapse sourceNeuronName = "3" targetNeuronName = "7" weight = "-0.5540191684851301" />
    <synapse sourceNeuronName = "3" targetNeuronName = "8" weight = "0.4905156129770407" />
    <synapse sourceNeuronName = "3" targetNeuronName = "9" weight = "-0.5793725406329926" />
    <synapse sourceNeuronName = "3" targetNeuronName = "10" weight = "0.6121707929763247" />
    <synapse sourceNeuronName = "3" targetNeuronName = "11" weight = "0.2836228562328773" />
    <synapse sourceNeuronName = "3" targetNeuronName = "12" weight = "-0.7270038469175328" />
</neuralNetwork>