<neuralNetwork>
    <neuron name = "0" type = "sensor" linkName = "Link2" />
    <neuron name = "1" type = "sensor" linkName = "Link4" />
    <neuron name = "2" type = "sensor" linkName = "Link5" />
    <neuron name = "3" type = "sensor" linkName = "Link6" />
    <neuron name = "4" type = "sensor" linkName = "Link7" />
    <neuron name = "5" type = "motor"  jointName = "Link0_Link1" />
    <neuron name = "6" type = "motor"  jointName = "Link1_Link2" />
    <neuron name = "7" type = "motor"  jointName = "Link2_Link3" />
    <neuron name = "8" type = "motor"  jointName = "Link2_Link4" />
    <neuron name = "9" type = "motor"  jointName = "Link3_Link5" />
    <neuron name = "10" type = "motor"  jointName = "Link3_Link6" />
    <neuron name = "11" type = "motor"  jointName = "Link5_Link7" />
    <neuron name = "12" type = "motor"  jointName = "Link6_Link8" />
    <synapse sourceNeuronName = "0" targetNeuronName = "5" weight = "0.5836543783568766" />
    <synapse sourceNeuronName = "0" targetNeuronName = "6" weight = "-0.46575214784658137" />
    <synapse sourceNeuronName = "0" targetNeuronName = "7" weight = "-0.9023101479731479" />
    <synapse sourceNeuronName = "0" targetNeuronName = "8" weight = "0.7939413188856737" />
    <synapse sourceNeuronName = "0" targetNeuronName = "9" weight = "-0.217295300802693" />
    <synapse sourceNeuronName = "0" targetNeuronName = "10" weight = "0.2062981775052648" />
    <synapse sourceNeuronName = "0" targetNeuronName = "11" weight = "0.7492814078194818" />
    <synapse sourceNeuronName = "0" targetNeuronName = "12" weight = "0.18441488875806034" />
    <synapse sourceNeuronName = "1" targetNeuronName = "5" weight = "-0.5830719625980103" />
    <synapse sourceNeuronName = "1" targetNeuronName = "6" weight = "0.012427600034944364" />
    <synapse sourceNeuronName = "1" targetNeuronName = "7" weight = "-0.16355026517811777" />
    <synapse sourceNeuronName = "1" targetNeuronName = "8" weight = "0.5087363991525928" />
    <synapse sourceNeuronName = "1" targetNeuronName = "9" weight = "0.32073312053315184" />
    <synapse sourceNeuronName = "1" targetNeuronName = "10" weight = "0.78234299345908" />
    <synapse sourceNeuronName = "1" targetNeuronName = "11" weight = "-0.8683427349656634" />
    <synapse sourceNeuronName = "1" targetNeuronName = "12" weight = "0.07986750636724405" />
    <synapse sourceNeuronName = "2" targetNeuronName = "5" weight = "0.4518808886355883" />
    <synapse sourceNeuronName = "2" targetNeuronName = "6" weight = "0.7238035148011746" />
    <synapse sourceNeuronName = "2" targetNeuronName = "7" weight = "0.32402436324711803" />
    <synapse sourceNeuronName = "2" targetNeuronName = "8" weight = "0.49734622781339843" />
    <synapse sourceNeuronName = "2" targetNeuronName = "9" weight = "0.08952694615756962" />
    <synapse sourceNeuronName = "2" targetNeuronName = "10" weight = "0.7004491664709953" />
    <synapse sourceNeuronName = "2" targetNeuronName = "11" weight = "-0.5929870676307802" />
    <synapse sourceNeuronName = "2" targetNeuronName = "12" weight = "0.5156734561267284" />
    <synapse sourceNeuronName = "3" targetNeuronName = "5" weight = "0.3691191129601352" />
    <synapse sourceNeuronName = "3" targetNeuronName = "6" weight = "-0.34502472685652896" />
    <synapse sourceNeuronName = "3" targetNeuronName = "7" weight = "0.11687124445432939" />
    <synapse sourceNeuronName = "3" targetNeuronName = "8" weight = "-0.44808577387583415" />
    <synapse sourceNeuronName = "3" targetNeuronName = "9" weight = "-0.8137072615967524" />
    <synapse sourceNeuronName = "3" targetNeuronName = "10" weight = "-0.4553495966526717" />
    <synapse sourceNeuronName = "3" targetNeuronName = "11" weight = "-0.7876313419325536" />
    <synapse sourceNeuronName = "3" targetNeuronName = "12" weight = "0.5320670071217928" />
    <synapse sourceNeuronName = "4" targetNeuronName = "5" weight = "0.339493479942377" />
    <synapse sourceNeuronName = "4" targetNeuronName = "6" weight = "0.37464939820048393" />
    <synapse sourceNeuronName = "4" targetNeuronName = "7" weight = "0.6766224534074043" />
    <synapse sourceNeuronName = "4" targetNeuronName = "8" weight = "0.4787838394135868" />
    <synapse sourceNeuronName = "4" targetNeuronName = "9" weight = "-0.8445092133274241" />
    <synapse sourceNeuronName = "4" targetNeuronName = "10" weight = "0.8577712582887382" />
    <synapse sourceNeuronName = "4" targetNeuronName = "11" weight = "-0.6370105643256512" />
    <synapse sourceNeuronName = "4" targetNeuronName = "12" weight = "-0.4897985989058504" />
</neuralNetwork>