<neuralNetwork>
    <neuron name = "0" type = "sensor" linkName = "Link1" />
    <neuron name = "1" type = "sensor" linkName = "Link3" />
    <neuron name = "2" type = "sensor" linkName = "Link7" />
    <neuron name = "3" type = "sensor" linkName = "Link9" />
    <neuron name = "4" type = "motor"  jointName = "Link0_Link1" />
    <neuron name = "5" type = "motor"  jointName = "Link0_Link2" />
    <neuron name = "6" type = "motor"  jointName = "Link2_Link3" />
    <neuron name = "7" type = "motor"  jointName = "Link1_Link4" />
    <neuron name = "8" type = "motor"  jointName = "Link4_Link5" />
    <neuron name = "9" type = "motor"  jointName = "Link5_Link6" />
    <neuron name = "10" type = "motor"  jointName = "Link6_Link7" />
    <neuron name = "11" type = "motor"  jointName = "Link5_Link8" />
    <neuron name = "12" type = "motor"  jointName = "Link4_Link9" />
    <synapse sourceNeuronName = "0" targetNeuronName = "4" weight = "-0.8152716467027705" />
    <synapse sourceNeuronName = "0" targetNeuronName = "5" weight = "0.12766569479402845" />
    <synapse sourceNeuronName = "0" targetNeuronName = "6" weight = "-0.8669425761409386" />
    <synapse sourceNeuronName = "0" targetNeuronName = "7" weight = "0.8297073346587922" />
    <synapse sourceNeuronName = "0" targetNeuronName = "8" weight = "0.4909804368756838" />
    <synapse sourceNeuronName = "0" targetNeuronName = "9" weight = "-0.5995274220032016" />
    <synapse sourceNeuronName = "0" targetNeuronName = "10" weight = "-0.31680174206225176" />
    <synapse sourceNeuronName = "0" targetNeuronName = "11" weight = "-0.5649424745038065" />
    <synapse sourceNeuronName = "0" targetNeuronName = "12" weight = "0.02066141340649219" />
    <synapse sourceNeuronName = "1" targetNeuronName = "4" weight = "0.1273258654372087" />
    <synapse sourceNeuronName = "1" targetNeuronName = "5" weight = "-0.7835069362010689" />
    <synapse sourceNeuronName = "1" targetNeuronName = "6" weight = "0.7104395204435052" />
    <synapse sourceNeuronName = "1" targetNeuronName = "7" weight = "-0.9255793538711978" />
    <synapse sourceNeuronName = "1" targetNeuronName = "8" weight = "-0.3923921742677452" />
    <synapse sourceNeuronName = "1" targetNeuronName = "9" weight = "-0.33223176939857035" />
    <synapse sourceNeuronName = "1" targetNeuronName = "10" weight = "0.3290012963544531" />
    <synapse sourceNeuronName = "1" targetNeuronName = "11" weight = "0.6559654534911787" />
    <synapse sourceNeuronName = "1" targetNeuronName = "12" weight = "-0.49651694289765635" />
    <synapse sourceNeuronName = "2" targetNeuronName = "4" weight = "0.26486844808368937" />
    <synapse sourceNeuronName = "2" targetNeuronName = "5" weight = "-0.6746429161782661" />
    <synapse sourceNeuronName = "2" targetNeuronName = "6" weight = "-0.30974576061913006" />
    <synapse sourceNeuronName = "2" targetNeuronName = "7" weight = "0.12211139709879837" />
    <synapse sourceNeuronName = "2" targetNeuronName = "8" weight = "0.1379891150746264" />
    <synapse sourceNeuronName = "2" targetNeuronName = "9" weight = "0.10659422370091765" />
    <synapse sourceNeuronName = "2" targetNeuronName = "10" weight = "0.49443942696738175" />
    <synapse sourceNeuronName = "2" targetNeuronName = "11" weight = "0.8556440723757048" />
    <synapse sourceNeuronName = "2" targetNeuronName = "12" weight = "0.4049069347421428" />
    <synapse sourceNeuronName = "3" targetNeuronName = "4" weight = "0.34807620008652607" />
    <synapse sourceNeuronName = "3" targetNeuronName = "5" weight = "0.5644970737004933" />
    <synapse sourceNeuronName = "3" targetNeuronName = "6" weight = "-0.6552843192454243" />
    <synapse sourceNeuronName = "3" targetNeuronName = "7" weight = "0.9407235441098774" />
    <synapse sourceNeuronName = "3" targetNeuronName = "8" weight = "0.7123386990295302" />
    <synapse sourceNeuronName = "3" targetNeuronName = "9" weight = "0.40044139298619164" />
    <synapse sourceNeuronName = "3" targetNeuronName = "10" weight = "0.7105688689422107" />
    <synapse sourceNeuronName = "3" targetNeuronName = "11" weight = "-0.8637471580975034" />
    <synapse sourceNeuronName = "3" targetNeuronName = "12" weight = "0.010127483341326293" />
</neuralNetwork>