<neuralNetwork>
    <neuron name = "0" type = "sensor" linkName = "Link0" />
    <neuron name = "1" type = "sensor" linkName = "Link3" />
    <neuron name = "2" type = "sensor" linkName = "Link4" />
    <neuron name = "3" type = "sensor" linkName = "Link5" />
    <neuron name = "4" type = "sensor" linkName = "Link6" />
    <neuron name = "5" type = "motor"  jointName = "Link0_Link1" />
    <neuron name = "6" type = "motor"  jointName = "Link1_Link2" />
    <neuron name = "7" type = "motor"  jointName = "Link0_Link3" />
    <neuron name = "8" type = "motor"  jointName = "Link3_Link4" />
    <neuron name = "9" type = "motor"  jointName = "Link4_Link5" />
    <neuron name = "10" type = "motor"  jointName = "Link4_Link6" />
    <neuron name = "11" type = "motor"  jointName = "Link2_Link7" />
    <synapse sourceNeuronName = "0" targetNeuronName = "5" weight = "0.0024683237031950522" />
    <synapse sourceNeuronName = "0" targetNeuronName = "6" weight = "-0.5867740378118802" />
    <synapse sourceNeuronName = "0" targetNeuronName = "7" weight = "0.3970142972696513" />
    <synapse sourceNeuronName = "0" targetNeuronName = "8" weight = "0.9721164175030446" />
    <synapse sourceNeuronName = "0" targetNeuronName = "9" weight = "-0.41800225534763147" />
    <synapse sourceNeuronName = "0" targetNeuronName = "10" weight = "0.9034775630734322" />
    <synapse sourceNeuronName = "0" targetNeuronName = "11" weight = "-0.10757142417535137" />
    <synapse sourceNeuronName = "1" targetNeuronName = "5" weight = "-0.25641923632730945" />
    <synapse sourceNeuronName = "1" targetNeuronName = "6" weight = "0.8017807148950487" />
    <synapse sourceNeuronName = "1" targetNeuronName = "7" weight = "-0.4589390547290868" />
    <synapse sourceNeuronName = "1" targetNeuronName = "8" weight = "-0.9397721967877068" />
    <synapse sourceNeuronName = "1" targetNeuronName = "9" weight = "0.6446115985584473" />
    <synapse sourceNeuronName = "1" targetNeuronName = "10" weight = "-0.406715590434368" />
    <synapse sourceNeuronName = "1" targetNeuronName = "11" weight = "0.0752398668592078" />
    <synapse sourceNeuronName = "2" targetNeuronName = "5" weight = "0.4008999573978367" />
    <synapse sourceNeuronName = "2" targetNeuronName = "6" weight = "-0.45848898568254093" />
    <synapse sourceNeuronName = "2" targetNeuronName = "7" weight = "0.5783010151586168" />
    <synapse sourceNeuronName = "2" targetNeuronName = "8" weight = "0.16805544777162962" />
    <synapse sourceNeuronName = "2" targetNeuronName = "9" weight = "-0.8491680337827985" />
    <synapse sourceNeuronName = "2" targetNeuronName = "10" weight = "-0.737013647590598" />
    <synapse sourceNeuronName = "2" targetNeuronName = "11" weight = "-0.40355493157223377" />
    <synapse sourceNeuronName = "3" targetNeuronName = "5" weight = "0.6095630161653569" />
    <synapse sourceNeuronName = "3" targetNeuronName = "6" weight = "0.3584527304199854" />
    <synapse sourceNeuronName = "3" targetNeuronName = "7" weight = "0.022803725022190857" />
    <synapse sourceNeuronName = "3" targetNeuronName = "8" weight = "-0.10989530639501321" />
    <synapse sourceNeuronName = "3" targetNeuronName = "9" weight = "0.033608798032536136" />
    <synapse sourceNeuronName = "3" targetNeuronName = "10" weight = "0.7702000109432052" />
    <synapse sourceNeuronName = "3" targetNeuronName = "11" weight = "0.14784807929443677" />
    <synapse sourceNeuronName = "4" targetNeuronName = "5" weight = "0.7638685532861607" />
    <synapse sourceNeuronName = "4" targetNeuronName = "6" weight = "-0.9128763778515432" />
    <synapse sourceNeuronName = "4" targetNeuronName = "7" weight = "-0.033491137271850935" />
    <synapse sourceNeuronName = "4" targetNeuronName = "8" weight = "-0.45497551911093503" />
    <synapse sourceNeuronName = "4" targetNeuronName = "9" weight = "-0.5002644986322398" />
    <synapse sourceNeuronName = "4" targetNeuronName = "10" weight = "0.6669666876303482" />
    <synapse sourceNeuronName = "4" targetNeuronName = "11" weight = "0.16424181948603578" />
</neuralNetwork>