<neuralNetwork>
    <neuron name = "0" type = "sensor" linkName = "Link2" />
    <neuron name = "1" type = "sensor" linkName = "Link4" />
    <neuron name = "2" type = "sensor" linkName = "Link5" />
    <neuron name = "3" type = "sensor" linkName = "Link6" />
    <neuron name = "4" type = "motor"  jointName = "Link0_Link1" />
    <neuron name = "5" type = "motor"  jointName = "Link1_Link2" />
    <neuron name = "6" type = "motor"  jointName = "Link2_Link3" />
    <neuron name = "7" type = "motor"  jointName = "Link3_Link4" />
    <neuron name = "8" type = "motor"  jointName = "Link3_Link5" />
    <neuron name = "9" type = "motor"  jointName = "Link4_Link6" />
    <synapse sourceNeuronName = "0" targetNeuronName = "4" weight = "-0.7499665724612705" />
    <synapse sourceNeuronName = "0" targetNeuronName = "5" weight = "-0.6979272939982524" />
    <synapse sourceNeuronName = "0" targetNeuronName = "6" weight = "0.9073322871802654" />
    <synapse sourceNeuronName = "0" targetNeuronName = "7" weight = "0.5230784584851298" />
    <synapse sourceNeuronName = "0" targetNeuronName = "8" weight = "-0.3739763600411736" />
    <synapse sourceNeuronName = "0" targetNeuronName = "9" weight = "0.3953924345227269" />
    <synapse sourceNeuronName = "1" targetNeuronName = "4" weight = "-0.4449690431890947" />
    <synapse sourceNeuronName = "1" targetNeuronName = "5" weight = "-0.2733723041430973" />
    <synapse sourceNeuronName = "1" targetNeuronName = "6" weight = "0.09829609626317404" />
    <synapse sourceNeuronName = "1" targetNeuronName = "7" weight = "-0.702793558906827" />
    <synapse sourceNeuronName = "1" targetNeuronName = "8" weight = "-0.012417443829619401" />
    <synapse sourceNeuronName = "1" targetNeuronName = "9" weight = "-0.9193114395629622" />
    <synapse sourceNeuronName = "2" targetNeuronName = "4" weight = "-0.42957847012151373" />
    <synapse sourceNeuronName = "2" targetNeuronName = "5" weight = "0.061786811534971786" />
    <synapse sourceNeuronName = "2" targetNeuronName = "6" weight = "0.19769738155296435" />
    <synapse sourceNeuronName = "2" targetNeuronName = "7" weight = "-0.4517600896862404" />
    <synapse sourceNeuronName = "2" targetNeuronName = "8" weight = "-0.4139181999878867" />
    <synapse sourceNeuronName = "2" targetNeuronName = "9" weight = "0.433763114402516" />
    <synapse sourceNeuronName = "3" targetNeuronName = "4" weight = "0.2795686135776658" />
    <synapse sourceNeuronName = "3" targetNeuronName = "5" weight = "-0.7583694960847891" />
    <synapse sourceNeuronName = "3" targetNeuronName = "6" weight = "-0.5518409523184717" />
    <synapse sourceNeuronName = "3" targetNeuronName = "7" weight = "0.40592732855806823" />
    <synapse sourceNeuronName = "3" targetNeuronName = "8" weight = "0.18681149747920145" />
    <synapse sourceNeuronName = "3" targetNeuronName = "9" weight = "0.16330112576207712" />
</neuralNetwork>