<neuralNetwork>
    <neuron name = "0" type = "sensor" linkName = "Link1" />
    <neuron name = "1" type = "sensor" linkName = "Link3" />
    <neuron name = "2" type = "sensor" linkName = "Link5" />
    <neuron name = "3" type = "motor"  jointName = "Link0_Link1" />
    <neuron name = "4" type = "motor"  jointName = "Link0_Link2" />
    <neuron name = "5" type = "motor"  jointName = "Link2_Link3" />
    <neuron name = "6" type = "motor"  jointName = "Link1_Link4" />
    <neuron name = "7" type = "motor"  jointName = "Link4_Link5" />
    <neuron name = "8" type = "motor"  jointName = "Link3_Link6" />
    <neuron name = "9" type = "motor"  jointName = "Link5_Link7" />
    <neuron name = "10" type = "motor"  jointName = "Link5_Link8" />
    <synapse sourceNeuronName = "0" targetNeuronName = "3" weight = "0.457680843525349" />
    <synapse sourceNeuronName = "0" targetNeuronName = "4" weight = "0.17418438329580854" />
    <synapse sourceNeuronName = "0" targetNeuronName = "5" weight = "-0.3880709146776691" />
    <synapse sourceNeuronName = "0" targetNeuronName = "6" weight = "-0.8154664101673519" />
    <synapse sourceNeuronName = "0" targetNeuronName = "7" weight = "0.2865970638469002" />
    <synapse sourceNeuronName = "0" targetNeuronName = "8" weight = "0.2887446872690693" />
    <synapse sourceNeuronName = "0" targetNeuronName = "9" weight = "-0.2560332826973064" />
    <synapse sourceNeuronName = "0" targetNeuronName = "10" weight = "-0.35010982722295747" />
    <synapse sourceNeuronName = "1" targetNeuronName = "3" weight = "0.19241594042218546" />
    <synapse sourceNeuronName = "1" targetNeuronName = "4" weight = "-0.9597177409643844" />
    <synapse sourceNeuronName = "1" targetNeuronName = "5" weight = "0.6231182327530962" />
    <synapse sourceNeuronName = "1" targetNeuronName = "6" weight = "0.47905047307395643" />
    <synapse sourceNeuronName = "1" targetNeuronName = "7" weight = "0.024653994853873096" />
    <synapse sourceNeuronName = "1" targetNeuronName = "8" weight = "0.5464231757664144" />
    <synapse sourceNeuronName = "1" targetNeuronName = "9" weight = "-0.5187167100889276" />
    <synapse sourceNeuronName = "1" targetNeuronName = "10" weight = "-0.9413310889431887" />
    <synapse sourceNeuronName = "2" targetNeuronName = "3" weight = "-0.8981788871057672" />
    <synapse sourceNeuronName = "2" targetNeuronName = "4" weight = "0.024842763493933884" />
    <synapse sourceNeuronName = "2" targetNeuronName = "5" weight = "-0.37413365653779285" />
    <synapse sourceNeuronName = "2" targetNeuronName = "6" weight = "-0.9171053853710736" />
    <synapse sourceNeuronName = "2" targetNeuronName = "7" weight = "0.9389759847560435" />
    <synapse sourceNeuronName = "2" targetNeuronName = "8" weight = "0.7229996590631786" />
    <synapse sourceNeuronName = "2" targetNeuronName = "9" weight = "-0.9562341099975198" />
    <synapse sourceNeuronName = "2" targetNeuronName = "10" weight = "0.17294591522582436" />
</neuralNetwork>