<neuralNetwork>
    <neuron name = "0" type = "sensor" linkName = "Link2" />
    <neuron name = "1" type = "sensor" linkName = "Link3" />
    <neuron name = "2" type = "sensor" linkName = "Link4" />
    <neuron name = "3" type = "sensor" linkName = "Link5" />
    <neuron name = "4" type = "sensor" linkName = "Link6" />
    <neuron name = "5" type = "sensor" linkName = "Link7" />
    <neuron name = "6" type = "sensor" linkName = "Link8" />
    <neuron name = "7" type = "motor"  jointName = "Link0_Link1" />
    <neuron name = "8" type = "motor"  jointName = "Link1_Link2" />
    <neuron name = "9" type = "motor"  jointName = "Link2_Link3" />
    <neuron name = "10" type = "motor"  jointName = "Link2_Link4" />
    <neuron name = "11" type = "motor"  jointName = "Link3_Link5" />
    <neuron name = "12" type = "motor"  jointName = "Link3_Link6" />
    <neuron name = "13" type = "motor"  jointName = "Link5_Link7" />
    <neuron name = "14" type = "motor"  jointName = "Link6_Link8" />
    <synapse sourceNeuronName = "0" targetNeuronName = "7" weight = "-0.8267376315465962" />
    <synapse sourceNeuronName = "0" targetNeuronName = "8" weight = "0.8554295155062333" />
    <synapse sourceNeuronName = "0" targetNeuronName = "9" weight = "-0.7225593139743958" />
    <synapse sourceNeuronName = "0" targetNeuronName = "10" weight = "0.051078514147591125" />
    <synapse sourceNeuronName = "0" targetNeuronName = "11" weight = "-0.8364895529921057" />
    <synapse sourceNeuronName = "0" targetNeuronName = "12" weight = "-0.1413486675634401" />
    <synapse sourceNeuronName = "0" targetNeuronName = "13" weight = "0.30710419472225325" />
    <synapse sourceNeuronName = "0" targetNeuronName = "14" weight = "-0.2498806634316042" />
    <synapse sourceNeuronName = "1" targetNeuronName = "7" weight = "0.9327215750058726" />
    <synapse sourceNeuronName = "1" targetNeuronName = "8" weight = "-0.6165827833619466" />
    <synapse sourceNeuronName = "1" targetNeuronName = "9" weight = "-0.40091550309388335" />
    <synapse sourceNeuronName = "1" targetNeuronName = "10" weight = "0.3679102340500664" />
    <synapse sourceNeuronName = "1" targetNeuronName = "11" weight = "-0.4231977412611747" />
    <synapse sourceNeuronName = "1" targetNeuronName = "12" weight = "-0.7179625560319005" />
    <synapse sourceNeuronName = "1" targetNeuronName = "13" weight = "-0.06848556879824907" />
    <synapse sourceNeuronName = "1" targetNeuronName = "14" weight = "-0.19389348769543835" />
    <synapse sourceNeuronName = "2" targetNeuronName = "7" weight = "-0.3678617728658846" />
    <synapse sourceNeuronName = "2" targetNeuronName = "8" weight = "0.5492695956787517" />
    <synapse sourceNeuronName = "2" targetNeuronName = "9" weight = "-0.5034514218088086" />
    <synapse sourceNeuronName = "2" targetNeuronName = "10" weight = "0.03523578923785875" />
    <synapse sourceNeuronName = "2" targetNeuronName = "11" weight = "0.9613864632665745" />
    <synapse sourceNeuronName = "2" targetNeuronName = "12" weight = "-0.9928695052868708" />
    <synapse sourceNeuronName = "2" targetNeuronName = "13" weight = "0.6656341551982272" />
    <synapse sourceNeuronName = "2" targetNeuronName = "14" weight = "-0.27553061578658533" />
    <synapse sourceNeuronName = "3" targetNeuronName = "7" weight = "-0.19832092002888224" />
    <synapse sourceNeuronName = "3" targetNeuronName = "8" weight = "-0.22386464327964473" />
    <synapse sourceNeuronName = "3" targetNeuronName = "9" weight = "0.7600591183093017" />
    <synapse sourceNeuronName = "3" targetNeuronName = "10" weight = "0.14456134360379758" />
    <synapse sourceNeuronName = "3" targetNeuronName = "11" weight = "-0.4200545421738504" />
    <synapse sourceNeuronName = "3" targetNeuronName = "12" weight = "0.6945066631755825" />
    <synapse sourceNeuronName = "3" targetNeuronName = "13" weight = "-0.9624534501036675" />
    <synapse sourceNeuronName = "3" targetNeuronName = "14" weight = "-0.5579795457051964" />
    <synapse sourceNeuronName = "4" targetNeuronName = "7" weight = "0.635733461878949" />
    <synapse sourceNeuronName = "4" targetNeuronName = "8" weight = "-0.9319251399114128" />
    <synapse sourceNeuronName = "4" targetNeuronName = "9" weight = "0.22581520346772677" />
    <synapse sourceNeuronName = "4" targetNeuronName = "10" weight = "0.16026045600959438" />
    <synapse sourceNeuronName = "4" targetNeuronName = "11" weight = "0.8683391575272281" />
    <synapse sourceNeuronName = "4" targetNeuronName = "12" weight = "-0.9837552076752483" />
    <synapse sourceNeuronName = "4" targetNeuronName = "13" weight = "-0.25052647732925304" />
    <synapse sourceNeuronName = "4" targetNeuronName = "14" weight = "0.750510723688633" />
    <synapse sourceNeuronName = "5" targetNeuronName = "7" weight = "0.6992211881964276" />
    <synapse sourceNeuronName = "5" targetNeuronName = "8" weight = "-0.17787430029814044" />
    <synapse sourceNeuronName = "5" targetNeuronName = "9" weight = "0.5463956597404063" />
    <synapse sourceNeuronName = "5" targetNeuronName = "10" weight = "-0.27702743115761996" />
    <synapse sourceNeuronName = "5" targetNeuronName = "11" weight = "-0.20140062247253243" />
    <synapse sourceNeuronName = "5" targetNeuronName = "12" weight = "-0.2797145819010791" />
    <synapse sourceNeuronName = "5" targetNeuronName = "13" weight = "0.4922476113725027" />
    <synapse sourceNeuronName = "5" targetNeuronName = "14" weight = "-0.6612804902879112" />
    <synapse sourceNeuronName = "6" targetNeuronName = "7" weight = "-0.4277010175516618" />
    <synapse sourceNeuronName = "6" targetNeuronName = "8" weight = "0.19973551025386582" />
    <synapse sourceNeuronName = "6" targetNeuronName = "9" weight = "-0.5826475574732184" />
    <synapse sourceNeuronName = "6" targetNeuronName = "10" weight = "0.18627990839600028" />
    <synapse sourceNeuronName = "6" targetNeuronName = "11" weight = "0.4511370562658972" />
    <synapse sourceNeuronName = "6" targetNeuronName = "12" weight = "0.4823740523748381" />
    <synapse sourceNeuronName = "6" targetNeuronName = "13" weight = "-0.4605434931906538" />
    <synapse sourceNeuronName = "6" targetNeuronName = "14" weight = "-0.37270005100487746" />
</neuralNetwork>