<neuralNetwork>
    <neuron name = "0" type = "sensor" linkName = "Link2" />
    <neuron name = "1" type = "sensor" linkName = "Link4" />
    <neuron name = "2" type = "sensor" linkName = "Link5" />
    <neuron name = "3" type = "sensor" linkName = "Link6" />
    <neuron name = "4" type = "sensor" linkName = "Link7" />
    <neuron name = "5" type = "motor"  jointName = "Link0_Link1" />
    <neuron name = "6" type = "motor"  jointName = "Link1_Link2" />
    <neuron name = "7" type = "motor"  jointName = "Link2_Link3" />
    <neuron name = "8" type = "motor"  jointName = "Link2_Link4" />
    <neuron name = "9" type = "motor"  jointName = "Link3_Link5" />
    <neuron name = "10" type = "motor"  jointName = "Link3_Link6" />
    <neuron name = "11" type = "motor"  jointName = "Link5_Link7" />
    <neuron name = "12" type = "motor"  jointName = "Link6_Link8" />
    <synapse sourceNeuronName = "0" targetNeuronName = "5" weight = "0.6386535376547593" />
    <synapse sourceNeuronName = "0" targetNeuronName = "6" weight = "-0.17452295486059155" />
    <synapse sourceNeuronName = "0" targetNeuronName = "7" weight = "0.42587651793125847" />
    <synapse sourceNeuronName = "0" targetNeuronName = "8" weight = "0.9116389995543912" />
    <synapse sourceNeuronName = "0" targetNeuronName = "9" weight = "0.19510310054944857" />
    <synapse sourceNeuronName = "0" targetNeuronName = "10" weight = "-0.6424287974408294" />
    <synapse sourceNeuronName = "0" targetNeuronName = "11" weight = "0.02954004883857486" />
    <synapse sourceNeuronName = "0" targetNeuronName = "12" weight = "-0.36604440317755493" />
    <synapse sourceNeuronName = "1" targetNeuronName = "5" weight = "0.13238164090155702" />
    <synapse sourceNeuronName = "1" targetNeuronName = "6" weight = "0.9149270909227558" />
    <synapse sourceNeuronName = "1" targetNeuronName = "7" weight = "0.3931703834945792" />
    <synapse sourceNeuronName = "1" targetNeuronName = "8" weight = "0.24707605635755314" />
    <synapse sourceNeuronName = "1" targetNeuronName = "9" weight = "-0.017493074008234855" />
    <synapse sourceNeuronName = "1" targetNeuronName = "10" weight = "-0.6966622520754744" />
    <synapse sourceNeuronName = "1" targetNeuronName = "11" weight = "-0.1470045403302338" />
    <synapse sourceNeuronName = "1" targetNeuronName = "12" weight = "0.7253609972418233" />
    <synapse sourceNeuronName = "2" targetNeuronName = "5" weight = "-0.6624546390191715" />
    <synapse sourceNeuronName = "2" targetNeuronName = "6" weight = "0.6139849436359706" />
    <synapse sourceNeuronName = "2" targetNeuronName = "7" weight = "-0.06365160241173085" />
    <synapse sourceNeuronName = "2" targetNeuronName = "8" weight = "0.9877005911982202" />
    <synapse sourceNeuronName = "2" targetNeuronName = "9" weight = "0.5283041118001359" />
    <synapse sourceNeuronName = "2" targetNeuronName = "10" weight = "-0.8479834232998451" />
    <synapse sourceNeuronName = "2" targetNeuronName = "11" weight = "-0.29283451475091393" />
    <synapse sourceNeuronName = "2" targetNeuronName = "12" weight = "-0.3051624665584387" />
    <synapse sourceNeuronName = "3" targetNeuronName = "5" weight = "0.30769778827549277" />
    <synapse sourceNeuronName = "3" targetNeuronName = "6" weight = "-0.1450824217657567" />
    <synapse sourceNeuronName = "3" targetNeuronName = "7" weight = "0.012716659315152867" />
    <synapse sourceNeuronName = "3" targetNeuronName = "8" weight = "0.9012794739551371" />
    <synapse sourceNeuronName = "3" targetNeuronName = "9" weight = "0.04370579929016194" />
    <synapse sourceNeuronName = "3" targetNeuronName = "10" weight = "0.3675142195054606" />
    <synapse sourceNeuronName = "3" targetNeuronName = "11" weight = "0.23978722856441803" />
    <synapse sourceNeuronName = "3" targetNeuronName = "12" weight = "-0.8731874591930606" />
    <synapse sourceNeuronName = "4" targetNeuronName = "5" weight = "0.42016549788437607" />
    <synapse sourceNeuronName = "4" targetNeuronName = "6" weight = "0.36351249463387014" />
    <synapse sourceNeuronName = "4" targetNeuronName = "7" weight = "-0.47406899425360294" />
    <synapse sourceNeuronName = "4" targetNeuronName = "8" weight = "-0.817467756665492" />
    <synapse sourceNeuronName = "4" targetNeuronName = "9" weight = "-0.537729049632055" />
    <synapse sourceNeuronName = "4" targetNeuronName = "10" weight = "-0.6419880502729185" />
    <synapse sourceNeuronName = "4" targetNeuronName = "11" weight = "-0.013101448480013822" />
    <synapse sourceNeuronName = "4" targetNeuronName = "12" weight = "-0.07585176954408746" />
</neuralNetwork>