<neuralNetwork>
    <neuron name = "0" type = "sensor" linkName = "Link2" />
    <neuron name = "1" type = "sensor" linkName = "Link4" />
    <neuron name = "2" type = "sensor" linkName = "Link5" />
    <neuron name = "3" type = "sensor" linkName = "Link6" />
    <neuron name = "4" type = "sensor" linkName = "Link7" />
    <neuron name = "5" type = "motor"  jointName = "Link0_Link1" />
    <neuron name = "6" type = "motor"  jointName = "Link1_Link2" />
    <neuron name = "7" type = "motor"  jointName = "Link2_Link3" />
    <neuron name = "8" type = "motor"  jointName = "Link2_Link4" />
    <neuron name = "9" type = "motor"  jointName = "Link3_Link5" />
    <neuron name = "10" type = "motor"  jointName = "Link3_Link6" />
    <neuron name = "11" type = "motor"  jointName = "Link5_Link7" />
    <neuron name = "12" type = "motor"  jointName = "Link7_Link8" />
    <synapse sourceNeuronName = "0" targetNeuronName = "5" weight = "-0.8355208680234327" />
    <synapse sourceNeuronName = "0" targetNeuronName = "6" weight = "0.6219350355536337" />
    <synapse sourceNeuronName = "0" targetNeuronName = "7" weight = "-0.718528151173591" />
    <synapse sourceNeuronName = "0" targetNeuronName = "8" weight = "-0.2220463383406044" />
    <synapse sourceNeuronName = "0" targetNeuronName = "9" weight = "-0.5765129491057175" />
    <synapse sourceNeuronName = "0" targetNeuronName = "10" weight = "-0.06326494227556068" />
    <synapse sourceNeuronName = "0" targetNeuronName = "11" weight = "-0.72365016660552" />
    <synapse sourceNeuronName = "0" targetNeuronName = "12" weight = "0.9768649332982773" />
    <synapse sourceNeuronName = "1" targetNeuronName = "5" weight = "-0.01982626813314714" />
    <synapse sourceNeuronName = "1" targetNeuronName = "6" weight = "-0.31318682579251766" />
    <synapse sourceNeuronName = "1" targetNeuronName = "7" weight = "-0.9066672243449332" />
    <synapse sourceNeuronName = "1" targetNeuronName = "8" weight = "0.5609880524877218" />
    <synapse sourceNeuronName = "1" targetNeuronName = "9" weight = "-0.8219809373420552" />
    <synapse sourceNeuronName = "1" targetNeuronName = "10" weight = "-0.6815802918216973" />
    <synapse sourceNeuronName = "1" targetNeuronName = "11" weight = "0.3240175454694638" />
    <synapse sourceNeuronName = "1" targetNeuronName = "12" weight = "0.3313440461981063" />
    <synapse sourceNeuronName = "2" targetNeuronName = "5" weight = "0.05055805617874398" />
    <synapse sourceNeuronName = "2" targetNeuronName = "6" weight = "0.9659573578376439" />
    <synapse sourceNeuronName = "2" targetNeuronName = "7" weight = "-0.9604648116751977" />
    <synapse sourceNeuronName = "2" targetNeuronName = "8" weight = "-0.8529450475948155" />
    <synapse sourceNeuronName = "2" targetNeuronName = "9" weight = "0.0827470604051237" />
    <synapse sourceNeuronName = "2" targetNeuronName = "10" weight = "0.718865664009779" />
    <synapse sourceNeuronName = "2" targetNeuronName = "11" weight = "-0.2682432553224485" />
    <synapse sourceNeuronName = "2" targetNeuronName = "12" weight = "0.4576261334218812" />
    <synapse sourceNeuronName = "3" targetNeuronName = "5" weight = "0.02800825508062399" />
    <synapse sourceNeuronName = "3" targetNeuronName = "6" weight = "-0.1796411583236568" />
    <synapse sourceNeuronName = "3" targetNeuronName = "7" weight = "-0.8828084895579997" />
    <synapse sourceNeuronName = "3" targetNeuronName = "8" weight = "0.28059781815660045" />
    <synapse sourceNeuronName = "3" targetNeuronName = "9" weight = "-0.2476295755166278" />
    <synapse sourceNeuronName = "3" targetNeuronName = "10" weight = "-0.22795375593621858" />
    <synapse sourceNeuronName = "3" targetNeuronName = "11" weight = "-0.7968114851156887" />
    <synapse sourceNeuronName = "3" targetNeuronName = "12" weight = "-0.5838257925191013" />
    <synapse sourceNeuronName = "4" targetNeuronName = "5" weight = "0.48054859761895674" />
    <synapse sourceNeuronName = "4" targetNeuronName = "6" weight = "-0.622465152834083" />
    <synapse sourceNeuronName = "4" targetNeuronName = "7" weight = "-0.5710930462606512" />
    <synapse sourceNeuronName = "4" targetNeuronName = "8" weight = "-0.9579413359830569" />
    <synapse sourceNeuronName = "4" targetNeuronName = "9" weight = "-0.03829556450146021" />
    <synapse sourceNeuronName = "4" targetNeuronName = "10" weight = "-0.7408916233939935" />
    <synapse sourceNeuronName = "4" targetNeuronName = "11" weight = "0.4935538388083165" />
    <synapse sourceNeuronName = "4" targetNeuronName = "12" weight = "-0.32690911303881065" />
</neuralNetwork>