<neuralNetwork>
    <neuron name = "0" type = "sensor" linkName = "Link1" />
    <neuron name = "1" type = "sensor" linkName = "Link2" />
    <neuron name = "2" type = "sensor" linkName = "Link5" />
    <neuron name = "3" type = "sensor" linkName = "Link6" />
    <neuron name = "4" type = "sensor" linkName = "Link8" />
    <neuron name = "5" type = "motor"  jointName = "Link0_Link1" />
    <neuron name = "6" type = "motor"  jointName = "Link1_Link2" />
    <neuron name = "7" type = "motor"  jointName = "Link0_Link3" />
    <neuron name = "8" type = "motor"  jointName = "Link3_Link4" />
    <neuron name = "9" type = "motor"  jointName = "Link1_Link5" />
    <neuron name = "10" type = "motor"  jointName = "Link3_Link6" />
    <neuron name = "11" type = "motor"  jointName = "Link5_Link7" />
    <neuron name = "12" type = "motor"  jointName = "Link3_Link8" />
    <synapse sourceNeuronName = "0" targetNeuronName = "5" weight = "0.9781215755795614" />
    <synapse sourceNeuronName = "0" targetNeuronName = "6" weight = "0.9534650439744503" />
    <synapse sourceNeuronName = "0" targetNeuronName = "7" weight = "0.35804152557114044" />
    <synapse sourceNeuronName = "0" targetNeuronName = "8" weight = "0.619281363068241" />
    <synapse sourceNeuronName = "0" targetNeuronName = "9" weight = "0.3696530210194191" />
    <synapse sourceNeuronName = "0" targetNeuronName = "10" weight = "-0.431000550713319" />
    <synapse sourceNeuronName = "0" targetNeuronName = "11" weight = "0.3831091055505311" />
    <synapse sourceNeuronName = "0" targetNeuronName = "12" weight = "-0.029973519936467463" />
    <synapse sourceNeuronName = "1" targetNeuronName = "5" weight = "-0.6816940526315678" />
    <synapse sourceNeuronName = "1" targetNeuronName = "6" weight = "-0.047236493008743885" />
    <synapse sourceNeuronName = "1" targetNeuronName = "7" weight = "-0.8666591031938302" />
    <synapse sourceNeuronName = "1" targetNeuronName = "8" weight = "-0.5184760694628994" />
    <synapse sourceNeuronName = "1" targetNeuronName = "9" weight = "-0.8550711556395891" />
    <synapse sourceNeuronName = "1" targetNeuronName = "10" weight = "0.7723947565453113" />
    <synapse sourceNeuronName = "1" targetNeuronName = "11" weight = "-0.3591231076596446" />
    <synapse sourceNeuronName = "1" targetNeuronName = "12" weight = "-0.9931617208646364" />
    <synapse sourceNeuronName = "2" targetNeuronName = "5" weight = "0.8560270814247872" />
    <synapse sourceNeuronName = "2" targetNeuronName = "6" weight = "-0.28779342199389957" />
    <synapse sourceNeuronName = "2" targetNeuronName = "7" weight = "-0.62072158116832" />
    <synapse sourceNeuronName = "2" targetNeuronName = "8" weight = "0.28390596331571194" />
    <synapse sourceNeuronName = "2" targetNeuronName = "9" weight = "-0.7817396012035545" />
    <synapse sourceNeuronName = "2" targetNeuronName = "10" weight = "0.6544616102664549" />
    <synapse sourceNeuronName = "2" targetNeuronName = "11" weight = "0.026975039451323735" />
    <synapse sourceNeuronName = "2" targetNeuronName = "12" weight = "-0.31633774045445806" />
    <synapse sourceNeuronName = "3" targetNeuronName = "5" weight = "0.013706798085806327" />
    <synapse sourceNeuronName = "3" targetNeuronName = "6" weight = "0.18539413269735672" />
    <synapse sourceNeuronName = "3" targetNeuronName = "7" weight = "0.02136115543384176" />
    <synapse sourceNeuronName = "3" targetNeuronName = "8" weight = "0.5582187757182664" />
    <synapse sourceNeuronName = "3" targetNeuronName = "9" weight = "-0.322313611289718" />
    <synapse sourceNeuronName = "3" targetNeuronName = "10" weight = "-0.7340012962191067" />
    <synapse sourceNeuronName = "3" targetNeuronName = "11" weight = "0.40593775798006937" />
    <synapse sourceNeuronName = "3" targetNeuronName = "12" weight = "0.20315680930974067" />
    <synapse sourceNeuronName = "4" targetNeuronName = "5" weight = "-0.8215177105607228" />
    <synapse sourceNeuronName = "4" targetNeuronName = "6" weight = "0.10974430152616388" />
    <synapse sourceNeuronName = "4" targetNeuronName = "7" weight = "-0.6947609485494841" />
    <synapse sourceNeuronName = "4" targetNeuronName = "8" weight = "-0.3373266150454086" />
    <synapse sourceNeuronName = "4" targetNeuronName = "9" weight = "-0.7072816856439359" />
    <synapse sourceNeuronName = "4" targetNeuronName = "10" weight = "-0.9064293777723573" />
    <synapse sourceNeuronName = "4" targetNeuronName = "11" weight = "0.1768987654309977" />
    <synapse sourceNeuronName = "4" targetNeuronName = "12" weight = "-0.35063532373949724" />
</neuralNetwork>