<neuralNetwork>
    <neuron name = "0" type = "sensor" linkName = "Link2" />
    <neuron name = "1" type = "sensor" linkName = "Link4" />
    <neuron name = "2" type = "sensor" linkName = "Link5" />
    <neuron name = "3" type = "sensor" linkName = "Link6" />
    <neuron name = "4" type = "motor"  jointName = "Link0_Link1" />
    <neuron name = "5" type = "motor"  jointName = "Link1_Link2" />
    <neuron name = "6" type = "motor"  jointName = "Link2_Link3" />
    <neuron name = "7" type = "motor"  jointName = "Link2_Link4" />
    <neuron name = "8" type = "motor"  jointName = "Link3_Link5" />
    <neuron name = "9" type = "motor"  jointName = "Link5_Link6" />
    <synapse sourceNeuronName = "0" targetNeuronName = "4" weight = "-0.17325278758243923" />
    <synapse sourceNeuronName = "0" targetNeuronName = "5" weight = "-0.7176336156812906" />
    <synapse sourceNeuronName = "0" targetNeuronName = "6" weight = "-0.2314069936983585" />
    <synapse sourceNeuronName = "0" targetNeuronName = "7" weight = "-0.5489955476250616" />
    <synapse sourceNeuronName = "0" targetNeuronName = "8" weight = "0.8287467297652737" />
    <synapse sourceNeuronName = "0" targetNeuronName = "9" weight = "-0.30096939605731565" />
    <synapse sourceNeuronName = "1" targetNeuronName = "4" weight = "0.49447881768196056" />
    <synapse sourceNeuronName = "1" targetNeuronName = "5" weight = "-0.6182123230603189" />
    <synapse sourceNeuronName = "1" targetNeuronName = "6" weight = "-0.2322911559137315" />
    <synapse sourceNeuronName = "1" targetNeuronName = "7" weight = "-0.6907010382552026" />
    <synapse sourceNeuronName = "1" targetNeuronName = "8" weight = "0.7739362522773487" />
    <synapse sourceNeuronName = "1" targetNeuronName = "9" weight = "0.7089079565929739" />
    <synapse sourceNeuronName = "2" targetNeuronName = "4" weight = "0.35073560437492457" />
    <synapse sourceNeuronName = "2" targetNeuronName = "5" weight = "0.9677201678615908" />
    <synapse sourceNeuronName = "2" targetNeuronName = "6" weight = "0.26322218596847824" />
    <synapse sourceNeuronName = "2" targetNeuronName = "7" weight = "-0.6603508398255908" />
    <synapse sourceNeuronName = "2" targetNeuronName = "8" weight = "-0.6020995284441355" />
    <synapse sourceNeuronName = "2" targetNeuronName = "9" weight = "0.8557834325160736" />
    <synapse sourceNeuronName = "3" targetNeuronName = "4" weight = "-0.3317596266952092" />
    <synapse sourceNeuronName = "3" targetNeuronName = "5" weight = "-0.8954536229991579" />
    <synapse sourceNeuronName = "3" targetNeuronName = "6" weight = "0.45800581582352407" />
    <synapse sourceNeuronName = "3" targetNeuronName = "7" weight = "0.867102621001933" />
    <synapse sourceNeuronName = "3" targetNeuronName = "8" weight = "-0.4717752189164115" />
    <synapse sourceNeuronName = "3" targetNeuronName = "9" weight = "-0.4467779273557504" />
</neuralNetwork>