<neuralNetwork>
    <neuron name = "0" type = "sensor" linkName = "Link0" />
    <neuron name = "1" type = "sensor" linkName = "Link3" />
    <neuron name = "2" type = "sensor" linkName = "Link5" />
    <neuron name = "3" type = "sensor" linkName = "Link6" />
    <neuron name = "4" type = "sensor" linkName = "Link8" />
    <neuron name = "5" type = "motor"  jointName = "Link0_Link1" />
    <neuron name = "6" type = "motor"  jointName = "Link1_Link2" />
    <neuron name = "7" type = "motor"  jointName = "Link1_Link3" />
    <neuron name = "8" type = "motor"  jointName = "Link2_Link4" />
    <neuron name = "9" type = "motor"  jointName = "Link4_Link5" />
    <neuron name = "10" type = "motor"  jointName = "Link0_Link6" />
    <neuron name = "11" type = "motor"  jointName = "Link1_Link7" />
    <neuron name = "12" type = "motor"  jointName = "Link2_Link8" />
    <synapse sourceNeuronName = "0" targetNeuronName = "5" weight = "-0.4810966823636278" />
    <synapse sourceNeuronName = "0" targetNeuronName = "6" weight = "-0.14914225291757255" />
    <synapse sourceNeuronName = "0" targetNeuronName = "7" weight = "-0.5259824761400393" />
    <synapse sourceNeuronName = "0" targetNeuronName = "8" weight = "-0.09096255066797077" />
    <synapse sourceNeuronName = "0" targetNeuronName = "9" weight = "0.2464190767698753" />
    <synapse sourceNeuronName = "0" targetNeuronName = "10" weight = "-0.16257907653212889" />
    <synapse sourceNeuronName = "0" targetNeuronName = "11" weight = "0.6656894331926351" />
    <synapse sourceNeuronName = "0" targetNeuronName = "12" weight = "-0.46910458687769085" />
    <synapse sourceNeuronName = "1" targetNeuronName = "5" weight = "0.508688172454639" />
    <synapse sourceNeuronName = "1" targetNeuronName = "6" weight = "-0.5022891033659667" />
    <synapse sourceNeuronName = "1" targetNeuronName = "7" weight = "-0.03646856028022927" />
    <synapse sourceNeuronName = "1" targetNeuronName = "8" weight = "-0.7653976494172707" />
    <synapse sourceNeuronName = "1" targetNeuronName = "9" weight = "0.027453457567200745" />
    <synapse sourceNeuronName = "1" targetNeuronName = "10" weight = "-0.42424195027726275" />
    <synapse sourceNeuronName = "1" targetNeuronName = "11" weight = "-0.15687356230188199" />
    <synapse sourceNeuronName = "1" targetNeuronName = "12" weight = "-0.9664007716472784" />
    <synapse sourceNeuronName = "2" targetNeuronName = "5" weight = "-0.8749053504176674" />
    <synapse sourceNeuronName = "2" targetNeuronName = "6" weight = "-0.5336080581579212" />
    <synapse sourceNeuronName = "2" targetNeuronName = "7" weight = "-0.5220695773154949" />
    <synapse sourceNeuronName = "2" targetNeuronName = "8" weight = "0.6235167356778415" />
    <synapse sourceNeuronName = "2" targetNeuronName = "9" weight = "-0.5137838948453759" />
    <synapse sourceNeuronName = "2" targetNeuronName = "10" weight = "-0.9553610724103176" />
    <synapse sourceNeuronName = "2" targetNeuronName = "11" weight = "-0.868593936626745" />
    <synapse sourceNeuronName = "2" targetNeuronName = "12" weight = "0.5163357613555011" />
    <synapse sourceNeuronName = "3" targetNeuronName = "5" weight = "-0.34293577081825766" />
    <synapse sourceNeuronName = "3" targetNeuronName = "6" weight = "-0.32748819963859566" />
    <synapse sourceNeuronName = "3" targetNeuronName = "7" weight = "0.47147974276489113" />
    <synapse sourceNeuronName = "3" targetNeuronName = "8" weight = "-0.8892309568718493" />
    <synapse sourceNeuronName = "3" targetNeuronName = "9" weight = "0.6504542247218239" />
    <synapse sourceNeuronName = "3" targetNeuronName = "10" weight = "0.11198845204038665" />
    <synapse sourceNeuronName = "3" targetNeuronName = "11" weight = "0.4499317400980718" />
    <synapse sourceNeuronName = "3" targetNeuronName = "12" weight = "-0.5745488469772719" />
    <synapse sourceNeuronName = "4" targetNeuronName = "5" weight = "0.24508811162049104" />
    <synapse sourceNeuronName = "4" targetNeuronName = "6" weight = "-0.21296772604056535" />
    <synapse sourceNeuronName = "4" targetNeuronName = "7" weight = "0.672237478109563" />
    <synapse sourceNeuronName = "4" targetNeuronName = "8" weight = "0.3483290507554353" />
    <synapse sourceNeuronName = "4" targetNeuronName = "9" weight = "0.136259595387487" />
    <synapse sourceNeuronName = "4" targetNeuronName = "10" weight = "-0.46860068531691224" />
    <synapse sourceNeuronName = "4" targetNeuronName = "11" weight = "-0.3654645026586174" />
    <synapse sourceNeuronName = "4" targetNeuronName = "12" weight = "0.0709907853640519" />
</neuralNetwork>