<neuralNetwork>
    <neuron name = "0" type = "sensor" linkName = "Link1" />
    <neuron name = "1" type = "sensor" linkName = "Link3" />
    <neuron name = "2" type = "sensor" linkName = "Link7" />
    <neuron name = "3" type = "sensor" linkName = "Link9" />
    <neuron name = "4" type = "motor"  jointName = "Link0_Link1" />
    <neuron name = "5" type = "motor"  jointName = "Link0_Link2" />
    <neuron name = "6" type = "motor"  jointName = "Link2_Link3" />
    <neuron name = "7" type = "motor"  jointName = "Link1_Link4" />
    <neuron name = "8" type = "motor"  jointName = "Link4_Link5" />
    <neuron name = "9" type = "motor"  jointName = "Link5_Link6" />
    <neuron name = "10" type = "motor"  jointName = "Link6_Link7" />
    <neuron name = "11" type = "motor"  jointName = "Link5_Link8" />
    <neuron name = "12" type = "motor"  jointName = "Link4_Link9" />
    <synapse sourceNeuronName = "0" targetNeuronName = "4" weight = "-0.1943808895392134" />
    <synapse sourceNeuronName = "0" targetNeuronName = "5" weight = "0.061357765294652644" />
    <synapse sourceNeuronName = "0" targetNeuronName = "6" weight = "-0.5144097766340883" />
    <synapse sourceNeuronName = "0" targetNeuronName = "7" weight = "0.3935161364740354" />
    <synapse sourceNeuronName = "0" targetNeuronName = "8" weight = "-0.769360950283946" />
    <synapse sourceNeuronName = "0" targetNeuronName = "9" weight = "-0.3042065306388466" />
    <synapse sourceNeuronName = "0" targetNeuronName = "10" weight = "-0.6352170858773394" />
    <synapse sourceNeuronName = "0" targetNeuronName = "11" weight = "0.22013743653407003" />
    <synapse sourceNeuronName = "0" targetNeuronName = "12" weight = "0.5800968639424995" />
    <synapse sourceNeuronName = "1" targetNeuronName = "4" weight = "0.12059836093503651" />
    <synapse sourceNeuronName = "1" targetNeuronName = "5" weight = "-0.7066176584082948" />
    <synapse sourceNeuronName = "1" targetNeuronName = "6" weight = "0.028716195609088002" />
    <synapse sourceNeuronName = "1" targetNeuronName = "7" weight = "-0.6390859298033711" />
    <synapse sourceNeuronName = "1" targetNeuronName = "8" weight = "-0.28405303468600174" />
    <synapse sourceNeuronName = "1" targetNeuronName = "9" weight = "-0.10365516845791212" />
    <synapse sourceNeuronName = "1" targetNeuronName = "10" weight = "0.01929568570150164" />
    <synapse sourceNeuronName = "1" targetNeuronName = "11" weight = "-0.1266263673553405" />
    <synapse sourceNeuronName = "1" targetNeuronName = "12" weight = "-0.8005755222460529" />
    <synapse sourceNeuronName = "2" targetNeuronName = "4" weight = "0.6635175775189135" />
    <synapse sourceNeuronName = "2" targetNeuronName = "5" weight = "0.8788647591311964" />
    <synapse sourceNeuronName = "2" targetNeuronName = "6" weight = "-0.7182592839844215" />
    <synapse sourceNeuronName = "2" targetNeuronName = "7" weight = "0.48286087566868696" />
    <synapse sourceNeuronName = "2" targetNeuronName = "8" weight = "0.7757948390027187" />
    <synapse sourceNeuronName = "2" targetNeuronName = "9" weight = "0.29043436331547023" />
    <synapse sourceNeuronName = "2" targetNeuronName = "10" weight = "-0.20678878039355597" />
    <synapse sourceNeuronName = "2" targetNeuronName = "11" weight = "-0.13887561127329917" />
    <synapse sourceNeuronName = "2" targetNeuronName = "12" weight = "0.5509046581520323" />
    <synapse sourceNeuronName = "3" targetNeuronName = "4" weight = "0.6877912881965951" />
    <synapse sourceNeuronName = "3" targetNeuronName = "5" weight = "0.5147816816504471" />
    <synapse sourceNeuronName = "3" targetNeuronName = "6" weight = "0.6000203443846925" />
    <synapse sourceNeuronName = "3" targetNeuronName = "7" weight = "-0.4275602114350041" />
    <synapse sourceNeuronName = "3" targetNeuronName = "8" weight = "-0.2168120172097885" />
    <synapse sourceNeuronName = "3" targetNeuronName = "9" weight = "0.36429351067273985" />
    <synapse sourceNeuronName = "3" targetNeuronName = "10" weight = "-0.8641423245789164" />
    <synapse sourceNeuronName = "3" targetNeuronName = "11" weight = "-0.47779754147217735" />
    <synapse sourceNeuronName = "3" targetNeuronName = "12" weight = "0.2776873495727208" />
</neuralNetwork>