<neuralNetwork>
    <neuron name = "0" type = "sensor" linkName = "Link0" />
    <neuron name = "1" type = "sensor" linkName = "Link3" />
    <neuron name = "2" type = "sensor" linkName = "Link4" />
    <neuron name = "3" type = "sensor" linkName = "Link5" />
    <neuron name = "4" type = "motor"  jointName = "Link0_Link1" />
    <neuron name = "5" type = "motor"  jointName = "Link1_Link2" />
    <neuron name = "6" type = "motor"  jointName = "Link0_Link3" />
    <neuron name = "7" type = "motor"  jointName = "Link3_Link4" />
    <neuron name = "8" type = "motor"  jointName = "Link4_Link5" />
    <neuron name = "9" type = "motor"  jointName = "Link2_Link6" />
    <synapse sourceNeuronName = "0" targetNeuronName = "4" weight = "-0.5189599828899305" />
    <synapse sourceNeuronName = "0" targetNeuronName = "5" weight = "-0.47839966378599597" />
    <synapse sourceNeuronName = "0" targetNeuronName = "6" weight = "-0.8345823549172475" />
    <synapse sourceNeuronName = "0" targetNeuronName = "7" weight = "0.6999002214433583" />
    <synapse sourceNeuronName = "0" targetNeuronName = "8" weight = "0.7415707801105729" />
    <synapse sourceNeuronName = "0" targetNeuronName = "9" weight = "0.018809261196497618" />
    <synapse sourceNeuronName = "1" targetNeuronName = "4" weight = "-0.9305021108165117" />
    <synapse sourceNeuronName = "1" targetNeuronName = "5" weight = "0.4123300281932154" />
    <synapse sourceNeuronName = "1" targetNeuronName = "6" weight = "-0.9369844512998218" />
    <synapse sourceNeuronName = "1" targetNeuronName = "7" weight = "-0.9872663154254904" />
    <synapse sourceNeuronName = "1" targetNeuronName = "8" weight = "-0.30797802237904004" />
    <synapse sourceNeuronName = "1" targetNeuronName = "9" weight = "0.060610797706109665" />
    <synapse sourceNeuronName = "2" targetNeuronName = "4" weight = "-0.40858313084667364" />
    <synapse sourceNeuronName = "2" targetNeuronName = "5" weight = "-0.09812893940798184" />
    <synapse sourceNeuronName = "2" targetNeuronName = "6" weight = "0.4960408892000532" />
    <synapse sourceNeuronName = "2" targetNeuronName = "7" weight = "0.33394768654974505" />
    <synapse sourceNeuronName = "2" targetNeuronName = "8" weight = "-0.3037624536824264" />
    <synapse sourceNeuronName = "2" targetNeuronName = "9" weight = "0.390323723109427" />
    <synapse sourceNeuronName = "3" targetNeuronName = "4" weight = "-0.2232236033545152" />
    <synapse sourceNeuronName = "3" targetNeuronName = "5" weight = "-0.15231541234506096" />
    <synapse sourceNeuronName = "3" targetNeuronName = "6" weight = "-0.9578003463092173" />
    <synapse sourceNeuronName = "3" targetNeuronName = "7" weight = "-0.5388298986641231" />
    <synapse sourceNeuronName = "3" targetNeuronName = "8" weight = "-0.4823792082824565" />
    <synapse sourceNeuronName = "3" targetNeuronName = "9" weight = "-0.018512636712596064" />
</neuralNetwork>