<neuralNetwork>
    <neuron name = "0" type = "sensor" linkName = "Link2" />
    <neuron name = "1" type = "sensor" linkName = "Link3" />
    <neuron name = "2" type = "sensor" linkName = "Link7" />
    <neuron name = "3" type = "sensor" linkName = "Link8" />
    <neuron name = "4" type = "sensor" linkName = "Link12" />
    <neuron name = "5" type = "motor"  jointName = "Link0_Link1" />
    <neuron name = "6" type = "motor"  jointName = "Link1_Link2" />
    <neuron name = "7" type = "motor"  jointName = "Link2_Link3" />
    <neuron name = "8" type = "motor"  jointName = "Link2_Link4" />
    <neuron name = "9" type = "motor"  jointName = "Link4_Link5" />
    <neuron name = "10" type = "motor"  jointName = "Link2_Link6" />
    <neuron name = "11" type = "motor"  jointName = "Link5_Link7" />
    <neuron name = "12" type = "motor"  jointName = "Link5_Link8" />
    <neuron name = "13" type = "motor"  jointName = "Link3_Link9" />
    <neuron name = "14" type = "motor"  jointName = "Link3_Link10" />
    <neuron name = "15" type = "motor"  jointName = "Link3_Link11" />
    <neuron name = "16" type = "motor"  jointName = "Link5_Link12" />
    <synapse sourceNeuronName = "0" targetNeuronName = "5" weight = "0.16663331453645025" />
    <synapse sourceNeuronName = "0" targetNeuronName = "6" weight = "-0.875794317053397" />
    <synapse sourceNeuronName = "0" targetNeuronName = "7" weight = "0.1888004414441704" />
    <synapse sourceNeuronName = "0" targetNeuronName = "8" weight = "-0.6592626894796911" />
    <synapse sourceNeuronName = "0" targetNeuronName = "9" weight = "0.07502601017401966" />
    <synapse sourceNeuronName = "0" targetNeuronName = "10" weight = "-0.22453188690122117" />
    <synapse sourceNeuronName = "0" targetNeuronName = "11" weight = "-0.5502715360429582" />
    <synapse sourceNeuronName = "0" targetNeuronName = "12" weight = "-0.240738547961731" />
    <synapse sourceNeuronName = "0" targetNeuronName = "13" weight = "0.0494805668136864" />
    <synapse sourceNeuronName = "0" targetNeuronName = "14" weight = "0.8848737844036361" />
    <synapse sourceNeuronName = "0" targetNeuronName = "15" weight = "-0.6429095030178242" />
    <synapse sourceNeuronName = "0" targetNeuronName = "16" weight = "-0.3471281812104543" />
    <synapse sourceNeuronName = "1" targetNeuronName = "5" weight = "-0.78848133167296" />
    <synapse sourceNeuronName = "1" targetNeuronName = "6" weight = "-0.4619561875178617" />
    <synapse sourceNeuronName = "1" targetNeuronName = "7" weight = "0.43328714326994344" />
    <synapse sourceNeuronName = "1" targetNeuronName = "8" weight = "-0.15278303530494042" />
    <synapse sourceNeuronName = "1" targetNeuronName = "9" weight = "-0.2251241448523429" />
    <synapse sourceNeuronName = "1" targetNeuronName = "10" weight = "-0.3572765452378708" />
    <synapse sourceNeuronName = "1" targetNeuronName = "11" weight = "-0.6728055479887209" />
    <synapse sourceNeuronName = "1" targetNeuronName = "12" weight = "0.17144709539044478" />
    <synapse sourceNeuronName = "1" targetNeuronName = "13" weight = "-0.3785643349663532" />
    <synapse sourceNeuronName = "1" targetNeuronName = "14" weight = "-0.6688037901435169" />
    <synapse sourceNeuronName = "1" targetNeuronName = "15" weight = "0.2805900183069985" />
    <synapse sourceNeuronName = "1" targetNeuronName = "16" weight = "-0.3754662469403889" />
    <synapse sourceNeuronName = "2" targetNeuronName = "5" weight = "0.7422596055587485" />
    <synapse sourceNeuronName = "2" targetNeuronName = "6" weight = "-0.8985591991491098" />
    <synapse sourceNeuronName = "2" targetNeuronName = "7" weight = "-0.477856627279607" />
    <synapse sourceNeuronName = "2" targetNeuronName = "8" weight = "-0.4278610043046751" />
    <synapse sourceNeuronName = "2" targetNeuronName = "9" weight = "0.42205596727359307" />
    <synapse sourceNeuronName = "2" targetNeuronName = "10" weight = "-0.39262028681013117" />
    <synapse sourceNeuronName = "2" targetNeuronName = "11" weight = "-0.49793499383908024" />
    <synapse sourceNeuronName = "2" targetNeuronName = "12" weight = "-0.6832840667138387" />
    <synapse sourceNeuronName = "2" targetNeuronName = "13" weight = "0.37811485462291117" />
    <synapse sourceNeuronName = "2" targetNeuronName = "14" weight = "0.7286164200051106" />
    <synapse sourceNeuronName = "2" targetNeuronName = "15" weight = "0.9545799675568725" />
    <synapse sourceNeuronName = "2" targetNeuronName = "16" weight = "-0.4694412481221881" />
    <synapse sourceNeuronName = "3" targetNeuronName = "5" weight = "-0.8852838792482403" />
    <synapse sourceNeuronName = "3" targetNeuronName = "6" weight = "-0.39077597462849445" />
    <synapse sourceNeuronName = "3" targetNeuronName = "7" weight = "0.23976437111826088" />
    <synapse sourceNeuronName = "3" targetNeuronName = "8" weight = "-0.9911058753170967" />
    <synapse sourceNeuronName = "3" targetNeuronName = "9" weight = "0.5268539846876488" />
    <synapse sourceNeuronName = "3" targetNeuronName = "10" weight = "0.40292399541365387" />
    <synapse sourceNeuronName = "3" targetNeuronName = "11" weight = "0.8630581824247905" />
    <synapse sourceNeuronName = "3" targetNeuronName = "12" weight = "0.34427743060668803" />
    <synapse sourceNeuronName = "3" targetNeuronName = "13" weight = "-0.3598243858776591" />
    <synapse sourceNeuronName = "3" targetNeuronName = "14" weight = "0.03923799520935933" />
    <synapse sourceNeuronName = "3" targetNeuronName = "15" weight = "-0.8736869623833643" />
    <synapse sourceNeuronName = "3" targetNeuronName = "16" weight = "0.3917995784354291" />
    <synapse sourceNeuronName = "4" targetNeuronName = "5" weight = "0.502323892715901" />
    <synapse sourceNeuronName = "4" targetNeuronName = "6" weight = "0.012864489605686869" />
    <synapse sourceNeuronName = "4" targetNeuronName = "7" weight = "0.2713544125765981" />
    <synapse sourceNeuronName = "4" targetNeuronName = "8" weight = "0.7540526666294074" />
    <synapse sourceNeuronName = "4" targetNeuronName = "9" weight = "-0.15459618383228046" />
    <synapse sourceNeuronName = "4" targetNeuronName = "10" weight = "0.3890023663665132" />
    <synapse sourceNeuronName = "4" targetNeuronName = "11" weight = "-0.9397819998569388" />
    <synapse sourceNeuronName = "4" targetNeuronName = "12" weight = "0.8341125109934187" />
    <synapse sourceNeuronName = "4" targetNeuronName = "13" weight = "0.9472919068305046" />
    <synapse sourceNeuronName = "4" targetNeuronName = "14" weight = "0.6011815241788225" />
    <synapse sourceNeuronName = "4" targetNeuronName = "15" weight = "0.834959807748479" />
    <synapse sourceNeuronName = "4" targetNeuronName = "16" weight = "0.2085202060229483" />
</neuralNetwork>