<neuralNetwork>
    <neuron name = "0" type = "sensor" linkName = "Link0" />
    <neuron name = "1" type = "sensor" linkName = "Link3" />
    <neuron name = "2" type = "sensor" linkName = "Link4" />
    <neuron name = "3" type = "sensor" linkName = "Link5" />
    <neuron name = "4" type = "motor"  jointName = "Link0_Link1" />
    <neuron name = "5" type = "motor"  jointName = "Link1_Link2" />
    <neuron name = "6" type = "motor"  jointName = "Link0_Link3" />
    <neuron name = "7" type = "motor"  jointName = "Link3_Link4" />
    <neuron name = "8" type = "motor"  jointName = "Link4_Link5" />
    <neuron name = "9" type = "motor"  jointName = "Link2_Link6" />
    <synapse sourceNeuronName = "0" targetNeuronName = "4" weight = "-0.01818257181174321" />
    <synapse sourceNeuronName = "0" targetNeuronName = "5" weight = "-0.5721612622012795" />
    <synapse sourceNeuronName = "0" targetNeuronName = "6" weight = "-0.8282571074371106" />
    <synapse sourceNeuronName = "0" targetNeuronName = "7" weight = "0.2285829570433695" />
    <synapse sourceNeuronName = "0" targetNeuronName = "8" weight = "0.8002509315177986" />
    <synapse sourceNeuronName = "0" targetNeuronName = "9" weight = "-0.7170400199202798" />
    <synapse sourceNeuronName = "1" targetNeuronName = "4" weight = "-0.3561503414546694" />
    <synapse sourceNeuronName = "1" targetNeuronName = "5" weight = "0.5302921675347985" />
    <synapse sourceNeuronName = "1" targetNeuronName = "6" weight = "0.21103934982644157" />
    <synapse sourceNeuronName = "1" targetNeuronName = "7" weight = "-0.23909159359704768" />
    <synapse sourceNeuronName = "1" targetNeuronName = "8" weight = "0.0873193961589116" />
    <synapse sourceNeuronName = "1" targetNeuronName = "9" weight = "-0.9088108426213746" />
    <synapse sourceNeuronName = "2" targetNeuronName = "4" weight = "-0.45083143183549046" />
    <synapse sourceNeuronName = "2" targetNeuronName = "5" weight = "0.31441971410298897" />
    <synapse sourceNeuronName = "2" targetNeuronName = "6" weight = "0.06468117793639538" />
    <synapse sourceNeuronName = "2" targetNeuronName = "7" weight = "0.5095597367083196" />
    <synapse sourceNeuronName = "2" targetNeuronName = "8" weight = "-0.9584081513108631" />
    <synapse sourceNeuronName = "2" targetNeuronName = "9" weight = "-0.7754243817973971" />
    <synapse sourceNeuronName = "3" targetNeuronName = "4" weight = "0.694356879346187" />
    <synapse sourceNeuronName = "3" targetNeuronName = "5" weight = "-0.23193712351556517" />
    <synapse sourceNeuronName = "3" targetNeuronName = "6" weight = "0.721995665784664" />
    <synapse sourceNeuronName = "3" targetNeuronName = "7" weight = "-0.9543333928716344" />
    <synapse sourceNeuronName = "3" targetNeuronName = "8" weight = "0.8993602863206807" />
    <synapse sourceNeuronName = "3" targetNeuronName = "9" weight = "-0.07533202927332594" />
</neuralNetwork>