<neuralNetwork>
    <neuron name = "0" type = "sensor" linkName = "Link0" />
    <neuron name = "1" type = "sensor" linkName = "Link3" />
    <neuron name = "2" type = "sensor" linkName = "Link4" />
    <neuron name = "3" type = "sensor" linkName = "Link5" />
    <neuron name = "4" type = "motor"  jointName = "Link0_Link1" />
    <neuron name = "5" type = "motor"  jointName = "Link0_Link2" />
    <neuron name = "6" type = "motor"  jointName = "Link0_Link3" />
    <neuron name = "7" type = "motor"  jointName = "Link0_Link4" />
    <neuron name = "8" type = "motor"  jointName = "Link3_Link5" />
    <neuron name = "9" type = "motor"  jointName = "Link2_Link6" />
    <neuron name = "10" type = "motor"  jointName = "Link5_Link7" />
    <neuron name = "11" type = "motor"  jointName = "Link7_Link8" />
    <neuron name = "12" type = "motor"  jointName = "Link6_Link9" />
    <synapse sourceNeuronName = "0" targetNeuronName = "4" weight = "-0.8026915596299211" />
    <synapse sourceNeuronName = "0" targetNeuronName = "5" weight = "-0.10643935412498551" />
    <synapse sourceNeuronName = "0" targetNeuronName = "6" weight = "0.201763458816834" />
    <synapse sourceNeuronName = "0" targetNeuronName = "7" weight = "0.37017834821032713" />
    <synapse sourceNeuronName = "0" targetNeuronName = "8" weight = "-0.7763510759861756" />
    <synapse sourceNeuronName = "0" targetNeuronName = "9" weight = "0.71893914487276" />
    <synapse sourceNeuronName = "0" targetNeuronName = "10" weight = "0.9678954290857973" />
    <synapse sourceNeuronName = "0" targetNeuronName = "11" weight = "0.4357628710223622" />
    <synapse sourceNeuronName = "0" targetNeuronName = "12" weight = "-0.20662348091058935" />
    <synapse sourceNeuronName = "1" targetNeuronName = "4" weight = "-0.9488198441317206" />
    <synapse sourceNeuronName = "1" targetNeuronName = "5" weight = "0.3737272108220042" />
    <synapse sourceNeuronName = "1" targetNeuronName = "6" weight = "-0.6263491908533643" />
    <synapse sourceNeuronName = "1" targetNeuronName = "7" weight = "0.11215571367297006" />
    <synapse sourceNeuronName = "1" targetNeuronName = "8" weight = "-0.0445923336286298" />
    <synapse sourceNeuronName = "1" targetNeuronName = "9" weight = "-0.4484044630362356" />
    <synapse sourceNeuronName = "1" targetNeuronName = "10" weight = "-0.6149601360956067" />
    <synapse sourceNeuronName = "1" targetNeuronName = "11" weight = "-0.2067719721994874" />
    <synapse sourceNeuronName = "1" targetNeuronName = "12" weight = "0.5967943608892168" />
    <synapse sourceNeuronName = "2" targetNeuronName = "4" weight = "-0.5797278427246644" />
    <synapse sourceNeuronName = "2" targetNeuronName = "5" weight = "0.3652979657355566" />
    <synapse sourceNeuronName = "2" targetNeuronName = "6" weight = "-0.23039235251284662" />
    <synapse sourceNeuronName = "2" targetNeuronName = "7" weight = "0.26520001987880404" />
    <synapse sourceNeuronName = "2" targetNeuronName = "8" weight = "0.9492183402536947" />
    <synapse sourceNeuronName = "2" targetNeuronName = "9" weight = "0.05935807182164776" />
    <synapse sourceNeuronName = "2" targetNeuronName = "10" weight = "0.5109286981957386" />
    <synapse sourceNeuronName = "2" targetNeuronName = "11" weight = "0.6284408707460705" />
    <synapse sourceNeuronName = "2" targetNeuronName = "12" weight = "0.4997017475397034" />
    <synapse sourceNeuronName = "3" targetNeuronName = "4" weight = "0.4509068724410561" />
    <synapse sourceNeuronName = "3" targetNeuronName = "5" weight = "-0.9957589103676163" />
    <synapse sourceNeuronName = "3" targetNeuronName = "6" weight = "0.19290138158654702" />
    <synapse sourceNeuronName = "3" targetNeuronName = "7" weight = "-0.08419640127656547" />
    <synapse sourceNeuronName = "3" targetNeuronName = "8" weight = "0.24939479323841596" />
    <synapse sourceNeuronName = "3" targetNeuronName = "9" weight = "0.6568474701945548" />
    <synapse sourceNeuronName = "3" targetNeuronName = "10" weight = "-0.2172410022072384" />
    <synapse sourceNeuronName = "3" targetNeuronName = "11" weight = "-0.02589944853418813" />
    <synapse sourceNeuronName = "3" targetNeuronName = "12" weight = "0.9694591304056295" />
</neuralNetwork>