<neuralNetwork>
    <neuron name = "0" type = "sensor" linkName = "Link1" />
    <neuron name = "1" type = "sensor" linkName = "Link2" />
    <neuron name = "2" type = "sensor" linkName = "Link3" />
    <neuron name = "3" type = "sensor" linkName = "Link5" />
    <neuron name = "4" type = "motor"  jointName = "Link0_Link1" />
    <neuron name = "5" type = "motor"  jointName = "Link0_Link2" />
    <neuron name = "6" type = "motor"  jointName = "Link2_Link3" />
    <neuron name = "7" type = "motor"  jointName = "Link2_Link4" />
    <neuron name = "8" type = "motor"  jointName = "Link1_Link5" />
    <neuron name = "9" type = "motor"  jointName = "Link4_Link6" />
    <neuron name = "10" type = "motor"  jointName = "Link0_Link7" />
    <neuron name = "11" type = "motor"  jointName = "Link2_Link8" />
    <synapse sourceNeuronName = "0" targetNeuronName = "4" weight = "-0.4090652204612779" />
    <synapse sourceNeuronName = "0" targetNeuronName = "5" weight = "0.6292808095450555" />
    <synapse sourceNeuronName = "0" targetNeuronName = "6" weight = "-0.894118822258255" />
    <synapse sourceNeuronName = "0" targetNeuronName = "7" weight = "0.25255728576183234" />
    <synapse sourceNeuronName = "0" targetNeuronName = "8" weight = "-0.23864255060038797" />
    <synapse sourceNeuronName = "0" targetNeuronName = "9" weight = "-0.6285482098928497" />
    <synapse sourceNeuronName = "0" targetNeuronName = "10" weight = "-0.09368326962488882" />
    <synapse sourceNeuronName = "0" targetNeuronName = "11" weight = "-0.7515196170796692" />
    <synapse sourceNeuronName = "1" targetNeuronName = "4" weight = "-0.19824201057552004" />
    <synapse sourceNeuronName = "1" targetNeuronName = "5" weight = "-0.8792094170540017" />
    <synapse sourceNeuronName = "1" targetNeuronName = "6" weight = "-0.9310753401246392" />
    <synapse sourceNeuronName = "1" targetNeuronName = "7" weight = "-0.5070268176801087" />
    <synapse sourceNeuronName = "1" targetNeuronName = "8" weight = "0.48362586170006483" />
    <synapse sourceNeuronName = "1" targetNeuronName = "9" weight = "-0.5423295752207207" />
    <synapse sourceNeuronName = "1" targetNeuronName = "10" weight = "-0.4598372277294398" />
    <synapse sourceNeuronName = "1" targetNeuronName = "11" weight = "-0.9247709302158946" />
    <synapse sourceNeuronName = "2" targetNeuronName = "4" weight = "0.9311852535220049" />
    <synapse sourceNeuronName = "2" targetNeuronName = "5" weight = "0.2494287053257771" />
    <synapse sourceNeuronName = "2" targetNeuronName = "6" weight = "-0.5807466749452899" />
    <synapse sourceNeuronName = "2" targetNeuronName = "7" weight = "-0.7631652810870302" />
    <synapse sourceNeuronName = "2" targetNeuronName = "8" weight = "0.8553004952636962" />
    <synapse sourceNeuronName = "2" targetNeuronName = "9" weight = "0.13407972593636108" />
    <synapse sourceNeuronName = "2" targetNeuronName = "10" weight = "-0.26348273777027886" />
    <synapse sourceNeuronName = "2" targetNeuronName = "11" weight = "-0.8148717266479941" />
    <synapse sourceNeuronName = "3" targetNeuronName = "4" weight = "0.6648314607398023" />
    <synapse sourceNeuronName = "3" targetNeuronName = "5" weight = "0.8396961930069586" />
    <synapse sourceNeuronName = "3" targetNeuronName = "6" weight = "0.8944339770444787" />
    <synapse sourceNeuronName = "3" targetNeuronName = "7" weight = "-0.043982785883418085" />
    <synapse sourceNeuronName = "3" targetNeuronName = "8" weight = "-0.22828890039606664" />
    <synapse sourceNeuronName = "3" targetNeuronName = "9" weight = "-0.5983652566977136" />
    <synapse sourceNeuronName = "3" targetNeuronName = "10" weight = "-0.6057646819435423" />
    <synapse sourceNeuronName = "3" targetNeuronName = "11" weight = "-0.24491471193634062" />
</neuralNetwork>