<neuralNetwork>
    <neuron name = "0" type = "sensor" linkName = "Link1" />
    <neuron name = "1" type = "sensor" linkName = "Link2" />
    <neuron name = "2" type = "sensor" linkName = "Link3" />
    <neuron name = "3" type = "sensor" linkName = "Link4" />
    <neuron name = "4" type = "sensor" linkName = "Link5" />
    <neuron name = "5" type = "motor"  jointName = "Link0_Link1" />
    <neuron name = "6" type = "motor"  jointName = "Link1_Link2" />
    <neuron name = "7" type = "motor"  jointName = "Link2_Link3" />
    <neuron name = "8" type = "motor"  jointName = "Link0_Link4" />
    <neuron name = "9" type = "motor"  jointName = "Link1_Link5" />
    <synapse sourceNeuronName = "0" targetNeuronName = "5" weight = "-0.6708710106739524" />
    <synapse sourceNeuronName = "0" targetNeuronName = "6" weight = "-0.3301692181746674" />
    <synapse sourceNeuronName = "0" targetNeuronName = "7" weight = "-0.6148681109032592" />
    <synapse sourceNeuronName = "0" targetNeuronName = "8" weight = "-0.6601335023568249" />
    <synapse sourceNeuronName = "0" targetNeuronName = "9" weight = "-0.20662420311914187" />
    <synapse sourceNeuronName = "1" targetNeuronName = "5" weight = "0.6977339190640177" />
    <synapse sourceNeuronName = "1" targetNeuronName = "6" weight = "-0.09591292883140223" />
    <synapse sourceNeuronName = "1" targetNeuronName = "7" weight = "0.37001191805437683" />
    <synapse sourceNeuronName = "1" targetNeuronName = "8" weight = "0.0928387320283981" />
    <synapse sourceNeuronName = "1" targetNeuronName = "9" weight = "0.552993056923268" />
    <synapse sourceNeuronName = "2" targetNeuronName = "5" weight = "-0.03778462399060456" />
    <synapse sourceNeuronName = "2" targetNeuronName = "6" weight = "0.937288491876294" />
    <synapse sourceNeuronName = "2" targetNeuronName = "7" weight = "0.48797555720907293" />
    <synapse sourceNeuronName = "2" targetNeuronName = "8" weight = "0.4502541025027367" />
    <synapse sourceNeuronName = "2" targetNeuronName = "9" weight = "0.1701704952593721" />
    <synapse sourceNeuronName = "3" targetNeuronName = "5" weight = "-0.32394528436846737" />
    <synapse sourceNeuronName = "3" targetNeuronName = "6" weight = "-0.4031427420931588" />
    <synapse sourceNeuronName = "3" targetNeuronName = "7" weight = "-0.34518228665019923" />
    <synapse sourceNeuronName = "3" targetNeuronName = "8" weight = "0.4367580146137118" />
    <synapse sourceNeuronName = "3" targetNeuronName = "9" weight = "-0.19785763466659345" />
    <synapse sourceNeuronName = "4" targetNeuronName = "5" weight = "0.5630261827417644" />
    <synapse sourceNeuronName = "4" targetNeuronName = "6" weight = "0.45598075150972117" />
    <synapse sourceNeuronName = "4" targetNeuronName = "7" weight = "0.6491831703074362" />
    <synapse sourceNeuronName = "4" targetNeuronName = "8" weight = "0.9685752649314818" />
    <synapse sourceNeuronName = "4" targetNeuronName = "9" weight = "0.2613806687418294" />
</neuralNetwork>