<neuralNetwork>
    <neuron name = "0" type = "sensor" linkName = "Link0" />
    <neuron name = "1" type = "sensor" linkName = "Link3" />
    <neuron name = "2" type = "sensor" linkName = "Link4" />
    <neuron name = "3" type = "sensor" linkName = "Link5" />
    <neuron name = "4" type = "motor"  jointName = "Link0_Link1" />
    <neuron name = "5" type = "motor"  jointName = "Link0_Link2" />
    <neuron name = "6" type = "motor"  jointName = "Link0_Link3" />
    <neuron name = "7" type = "motor"  jointName = "Link0_Link4" />
    <neuron name = "8" type = "motor"  jointName = "Link3_Link5" />
    <neuron name = "9" type = "motor"  jointName = "Link2_Link6" />
    <neuron name = "10" type = "motor"  jointName = "Link5_Link7" />
    <neuron name = "11" type = "motor"  jointName = "Link7_Link8" />
    <synapse sourceNeuronName = "0" targetNeuronName = "4" weight = "0.29819190256220063" />
    <synapse sourceNeuronName = "0" targetNeuronName = "5" weight = "0.7510280749530274" />
    <synapse sourceNeuronName = "0" targetNeuronName = "6" weight = "-0.22839906493995987" />
    <synapse sourceNeuronName = "0" targetNeuronName = "7" weight = "-0.8102950898834129" />
    <synapse sourceNeuronName = "0" targetNeuronName = "8" weight = "-0.19925238183975624" />
    <synapse sourceNeuronName = "0" targetNeuronName = "9" weight = "0.6020414655049557" />
    <synapse sourceNeuronName = "0" targetNeuronName = "10" weight = "-0.2608179973261846" />
    <synapse sourceNeuronName = "0" targetNeuronName = "11" weight = "0.8786734079302898" />
    <synapse sourceNeuronName = "1" targetNeuronName = "4" weight = "-0.5307424906840101" />
    <synapse sourceNeuronName = "1" targetNeuronName = "5" weight = "-0.39491985803193996" />
    <synapse sourceNeuronName = "1" targetNeuronName = "6" weight = "0.17232414744164481" />
    <synapse sourceNeuronName = "1" targetNeuronName = "7" weight = "-0.5387247235428658" />
    <synapse sourceNeuronName = "1" targetNeuronName = "8" weight = "0.25506451413362097" />
    <synapse sourceNeuronName = "1" targetNeuronName = "9" weight = "0.9050139927999903" />
    <synapse sourceNeuronName = "1" targetNeuronName = "10" weight = "0.01484929772254695" />
    <synapse sourceNeuronName = "1" targetNeuronName = "11" weight = "0.9941312162643638" />
    <synapse sourceNeuronName = "2" targetNeuronName = "4" weight = "-0.5916977113361259" />
    <synapse sourceNeuronName = "2" targetNeuronName = "5" weight = "-0.03582884317605184" />
    <synapse sourceNeuronName = "2" targetNeuronName = "6" weight = "0.19215851977644993" />
    <synapse sourceNeuronName = "2" targetNeuronName = "7" weight = "0.5939432254073587" />
    <synapse sourceNeuronName = "2" targetNeuronName = "8" weight = "-0.9098183647905742" />
    <synapse sourceNeuronName = "2" targetNeuronName = "9" weight = "-0.9439501438746292" />
    <synapse sourceNeuronName = "2" targetNeuronName = "10" weight = "0.44031669640978754" />
    <synapse sourceNeuronName = "2" targetNeuronName = "11" weight = "-0.9002881440242088" />
    <synapse sourceNeuronName = "3" targetNeuronName = "4" weight = "0.9618013263737577" />
    <synapse sourceNeuronName = "3" targetNeuronName = "5" weight = "-0.6524760417432081" />
    <synapse sourceNeuronName = "3" targetNeuronName = "6" weight = "-0.892104919339153" />
    <synapse sourceNeuronName = "3" targetNeuronName = "7" weight = "0.631008110307409" />
    <synapse sourceNeuronName = "3" targetNeuronName = "8" weight = "0.40147761748955957" />
    <synapse sourceNeuronName = "3" targetNeuronName = "9" weight = "-0.4137967679382537" />
    <synapse sourceNeuronName = "3" targetNeuronName = "10" weight = "0.06388702122467005" />
    <synapse sourceNeuronName = "3" targetNeuronName = "11" weight = "-0.701573374619213" />
</neuralNetwork>