<neuralNetwork>
    <neuron name = "0" type = "sensor" linkName = "Link0" />
    <neuron name = "1" type = "sensor" linkName = "Link2" />
    <neuron name = "2" type = "sensor" linkName = "Link3" />
    <neuron name = "3" type = "sensor" linkName = "Link4" />
    <neuron name = "4" type = "sensor" linkName = "Link5" />
    <neuron name = "5" type = "motor"  jointName = "Link0_Link1" />
    <neuron name = "6" type = "motor"  jointName = "Link0_Link2" />
    <neuron name = "7" type = "motor"  jointName = "Link1_Link3" />
    <neuron name = "8" type = "motor"  jointName = "Link3_Link4" />
    <neuron name = "9" type = "motor"  jointName = "Link4_Link5" />
    <neuron name = "10" type = "motor"  jointName = "Link4_Link6" />
    <neuron name = "11" type = "motor"  jointName = "Link3_Link7" />
    <synapse sourceNeuronName = "0" targetNeuronName = "5" weight = "0.25241834645417605" />
    <synapse sourceNeuronName = "0" targetNeuronName = "6" weight = "-0.31082485977182084" />
    <synapse sourceNeuronName = "0" targetNeuronName = "7" weight = "0.9469712139483932" />
    <synapse sourceNeuronName = "0" targetNeuronName = "8" weight = "-0.7175554266581301" />
    <synapse sourceNeuronName = "0" targetNeuronName = "9" weight = "0.9605805127400473" />
    <synapse sourceNeuronName = "0" targetNeuronName = "10" weight = "0.8202420406558861" />
    <synapse sourceNeuronName = "0" targetNeuronName = "11" weight = "-0.8437224253094897" />
    <synapse sourceNeuronName = "1" targetNeuronName = "5" weight = "-0.9885810951727663" />
    <synapse sourceNeuronName = "1" targetNeuronName = "6" weight = "-0.7449021976655719" />
    <synapse sourceNeuronName = "1" targetNeuronName = "7" weight = "-0.06445134059707502" />
    <synapse sourceNeuronName = "1" targetNeuronName = "8" weight = "0.2772201628849311" />
    <synapse sourceNeuronName = "1" targetNeuronName = "9" weight = "-0.7799780568381405" />
    <synapse sourceNeuronName = "1" targetNeuronName = "10" weight = "0.10297325507888022" />
    <synapse sourceNeuronName = "1" targetNeuronName = "11" weight = "0.16975471667106956" />
    <synapse sourceNeuronName = "2" targetNeuronName = "5" weight = "0.07899530427570256" />
    <synapse sourceNeuronName = "2" targetNeuronName = "6" weight = "0.2413511664544783" />
    <synapse sourceNeuronName = "2" targetNeuronName = "7" weight = "0.7162091064643128" />
    <synapse sourceNeuronName = "2" targetNeuronName = "8" weight = "-0.7188513471064812" />
    <synapse sourceNeuronName = "2" targetNeuronName = "9" weight = "0.35259726473982433" />
    <synapse sourceNeuronName = "2" targetNeuronName = "10" weight = "-0.2816137431535286" />
    <synapse sourceNeuronName = "2" targetNeuronName = "11" weight = "0.3949234997870661" />
    <synapse sourceNeuronName = "3" targetNeuronName = "5" weight = "-0.04005242330052239" />
    <synapse sourceNeuronName = "3" targetNeuronName = "6" weight = "0.10417017862078493" />
    <synapse sourceNeuronName = "3" targetNeuronName = "7" weight = "-0.39340099675446116" />
    <synapse sourceNeuronName = "3" targetNeuronName = "8" weight = "0.6576533644476739" />
    <synapse sourceNeuronName = "3" targetNeuronName = "9" weight = "0.9216340413967714" />
    <synapse sourceNeuronName = "3" targetNeuronName = "10" weight = "0.7677577837374501" />
    <synapse sourceNeuronName = "3" targetNeuronName = "11" weight = "-0.8501746892650024" />
    <synapse sourceNeuronName = "4" targetNeuronName = "5" weight = "0.7924089383713806" />
    <synapse sourceNeuronName = "4" targetNeuronName = "6" weight = "-0.23825660030145657" />
    <synapse sourceNeuronName = "4" targetNeuronName = "7" weight = "-0.07393132206733166" />
    <synapse sourceNeuronName = "4" targetNeuronName = "8" weight = "-0.16700866279689586" />
    <synapse sourceNeuronName = "4" targetNeuronName = "9" weight = "-0.3584318115173981" />
    <synapse sourceNeuronName = "4" targetNeuronName = "10" weight = "0.49486478862250904" />
    <synapse sourceNeuronName = "4" targetNeuronName = "11" weight = "-0.34092733665078767" />
</neuralNetwork>