<neuralNetwork>
    <neuron name = "0" type = "sensor" linkName = "Link0" />
    <neuron name = "1" type = "sensor" linkName = "Link2" />
    <neuron name = "2" type = "sensor" linkName = "Link3" />
    <neuron name = "3" type = "sensor" linkName = "Link4" />
    <neuron name = "4" type = "sensor" linkName = "Link7" />
    <neuron name = "5" type = "motor"  jointName = "Link0_Link1" />
    <neuron name = "6" type = "motor"  jointName = "Link1_Link2" />
    <neuron name = "7" type = "motor"  jointName = "Link2_Link3" />
    <neuron name = "8" type = "motor"  jointName = "Link3_Link4" />
    <neuron name = "9" type = "motor"  jointName = "Link3_Link5" />
    <neuron name = "10" type = "motor"  jointName = "Link2_Link6" />
    <neuron name = "11" type = "motor"  jointName = "Link4_Link7" />
    <synapse sourceNeuronName = "0" targetNeuronName = "5" weight = "0.6164545709630564" />
    <synapse sourceNeuronName = "0" targetNeuronName = "6" weight = "0.37487547129601584" />
    <synapse sourceNeuronName = "0" targetNeuronName = "7" weight = "0.2832131249439318" />
    <synapse sourceNeuronName = "0" targetNeuronName = "8" weight = "-0.45075028961419883" />
    <synapse sourceNeuronName = "0" targetNeuronName = "9" weight = "-0.294778719903352" />
    <synapse sourceNeuronName = "0" targetNeuronName = "10" weight = "-0.5971681868925593" />
    <synapse sourceNeuronName = "0" targetNeuronName = "11" weight = "-0.3566863502858322" />
    <synapse sourceNeuronName = "1" targetNeuronName = "5" weight = "-0.4639337460901627" />
    <synapse sourceNeuronName = "1" targetNeuronName = "6" weight = "-0.5257646523101147" />
    <synapse sourceNeuronName = "1" targetNeuronName = "7" weight = "0.4270590541851318" />
    <synapse sourceNeuronName = "1" targetNeuronName = "8" weight = "-0.3467102041308072" />
    <synapse sourceNeuronName = "1" targetNeuronName = "9" weight = "0.7986733183835706" />
    <synapse sourceNeuronName = "1" targetNeuronName = "10" weight = "-0.5903066580233827" />
    <synapse sourceNeuronName = "1" targetNeuronName = "11" weight = "-0.022576566692059652" />
    <synapse sourceNeuronName = "2" targetNeuronName = "5" weight = "0.21445492591189041" />
    <synapse sourceNeuronName = "2" targetNeuronName = "6" weight = "-0.15756980994493652" />
    <synapse sourceNeuronName = "2" targetNeuronName = "7" weight = "0.8127919680928852" />
    <synapse sourceNeuronName = "2" targetNeuronName = "8" weight = "0.47548695143659847" />
    <synapse sourceNeuronName = "2" targetNeuronName = "9" weight = "-0.47377196503448604" />
    <synapse sourceNeuronName = "2" targetNeuronName = "10" weight = "0.5946286430962151" />
    <synapse sourceNeuronName = "2" targetNeuronName = "11" weight = "-0.3577116491690391" />
    <synapse sourceNeuronName = "3" targetNeuronName = "5" weight = "0.5651165296487293" />
    <synapse sourceNeuronName = "3" targetNeuronName = "6" weight = "0.9751857090424607" />
    <synapse sourceNeuronName = "3" targetNeuronName = "7" weight = "-0.17051856218244565" />
    <synapse sourceNeuronName = "3" targetNeuronName = "8" weight = "-0.31247786261386223" />
    <synapse sourceNeuronName = "3" targetNeuronName = "9" weight = "-0.5161346250687895" />
    <synapse sourceNeuronName = "3" targetNeuronName = "10" weight = "-0.6178613279242768" />
    <synapse sourceNeuronName = "3" targetNeuronName = "11" weight = "-0.6964597818062597" />
    <synapse sourceNeuronName = "4" targetNeuronName = "5" weight = "-0.25754373000794906" />
    <synapse sourceNeuronName = "4" targetNeuronName = "6" weight = "-0.43207378168391464" />
    <synapse sourceNeuronName = "4" targetNeuronName = "7" weight = "0.06386780457427554" />
    <synapse sourceNeuronName = "4" targetNeuronName = "8" weight = "0.35888655860134655" />
    <synapse sourceNeuronName = "4" targetNeuronName = "9" weight = "-0.1393095565411" />
    <synapse sourceNeuronName = "4" targetNeuronName = "10" weight = "0.9579924129839072" />
    <synapse sourceNeuronName = "4" targetNeuronName = "11" weight = "0.3032055983019779" />
</neuralNetwork>