<neuralNetwork>
    <neuron name = "0" type = "sensor" linkName = "Link0" />
    <neuron name = "1" type = "sensor" linkName = "Link1" />
    <neuron name = "2" type = "sensor" linkName = "Link2" />
    <neuron name = "3" type = "sensor" linkName = "Link4" />
    <neuron name = "4" type = "sensor" linkName = "Link5" />
    <neuron name = "5" type = "motor"  jointName = "Link0_Link1" />
    <neuron name = "6" type = "motor"  jointName = "Link0_Link2" />
    <neuron name = "7" type = "motor"  jointName = "Link1_Link3" />
    <neuron name = "8" type = "motor"  jointName = "Link3_Link4" />
    <neuron name = "9" type = "motor"  jointName = "Link3_Link5" />
    <neuron name = "10" type = "motor"  jointName = "Link0_Link6" />
    <synapse sourceNeuronName = "0" targetNeuronName = "5" weight = "0.441273633294073" />
    <synapse sourceNeuronName = "0" targetNeuronName = "6" weight = "0.3614975186743832" />
    <synapse sourceNeuronName = "0" targetNeuronName = "7" weight = "0.5856484582519621" />
    <synapse sourceNeuronName = "0" targetNeuronName = "8" weight = "-0.541659802971429" />
    <synapse sourceNeuronName = "0" targetNeuronName = "9" weight = "-0.3926858844632928" />
    <synapse sourceNeuronName = "0" targetNeuronName = "10" weight = "-0.9753755014613419" />
    <synapse sourceNeuronName = "1" targetNeuronName = "5" weight = "0.46727563650907733" />
    <synapse sourceNeuronName = "1" targetNeuronName = "6" weight = "-0.07452381301785227" />
    <synapse sourceNeuronName = "1" targetNeuronName = "7" weight = "-0.5415067495654278" />
    <synapse sourceNeuronName = "1" targetNeuronName = "8" weight = "0.9104512663368292" />
    <synapse sourceNeuronName = "1" targetNeuronName = "9" weight = "-0.8930477836866455" />
    <synapse sourceNeuronName = "1" targetNeuronName = "10" weight = "-0.720278491258469" />
    <synapse sourceNeuronName = "2" targetNeuronName = "5" weight = "0.5527595082358829" />
    <synapse sourceNeuronName = "2" targetNeuronName = "6" weight = "0.7227043199162517" />
    <synapse sourceNeuronName = "2" targetNeuronName = "7" weight = "-0.9974207386919511" />
    <synapse sourceNeuronName = "2" targetNeuronName = "8" weight = "0.3584268685570764" />
    <synapse sourceNeuronName = "2" targetNeuronName = "9" weight = "0.7010390685509285" />
    <synapse sourceNeuronName = "2" targetNeuronName = "10" weight = "-0.18163927808583336" />
    <synapse sourceNeuronName = "3" targetNeuronName = "5" weight = "0.8474089435681862" />
    <synapse sourceNeuronName = "3" targetNeuronName = "6" weight = "-0.6717577158763459" />
    <synapse sourceNeuronName = "3" targetNeuronName = "7" weight = "-0.9954272014831651" />
    <synapse sourceNeuronName = "3" targetNeuronName = "8" weight = "-0.049534831421078174" />
    <synapse sourceNeuronName = "3" targetNeuronName = "9" weight = "0.6190516295748201" />
    <synapse sourceNeuronName = "3" targetNeuronName = "10" weight = "-0.7914194530032903" />
    <synapse sourceNeuronName = "4" targetNeuronName = "5" weight = "0.3554471398526047" />
    <synapse sourceNeuronName = "4" targetNeuronName = "6" weight = "-0.3902080722150887" />
    <synapse sourceNeuronName = "4" targetNeuronName = "7" weight = "0.8485379071487797" />
    <synapse sourceNeuronName = "4" targetNeuronName = "8" weight = "0.11573228012512748" />
    <synapse sourceNeuronName = "4" targetNeuronName = "9" weight = "-0.311444618295617" />
    <synapse sourceNeuronName = "4" targetNeuronName = "10" weight = "0.24991677893962194" />
</neuralNetwork>