<neuralNetwork>
    <neuron name = "0" type = "sensor" linkName = "Link0" />
    <neuron name = "1" type = "sensor" linkName = "Link1" />
    <neuron name = "2" type = "sensor" linkName = "Link2" />
    <neuron name = "3" type = "sensor" linkName = "Link5" />
    <neuron name = "4" type = "sensor" linkName = "Link6" />
    <neuron name = "5" type = "motor"  jointName = "Link0_Link1" />
    <neuron name = "6" type = "motor"  jointName = "Link1_Link2" />
    <neuron name = "7" type = "motor"  jointName = "Link0_Link3" />
    <neuron name = "8" type = "motor"  jointName = "Link3_Link4" />
    <neuron name = "9" type = "motor"  jointName = "Link1_Link5" />
    <neuron name = "10" type = "motor"  jointName = "Link0_Link6" />
    <synapse sourceNeuronName = "0" targetNeuronName = "5" weight = "0.1983894608951775" />
    <synapse sourceNeuronName = "0" targetNeuronName = "6" weight = "-0.2315480507786738" />
    <synapse sourceNeuronName = "0" targetNeuronName = "7" weight = "0.28541233101036956" />
    <synapse sourceNeuronName = "0" targetNeuronName = "8" weight = "-0.6797842140223733" />
    <synapse sourceNeuronName = "0" targetNeuronName = "9" weight = "-0.7330488112283386" />
    <synapse sourceNeuronName = "0" targetNeuronName = "10" weight = "0.9784027987093626" />
    <synapse sourceNeuronName = "1" targetNeuronName = "5" weight = "-0.20937783851065084" />
    <synapse sourceNeuronName = "1" targetNeuronName = "6" weight = "0.3245892779826858" />
    <synapse sourceNeuronName = "1" targetNeuronName = "7" weight = "-0.7088613364125789" />
    <synapse sourceNeuronName = "1" targetNeuronName = "8" weight = "0.6976256891290538" />
    <synapse sourceNeuronName = "1" targetNeuronName = "9" weight = "0.20129769573923695" />
    <synapse sourceNeuronName = "1" targetNeuronName = "10" weight = "-0.3722589352171144" />
    <synapse sourceNeuronName = "2" targetNeuronName = "5" weight = "-0.13444990707011817" />
    <synapse sourceNeuronName = "2" targetNeuronName = "6" weight = "-0.9064552716380501" />
    <synapse sourceNeuronName = "2" targetNeuronName = "7" weight = "-0.5109087365705751" />
    <synapse sourceNeuronName = "2" targetNeuronName = "8" weight = "0.35961580565414675" />
    <synapse sourceNeuronName = "2" targetNeuronName = "9" weight = "0.10457319206559035" />
    <synapse sourceNeuronName = "2" targetNeuronName = "10" weight = "0.5210076993570447" />
    <synapse sourceNeuronName = "3" targetNeuronName = "5" weight = "-0.40218241674855304" />
    <synapse sourceNeuronName = "3" targetNeuronName = "6" weight = "0.7505094174468572" />
    <synapse sourceNeuronName = "3" targetNeuronName = "7" weight = "0.5645421928495586" />
    <synapse sourceNeuronName = "3" targetNeuronName = "8" weight = "0.10576256848876042" />
    <synapse sourceNeuronName = "3" targetNeuronName = "9" weight = "-0.23143134397850296" />
    <synapse sourceNeuronName = "3" targetNeuronName = "10" weight = "-0.30777275529814085" />
    <synapse sourceNeuronName = "4" targetNeuronName = "5" weight = "-0.866721885965346" />
    <synapse sourceNeuronName = "4" targetNeuronName = "6" weight = "-0.0897832326842587" />
    <synapse sourceNeuronName = "4" targetNeuronName = "7" weight = "-0.9586773667967068" />
    <synapse sourceNeuronName = "4" targetNeuronName = "8" weight = "0.8584139708250798" />
    <synapse sourceNeuronName = "4" targetNeuronName = "9" weight = "0.8604768349885501" />
    <synapse sourceNeuronName = "4" targetNeuronName = "10" weight = "-0.04396052289180452" />
</neuralNetwork>