<neuralNetwork>
    <neuron name = "0" type = "sensor" linkName = "Link0" />
    <neuron name = "1" type = "sensor" linkName = "Link1" />
    <neuron name = "2" type = "sensor" linkName = "Link2" />
    <neuron name = "3" type = "sensor" linkName = "Link4" />
    <neuron name = "4" type = "sensor" linkName = "Link5" />
    <neuron name = "5" type = "motor"  jointName = "Link0_Link1" />
    <neuron name = "6" type = "motor"  jointName = "Link0_Link2" />
    <neuron name = "7" type = "motor"  jointName = "Link1_Link3" />
    <neuron name = "8" type = "motor"  jointName = "Link3_Link4" />
    <neuron name = "9" type = "motor"  jointName = "Link3_Link5" />
    <neuron name = "10" type = "motor"  jointName = "Link0_Link6" />
    <neuron name = "11" type = "motor"  jointName = "Link2_Link7" />
    <synapse sourceNeuronName = "0" targetNeuronName = "5" weight = "-0.8861370588352626" />
    <synapse sourceNeuronName = "0" targetNeuronName = "6" weight = "-0.2068423192773834" />
    <synapse sourceNeuronName = "0" targetNeuronName = "7" weight = "-0.6375575196612209" />
    <synapse sourceNeuronName = "0" targetNeuronName = "8" weight = "0.13466746727107948" />
    <synapse sourceNeuronName = "0" targetNeuronName = "9" weight = "0.5191504640403133" />
    <synapse sourceNeuronName = "0" targetNeuronName = "10" weight = "0.16028178713866192" />
    <synapse sourceNeuronName = "0" targetNeuronName = "11" weight = "0.5977749507946204" />
    <synapse sourceNeuronName = "1" targetNeuronName = "5" weight = "0.8907123123781644" />
    <synapse sourceNeuronName = "1" targetNeuronName = "6" weight = "0.45465448489361604" />
    <synapse sourceNeuronName = "1" targetNeuronName = "7" weight = "-0.7058098831544231" />
    <synapse sourceNeuronName = "1" targetNeuronName = "8" weight = "0.5108446688950707" />
    <synapse sourceNeuronName = "1" targetNeuronName = "9" weight = "0.46882653954593345" />
    <synapse sourceNeuronName = "1" targetNeuronName = "10" weight = "-0.9746164230585841" />
    <synapse sourceNeuronName = "1" targetNeuronName = "11" weight = "0.11314577033649842" />
    <synapse sourceNeuronName = "2" targetNeuronName = "5" weight = "-0.7310619771800073" />
    <synapse sourceNeuronName = "2" targetNeuronName = "6" weight = "-0.048256640951668484" />
    <synapse sourceNeuronName = "2" targetNeuronName = "7" weight = "-0.11245560988352832" />
    <synapse sourceNeuronName = "2" targetNeuronName = "8" weight = "-0.44501706618004144" />
    <synapse sourceNeuronName = "2" targetNeuronName = "9" weight = "0.6578159198514106" />
    <synapse sourceNeuronName = "2" targetNeuronName = "10" weight = "0.8899241068581687" />
    <synapse sourceNeuronName = "2" targetNeuronName = "11" weight = "0.46358867914320734" />
    <synapse sourceNeuronName = "3" targetNeuronName = "5" weight = "0.6689089416644882" />
    <synapse sourceNeuronName = "3" targetNeuronName = "6" weight = "-0.6869534303182936" />
    <synapse sourceNeuronName = "3" targetNeuronName = "7" weight = "0.5159948066029294" />
    <synapse sourceNeuronName = "3" targetNeuronName = "8" weight = "0.5337820573006133" />
    <synapse sourceNeuronName = "3" targetNeuronName = "9" weight = "-0.0022913747279802443" />
    <synapse sourceNeuronName = "3" targetNeuronName = "10" weight = "0.8215878966857881" />
    <synapse sourceNeuronName = "3" targetNeuronName = "11" weight = "0.03335098784912782" />
    <synapse sourceNeuronName = "4" targetNeuronName = "5" weight = "-0.9498164420353863" />
    <synapse sourceNeuronName = "4" targetNeuronName = "6" weight = "0.38755648301995205" />
    <synapse sourceNeuronName = "4" targetNeuronName = "7" weight = "-0.11290360657703569" />
    <synapse sourceNeuronName = "4" targetNeuronName = "8" weight = "-0.3900623001244423" />
    <synapse sourceNeuronName = "4" targetNeuronName = "9" weight = "-0.6296920280384477" />
    <synapse sourceNeuronName = "4" targetNeuronName = "10" weight = "0.5031747362157959" />
    <synapse sourceNeuronName = "4" targetNeuronName = "11" weight = "-0.38139992767461695" />
</neuralNetwork>