<neuralNetwork>
    <neuron name = "0" type = "sensor" linkName = "Link0" />
    <neuron name = "1" type = "sensor" linkName = "Link2" />
    <neuron name = "2" type = "sensor" linkName = "Link3" />
    <neuron name = "3" type = "sensor" linkName = "Link4" />
    <neuron name = "4" type = "sensor" linkName = "Link5" />
    <neuron name = "5" type = "sensor" linkName = "Link8" />
    <neuron name = "6" type = "sensor" linkName = "Link9" />
    <neuron name = "7" type = "motor"  jointName = "Link0_Link1" />
    <neuron name = "8" type = "motor"  jointName = "Link0_Link2" />
    <neuron name = "9" type = "motor"  jointName = "Link1_Link3" />
    <neuron name = "10" type = "motor"  jointName = "Link3_Link4" />
    <neuron name = "11" type = "motor"  jointName = "Link4_Link5" />
    <neuron name = "12" type = "motor"  jointName = "Link4_Link6" />
    <neuron name = "13" type = "motor"  jointName = "Link3_Link7" />
    <neuron name = "14" type = "motor"  jointName = "Link5_Link8" />
    <neuron name = "15" type = "motor"  jointName = "Link6_Link9" />
    <synapse sourceNeuronName = "0" targetNeuronName = "7" weight = "0.9176534826568081" />
    <synapse sourceNeuronName = "0" targetNeuronName = "8" weight = "0.16849520668970053" />
    <synapse sourceNeuronName = "0" targetNeuronName = "9" weight = "0.03019440801785822" />
    <synapse sourceNeuronName = "0" targetNeuronName = "10" weight = "-0.42653408339155696" />
    <synapse sourceNeuronName = "0" targetNeuronName = "11" weight = "-0.37413157561682864" />
    <synapse sourceNeuronName = "0" targetNeuronName = "12" weight = "0.7737210004615929" />
    <synapse sourceNeuronName = "0" targetNeuronName = "13" weight = "0.6233149720447877" />
    <synapse sourceNeuronName = "0" targetNeuronName = "14" weight = "0.8052593056123762" />
    <synapse sourceNeuronName = "0" targetNeuronName = "15" weight = "0.5771045339211083" />
    <synapse sourceNeuronName = "1" targetNeuronName = "7" weight = "0.023598871912222652" />
    <synapse sourceNeuronName = "1" targetNeuronName = "8" weight = "-0.4353586539304748" />
    <synapse sourceNeuronName = "1" targetNeuronName = "9" weight = "-0.8758354816054299" />
    <synapse sourceNeuronName = "1" targetNeuronName = "10" weight = "-0.7459765704753845" />
    <synapse sourceNeuronName = "1" targetNeuronName = "11" weight = "-0.4735537726881114" />
    <synapse sourceNeuronName = "1" targetNeuronName = "12" weight = "0.5435474551569284" />
    <synapse sourceNeuronName = "1" targetNeuronName = "13" weight = "0.19298365883593993" />
    <synapse sourceNeuronName = "1" targetNeuronName = "14" weight = "0.05978620520279643" />
    <synapse sourceNeuronName = "1" targetNeuronName = "15" weight = "0.7586526452603224" />
    <synapse sourceNeuronName = "2" targetNeuronName = "7" weight = "-0.2563049588097559" />
    <synapse sourceNeuronName = "2" targetNeuronName = "8" weight = "0.9508359467062091" />
    <synapse sourceNeuronName = "2" targetNeuronName = "9" weight = "-0.9574304427118618" />
    <synapse sourceNeuronName = "2" targetNeuronName = "10" weight = "-0.4017009366287967" />
    <synapse sourceNeuronName = "2" targetNeuronName = "11" weight = "0.746946958109687" />
    <synapse sourceNeuronName = "2" targetNeuronName = "12" weight = "0.5281764444472763" />
    <synapse sourceNeuronName = "2" targetNeuronName = "13" weight = "-0.7420938183039141" />
    <synapse sourceNeuronName = "2" targetNeuronName = "14" weight = "0.15680015005086312" />
    <synapse sourceNeuronName = "2" targetNeuronName = "15" weight = "0.7719784362086497" />
    <synapse sourceNeuronName = "3" targetNeuronName = "7" weight = "-0.438043916511357" />
    <synapse sourceNeuronName = "3" targetNeuronName = "8" weight = "0.10690337026160623" />
    <synapse sourceNeuronName = "3" targetNeuronName = "9" weight = "0.10966912832617504" />
    <synapse sourceNeuronName = "3" targetNeuronName = "10" weight = "-0.8603861663678376" />
    <synapse sourceNeuronName = "3" targetNeuronName = "11" weight = "0.58421081644877" />
    <synapse sourceNeuronName = "3" targetNeuronName = "12" weight = "-0.607413800531446" />
    <synapse sourceNeuronName = "3" targetNeuronName = "13" weight = "0.9254306791466136" />
    <synapse sourceNeuronName = "3" targetNeuronName = "14" weight = "-0.13228829753175475" />
    <synapse sourceNeuronName = "3" targetNeuronName = "15" weight = "0.421446879856999" />
    <synapse sourceNeuronName = "4" targetNeuronName = "7" weight = "0.2505239501198311" />
    <synapse sourceNeuronName = "4" targetNeuronName = "8" weight = "0.6736726624484117" />
    <synapse sourceNeuronName = "4" targetNeuronName = "9" weight = "0.8492398041041589" />
    <synapse sourceNeuronName = "4" targetNeuronName = "10" weight = "-0.04945036068020037" />
    <synapse sourceNeuronName = "4" targetNeuronName = "11" weight = "0.21858302997766588" />
    <synapse sourceNeuronName = "4" targetNeuronName = "12" weight = "-0.2603587176054867" />
    <synapse sourceNeuronName = "4" targetNeuronName = "13" weight = "-0.015135123744924872" />
    <synapse sourceNeuronName = "4" targetNeuronName = "14" weight = "-0.6786782088838461" />
    <synapse sourceNeuronName = "4" targetNeuronName = "15" weight = "-0.22546391923347242" />
    <synapse sourceNeuronName = "5" targetNeuronName = "7" weight = "-0.43161550268513627" />
    <synapse sourceNeuronName = "5" targetNeuronName = "8" weight = "0.5309226952580783" />
    <synapse sourceNeuronName = "5" targetNeuronName = "9" weight = "0.9276237463559474" />
    <synapse sourceNeuronName = "5" targetNeuronName = "10" weight = "0.5255486149493496" />
    <synapse sourceNeuronName = "5" targetNeuronName = "11" weight = "0.01755468853967046" />
    <synapse sourceNeuronName = "5" targetNeuronName = "12" weight = "-0.9494566505479036" />
    <synapse sourceNeuronName = "5" targetNeuronName = "13" weight = "-0.37347913744642436" />
    <synapse sourceNeuronName = "5" targetNeuronName = "14" weight = "-0.15309024931807858" />
    <synapse sourceNeuronName = "5" targetNeuronName = "15" weight = "0.051910350367477376" />
    <synapse sourceNeuronName = "6" targetNeuronName = "7" weight = "0.5748602504055944" />
    <synapse sourceNeuronName = "6" targetNeuronName = "8" weight = "0.0844822454416514" />
    <synapse sourceNeuronName = "6" targetNeuronName = "9" weight = "-0.18469947120019814" />
    <synapse sourceNeuronName = "6" targetNeuronName = "10" weight = "-0.45005489911693486" />
    <synapse sourceNeuronName = "6" targetNeuronName = "11" weight = "0.2871124650298138" />
    <synapse sourceNeuronName = "6" targetNeuronName = "12" weight = "0.3988268919304401" />
    <synapse sourceNeuronName = "6" targetNeuronName = "13" weight = "-0.7305012541010316" />
    <synapse sourceNeuronName = "6" targetNeuronName = "14" weight = "0.2781207881105767" />
    <synapse sourceNeuronName = "6" targetNeuronName = "15" weight = "0.47000071957238987" />
</neuralNetwork>