<neuralNetwork>
    <neuron name = "0" type = "sensor" linkName = "Link0" />
    <neuron name = "1" type = "sensor" linkName = "Link2" />
    <neuron name = "2" type = "sensor" linkName = "Link3" />
    <neuron name = "3" type = "sensor" linkName = "Link4" />
    <neuron name = "4" type = "sensor" linkName = "Link5" />
    <neuron name = "5" type = "motor"  jointName = "Link0_Link1" />
    <neuron name = "6" type = "motor"  jointName = "Link0_Link2" />
    <neuron name = "7" type = "motor"  jointName = "Link1_Link3" />
    <neuron name = "8" type = "motor"  jointName = "Link3_Link4" />
    <neuron name = "9" type = "motor"  jointName = "Link4_Link5" />
    <neuron name = "10" type = "motor"  jointName = "Link4_Link6" />
    <neuron name = "11" type = "motor"  jointName = "Link3_Link7" />
    <synapse sourceNeuronName = "0" targetNeuronName = "5" weight = "0.7260735133767193" />
    <synapse sourceNeuronName = "0" targetNeuronName = "6" weight = "-0.0649570101350585" />
    <synapse sourceNeuronName = "0" targetNeuronName = "7" weight = "-0.7459449858604865" />
    <synapse sourceNeuronName = "0" targetNeuronName = "8" weight = "-0.32917057975915576" />
    <synapse sourceNeuronName = "0" targetNeuronName = "9" weight = "-0.4987848052388939" />
    <synapse sourceNeuronName = "0" targetNeuronName = "10" weight = "-0.10230775746614595" />
    <synapse sourceNeuronName = "0" targetNeuronName = "11" weight = "0.2621522155623839" />
    <synapse sourceNeuronName = "1" targetNeuronName = "5" weight = "-0.11022030016805329" />
    <synapse sourceNeuronName = "1" targetNeuronName = "6" weight = "0.56193783496471" />
    <synapse sourceNeuronName = "1" targetNeuronName = "7" weight = "0.6912029867414351" />
    <synapse sourceNeuronName = "1" targetNeuronName = "8" weight = "-0.7894254128193003" />
    <synapse sourceNeuronName = "1" targetNeuronName = "9" weight = "-0.7911763278606472" />
    <synapse sourceNeuronName = "1" targetNeuronName = "10" weight = "-0.03878421299249735" />
    <synapse sourceNeuronName = "1" targetNeuronName = "11" weight = "-0.5072353372989755" />
    <synapse sourceNeuronName = "2" targetNeuronName = "5" weight = "0.2707076526182399" />
    <synapse sourceNeuronName = "2" targetNeuronName = "6" weight = "0.0302427787804862" />
    <synapse sourceNeuronName = "2" targetNeuronName = "7" weight = "0.9411748188887785" />
    <synapse sourceNeuronName = "2" targetNeuronName = "8" weight = "-0.4472873363285239" />
    <synapse sourceNeuronName = "2" targetNeuronName = "9" weight = "-0.2196062322099217" />
    <synapse sourceNeuronName = "2" targetNeuronName = "10" weight = "-0.20874877800692482" />
    <synapse sourceNeuronName = "2" targetNeuronName = "11" weight = "0.25047274258032837" />
    <synapse sourceNeuronName = "3" targetNeuronName = "5" weight = "0.336057451320416" />
    <synapse sourceNeuronName = "3" targetNeuronName = "6" weight = "0.3149701343105964" />
    <synapse sourceNeuronName = "3" targetNeuronName = "7" weight = "-0.9305274745747736" />
    <synapse sourceNeuronName = "3" targetNeuronName = "8" weight = "0.7621902172441319" />
    <synapse sourceNeuronName = "3" targetNeuronName = "9" weight = "0.23511226527416196" />
    <synapse sourceNeuronName = "3" targetNeuronName = "10" weight = "-0.10468917084491602" />
    <synapse sourceNeuronName = "3" targetNeuronName = "11" weight = "0.238348209154841" />
    <synapse sourceNeuronName = "4" targetNeuronName = "5" weight = "0.8642047857932751" />
    <synapse sourceNeuronName = "4" targetNeuronName = "6" weight = "-0.2910025914346721" />
    <synapse sourceNeuronName = "4" targetNeuronName = "7" weight = "-0.02466475309180516" />
    <synapse sourceNeuronName = "4" targetNeuronName = "8" weight = "0.4543201099474232" />
    <synapse sourceNeuronName = "4" targetNeuronName = "9" weight = "0.5041699785962286" />
    <synapse sourceNeuronName = "4" targetNeuronName = "10" weight = "-0.3186987899513245" />
    <synapse sourceNeuronName = "4" targetNeuronName = "11" weight = "0.7432083274278232" />
</neuralNetwork>