<neuralNetwork>
    <neuron name = "0" type = "sensor" linkName = "Link0" />
    <neuron name = "1" type = "sensor" linkName = "Link1" />
    <neuron name = "2" type = "sensor" linkName = "Link2" />
    <neuron name = "3" type = "sensor" linkName = "Link4" />
    <neuron name = "4" type = "sensor" linkName = "Link5" />
    <neuron name = "5" type = "sensor" linkName = "Link6" />
    <neuron name = "6" type = "motor"  jointName = "Link0_Link1" />
    <neuron name = "7" type = "motor"  jointName = "Link0_Link2" />
    <neuron name = "8" type = "motor"  jointName = "Link1_Link3" />
    <neuron name = "9" type = "motor"  jointName = "Link3_Link4" />
    <neuron name = "10" type = "motor"  jointName = "Link3_Link5" />
    <neuron name = "11" type = "motor"  jointName = "Link0_Link6" />
    <synapse sourceNeuronName = "0" targetNeuronName = "6" weight = "-0.03291311522594342" />
    <synapse sourceNeuronName = "0" targetNeuronName = "7" weight = "-0.3045240349787064" />
    <synapse sourceNeuronName = "0" targetNeuronName = "8" weight = "-0.06382514119268135" />
    <synapse sourceNeuronName = "0" targetNeuronName = "9" weight = "0.5040878193884852" />
    <synapse sourceNeuronName = "0" targetNeuronName = "10" weight = "-0.5819960820449095" />
    <synapse sourceNeuronName = "0" targetNeuronName = "11" weight = "-0.510045161609594" />
    <synapse sourceNeuronName = "1" targetNeuronName = "6" weight = "0.43291855828204784" />
    <synapse sourceNeuronName = "1" targetNeuronName = "7" weight = "-0.9634836269595288" />
    <synapse sourceNeuronName = "1" targetNeuronName = "8" weight = "-0.00029236550291189545" />
    <synapse sourceNeuronName = "1" targetNeuronName = "9" weight = "-0.4032239296156219" />
    <synapse sourceNeuronName = "1" targetNeuronName = "10" weight = "-0.8285870891910982" />
    <synapse sourceNeuronName = "1" targetNeuronName = "11" weight = "-0.32818785459098465" />
    <synapse sourceNeuronName = "2" targetNeuronName = "6" weight = "0.8279693237715122" />
    <synapse sourceNeuronName = "2" targetNeuronName = "7" weight = "0.44308767010676053" />
    <synapse sourceNeuronName = "2" targetNeuronName = "8" weight = "0.7388749381120763" />
    <synapse sourceNeuronName = "2" targetNeuronName = "9" weight = "-0.7938241727982034" />
    <synapse sourceNeuronName = "2" targetNeuronName = "10" weight = "0.414937963091516" />
    <synapse sourceNeuronName = "2" targetNeuronName = "11" weight = "-0.5708267555217965" />
    <synapse sourceNeuronName = "3" targetNeuronName = "6" weight = "-0.5219051741235399" />
    <synapse sourceNeuronName = "3" targetNeuronName = "7" weight = "-0.6060374869680247" />
    <synapse sourceNeuronName = "3" targetNeuronName = "8" weight = "0.6832509395162996" />
    <synapse sourceNeuronName = "3" targetNeuronName = "9" weight = "-0.8409662850744142" />
    <synapse sourceNeuronName = "3" targetNeuronName = "10" weight = "-0.05423621839111514" />
    <synapse sourceNeuronName = "3" targetNeuronName = "11" weight = "0.24303841435622808" />
    <synapse sourceNeuronName = "4" targetNeuronName = "6" weight = "-0.35046536302545306" />
    <synapse sourceNeuronName = "4" targetNeuronName = "7" weight = "-0.8868344196668327" />
    <synapse sourceNeuronName = "4" targetNeuronName = "8" weight = "0.9313604419467798" />
    <synapse sourceNeuronName = "4" targetNeuronName = "9" weight = "-0.012409445262155483" />
    <synapse sourceNeuronName = "4" targetNeuronName = "10" weight = "0.7921676151583172" />
    <synapse sourceNeuronName = "4" targetNeuronName = "11" weight = "0.8520334801594449" />
    <synapse sourceNeuronName = "5" targetNeuronName = "6" weight = "0.8605562606460664" />
    <synapse sourceNeuronName = "5" targetNeuronName = "7" weight = "-0.554404071337854" />
    <synapse sourceNeuronName = "5" targetNeuronName = "8" weight = "0.312914396885432" />
    <synapse sourceNeuronName = "5" targetNeuronName = "9" weight = "-0.8124839497795717" />
    <synapse sourceNeuronName = "5" targetNeuronName = "10" weight = "0.5118352016019516" />
    <synapse sourceNeuronName = "5" targetNeuronName = "11" weight = "-0.49607001025127695" />
</neuralNetwork>