<neuralNetwork>
    <neuron name = "0" type = "sensor" linkName = "Link0" />
    <neuron name = "1" type = "sensor" linkName = "Link7" />
    <neuron name = "2" type = "sensor" linkName = "Link8" />
    <neuron name = "3" type = "motor"  jointName = "Link0_Link1" />
    <neuron name = "4" type = "motor"  jointName = "Link1_Link2" />
    <neuron name = "5" type = "motor"  jointName = "Link1_Link3" />
    <neuron name = "6" type = "motor"  jointName = "Link2_Link4" />
    <neuron name = "7" type = "motor"  jointName = "Link4_Link5" />
    <neuron name = "8" type = "motor"  jointName = "Link0_Link6" />
    <neuron name = "9" type = "motor"  jointName = "Link5_Link7" />
    <neuron name = "10" type = "motor"  jointName = "Link6_Link8" />
    <synapse sourceNeuronName = "0" targetNeuronName = "3" weight = "-0.11800871588568707" />
    <synapse sourceNeuronName = "0" targetNeuronName = "4" weight = "0.9382306371278502" />
    <synapse sourceNeuronName = "0" targetNeuronName = "5" weight = "-0.45106631764923" />
    <synapse sourceNeuronName = "0" targetNeuronName = "6" weight = "0.6376616859761433" />
    <synapse sourceNeuronName = "0" targetNeuronName = "7" weight = "0.7685064914600197" />
    <synapse sourceNeuronName = "0" targetNeuronName = "8" weight = "-0.8194437558329843" />
    <synapse sourceNeuronName = "0" targetNeuronName = "9" weight = "-0.9449988398347353" />
    <synapse sourceNeuronName = "0" targetNeuronName = "10" weight = "0.7656309803001802" />
    <synapse sourceNeuronName = "1" targetNeuronName = "3" weight = "-0.8162006288955477" />
    <synapse sourceNeuronName = "1" targetNeuronName = "4" weight = "-0.8004087039981969" />
    <synapse sourceNeuronName = "1" targetNeuronName = "5" weight = "0.6368493866395954" />
    <synapse sourceNeuronName = "1" targetNeuronName = "6" weight = "-0.31748164769502973" />
    <synapse sourceNeuronName = "1" targetNeuronName = "7" weight = "0.0011896852961583715" />
    <synapse sourceNeuronName = "1" targetNeuronName = "8" weight = "-0.5423501521201115" />
    <synapse sourceNeuronName = "1" targetNeuronName = "9" weight = "-0.6220162735663524" />
    <synapse sourceNeuronName = "1" targetNeuronName = "10" weight = "0.049233205285319714" />
    <synapse sourceNeuronName = "2" targetNeuronName = "3" weight = "0.557618559392578" />
    <synapse sourceNeuronName = "2" targetNeuronName = "4" weight = "-0.9968543011710669" />
    <synapse sourceNeuronName = "2" targetNeuronName = "5" weight = "-0.2644497671626034" />
    <synapse sourceNeuronName = "2" targetNeuronName = "6" weight = "-0.7612825077439558" />
    <synapse sourceNeuronName = "2" targetNeuronName = "7" weight = "0.5653509863623143" />
    <synapse sourceNeuronName = "2" targetNeuronName = "8" weight = "-0.8414930600226953" />
    <synapse sourceNeuronName = "2" targetNeuronName = "9" weight = "0.04616106160567135" />
    <synapse sourceNeuronName = "2" targetNeuronName = "10" weight = "0.5781370074012104" />
</neuralNetwork>