<neuralNetwork>
    <neuron name = "0" type = "sensor" linkName = "Link0" />
    <neuron name = "1" type = "sensor" linkName = "Link2" />
    <neuron name = "2" type = "sensor" linkName = "Link3" />
    <neuron name = "3" type = "sensor" linkName = "Link4" />
    <neuron name = "4" type = "sensor" linkName = "Link5" />
    <neuron name = "5" type = "sensor" linkName = "Link7" />
    <neuron name = "6" type = "motor"  jointName = "Link0_Link1" />
    <neuron name = "7" type = "motor"  jointName = "Link0_Link2" />
    <neuron name = "8" type = "motor"  jointName = "Link1_Link3" />
    <neuron name = "9" type = "motor"  jointName = "Link3_Link4" />
    <neuron name = "10" type = "motor"  jointName = "Link4_Link5" />
    <neuron name = "11" type = "motor"  jointName = "Link3_Link6" />
    <neuron name = "12" type = "motor"  jointName = "Link5_Link7" />
    <synapse sourceNeuronName = "0" targetNeuronName = "6" weight = "-0.7554587026793762" />
    <synapse sourceNeuronName = "0" targetNeuronName = "7" weight = "-0.6453600837776503" />
    <synapse sourceNeuronName = "0" targetNeuronName = "8" weight = "0.11753678680863122" />
    <synapse sourceNeuronName = "0" targetNeuronName = "9" weight = "0.6133726405621507" />
    <synapse sourceNeuronName = "0" targetNeuronName = "10" weight = "0.2695951079246077" />
    <synapse sourceNeuronName = "0" targetNeuronName = "11" weight = "0.9463770585253968" />
    <synapse sourceNeuronName = "0" targetNeuronName = "12" weight = "-0.18704731653679074" />
    <synapse sourceNeuronName = "1" targetNeuronName = "6" weight = "0.7627433514039581" />
    <synapse sourceNeuronName = "1" targetNeuronName = "7" weight = "0.5144970194375906" />
    <synapse sourceNeuronName = "1" targetNeuronName = "8" weight = "-0.38787399834183667" />
    <synapse sourceNeuronName = "1" targetNeuronName = "9" weight = "-0.9941151173054292" />
    <synapse sourceNeuronName = "1" targetNeuronName = "10" weight = "0.6288189008026612" />
    <synapse sourceNeuronName = "1" targetNeuronName = "11" weight = "0.4027198552690616" />
    <synapse sourceNeuronName = "1" targetNeuronName = "12" weight = "0.9297548468333914" />
    <synapse sourceNeuronName = "2" targetNeuronName = "6" weight = "-0.23419011625542918" />
    <synapse sourceNeuronName = "2" targetNeuronName = "7" weight = "-0.5197047649030533" />
    <synapse sourceNeuronName = "2" targetNeuronName = "8" weight = "-0.20883916665886737" />
    <synapse sourceNeuronName = "2" targetNeuronName = "9" weight = "-0.6106027719611009" />
    <synapse sourceNeuronName = "2" targetNeuronName = "10" weight = "0.06580447972236447" />
    <synapse sourceNeuronName = "2" targetNeuronName = "11" weight = "-0.9154440633734651" />
    <synapse sourceNeuronName = "2" targetNeuronName = "12" weight = "0.0549952282108952" />
    <synapse sourceNeuronName = "3" targetNeuronName = "6" weight = "0.37454014060280505" />
    <synapse sourceNeuronName = "3" targetNeuronName = "7" weight = "0.5656546941514637" />
    <synapse sourceNeuronName = "3" targetNeuronName = "8" weight = "-0.37889803743782724" />
    <synapse sourceNeuronName = "3" targetNeuronName = "9" weight = "-0.87923947470097" />
    <synapse sourceNeuronName = "3" targetNeuronName = "10" weight = "0.22587184253180626" />
    <synapse sourceNeuronName = "3" targetNeuronName = "11" weight = "0.39250145990672913" />
    <synapse sourceNeuronName = "3" targetNeuronName = "12" weight = "0.9191315065562398" />
    <synapse sourceNeuronName = "4" targetNeuronName = "6" weight = "-0.9218913108166127" />
    <synapse sourceNeuronName = "4" targetNeuronName = "7" weight = "0.7131981310161468" />
    <synapse sourceNeuronName = "4" targetNeuronName = "8" weight = "0.9299406919690165" />
    <synapse sourceNeuronName = "4" targetNeuronName = "9" weight = "0.9714062595553525" />
    <synapse sourceNeuronName = "4" targetNeuronName = "10" weight = "0.663410333401915" />
    <synapse sourceNeuronName = "4" targetNeuronName = "11" weight = "0.4165870735389263" />
    <synapse sourceNeuronName = "4" targetNeuronName = "12" weight = "-0.9423807182067789" />
    <synapse sourceNeuronName = "5" targetNeuronName = "6" weight = "-0.5754023564734736" />
    <synapse sourceNeuronName = "5" targetNeuronName = "7" weight = "-0.9275909823418622" />
    <synapse sourceNeuronName = "5" targetNeuronName = "8" weight = "-0.5782104378740502" />
    <synapse sourceNeuronName = "5" targetNeuronName = "9" weight = "0.24562660538602832" />
    <synapse sourceNeuronName = "5" targetNeuronName = "10" weight = "-0.032667121410683064" />
    <synapse sourceNeuronName = "5" targetNeuronName = "11" weight = "0.10536338508530863" />
    <synapse sourceNeuronName = "5" targetNeuronName = "12" weight = "0.5210699785912456" />
</neuralNetwork>