<neuralNetwork>
    <neuron name = "0" type = "sensor" linkName = "Link0" />
    <neuron name = "1" type = "sensor" linkName = "Link2" />
    <neuron name = "2" type = "sensor" linkName = "Link3" />
    <neuron name = "3" type = "sensor" linkName = "Link4" />
    <neuron name = "4" type = "sensor" linkName = "Link5" />
    <neuron name = "5" type = "motor"  jointName = "Link0_Link1" />
    <neuron name = "6" type = "motor"  jointName = "Link0_Link2" />
    <neuron name = "7" type = "motor"  jointName = "Link1_Link3" />
    <neuron name = "8" type = "motor"  jointName = "Link3_Link4" />
    <neuron name = "9" type = "motor"  jointName = "Link4_Link5" />
    <neuron name = "10" type = "motor"  jointName = "Link4_Link6" />
    <neuron name = "11" type = "motor"  jointName = "Link3_Link7" />
    <neuron name = "12" type = "motor"  jointName = "Link2_Link8" />
    <synapse sourceNeuronName = "0" targetNeuronName = "5" weight = "0.6477669414642016" />
    <synapse sourceNeuronName = "0" targetNeuronName = "6" weight = "-0.4843705041597095" />
    <synapse sourceNeuronName = "0" targetNeuronName = "7" weight = "0.6336673922479021" />
    <synapse sourceNeuronName = "0" targetNeuronName = "8" weight = "0.31142125024858247" />
    <synapse sourceNeuronName = "0" targetNeuronName = "9" weight = "0.24330437089540058" />
    <synapse sourceNeuronName = "0" targetNeuronName = "10" weight = "-0.5586403001582354" />
    <synapse sourceNeuronName = "0" targetNeuronName = "11" weight = "-0.17351912748138232" />
    <synapse sourceNeuronName = "0" targetNeuronName = "12" weight = "0.5777173350170566" />
    <synapse sourceNeuronName = "1" targetNeuronName = "5" weight = "0.6441008662938577" />
    <synapse sourceNeuronName = "1" targetNeuronName = "6" weight = "0.8732378044742719" />
    <synapse sourceNeuronName = "1" targetNeuronName = "7" weight = "0.8712198018286859" />
    <synapse sourceNeuronName = "1" targetNeuronName = "8" weight = "0.12536753316740246" />
    <synapse sourceNeuronName = "1" targetNeuronName = "9" weight = "-0.8859639989012345" />
    <synapse sourceNeuronName = "1" targetNeuronName = "10" weight = "0.9182594972994393" />
    <synapse sourceNeuronName = "1" targetNeuronName = "11" weight = "0.7825215219403734" />
    <synapse sourceNeuronName = "1" targetNeuronName = "12" weight = "0.7443852372202826" />
    <synapse sourceNeuronName = "2" targetNeuronName = "5" weight = "0.12763266482013336" />
    <synapse sourceNeuronName = "2" targetNeuronName = "6" weight = "-0.7961471277136432" />
    <synapse sourceNeuronName = "2" targetNeuronName = "7" weight = "0.5266341501430651" />
    <synapse sourceNeuronName = "2" targetNeuronName = "8" weight = "0.8288897108697342" />
    <synapse sourceNeuronName = "2" targetNeuronName = "9" weight = "0.8914106440116749" />
    <synapse sourceNeuronName = "2" targetNeuronName = "10" weight = "0.9684842450848743" />
    <synapse sourceNeuronName = "2" targetNeuronName = "11" weight = "-0.8034549482665918" />
    <synapse sourceNeuronName = "2" targetNeuronName = "12" weight = "0.02270423096342511" />
    <synapse sourceNeuronName = "3" targetNeuronName = "5" weight = "0.8328542890435207" />
    <synapse sourceNeuronName = "3" targetNeuronName = "6" weight = "0.022743700678595546" />
    <synapse sourceNeuronName = "3" targetNeuronName = "7" weight = "-0.4915584274190896" />
    <synapse sourceNeuronName = "3" targetNeuronName = "8" weight = "-0.37858429201220667" />
    <synapse sourceNeuronName = "3" targetNeuronName = "9" weight = "0.16593199143712778" />
    <synapse sourceNeuronName = "3" targetNeuronName = "10" weight = "-0.4798420689438938" />
    <synapse sourceNeuronName = "3" targetNeuronName = "11" weight = "0.242330491390099" />
    <synapse sourceNeuronName = "3" targetNeuronName = "12" weight = "0.20368594026091658" />
    <synapse sourceNeuronName = "4" targetNeuronName = "5" weight = "0.7456672303915592" />
    <synapse sourceNeuronName = "4" targetNeuronName = "6" weight = "-0.4090917524980464" />
    <synapse sourceNeuronName = "4" targetNeuronName = "7" weight = "0.33303879145940374" />
    <synapse sourceNeuronName = "4" targetNeuronName = "8" weight = "-0.26039972850177473" />
    <synapse sourceNeuronName = "4" targetNeuronName = "9" weight = "0.08601072001828625" />
    <synapse sourceNeuronName = "4" targetNeuronName = "10" weight = "0.31116579768048425" />
    <synapse sourceNeuronName = "4" targetNeuronName = "11" weight = "-0.2111847511322762" />
    <synapse sourceNeuronName = "4" targetNeuronName = "12" weight = "0.48546141821594446" />
</neuralNetwork>