<neuralNetwork>
    <neuron name = "0" type = "sensor" linkName = "Link0" />
    <neuron name = "1" type = "sensor" linkName = "Link1" />
    <neuron name = "2" type = "sensor" linkName = "Link2" />
    <neuron name = "3" type = "sensor" linkName = "Link5" />
    <neuron name = "4" type = "sensor" linkName = "Link6" />
    <neuron name = "5" type = "motor"  jointName = "Link0_Link1" />
    <neuron name = "6" type = "motor"  jointName = "Link1_Link2" />
    <neuron name = "7" type = "motor"  jointName = "Link0_Link3" />
    <neuron name = "8" type = "motor"  jointName = "Link3_Link4" />
    <neuron name = "9" type = "motor"  jointName = "Link1_Link5" />
    <neuron name = "10" type = "motor"  jointName = "Link5_Link6" />
    <synapse sourceNeuronName = "0" targetNeuronName = "5" weight = "0.5197651848801115" />
    <synapse sourceNeuronName = "0" targetNeuronName = "6" weight = "-0.006662928931647105" />
    <synapse sourceNeuronName = "0" targetNeuronName = "7" weight = "-0.43509494258492554" />
    <synapse sourceNeuronName = "0" targetNeuronName = "8" weight = "0.891981185086361" />
    <synapse sourceNeuronName = "0" targetNeuronName = "9" weight = "-0.9691253377084399" />
    <synapse sourceNeuronName = "0" targetNeuronName = "10" weight = "0.6338929565947318" />
    <synapse sourceNeuronName = "1" targetNeuronName = "5" weight = "-0.6555680074769821" />
    <synapse sourceNeuronName = "1" targetNeuronName = "6" weight = "0.43268709488967927" />
    <synapse sourceNeuronName = "1" targetNeuronName = "7" weight = "-0.18630601185870632" />
    <synapse sourceNeuronName = "1" targetNeuronName = "8" weight = "0.19042771602141406" />
    <synapse sourceNeuronName = "1" targetNeuronName = "9" weight = "-0.3063739304186355" />
    <synapse sourceNeuronName = "1" targetNeuronName = "10" weight = "0.7928424475709115" />
    <synapse sourceNeuronName = "2" targetNeuronName = "5" weight = "0.33435080004070605" />
    <synapse sourceNeuronName = "2" targetNeuronName = "6" weight = "-0.6024835736413785" />
    <synapse sourceNeuronName = "2" targetNeuronName = "7" weight = "-0.35516180584734247" />
    <synapse sourceNeuronName = "2" targetNeuronName = "8" weight = "-0.6414704104457105" />
    <synapse sourceNeuronName = "2" targetNeuronName = "9" weight = "0.7921464911232696" />
    <synapse sourceNeuronName = "2" targetNeuronName = "10" weight = "0.0326658194012277" />
    <synapse sourceNeuronName = "3" targetNeuronName = "5" weight = "0.051256768988737766" />
    <synapse sourceNeuronName = "3" targetNeuronName = "6" weight = "-0.24885386746813531" />
    <synapse sourceNeuronName = "3" targetNeuronName = "7" weight = "-0.49695832687642016" />
    <synapse sourceNeuronName = "3" targetNeuronName = "8" weight = "0.549949862370867" />
    <synapse sourceNeuronName = "3" targetNeuronName = "9" weight = "0.20444858661798904" />
    <synapse sourceNeuronName = "3" targetNeuronName = "10" weight = "-0.8676517207571519" />
    <synapse sourceNeuronName = "4" targetNeuronName = "5" weight = "0.09374796948006225" />
    <synapse sourceNeuronName = "4" targetNeuronName = "6" weight = "0.3191494729644133" />
    <synapse sourceNeuronName = "4" targetNeuronName = "7" weight = "0.6167551348519744" />
    <synapse sourceNeuronName = "4" targetNeuronName = "8" weight = "-0.573789786903715" />
    <synapse sourceNeuronName = "4" targetNeuronName = "9" weight = "0.7968345700569073" />
    <synapse sourceNeuronName = "4" targetNeuronName = "10" weight = "0.08168270968181468" />
</neuralNetwork>