<neuralNetwork>
    <neuron name = "0" type = "sensor" linkName = "Link0" />
    <neuron name = "1" type = "sensor" linkName = "Link1" />
    <neuron name = "2" type = "sensor" linkName = "Link2" />
    <neuron name = "3" type = "sensor" linkName = "Link5" />
    <neuron name = "4" type = "sensor" linkName = "Link6" />
    <neuron name = "5" type = "motor"  jointName = "Link0_Link1" />
    <neuron name = "6" type = "motor"  jointName = "Link1_Link2" />
    <neuron name = "7" type = "motor"  jointName = "Link0_Link3" />
    <neuron name = "8" type = "motor"  jointName = "Link3_Link4" />
    <neuron name = "9" type = "motor"  jointName = "Link1_Link5" />
    <neuron name = "10" type = "motor"  jointName = "Link3_Link6" />
    <synapse sourceNeuronName = "0" targetNeuronName = "5" weight = "0.9877054053508281" />
    <synapse sourceNeuronName = "0" targetNeuronName = "6" weight = "0.7803458048497776" />
    <synapse sourceNeuronName = "0" targetNeuronName = "7" weight = "-0.5411895350639615" />
    <synapse sourceNeuronName = "0" targetNeuronName = "8" weight = "0.403757306263433" />
    <synapse sourceNeuronName = "0" targetNeuronName = "9" weight = "-0.5492054838265359" />
    <synapse sourceNeuronName = "0" targetNeuronName = "10" weight = "0.3964729766640269" />
    <synapse sourceNeuronName = "1" targetNeuronName = "5" weight = "0.9464313104700222" />
    <synapse sourceNeuronName = "1" targetNeuronName = "6" weight = "0.4474319821697179" />
    <synapse sourceNeuronName = "1" targetNeuronName = "7" weight = "0.16009930128874084" />
    <synapse sourceNeuronName = "1" targetNeuronName = "8" weight = "-0.41216958302782514" />
    <synapse sourceNeuronName = "1" targetNeuronName = "9" weight = "-0.6983133132779638" />
    <synapse sourceNeuronName = "1" targetNeuronName = "10" weight = "-0.4871264003120279" />
    <synapse sourceNeuronName = "2" targetNeuronName = "5" weight = "0.15860278976838615" />
    <synapse sourceNeuronName = "2" targetNeuronName = "6" weight = "0.25225165288575724" />
    <synapse sourceNeuronName = "2" targetNeuronName = "7" weight = "-0.22143882620844035" />
    <synapse sourceNeuronName = "2" targetNeuronName = "8" weight = "0.946176002601637" />
    <synapse sourceNeuronName = "2" targetNeuronName = "9" weight = "0.17692212013407427" />
    <synapse sourceNeuronName = "2" targetNeuronName = "10" weight = "-0.1990345849913171" />
    <synapse sourceNeuronName = "3" targetNeuronName = "5" weight = "-0.08581377218121822" />
    <synapse sourceNeuronName = "3" targetNeuronName = "6" weight = "0.6656125853122841" />
    <synapse sourceNeuronName = "3" targetNeuronName = "7" weight = "0.6926072512274577" />
    <synapse sourceNeuronName = "3" targetNeuronName = "8" weight = "0.4588141883138981" />
    <synapse sourceNeuronName = "3" targetNeuronName = "9" weight = "0.07255702478295833" />
    <synapse sourceNeuronName = "3" targetNeuronName = "10" weight = "0.06857746929497877" />
    <synapse sourceNeuronName = "4" targetNeuronName = "5" weight = "-0.41780408186208584" />
    <synapse sourceNeuronName = "4" targetNeuronName = "6" weight = "-0.9574605773311906" />
    <synapse sourceNeuronName = "4" targetNeuronName = "7" weight = "-0.8455312480921882" />
    <synapse sourceNeuronName = "4" targetNeuronName = "8" weight = "-0.8778365183201315" />
    <synapse sourceNeuronName = "4" targetNeuronName = "9" weight = "0.14099532437054862" />
    <synapse sourceNeuronName = "4" targetNeuronName = "10" weight = "0.5321891955776383" />
</neuralNetwork>