<neuralNetwork>
    <neuron name = "0" type = "sensor" linkName = "Link0" />
    <neuron name = "1" type = "sensor" linkName = "Link1" />
    <neuron name = "2" type = "sensor" linkName = "Link2" />
    <neuron name = "3" type = "sensor" linkName = "Link4" />
    <neuron name = "4" type = "sensor" linkName = "Link5" />
    <neuron name = "5" type = "motor"  jointName = "Link0_Link1" />
    <neuron name = "6" type = "motor"  jointName = "Link0_Link2" />
    <neuron name = "7" type = "motor"  jointName = "Link1_Link3" />
    <neuron name = "8" type = "motor"  jointName = "Link3_Link4" />
    <neuron name = "9" type = "motor"  jointName = "Link3_Link5" />
    <neuron name = "10" type = "motor"  jointName = "Link0_Link6" />
    <synapse sourceNeuronName = "0" targetNeuronName = "5" weight = "-0.6893628666014067" />
    <synapse sourceNeuronName = "0" targetNeuronName = "6" weight = "0.2340278018883628" />
    <synapse sourceNeuronName = "0" targetNeuronName = "7" weight = "-0.5117090343142414" />
    <synapse sourceNeuronName = "0" targetNeuronName = "8" weight = "0.8681264248881697" />
    <synapse sourceNeuronName = "0" targetNeuronName = "9" weight = "0.9409484057744086" />
    <synapse sourceNeuronName = "0" targetNeuronName = "10" weight = "-0.4611523420226127" />
    <synapse sourceNeuronName = "1" targetNeuronName = "5" weight = "-0.09382768744392078" />
    <synapse sourceNeuronName = "1" targetNeuronName = "6" weight = "0.571655490095665" />
    <synapse sourceNeuronName = "1" targetNeuronName = "7" weight = "0.30973064984072907" />
    <synapse sourceNeuronName = "1" targetNeuronName = "8" weight = "0.7377728046308745" />
    <synapse sourceNeuronName = "1" targetNeuronName = "9" weight = "-0.5655886190070825" />
    <synapse sourceNeuronName = "1" targetNeuronName = "10" weight = "0.11064912970616136" />
    <synapse sourceNeuronName = "2" targetNeuronName = "5" weight = "0.3304298597758717" />
    <synapse sourceNeuronName = "2" targetNeuronName = "6" weight = "-0.3190817603057887" />
    <synapse sourceNeuronName = "2" targetNeuronName = "7" weight = "0.9860934388245246" />
    <synapse sourceNeuronName = "2" targetNeuronName = "8" weight = "0.7315160180341991" />
    <synapse sourceNeuronName = "2" targetNeuronName = "9" weight = "-0.32726850902329807" />
    <synapse sourceNeuronName = "2" targetNeuronName = "10" weight = "-0.26030540005394176" />
    <synapse sourceNeuronName = "3" targetNeuronName = "5" weight = "0.588615568484189" />
    <synapse sourceNeuronName = "3" targetNeuronName = "6" weight = "0.6877407254616446" />
    <synapse sourceNeuronName = "3" targetNeuronName = "7" weight = "0.6918715632617776" />
    <synapse sourceNeuronName = "3" targetNeuronName = "8" weight = "-0.3999211012613244" />
    <synapse sourceNeuronName = "3" targetNeuronName = "9" weight = "-0.24861712152625048" />
    <synapse sourceNeuronName = "3" targetNeuronName = "10" weight = "0.772766306656558" />
    <synapse sourceNeuronName = "4" targetNeuronName = "5" weight = "0.2969411104305204" />
    <synapse sourceNeuronName = "4" targetNeuronName = "6" weight = "0.20660029469518282" />
    <synapse sourceNeuronName = "4" targetNeuronName = "7" weight = "-0.4542764440760989" />
    <synapse sourceNeuronName = "4" targetNeuronName = "8" weight = "0.6339960149556501" />
    <synapse sourceNeuronName = "4" targetNeuronName = "9" weight = "0.8941106856213856" />
    <synapse sourceNeuronName = "4" targetNeuronName = "10" weight = "0.0778849671042674" />
</neuralNetwork>