<neuralNetwork>
    <neuron name = "0" type = "sensor" linkName = "Link1" />
    <neuron name = "1" type = "sensor" linkName = "Link2" />
    <neuron name = "2" type = "sensor" linkName = "Link3" />
    <neuron name = "3" type = "sensor" linkName = "Link6" />
    <neuron name = "4" type = "sensor" linkName = "Link8" />
    <neuron name = "5" type = "motor"  jointName = "Link0_Link1" />
    <neuron name = "6" type = "motor"  jointName = "Link0_Link2" />
    <neuron name = "7" type = "motor"  jointName = "Link1_Link3" />
    <neuron name = "8" type = "motor"  jointName = "Link3_Link4" />
    <neuron name = "9" type = "motor"  jointName = "Link1_Link5" />
    <neuron name = "10" type = "motor"  jointName = "Link1_Link6" />
    <neuron name = "11" type = "motor"  jointName = "Link3_Link7" />
    <neuron name = "12" type = "motor"  jointName = "Link7_Link8" />
    <synapse sourceNeuronName = "0" targetNeuronName = "5" weight = "-0.7105264726889731" />
    <synapse sourceNeuronName = "0" targetNeuronName = "6" weight = "-0.04399479642359827" />
    <synapse sourceNeuronName = "0" targetNeuronName = "7" weight = "0.42896403300582664" />
    <synapse sourceNeuronName = "0" targetNeuronName = "8" weight = "0.18847822823264426" />
    <synapse sourceNeuronName = "0" targetNeuronName = "9" weight = "0.42790677216853923" />
    <synapse sourceNeuronName = "0" targetNeuronName = "10" weight = "-0.4841378094842981" />
    <synapse sourceNeuronName = "0" targetNeuronName = "11" weight = "-0.05330135678069814" />
    <synapse sourceNeuronName = "0" targetNeuronName = "12" weight = "0.5239701914834471" />
    <synapse sourceNeuronName = "1" targetNeuronName = "5" weight = "0.3467421048288444" />
    <synapse sourceNeuronName = "1" targetNeuronName = "6" weight = "0.6100219430414162" />
    <synapse sourceNeuronName = "1" targetNeuronName = "7" weight = "0.608208029146293" />
    <synapse sourceNeuronName = "1" targetNeuronName = "8" weight = "0.20745597602795485" />
    <synapse sourceNeuronName = "1" targetNeuronName = "9" weight = "-0.4618488385205737" />
    <synapse sourceNeuronName = "1" targetNeuronName = "10" weight = "0.7848013394287736" />
    <synapse sourceNeuronName = "1" targetNeuronName = "11" weight = "0.8257286446935104" />
    <synapse sourceNeuronName = "1" targetNeuronName = "12" weight = "0.06908450487799755" />
    <synapse sourceNeuronName = "2" targetNeuronName = "5" weight = "-0.41004841156993455" />
    <synapse sourceNeuronName = "2" targetNeuronName = "6" weight = "-0.14160418909625805" />
    <synapse sourceNeuronName = "2" targetNeuronName = "7" weight = "0.33444428660663594" />
    <synapse sourceNeuronName = "2" targetNeuronName = "8" weight = "0.7575962093896289" />
    <synapse sourceNeuronName = "2" targetNeuronName = "9" weight = "-0.2650661875521374" />
    <synapse sourceNeuronName = "2" targetNeuronName = "10" weight = "-0.8038645230434183" />
    <synapse sourceNeuronName = "2" targetNeuronName = "11" weight = "0.3767555728725114" />
    <synapse sourceNeuronName = "2" targetNeuronName = "12" weight = "-0.4953620163393988" />
    <synapse sourceNeuronName = "3" targetNeuronName = "5" weight = "-0.26152673529245063" />
    <synapse sourceNeuronName = "3" targetNeuronName = "6" weight = "-0.003006813749832249" />
    <synapse sourceNeuronName = "3" targetNeuronName = "7" weight = "0.20810601620898117" />
    <synapse sourceNeuronName = "3" targetNeuronName = "8" weight = "-0.7464015585747286" />
    <synapse sourceNeuronName = "3" targetNeuronName = "9" weight = "0.9659946450425518" />
    <synapse sourceNeuronName = "3" targetNeuronName = "10" weight = "0.08944112817886962" />
    <synapse sourceNeuronName = "3" targetNeuronName = "11" weight = "-0.22507921281060583" />
    <synapse sourceNeuronName = "3" targetNeuronName = "12" weight = "-0.9819062566422763" />
    <synapse sourceNeuronName = "4" targetNeuronName = "5" weight = "0.8901747860571072" />
    <synapse sourceNeuronName = "4" targetNeuronName = "6" weight = "0.8083512652690037" />
    <synapse sourceNeuronName = "4" targetNeuronName = "7" weight = "0.2398929888684962" />
    <synapse sourceNeuronName = "4" targetNeuronName = "8" weight = "0.1583962190967243" />
    <synapse sourceNeuronName = "4" targetNeuronName = "9" weight = "0.40263514351729723" />
    <synapse sourceNeuronName = "4" targetNeuronName = "10" weight = "-0.32085466065083956" />
    <synapse sourceNeuronName = "4" targetNeuronName = "11" weight = "-0.5878993131873729" />
    <synapse sourceNeuronName = "4" targetNeuronName = "12" weight = "-0.5443984149716135" />
</neuralNetwork>