<neuralNetwork>
    <neuron name = "0" type = "sensor" linkName = "Link0" />
    <neuron name = "1" type = "sensor" linkName = "Link2" />
    <neuron name = "2" type = "sensor" linkName = "Link3" />
    <neuron name = "3" type = "sensor" linkName = "Link5" />
    <neuron name = "4" type = "sensor" linkName = "Link10" />
    <neuron name = "5" type = "motor"  jointName = "Link0_Link1" />
    <neuron name = "6" type = "motor"  jointName = "Link1_Link2" />
    <neuron name = "7" type = "motor"  jointName = "Link2_Link3" />
    <neuron name = "8" type = "motor"  jointName = "Link3_Link4" />
    <neuron name = "9" type = "motor"  jointName = "Link3_Link5" />
    <neuron name = "10" type = "motor"  jointName = "Link3_Link6" />
    <neuron name = "11" type = "motor"  jointName = "Link0_Link7" />
    <neuron name = "12" type = "motor"  jointName = "Link7_Link8" />
    <neuron name = "13" type = "motor"  jointName = "Link2_Link9" />
    <neuron name = "14" type = "motor"  jointName = "Link6_Link10" />
    <synapse sourceNeuronName = "0" targetNeuronName = "5" weight = "0.3499930444945012" />
    <synapse sourceNeuronName = "0" targetNeuronName = "6" weight = "0.9074463182991848" />
    <synapse sourceNeuronName = "0" targetNeuronName = "7" weight = "-0.985631649246248" />
    <synapse sourceNeuronName = "0" targetNeuronName = "8" weight = "0.8810652223793445" />
    <synapse sourceNeuronName = "0" targetNeuronName = "9" weight = "0.37183847321838503" />
    <synapse sourceNeuronName = "0" targetNeuronName = "10" weight = "-0.7866164253996824" />
    <synapse sourceNeuronName = "0" targetNeuronName = "11" weight = "-0.11361951076608268" />
    <synapse sourceNeuronName = "0" targetNeuronName = "12" weight = "0.3177648530218353" />
    <synapse sourceNeuronName = "0" targetNeuronName = "13" weight = "-0.1404631939903258" />
    <synapse sourceNeuronName = "0" targetNeuronName = "14" weight = "0.7137709706035356" />
    <synapse sourceNeuronName = "1" targetNeuronName = "5" weight = "-0.8168910382381065" />
    <synapse sourceNeuronName = "1" targetNeuronName = "6" weight = "0.4560083798992496" />
    <synapse sourceNeuronName = "1" targetNeuronName = "7" weight = "-0.3851842622211541" />
    <synapse sourceNeuronName = "1" targetNeuronName = "8" weight = "0.6476070083418433" />
    <synapse sourceNeuronName = "1" targetNeuronName = "9" weight = "0.10622526307284486" />
    <synapse sourceNeuronName = "1" targetNeuronName = "10" weight = "0.38316623869301103" />
    <synapse sourceNeuronName = "1" targetNeuronName = "11" weight = "0.24429410234258264" />
    <synapse sourceNeuronName = "1" targetNeuronName = "12" weight = "-0.14754751511336095" />
    <synapse sourceNeuronName = "1" targetNeuronName = "13" weight = "-0.531165349612428" />
    <synapse sourceNeuronName = "1" targetNeuronName = "14" weight = "-0.8119865623900864" />
    <synapse sourceNeuronName = "2" targetNeuronName = "5" weight = "0.08110025444681224" />
    <synapse sourceNeuronName = "2" targetNeuronName = "6" weight = "0.9729386186110649" />
    <synapse sourceNeuronName = "2" targetNeuronName = "7" weight = "-0.9017317612550642" />
    <synapse sourceNeuronName = "2" targetNeuronName = "8" weight = "-0.1367308917920409" />
    <synapse sourceNeuronName = "2" targetNeuronName = "9" weight = "-0.13184488754147639" />
    <synapse sourceNeuronName = "2" targetNeuronName = "10" weight = "-0.4624877020584579" />
    <synapse sourceNeuronName = "2" targetNeuronName = "11" weight = "0.7657741235944837" />
    <synapse sourceNeuronName = "2" targetNeuronName = "12" weight = "-0.4276529976016328" />
    <synapse sourceNeuronName = "2" targetNeuronName = "13" weight = "0.9415447667783527" />
    <synapse sourceNeuronName = "2" targetNeuronName = "14" weight = "-0.21228736226170963" />
    <synapse sourceNeuronName = "3" targetNeuronName = "5" weight = "-0.36672829368268034" />
    <synapse sourceNeuronName = "3" targetNeuronName = "6" weight = "-0.5187829272196112" />
    <synapse sourceNeuronName = "3" targetNeuronName = "7" weight = "0.8861394661848627" />
    <synapse sourceNeuronName = "3" targetNeuronName = "8" weight = "0.8907081785545827" />
    <synapse sourceNeuronName = "3" targetNeuronName = "9" weight = "-0.1535958287342034" />
    <synapse sourceNeuronName = "3" targetNeuronName = "10" weight = "-0.5040819887701411" />
    <synapse sourceNeuronName = "3" targetNeuronName = "11" weight = "0.03970427043260005" />
    <synapse sourceNeuronName = "3" targetNeuronName = "12" weight = "-0.6281073411332132" />
    <synapse sourceNeuronName = "3" targetNeuronName = "13" weight = "0.06058435072789092" />
    <synapse sourceNeuronName = "3" targetNeuronName = "14" weight = "-0.09841844869111194" />
    <synapse sourceNeuronName = "4" targetNeuronName = "5" weight = "-0.36257450880636144" />
    <synapse sourceNeuronName = "4" targetNeuronName = "6" weight = "0.3553186930577692" />
    <synapse sourceNeuronName = "4" targetNeuronName = "7" weight = "-0.4878031536788625" />
    <synapse sourceNeuronName = "4" targetNeuronName = "8" weight = "-0.5154676189862339" />
    <synapse sourceNeuronName = "4" targetNeuronName = "9" weight = "0.8675543127454655" />
    <synapse sourceNeuronName = "4" targetNeuronName = "10" weight = "0.8172120460508305" />
    <synapse sourceNeuronName = "4" targetNeuronName = "11" weight = "-0.9805926115098011" />
    <synapse sourceNeuronName = "4" targetNeuronName = "12" weight = "-0.4247785621114646" />
    <synapse sourceNeuronName = "4" targetNeuronName = "13" weight = "0.6724837094491509" />
    <synapse sourceNeuronName = "4" targetNeuronName = "14" weight = "-0.8185772209912832" />
</neuralNetwork>