<neuralNetwork>
    <neuron name = "0" type = "sensor" linkName = "Link0" />
    <neuron name = "1" type = "sensor" linkName = "Link2" />
    <neuron name = "2" type = "sensor" linkName = "Link5" />
    <neuron name = "3" type = "sensor" linkName = "Link6" />
    <neuron name = "4" type = "motor"  jointName = "Link0_Link1" />
    <neuron name = "5" type = "motor"  jointName = "Link1_Link2" />
    <neuron name = "6" type = "motor"  jointName = "Link0_Link3" />
    <neuron name = "7" type = "motor"  jointName = "Link1_Link4" />
    <neuron name = "8" type = "motor"  jointName = "Link3_Link5" />
    <neuron name = "9" type = "motor"  jointName = "Link5_Link6" />
    <synapse sourceNeuronName = "0" targetNeuronName = "4" weight = "-0.7814996285296278" />
    <synapse sourceNeuronName = "0" targetNeuronName = "5" weight = "0.9505292781835284" />
    <synapse sourceNeuronName = "0" targetNeuronName = "6" weight = "0.6795391356496279" />
    <synapse sourceNeuronName = "0" targetNeuronName = "7" weight = "-0.28625692493403143" />
    <synapse sourceNeuronName = "0" targetNeuronName = "8" weight = "-0.8856624681540393" />
    <synapse sourceNeuronName = "0" targetNeuronName = "9" weight = "0.30335242092322345" />
    <synapse sourceNeuronName = "1" targetNeuronName = "4" weight = "-0.04334248662738349" />
    <synapse sourceNeuronName = "1" targetNeuronName = "5" weight = "-0.3189139863908017" />
    <synapse sourceNeuronName = "1" targetNeuronName = "6" weight = "0.6459072591769766" />
    <synapse sourceNeuronName = "1" targetNeuronName = "7" weight = "-0.4071047990468273" />
    <synapse sourceNeuronName = "1" targetNeuronName = "8" weight = "-0.8757215857549361" />
    <synapse sourceNeuronName = "1" targetNeuronName = "9" weight = "-0.8430649414629248" />
    <synapse sourceNeuronName = "2" targetNeuronName = "4" weight = "-0.12160128945406345" />
    <synapse sourceNeuronName = "2" targetNeuronName = "5" weight = "-0.12368587034677803" />
    <synapse sourceNeuronName = "2" targetNeuronName = "6" weight = "-0.9859444903202137" />
    <synapse sourceNeuronName = "2" targetNeuronName = "7" weight = "0.579697595307161" />
    <synapse sourceNeuronName = "2" targetNeuronName = "8" weight = "-0.5162867885385505" />
    <synapse sourceNeuronName = "2" targetNeuronName = "9" weight = "0.43340374391702374" />
    <synapse sourceNeuronName = "3" targetNeuronName = "4" weight = "-0.15713926998319638" />
    <synapse sourceNeuronName = "3" targetNeuronName = "5" weight = "0.02921565782546831" />
    <synapse sourceNeuronName = "3" targetNeuronName = "6" weight = "-0.8191827402646461" />
    <synapse sourceNeuronName = "3" targetNeuronName = "7" weight = "0.7834276942454375" />
    <synapse sourceNeuronName = "3" targetNeuronName = "8" weight = "-0.214528838059185" />
    <synapse sourceNeuronName = "3" targetNeuronName = "9" weight = "0.6443335104648487" />
</neuralNetwork>