<neuralNetwork>
    <neuron name = "0" type = "sensor" linkName = "Link0" />
    <neuron name = "1" type = "sensor" linkName = "Link1" />
    <neuron name = "2" type = "sensor" linkName = "Link3" />
    <neuron name = "3" type = "sensor" linkName = "Link5" />
    <neuron name = "4" type = "sensor" linkName = "Link6" />
    <neuron name = "5" type = "motor"  jointName = "Link0_Link1" />
    <neuron name = "6" type = "motor"  jointName = "Link0_Link2" />
    <neuron name = "7" type = "motor"  jointName = "Link0_Link3" />
    <neuron name = "8" type = "motor"  jointName = "Link3_Link4" />
    <neuron name = "9" type = "motor"  jointName = "Link4_Link5" />
    <neuron name = "10" type = "motor"  jointName = "Link3_Link6" />
    <synapse sourceNeuronName = "0" targetNeuronName = "5" weight = "-0.32825888393658476" />
    <synapse sourceNeuronName = "0" targetNeuronName = "6" weight = "-0.052416901161857155" />
    <synapse sourceNeuronName = "0" targetNeuronName = "7" weight = "-0.2374093258067944" />
    <synapse sourceNeuronName = "0" targetNeuronName = "8" weight = "-0.6520025572743553" />
    <synapse sourceNeuronName = "0" targetNeuronName = "9" weight = "-0.8706169941416508" />
    <synapse sourceNeuronName = "0" targetNeuronName = "10" weight = "-0.4282997769729222" />
    <synapse sourceNeuronName = "1" targetNeuronName = "5" weight = "0.7586004243384703" />
    <synapse sourceNeuronName = "1" targetNeuronName = "6" weight = "0.4861946261395822" />
    <synapse sourceNeuronName = "1" targetNeuronName = "7" weight = "0.25223532997651854" />
    <synapse sourceNeuronName = "1" targetNeuronName = "8" weight = "0.2902418914643057" />
    <synapse sourceNeuronName = "1" targetNeuronName = "9" weight = "-0.21799469351576373" />
    <synapse sourceNeuronName = "1" targetNeuronName = "10" weight = "0.3514345606911895" />
    <synapse sourceNeuronName = "2" targetNeuronName = "5" weight = "0.31368529421451674" />
    <synapse sourceNeuronName = "2" targetNeuronName = "6" weight = "-0.5740612296868195" />
    <synapse sourceNeuronName = "2" targetNeuronName = "7" weight = "-0.5624494999880489" />
    <synapse sourceNeuronName = "2" targetNeuronName = "8" weight = "0.6978796943657997" />
    <synapse sourceNeuronName = "2" targetNeuronName = "9" weight = "0.2746686024392624" />
    <synapse sourceNeuronName = "2" targetNeuronName = "10" weight = "-0.3670639544709027" />
    <synapse sourceNeuronName = "3" targetNeuronName = "5" weight = "-0.053258673471187956" />
    <synapse sourceNeuronName = "3" targetNeuronName = "6" weight = "0.7226801941108072" />
    <synapse sourceNeuronName = "3" targetNeuronName = "7" weight = "0.11941528463575746" />
    <synapse sourceNeuronName = "3" targetNeuronName = "8" weight = "0.2767657873597722" />
    <synapse sourceNeuronName = "3" targetNeuronName = "9" weight = "0.2600161576682847" />
    <synapse sourceNeuronName = "3" targetNeuronName = "10" weight = "-0.43709367377419595" />
    <synapse sourceNeuronName = "4" targetNeuronName = "5" weight = "0.3642604244237806" />
    <synapse sourceNeuronName = "4" targetNeuronName = "6" weight = "-0.12512699440148034" />
    <synapse sourceNeuronName = "4" targetNeuronName = "7" weight = "0.6717529144751111" />
    <synapse sourceNeuronName = "4" targetNeuronName = "8" weight = "0.9639828601167049" />
    <synapse sourceNeuronName = "4" targetNeuronName = "9" weight = "-0.1761971617965672" />
    <synapse sourceNeuronName = "4" targetNeuronName = "10" weight = "0.23066754423551394" />
</neuralNetwork>