<neuralNetwork>
    <neuron name = "0" type = "sensor" linkName = "Link0" />
    <neuron name = "1" type = "sensor" linkName = "Link1" />
    <neuron name = "2" type = "sensor" linkName = "Link3" />
    <neuron name = "3" type = "sensor" linkName = "Link4" />
    <neuron name = "4" type = "sensor" linkName = "Link5" />
    <neuron name = "5" type = "motor"  jointName = "Link0_Link1" />
    <neuron name = "6" type = "motor"  jointName = "Link1_Link2" />
    <neuron name = "7" type = "motor"  jointName = "Link1_Link3" />
    <neuron name = "8" type = "motor"  jointName = "Link1_Link4" />
    <neuron name = "9" type = "motor"  jointName = "Link4_Link5" />
    <neuron name = "10" type = "motor"  jointName = "Link4_Link6" />
    <synapse sourceNeuronName = "0" targetNeuronName = "5" weight = "0.13801031483709014" />
    <synapse sourceNeuronName = "0" targetNeuronName = "6" weight = "-0.69576409089452" />
    <synapse sourceNeuronName = "0" targetNeuronName = "7" weight = "-0.6601001793941192" />
    <synapse sourceNeuronName = "0" targetNeuronName = "8" weight = "0.9745784206354051" />
    <synapse sourceNeuronName = "0" targetNeuronName = "9" weight = "-0.570541165605734" />
    <synapse sourceNeuronName = "0" targetNeuronName = "10" weight = "0.42244297910662953" />
    <synapse sourceNeuronName = "1" targetNeuronName = "5" weight = "-0.6556641581036049" />
    <synapse sourceNeuronName = "1" targetNeuronName = "6" weight = "-0.0701585210374096" />
    <synapse sourceNeuronName = "1" targetNeuronName = "7" weight = "0.12141443892171311" />
    <synapse sourceNeuronName = "1" targetNeuronName = "8" weight = "0.09718385438607458" />
    <synapse sourceNeuronName = "1" targetNeuronName = "9" weight = "0.8788761635925018" />
    <synapse sourceNeuronName = "1" targetNeuronName = "10" weight = "-0.21848912369382445" />
    <synapse sourceNeuronName = "2" targetNeuronName = "5" weight = "0.7498209339673332" />
    <synapse sourceNeuronName = "2" targetNeuronName = "6" weight = "0.6241825086579023" />
    <synapse sourceNeuronName = "2" targetNeuronName = "7" weight = "0.5741012929866063" />
    <synapse sourceNeuronName = "2" targetNeuronName = "8" weight = "-0.10279376483419678" />
    <synapse sourceNeuronName = "2" targetNeuronName = "9" weight = "-0.42037146715685414" />
    <synapse sourceNeuronName = "2" targetNeuronName = "10" weight = "0.7360182376368347" />
    <synapse sourceNeuronName = "3" targetNeuronName = "5" weight = "0.058325799989243476" />
    <synapse sourceNeuronName = "3" targetNeuronName = "6" weight = "-0.11948094262676556" />
    <synapse sourceNeuronName = "3" targetNeuronName = "7" weight = "0.9548430830741201" />
    <synapse sourceNeuronName = "3" targetNeuronName = "8" weight = "-0.2142897157572321" />
    <synapse sourceNeuronName = "3" targetNeuronName = "9" weight = "0.8606522910182057" />
    <synapse sourceNeuronName = "3" targetNeuronName = "10" weight = "-0.5614654355683788" />
    <synapse sourceNeuronName = "4" targetNeuronName = "5" weight = "0.6226312762713331" />
    <synapse sourceNeuronName = "4" targetNeuronName = "6" weight = "0.6561938494478501" />
    <synapse sourceNeuronName = "4" targetNeuronName = "7" weight = "0.05804775773954818" />
    <synapse sourceNeuronName = "4" targetNeuronName = "8" weight = "0.5979142223229297" />
    <synapse sourceNeuronName = "4" targetNeuronName = "9" weight = "-0.716308239372768" />
    <synapse sourceNeuronName = "4" targetNeuronName = "10" weight = "0.17494381854861385" />
</neuralNetwork>