<neuralNetwork>
    <neuron name = "0" type = "sensor" linkName = "Link1" />
    <neuron name = "1" type = "sensor" linkName = "Link2" />
    <neuron name = "2" type = "sensor" linkName = "Link3" />
    <neuron name = "3" type = "sensor" linkName = "Link6" />
    <neuron name = "4" type = "sensor" linkName = "Link9" />
    <neuron name = "5" type = "motor"  jointName = "Link0_Link1" />
    <neuron name = "6" type = "motor"  jointName = "Link0_Link2" />
    <neuron name = "7" type = "motor"  jointName = "Link1_Link3" />
    <neuron name = "8" type = "motor"  jointName = "Link3_Link4" />
    <neuron name = "9" type = "motor"  jointName = "Link1_Link5" />
    <neuron name = "10" type = "motor"  jointName = "Link1_Link6" />
    <neuron name = "11" type = "motor"  jointName = "Link3_Link7" />
    <neuron name = "12" type = "motor"  jointName = "Link5_Link8" />
    <neuron name = "13" type = "motor"  jointName = "Link7_Link9" />
    <synapse sourceNeuronName = "0" targetNeuronName = "5" weight = "0.4121952258995938" />
    <synapse sourceNeuronName = "0" targetNeuronName = "6" weight = "0.5835532269089101" />
    <synapse sourceNeuronName = "0" targetNeuronName = "7" weight = "-0.3043622153991157" />
    <synapse sourceNeuronName = "0" targetNeuronName = "8" weight = "0.21435618091880126" />
    <synapse sourceNeuronName = "0" targetNeuronName = "9" weight = "0.49837638163997133" />
    <synapse sourceNeuronName = "0" targetNeuronName = "10" weight = "-0.08208908592492015" />
    <synapse sourceNeuronName = "0" targetNeuronName = "11" weight = "0.7291201757584012" />
    <synapse sourceNeuronName = "0" targetNeuronName = "12" weight = "-0.8595514539429714" />
    <synapse sourceNeuronName = "0" targetNeuronName = "13" weight = "-0.21934641870557736" />
    <synapse sourceNeuronName = "1" targetNeuronName = "5" weight = "0.5196829386285631" />
    <synapse sourceNeuronName = "1" targetNeuronName = "6" weight = "0.8731883866740417" />
    <synapse sourceNeuronName = "1" targetNeuronName = "7" weight = "0.8779072221251603" />
    <synapse sourceNeuronName = "1" targetNeuronName = "8" weight = "-0.44786286983463164" />
    <synapse sourceNeuronName = "1" targetNeuronName = "9" weight = "0.43284427275553683" />
    <synapse sourceNeuronName = "1" targetNeuronName = "10" weight = "-0.8107451246671973" />
    <synapse sourceNeuronName = "1" targetNeuronName = "11" weight = "0.09181376205147362" />
    <synapse sourceNeuronName = "1" targetNeuronName = "12" weight = "-0.12037925146801642" />
    <synapse sourceNeuronName = "1" targetNeuronName = "13" weight = "-0.2503060645857429" />
    <synapse sourceNeuronName = "2" targetNeuronName = "5" weight = "-0.9533619752619407" />
    <synapse sourceNeuronName = "2" targetNeuronName = "6" weight = "-0.12096095575624743" />
    <synapse sourceNeuronName = "2" targetNeuronName = "7" weight = "0.9884256992439673" />
    <synapse sourceNeuronName = "2" targetNeuronName = "8" weight = "0.5382397792000944" />
    <synapse sourceNeuronName = "2" targetNeuronName = "9" weight = "0.5216518298343082" />
    <synapse sourceNeuronName = "2" targetNeuronName = "10" weight = "-0.09312890569660093" />
    <synapse sourceNeuronName = "2" targetNeuronName = "11" weight = "0.006238463963114782" />
    <synapse sourceNeuronName = "2" targetNeuronName = "12" weight = "0.9875873355999156" />
    <synapse sourceNeuronName = "2" targetNeuronName = "13" weight = "0.1353731238141429" />
    <synapse sourceNeuronName = "3" targetNeuronName = "5" weight = "-0.6095118331931142" />
    <synapse sourceNeuronName = "3" targetNeuronName = "6" weight = "0.2611946763427442" />
    <synapse sourceNeuronName = "3" targetNeuronName = "7" weight = "0.13999820804311103" />
    <synapse sourceNeuronName = "3" targetNeuronName = "8" weight = "0.8533027275363565" />
    <synapse sourceNeuronName = "3" targetNeuronName = "9" weight = "-0.7965650164211753" />
    <synapse sourceNeuronName = "3" targetNeuronName = "10" weight = "-0.014686056396352676" />
    <synapse sourceNeuronName = "3" targetNeuronName = "11" weight = "-0.5991598951865804" />
    <synapse sourceNeuronName = "3" targetNeuronName = "12" weight = "-0.1841530249339478" />
    <synapse sourceNeuronName = "3" targetNeuronName = "13" weight = "-0.7262906644135763" />
    <synapse sourceNeuronName = "4" targetNeuronName = "5" weight = "0.2017282929388764" />
    <synapse sourceNeuronName = "4" targetNeuronName = "6" weight = "0.9569192807711873" />
    <synapse sourceNeuronName = "4" targetNeuronName = "7" weight = "0.5676233194165641" />
    <synapse sourceNeuronName = "4" targetNeuronName = "8" weight = "-0.5475855146426245" />
    <synapse sourceNeuronName = "4" targetNeuronName = "9" weight = "-0.8074270977176754" />
    <synapse sourceNeuronName = "4" targetNeuronName = "10" weight = "0.09341809583029592" />
    <synapse sourceNeuronName = "4" targetNeuronName = "11" weight = "0.5286027317160531" />
    <synapse sourceNeuronName = "4" targetNeuronName = "12" weight = "-0.381699307005406" />
    <synapse sourceNeuronName = "4" targetNeuronName = "13" weight = "0.7336640884404748" />
</neuralNetwork>