<neuralNetwork>
    <neuron name = "0" type = "sensor" linkName = "Link0" />
    <neuron name = "1" type = "sensor" linkName = "Link1" />
    <neuron name = "2" type = "sensor" linkName = "Link3" />
    <neuron name = "3" type = "sensor" linkName = "Link4" />
    <neuron name = "4" type = "sensor" linkName = "Link5" />
    <neuron name = "5" type = "motor"  jointName = "Link0_Link1" />
    <neuron name = "6" type = "motor"  jointName = "Link1_Link2" />
    <neuron name = "7" type = "motor"  jointName = "Link1_Link3" />
    <neuron name = "8" type = "motor"  jointName = "Link1_Link4" />
    <neuron name = "9" type = "motor"  jointName = "Link4_Link5" />
    <neuron name = "10" type = "motor"  jointName = "Link4_Link6" />
    <synapse sourceNeuronName = "0" targetNeuronName = "5" weight = "-0.08122624363369657" />
    <synapse sourceNeuronName = "0" targetNeuronName = "6" weight = "0.3228438121477153" />
    <synapse sourceNeuronName = "0" targetNeuronName = "7" weight = "-0.4265994546141887" />
    <synapse sourceNeuronName = "0" targetNeuronName = "8" weight = "0.962193243397294" />
    <synapse sourceNeuronName = "0" targetNeuronName = "9" weight = "-0.3175378999837952" />
    <synapse sourceNeuronName = "0" targetNeuronName = "10" weight = "0.12946497253978806" />
    <synapse sourceNeuronName = "1" targetNeuronName = "5" weight = "-0.7404342004848223" />
    <synapse sourceNeuronName = "1" targetNeuronName = "6" weight = "0.29438575505326114" />
    <synapse sourceNeuronName = "1" targetNeuronName = "7" weight = "0.09696058650736106" />
    <synapse sourceNeuronName = "1" targetNeuronName = "8" weight = "0.5150309662864623" />
    <synapse sourceNeuronName = "1" targetNeuronName = "9" weight = "-0.5997352262719242" />
    <synapse sourceNeuronName = "1" targetNeuronName = "10" weight = "-0.024763479693944657" />
    <synapse sourceNeuronName = "2" targetNeuronName = "5" weight = "-0.16324428519113265" />
    <synapse sourceNeuronName = "2" targetNeuronName = "6" weight = "0.9507150139071385" />
    <synapse sourceNeuronName = "2" targetNeuronName = "7" weight = "-0.21204164410973214" />
    <synapse sourceNeuronName = "2" targetNeuronName = "8" weight = "-0.21263096656345937" />
    <synapse sourceNeuronName = "2" targetNeuronName = "9" weight = "0.8289320903702599" />
    <synapse sourceNeuronName = "2" targetNeuronName = "10" weight = "-0.3305598750699883" />
    <synapse sourceNeuronName = "3" targetNeuronName = "5" weight = "-0.31652628187828014" />
    <synapse sourceNeuronName = "3" targetNeuronName = "6" weight = "0.8508132180626244" />
    <synapse sourceNeuronName = "3" targetNeuronName = "7" weight = "-0.8641359678568734" />
    <synapse sourceNeuronName = "3" targetNeuronName = "8" weight = "0.34285099402388997" />
    <synapse sourceNeuronName = "3" targetNeuronName = "9" weight = "-0.8287442876580791" />
    <synapse sourceNeuronName = "3" targetNeuronName = "10" weight = "-0.31074057590983806" />
    <synapse sourceNeuronName = "4" targetNeuronName = "5" weight = "-0.8493938124223761" />
    <synapse sourceNeuronName = "4" targetNeuronName = "6" weight = "-0.1990666907606531" />
    <synapse sourceNeuronName = "4" targetNeuronName = "7" weight = "-0.3591699101572772" />
    <synapse sourceNeuronName = "4" targetNeuronName = "8" weight = "0.4566045131002068" />
    <synapse sourceNeuronName = "4" targetNeuronName = "9" weight = "-0.7015549527625031" />
    <synapse sourceNeuronName = "4" targetNeuronName = "10" weight = "0.8223251398627311" />
</neuralNetwork>