<neuralNetwork>
    <neuron name = "0" type = "sensor" linkName = "Link0" />
    <neuron name = "1" type = "sensor" linkName = "Link1" />
    <neuron name = "2" type = "sensor" linkName = "Link3" />
    <neuron name = "3" type = "sensor" linkName = "Link5" />
    <neuron name = "4" type = "motor"  jointName = "Link0_Link1" />
    <neuron name = "5" type = "motor"  jointName = "Link0_Link2" />
    <neuron name = "6" type = "motor"  jointName = "Link0_Link3" />
    <neuron name = "7" type = "motor"  jointName = "Link3_Link4" />
    <neuron name = "8" type = "motor"  jointName = "Link4_Link5" />
    <neuron name = "9" type = "motor"  jointName = "Link4_Link6" />
    <synapse sourceNeuronName = "0" targetNeuronName = "4" weight = "0.2314100470072855" />
    <synapse sourceNeuronName = "0" targetNeuronName = "5" weight = "-0.31619693037389807" />
    <synapse sourceNeuronName = "0" targetNeuronName = "6" weight = "0.8556457986976953" />
    <synapse sourceNeuronName = "0" targetNeuronName = "7" weight = "0.46676656770817226" />
    <synapse sourceNeuronName = "0" targetNeuronName = "8" weight = "0.0483339375133911" />
    <synapse sourceNeuronName = "0" targetNeuronName = "9" weight = "0.5765027577087496" />
    <synapse sourceNeuronName = "1" targetNeuronName = "4" weight = "0.422420989422746" />
    <synapse sourceNeuronName = "1" targetNeuronName = "5" weight = "-0.5310412719771052" />
    <synapse sourceNeuronName = "1" targetNeuronName = "6" weight = "0.7405949991627376" />
    <synapse sourceNeuronName = "1" targetNeuronName = "7" weight = "0.5904554611124357" />
    <synapse sourceNeuronName = "1" targetNeuronName = "8" weight = "0.2794189534113587" />
    <synapse sourceNeuronName = "1" targetNeuronName = "9" weight = "0.27491389619912154" />
    <synapse sourceNeuronName = "2" targetNeuronName = "4" weight = "0.5434274266192574" />
    <synapse sourceNeuronName = "2" targetNeuronName = "5" weight = "-0.9414788797598537" />
    <synapse sourceNeuronName = "2" targetNeuronName = "6" weight = "-0.9132605814264745" />
    <synapse sourceNeuronName = "2" targetNeuronName = "7" weight = "-0.18097435888504343" />
    <synapse sourceNeuronName = "2" targetNeuronName = "8" weight = "0.5555593326220396" />
    <synapse sourceNeuronName = "2" targetNeuronName = "9" weight = "-0.7136170073104762" />
    <synapse sourceNeuronName = "3" targetNeuronName = "4" weight = "-0.6477567336149437" />
    <synapse sourceNeuronName = "3" targetNeuronName = "5" weight = "-0.10989822898506452" />
    <synapse sourceNeuronName = "3" targetNeuronName = "6" weight = "-0.8601928688836806" />
    <synapse sourceNeuronName = "3" targetNeuronName = "7" weight = "0.8411979835834897" />
    <synapse sourceNeuronName = "3" targetNeuronName = "8" weight = "-0.6651161399280237" />
    <synapse sourceNeuronName = "3" targetNeuronName = "9" weight = "-0.2658205823090918" />
</neuralNetwork>