<neuralNetwork>
    <neuron name = "0" type = "sensor" linkName = "Link1" />
    <neuron name = "1" type = "sensor" linkName = "Link2" />
    <neuron name = "2" type = "sensor" linkName = "Link6" />
    <neuron name = "3" type = "motor"  jointName = "Link0_Link1" />
    <neuron name = "4" type = "motor"  jointName = "Link1_Link2" />
    <neuron name = "5" type = "motor"  jointName = "Link0_Link3" />
    <neuron name = "6" type = "motor"  jointName = "Link0_Link4" />
    <neuron name = "7" type = "motor"  jointName = "Link4_Link5" />
    <neuron name = "8" type = "motor"  jointName = "Link1_Link6" />
    <neuron name = "9" type = "motor"  jointName = "Link4_Link7" />
    <neuron name = "10" type = "motor"  jointName = "Link7_Link8" />
    <synapse sourceNeuronName = "0" targetNeuronName = "3" weight = "0.4085421572846262" />
    <synapse sourceNeuronName = "0" targetNeuronName = "4" weight = "0.404598858044257" />
    <synapse sourceNeuronName = "0" targetNeuronName = "5" weight = "0.601373021323826" />
    <synapse sourceNeuronName = "0" targetNeuronName = "6" weight = "0.5788066699481706" />
    <synapse sourceNeuronName = "0" targetNeuronName = "7" weight = "0.5614038719227801" />
    <synapse sourceNeuronName = "0" targetNeuronName = "8" weight = "0.8721595711401602" />
    <synapse sourceNeuronName = "0" targetNeuronName = "9" weight = "0.6501890941344672" />
    <synapse sourceNeuronName = "0" targetNeuronName = "10" weight = "0.3096245525854897" />
    <synapse sourceNeuronName = "1" targetNeuronName = "3" weight = "-0.26965544378891515" />
    <synapse sourceNeuronName = "1" targetNeuronName = "4" weight = "-0.3336572284449202" />
    <synapse sourceNeuronName = "1" targetNeuronName = "5" weight = "0.09567031454451014" />
    <synapse sourceNeuronName = "1" targetNeuronName = "6" weight = "-0.8842638812934875" />
    <synapse sourceNeuronName = "1" targetNeuronName = "7" weight = "0.3759466396646005" />
    <synapse sourceNeuronName = "1" targetNeuronName = "8" weight = "-0.29288020625730016" />
    <synapse sourceNeuronName = "1" targetNeuronName = "9" weight = "-0.09560641189876695" />
    <synapse sourceNeuronName = "1" targetNeuronName = "10" weight = "-0.3610251436271714" />
    <synapse sourceNeuronName = "2" targetNeuronName = "3" weight = "0.9953643896781019" />
    <synapse sourceNeuronName = "2" targetNeuronName = "4" weight = "0.3221007104098972" />
    <synapse sourceNeuronName = "2" targetNeuronName = "5" weight = "-0.6558975058237029" />
    <synapse sourceNeuronName = "2" targetNeuronName = "6" weight = "-0.4187608459853327" />
    <synapse sourceNeuronName = "2" targetNeuronName = "7" weight = "-0.8249620626863132" />
    <synapse sourceNeuronName = "2" targetNeuronName = "8" weight = "-0.5041429228295435" />
    <synapse sourceNeuronName = "2" targetNeuronName = "9" weight = "0.08582537969037407" />
    <synapse sourceNeuronName = "2" targetNeuronName = "10" weight = "0.5668105967976858" />
</neuralNetwork>