<neuralNetwork>
    <neuron name = "0" type = "sensor" linkName = "Link0" />
    <neuron name = "1" type = "sensor" linkName = "Link2" />
    <neuron name = "2" type = "sensor" linkName = "Link3" />
    <neuron name = "3" type = "sensor" linkName = "Link5" />
    <neuron name = "4" type = "sensor" linkName = "Link10" />
    <neuron name = "5" type = "motor"  jointName = "Link0_Link1" />
    <neuron name = "6" type = "motor"  jointName = "Link1_Link2" />
    <neuron name = "7" type = "motor"  jointName = "Link2_Link3" />
    <neuron name = "8" type = "motor"  jointName = "Link3_Link4" />
    <neuron name = "9" type = "motor"  jointName = "Link3_Link5" />
    <neuron name = "10" type = "motor"  jointName = "Link3_Link6" />
    <neuron name = "11" type = "motor"  jointName = "Link0_Link7" />
    <neuron name = "12" type = "motor"  jointName = "Link7_Link8" />
    <neuron name = "13" type = "motor"  jointName = "Link2_Link9" />
    <neuron name = "14" type = "motor"  jointName = "Link6_Link10" />
    <synapse sourceNeuronName = "0" targetNeuronName = "5" weight = "0.39367717831134175" />
    <synapse sourceNeuronName = "0" targetNeuronName = "6" weight = "-0.50341297098542" />
    <synapse sourceNeuronName = "0" targetNeuronName = "7" weight = "-0.6624953953180721" />
    <synapse sourceNeuronName = "0" targetNeuronName = "8" weight = "-0.4616544032001759" />
    <synapse sourceNeuronName = "0" targetNeuronName = "9" weight = "-0.7926365898684022" />
    <synapse sourceNeuronName = "0" targetNeuronName = "10" weight = "0.8536185490607533" />
    <synapse sourceNeuronName = "0" targetNeuronName = "11" weight = "-0.6156730948896036" />
    <synapse sourceNeuronName = "0" targetNeuronName = "12" weight = "-0.3119553260497827" />
    <synapse sourceNeuronName = "0" targetNeuronName = "13" weight = "-0.6506938138324168" />
    <synapse sourceNeuronName = "0" targetNeuronName = "14" weight = "-0.47270415663280674" />
    <synapse sourceNeuronName = "1" targetNeuronName = "5" weight = "-0.45270242903877755" />
    <synapse sourceNeuronName = "1" targetNeuronName = "6" weight = "-0.09058816917626622" />
    <synapse sourceNeuronName = "1" targetNeuronName = "7" weight = "-0.0560703148306021" />
    <synapse sourceNeuronName = "1" targetNeuronName = "8" weight = "0.966218491645453" />
    <synapse sourceNeuronName = "1" targetNeuronName = "9" weight = "-0.42181133155222605" />
    <synapse sourceNeuronName = "1" targetNeuronName = "10" weight = "0.8168211414756674" />
    <synapse sourceNeuronName = "1" targetNeuronName = "11" weight = "0.23266633493545474" />
    <synapse sourceNeuronName = "1" targetNeuronName = "12" weight = "0.5873281012335818" />
    <synapse sourceNeuronName = "1" targetNeuronName = "13" weight = "-0.033716843833992316" />
    <synapse sourceNeuronName = "1" targetNeuronName = "14" weight = "0.19200990749362568" />
    <synapse sourceNeuronName = "2" targetNeuronName = "5" weight = "0.39692339261657406" />
    <synapse sourceNeuronName = "2" targetNeuronName = "6" weight = "-0.3649826290174927" />
    <synapse sourceNeuronName = "2" targetNeuronName = "7" weight = "-0.25235253534378055" />
    <synapse sourceNeuronName = "2" targetNeuronName = "8" weight = "-0.018335235545518636" />
    <synapse sourceNeuronName = "2" targetNeuronName = "9" weight = "-0.8406234128851304" />
    <synapse sourceNeuronName = "2" targetNeuronName = "10" weight = "-0.8783956910190196" />
    <synapse sourceNeuronName = "2" targetNeuronName = "11" weight = "-0.05744221819823947" />
    <synapse sourceNeuronName = "2" targetNeuronName = "12" weight = "-0.7138348564732377" />
    <synapse sourceNeuronName = "2" targetNeuronName = "13" weight = "0.9630311266585088" />
    <synapse sourceNeuronName = "2" targetNeuronName = "14" weight = "-0.06028694558625758" />
    <synapse sourceNeuronName = "3" targetNeuronName = "5" weight = "-0.35306458258140516" />
    <synapse sourceNeuronName = "3" targetNeuronName = "6" weight = "0.703437236439866" />
    <synapse sourceNeuronName = "3" targetNeuronName = "7" weight = "0.12415053050646185" />
    <synapse sourceNeuronName = "3" targetNeuronName = "8" weight = "-0.14057583382785088" />
    <synapse sourceNeuronName = "3" targetNeuronName = "9" weight = "-0.7578148909705451" />
    <synapse sourceNeuronName = "3" targetNeuronName = "10" weight = "-0.970495927969073" />
    <synapse sourceNeuronName = "3" targetNeuronName = "11" weight = "0.19504507658704306" />
    <synapse sourceNeuronName = "3" targetNeuronName = "12" weight = "0.35191135261279705" />
    <synapse sourceNeuronName = "3" targetNeuronName = "13" weight = "-0.8130006387392628" />
    <synapse sourceNeuronName = "3" targetNeuronName = "14" weight = "0.9616929702734591" />
    <synapse sourceNeuronName = "4" targetNeuronName = "5" weight = "-0.9913031366295622" />
    <synapse sourceNeuronName = "4" targetNeuronName = "6" weight = "-0.7237558604670224" />
    <synapse sourceNeuronName = "4" targetNeuronName = "7" weight = "-0.21870206521514235" />
    <synapse sourceNeuronName = "4" targetNeuronName = "8" weight = "0.18675844288690757" />
    <synapse sourceNeuronName = "4" targetNeuronName = "9" weight = "0.24520495874963877" />
    <synapse sourceNeuronName = "4" targetNeuronName = "10" weight = "-0.058159724133232116" />
    <synapse sourceNeuronName = "4" targetNeuronName = "11" weight = "-0.3006115796540283" />
    <synapse sourceNeuronName = "4" targetNeuronName = "12" weight = "0.15323952140421082" />
    <synapse sourceNeuronName = "4" targetNeuronName = "13" weight = "0.6897050125818625" />
    <synapse sourceNeuronName = "4" targetNeuronName = "14" weight = "-0.3979149253203156" />
</neuralNetwork>