<neuralNetwork>
    <neuron name = "0" type = "sensor" linkName = "Link0" />
    <neuron name = "1" type = "sensor" linkName = "Link1" />
    <neuron name = "2" type = "sensor" linkName = "Link3" />
    <neuron name = "3" type = "sensor" linkName = "Link5" />
    <neuron name = "4" type = "motor"  jointName = "Link0_Link1" />
    <neuron name = "5" type = "motor"  jointName = "Link0_Link2" />
    <neuron name = "6" type = "motor"  jointName = "Link0_Link3" />
    <neuron name = "7" type = "motor"  jointName = "Link3_Link4" />
    <neuron name = "8" type = "motor"  jointName = "Link4_Link5" />
    <synapse sourceNeuronName = "0" targetNeuronName = "4" weight = "-0.0937413837899077" />
    <synapse sourceNeuronName = "0" targetNeuronName = "5" weight = "-0.22682344152327838" />
    <synapse sourceNeuronName = "0" targetNeuronName = "6" weight = "-0.6756581014995435" />
    <synapse sourceNeuronName = "0" targetNeuronName = "7" weight = "-0.9162389749423598" />
    <synapse sourceNeuronName = "0" targetNeuronName = "8" weight = "0.5086693838926808" />
    <synapse sourceNeuronName = "1" targetNeuronName = "4" weight = "-0.8168689502198319" />
    <synapse sourceNeuronName = "1" targetNeuronName = "5" weight = "-0.8403055249098725" />
    <synapse sourceNeuronName = "1" targetNeuronName = "6" weight = "-0.17178055603923514" />
    <synapse sourceNeuronName = "1" targetNeuronName = "7" weight = "-0.6765537298543403" />
    <synapse sourceNeuronName = "1" targetNeuronName = "8" weight = "0.37491908116353767" />
    <synapse sourceNeuronName = "2" targetNeuronName = "4" weight = "0.14850728153349047" />
    <synapse sourceNeuronName = "2" targetNeuronName = "5" weight = "-0.13831071849650312" />
    <synapse sourceNeuronName = "2" targetNeuronName = "6" weight = "-0.3864396180636376" />
    <synapse sourceNeuronName = "2" targetNeuronName = "7" weight = "0.23069047423938138" />
    <synapse sourceNeuronName = "2" targetNeuronName = "8" weight = "-0.9347224331494972" />
    <synapse sourceNeuronName = "3" targetNeuronName = "4" weight = "0.2314828411534786" />
    <synapse sourceNeuronName = "3" targetNeuronName = "5" weight = "-0.9349755582473478" />
    <synapse sourceNeuronName = "3" targetNeuronName = "6" weight = "-0.33620487137612987" />
    <synapse sourceNeuronName = "3" targetNeuronName = "7" weight = "0.809206292449411" />
    <synapse sourceNeuronName = "3" targetNeuronName = "8" weight = "0.7919632317645946" />
</neuralNetwork>