<neuralNetwork>
    <neuron name = "0" type = "sensor" linkName = "Link0" />
    <neuron name = "1" type = "sensor" linkName = "Link2" />
    <neuron name = "2" type = "sensor" linkName = "Link5" />
    <neuron name = "3" type = "sensor" linkName = "Link6" />
    <neuron name = "4" type = "sensor" linkName = "Link7" />
    <neuron name = "5" type = "motor"  jointName = "Link0_Link1" />
    <neuron name = "6" type = "motor"  jointName = "Link1_Link2" />
    <neuron name = "7" type = "motor"  jointName = "Link0_Link3" />
    <neuron name = "8" type = "motor"  jointName = "Link1_Link4" />
    <neuron name = "9" type = "motor"  jointName = "Link4_Link5" />
    <neuron name = "10" type = "motor"  jointName = "Link3_Link6" />
    <neuron name = "11" type = "motor"  jointName = "Link6_Link7" />
    <synapse sourceNeuronName = "0" targetNeuronName = "5" weight = "0.8564877805386983" />
    <synapse sourceNeuronName = "0" targetNeuronName = "6" weight = "-0.1627859102054945" />
    <synapse sourceNeuronName = "0" targetNeuronName = "7" weight = "-0.4266689492856903" />
    <synapse sourceNeuronName = "0" targetNeuronName = "8" weight = "-0.8009462031899621" />
    <synapse sourceNeuronName = "0" targetNeuronName = "9" weight = "0.1586122719092482" />
    <synapse sourceNeuronName = "0" targetNeuronName = "10" weight = "-0.0022349329280710872" />
    <synapse sourceNeuronName = "0" targetNeuronName = "11" weight = "-0.6546503948647366" />
    <synapse sourceNeuronName = "1" targetNeuronName = "5" weight = "-0.374067621593267" />
    <synapse sourceNeuronName = "1" targetNeuronName = "6" weight = "-0.36941311763358997" />
    <synapse sourceNeuronName = "1" targetNeuronName = "7" weight = "0.0057726801712791875" />
    <synapse sourceNeuronName = "1" targetNeuronName = "8" weight = "-0.477239323783639" />
    <synapse sourceNeuronName = "1" targetNeuronName = "9" weight = "-0.6476811460260294" />
    <synapse sourceNeuronName = "1" targetNeuronName = "10" weight = "-0.8549958629648491" />
    <synapse sourceNeuronName = "1" targetNeuronName = "11" weight = "0.42246518552710843" />
    <synapse sourceNeuronName = "2" targetNeuronName = "5" weight = "-0.16416438599112482" />
    <synapse sourceNeuronName = "2" targetNeuronName = "6" weight = "-0.15611223624369686" />
    <synapse sourceNeuronName = "2" targetNeuronName = "7" weight = "-0.09955609882507988" />
    <synapse sourceNeuronName = "2" targetNeuronName = "8" weight = "-0.9840515197333282" />
    <synapse sourceNeuronName = "2" targetNeuronName = "9" weight = "-0.3890478331589695" />
    <synapse sourceNeuronName = "2" targetNeuronName = "10" weight = "0.22505345181074365" />
    <synapse sourceNeuronName = "2" targetNeuronName = "11" weight = "-0.4203213902682412" />
    <synapse sourceNeuronName = "3" targetNeuronName = "5" weight = "0.19741412191645513" />
    <synapse sourceNeuronName = "3" targetNeuronName = "6" weight = "-0.022268786087182635" />
    <synapse sourceNeuronName = "3" targetNeuronName = "7" weight = "-0.8932321357167667" />
    <synapse sourceNeuronName = "3" targetNeuronName = "8" weight = "-0.8930092439139774" />
    <synapse sourceNeuronName = "3" targetNeuronName = "9" weight = "-0.2780280720139574" />
    <synapse sourceNeuronName = "3" targetNeuronName = "10" weight = "0.7548261025184524" />
    <synapse sourceNeuronName = "3" targetNeuronName = "11" weight = "-0.5760735262420409" />
    <synapse sourceNeuronName = "4" targetNeuronName = "5" weight = "-0.5841157293353927" />
    <synapse sourceNeuronName = "4" targetNeuronName = "6" weight = "-0.09725531853731684" />
    <synapse sourceNeuronName = "4" targetNeuronName = "7" weight = "-0.7680471727052121" />
    <synapse sourceNeuronName = "4" targetNeuronName = "8" weight = "-0.9658402394419909" />
    <synapse sourceNeuronName = "4" targetNeuronName = "9" weight = "-0.18866626429844224" />
    <synapse sourceNeuronName = "4" targetNeuronName = "10" weight = "0.887478722232599" />
    <synapse sourceNeuronName = "4" targetNeuronName = "11" weight = "-0.552055598484448" />
</neuralNetwork>