<neuralNetwork>
    <neuron name = "0" type = "sensor" linkName = "Link1" />
    <neuron name = "1" type = "sensor" linkName = "Link2" />
    <neuron name = "2" type = "sensor" linkName = "Link3" />
    <neuron name = "3" type = "sensor" linkName = "Link6" />
    <neuron name = "4" type = "sensor" linkName = "Link8" />
    <neuron name = "5" type = "sensor" linkName = "Link9" />
    <neuron name = "6" type = "motor"  jointName = "Link0_Link1" />
    <neuron name = "7" type = "motor"  jointName = "Link0_Link2" />
    <neuron name = "8" type = "motor"  jointName = "Link1_Link3" />
    <neuron name = "9" type = "motor"  jointName = "Link3_Link4" />
    <neuron name = "10" type = "motor"  jointName = "Link1_Link5" />
    <neuron name = "11" type = "motor"  jointName = "Link1_Link6" />
    <neuron name = "12" type = "motor"  jointName = "Link3_Link7" />
    <neuron name = "13" type = "motor"  jointName = "Link7_Link8" />
    <neuron name = "14" type = "motor"  jointName = "Link5_Link9" />
    <synapse sourceNeuronName = "0" targetNeuronName = "6" weight = "-0.3922299500239854" />
    <synapse sourceNeuronName = "0" targetNeuronName = "7" weight = "0.747414938822712" />
    <synapse sourceNeuronName = "0" targetNeuronName = "8" weight = "-0.41034399452530024" />
    <synapse sourceNeuronName = "0" targetNeuronName = "9" weight = "0.49601992403869155" />
    <synapse sourceNeuronName = "0" targetNeuronName = "10" weight = "-0.4358944269573284" />
    <synapse sourceNeuronName = "0" targetNeuronName = "11" weight = "0.621270808828333" />
    <synapse sourceNeuronName = "0" targetNeuronName = "12" weight = "0.690574315359608" />
    <synapse sourceNeuronName = "0" targetNeuronName = "13" weight = "-0.7412561866324323" />
    <synapse sourceNeuronName = "0" targetNeuronName = "14" weight = "0.03683152876635387" />
    <synapse sourceNeuronName = "1" targetNeuronName = "6" weight = "0.963601610836379" />
    <synapse sourceNeuronName = "1" targetNeuronName = "7" weight = "-0.07909317809077598" />
    <synapse sourceNeuronName = "1" targetNeuronName = "8" weight = "-0.3302855397666353" />
    <synapse sourceNeuronName = "1" targetNeuronName = "9" weight = "-0.6538350071355463" />
    <synapse sourceNeuronName = "1" targetNeuronName = "10" weight = "0.20780958657815107" />
    <synapse sourceNeuronName = "1" targetNeuronName = "11" weight = "0.29535465253425564" />
    <synapse sourceNeuronName = "1" targetNeuronName = "12" weight = "0.5411345151011795" />
    <synapse sourceNeuronName = "1" targetNeuronName = "13" weight = "0.8792720016239515" />
    <synapse sourceNeuronName = "1" targetNeuronName = "14" weight = "0.09137075060242883" />
    <synapse sourceNeuronName = "2" targetNeuronName = "6" weight = "0.1771766353875166" />
    <synapse sourceNeuronName = "2" targetNeuronName = "7" weight = "-0.4935637786281937" />
    <synapse sourceNeuronName = "2" targetNeuronName = "8" weight = "0.07461458096063533" />
    <synapse sourceNeuronName = "2" targetNeuronName = "9" weight = "-0.4074011244025273" />
    <synapse sourceNeuronName = "2" targetNeuronName = "10" weight = "-0.22838324910956875" />
    <synapse sourceNeuronName = "2" targetNeuronName = "11" weight = "0.27248543737948827" />
    <synapse sourceNeuronName = "2" targetNeuronName = "12" weight = "0.7998522969218396" />
    <synapse sourceNeuronName = "2" targetNeuronName = "13" weight = "-0.6104843798114943" />
    <synapse sourceNeuronName = "2" targetNeuronName = "14" weight = "0.40645771530443175" />
    <synapse sourceNeuronName = "3" targetNeuronName = "6" weight = "-0.044834290553575906" />
    <synapse sourceNeuronName = "3" targetNeuronName = "7" weight = "-0.175430392571005" />
    <synapse sourceNeuronName = "3" targetNeuronName = "8" weight = "0.9547895433282079" />
    <synapse sourceNeuronName = "3" targetNeuronName = "9" weight = "-0.08573666288165427" />
    <synapse sourceNeuronName = "3" targetNeuronName = "10" weight = "-0.7399876501497378" />
    <synapse sourceNeuronName = "3" targetNeuronName = "11" weight = "-0.8643256436750322" />
    <synapse sourceNeuronName = "3" targetNeuronName = "12" weight = "-0.34844594490629843" />
    <synapse sourceNeuronName = "3" targetNeuronName = "13" weight = "0.8059006484599247" />
    <synapse sourceNeuronName = "3" targetNeuronName = "14" weight = "-0.6227589794052051" />
    <synapse sourceNeuronName = "4" targetNeuronName = "6" weight = "0.4508691208358635" />
    <synapse sourceNeuronName = "4" targetNeuronName = "7" weight = "0.9422757673878432" />
    <synapse sourceNeuronName = "4" targetNeuronName = "8" weight = "0.6904224577390172" />
    <synapse sourceNeuronName = "4" targetNeuronName = "9" weight = "-0.28309942091102025" />
    <synapse sourceNeuronName = "4" targetNeuronName = "10" weight = "0.8615712912943123" />
    <synapse sourceNeuronName = "4" targetNeuronName = "11" weight = "-0.24846142433240193" />
    <synapse sourceNeuronName = "4" targetNeuronName = "12" weight = "-0.7222521102516919" />
    <synapse sourceNeuronName = "4" targetNeuronName = "13" weight = "0.49003724469312515" />
    <synapse sourceNeuronName = "4" targetNeuronName = "14" weight = "-0.7033888675269702" />
    <synapse sourceNeuronName = "5" targetNeuronName = "6" weight = "-0.15966696948417836" />
    <synapse sourceNeuronName = "5" targetNeuronName = "7" weight = "0.9443087647305952" />
    <synapse sourceNeuronName = "5" targetNeuronName = "8" weight = "-0.23603732812288003" />
    <synapse sourceNeuronName = "5" targetNeuronName = "9" weight = "-0.4346806937471157" />
    <synapse sourceNeuronName = "5" targetNeuronName = "10" weight = "0.278186038515603" />
    <synapse sourceNeuronName = "5" targetNeuronName = "11" weight = "0.35011492859593285" />
    <synapse sourceNeuronName = "5" targetNeuronName = "12" weight = "-0.8615185353295685" />
    <synapse sourceNeuronName = "5" targetNeuronName = "13" weight = "0.6112385131627851" />
    <synapse sourceNeuronName = "5" targetNeuronName = "14" weight = "-0.8926741659780015" />
</neuralNetwork>