<neuralNetwork>
    <neuron name = "0" type = "sensor" linkName = "Link0" />
    <neuron name = "1" type = "sensor" linkName = "Link2" />
    <neuron name = "2" type = "sensor" linkName = "Link5" />
    <neuron name = "3" type = "sensor" linkName = "Link6" />
    <neuron name = "4" type = "motor"  jointName = "Link0_Link1" />
    <neuron name = "5" type = "motor"  jointName = "Link1_Link2" />
    <neuron name = "6" type = "motor"  jointName = "Link0_Link3" />
    <neuron name = "7" type = "motor"  jointName = "Link1_Link4" />
    <neuron name = "8" type = "motor"  jointName = "Link3_Link5" />
    <neuron name = "9" type = "motor"  jointName = "Link5_Link6" />
    <synapse sourceNeuronName = "0" targetNeuronName = "4" weight = "-0.31469223315583417" />
    <synapse sourceNeuronName = "0" targetNeuronName = "5" weight = "-0.5569453609253707" />
    <synapse sourceNeuronName = "0" targetNeuronName = "6" weight = "0.32770144355702513" />
    <synapse sourceNeuronName = "0" targetNeuronName = "7" weight = "0.5365780480234061" />
    <synapse sourceNeuronName = "0" targetNeuronName = "8" weight = "0.2110671809105551" />
    <synapse sourceNeuronName = "0" targetNeuronName = "9" weight = "-0.31175374296148917" />
    <synapse sourceNeuronName = "1" targetNeuronName = "4" weight = "0.664892214134035" />
    <synapse sourceNeuronName = "1" targetNeuronName = "5" weight = "-0.7201611704202755" />
    <synapse sourceNeuronName = "1" targetNeuronName = "6" weight = "0.6469061741936704" />
    <synapse sourceNeuronName = "1" targetNeuronName = "7" weight = "0.7705017291224858" />
    <synapse sourceNeuronName = "1" targetNeuronName = "8" weight = "-0.919325738849899" />
    <synapse sourceNeuronName = "1" targetNeuronName = "9" weight = "-0.33743813117579524" />
    <synapse sourceNeuronName = "2" targetNeuronName = "4" weight = "0.5990746573891705" />
    <synapse sourceNeuronName = "2" targetNeuronName = "5" weight = "-0.1622959268808719" />
    <synapse sourceNeuronName = "2" targetNeuronName = "6" weight = "0.12295312245436163" />
    <synapse sourceNeuronName = "2" targetNeuronName = "7" weight = "0.5083243786302989" />
    <synapse sourceNeuronName = "2" targetNeuronName = "8" weight = "-0.44726924929681267" />
    <synapse sourceNeuronName = "2" targetNeuronName = "9" weight = "0.10177512324260563" />
    <synapse sourceNeuronName = "3" targetNeuronName = "4" weight = "0.15059749658954824" />
    <synapse sourceNeuronName = "3" targetNeuronName = "5" weight = "-0.5783911629676839" />
    <synapse sourceNeuronName = "3" targetNeuronName = "6" weight = "-0.03187799048929163" />
    <synapse sourceNeuronName = "3" targetNeuronName = "7" weight = "0.04018211737649402" />
    <synapse sourceNeuronName = "3" targetNeuronName = "8" weight = "0.4907839992093448" />
    <synapse sourceNeuronName = "3" targetNeuronName = "9" weight = "0.39752246697354177" />
</neuralNetwork>