<neuralNetwork>
    <neuron name = "0" type = "sensor" linkName = "Link1" />
    <neuron name = "1" type = "sensor" linkName = "Link2" />
    <neuron name = "2" type = "sensor" linkName = "Link3" />
    <neuron name = "3" type = "sensor" linkName = "Link6" />
    <neuron name = "4" type = "sensor" linkName = "Link9" />
    <neuron name = "5" type = "sensor" linkName = "Link10" />
    <neuron name = "6" type = "motor"  jointName = "Link0_Link1" />
    <neuron name = "7" type = "motor"  jointName = "Link0_Link2" />
    <neuron name = "8" type = "motor"  jointName = "Link1_Link3" />
    <neuron name = "9" type = "motor"  jointName = "Link3_Link4" />
    <neuron name = "10" type = "motor"  jointName = "Link1_Link5" />
    <neuron name = "11" type = "motor"  jointName = "Link1_Link6" />
    <neuron name = "12" type = "motor"  jointName = "Link3_Link7" />
    <neuron name = "13" type = "motor"  jointName = "Link5_Link8" />
    <neuron name = "14" type = "motor"  jointName = "Link7_Link9" />
    <neuron name = "15" type = "motor"  jointName = "Link5_Link10" />
    <synapse sourceNeuronName = "0" targetNeuronName = "6" weight = "-0.35249584222353847" />
    <synapse sourceNeuronName = "0" targetNeuronName = "7" weight = "-0.8751482028856474" />
    <synapse sourceNeuronName = "0" targetNeuronName = "8" weight = "0.700416321642588" />
    <synapse sourceNeuronName = "0" targetNeuronName = "9" weight = "0.4703805419181637" />
    <synapse sourceNeuronName = "0" targetNeuronName = "10" weight = "0.991608533039646" />
    <synapse sourceNeuronName = "0" targetNeuronName = "11" weight = "-0.4366917452969268" />
    <synapse sourceNeuronName = "0" targetNeuronName = "12" weight = "0.4298294571345378" />
    <synapse sourceNeuronName = "0" targetNeuronName = "13" weight = "-0.07912326054664698" />
    <synapse sourceNeuronName = "0" targetNeuronName = "14" weight = "0.6470092139300676" />
    <synapse sourceNeuronName = "0" targetNeuronName = "15" weight = "-0.07875393846624834" />
    <synapse sourceNeuronName = "1" targetNeuronName = "6" weight = "0.42564360848880356" />
    <synapse sourceNeuronName = "1" targetNeuronName = "7" weight = "-0.6502827181765742" />
    <synapse sourceNeuronName = "1" targetNeuronName = "8" weight = "-0.4375639189682159" />
    <synapse sourceNeuronName = "1" targetNeuronName = "9" weight = "0.24612636723500003" />
    <synapse sourceNeuronName = "1" targetNeuronName = "10" weight = "0.43821628692842096" />
    <synapse sourceNeuronName = "1" targetNeuronName = "11" weight = "-0.7693781630062022" />
    <synapse sourceNeuronName = "1" targetNeuronName = "12" weight = "0.3197970721392407" />
    <synapse sourceNeuronName = "1" targetNeuronName = "13" weight = "0.9927476053817705" />
    <synapse sourceNeuronName = "1" targetNeuronName = "14" weight = "0.7937871509153196" />
    <synapse sourceNeuronName = "1" targetNeuronName = "15" weight = "-0.4380868486549263" />
    <synapse sourceNeuronName = "2" targetNeuronName = "6" weight = "0.7242952329481975" />
    <synapse sourceNeuronName = "2" targetNeuronName = "7" weight = "-0.851816864958445" />
    <synapse sourceNeuronName = "2" targetNeuronName = "8" weight = "0.7988358867629144" />
    <synapse sourceNeuronName = "2" targetNeuronName = "9" weight = "0.8304966277641255" />
    <synapse sourceNeuronName = "2" targetNeuronName = "10" weight = "0.9105977306816417" />
    <synapse sourceNeuronName = "2" targetNeuronName = "11" weight = "0.10854495282022536" />
    <synapse sourceNeuronName = "2" targetNeuronName = "12" weight = "-0.02161437751155959" />
    <synapse sourceNeuronName = "2" targetNeuronName = "13" weight = "-0.6754290314828666" />
    <synapse sourceNeuronName = "2" targetNeuronName = "14" weight = "-0.1315115694449036" />
    <synapse sourceNeuronName = "2" targetNeuronName = "15" weight = "-0.18228187619652103" />
    <synapse sourceNeuronName = "3" targetNeuronName = "6" weight = "-0.015553759779736831" />
    <synapse sourceNeuronName = "3" targetNeuronName = "7" weight = "-0.6864956237995878" />
    <synapse sourceNeuronName = "3" targetNeuronName = "8" weight = "0.3544074114219431" />
    <synapse sourceNeuronName = "3" targetNeuronName = "9" weight = "-0.49825782691013565" />
    <synapse sourceNeuronName = "3" targetNeuronName = "10" weight = "-0.6273396757244782" />
    <synapse sourceNeuronName = "3" targetNeuronName = "11" weight = "0.20745794161602915" />
    <synapse sourceNeuronName = "3" targetNeuronName = "12" weight = "0.6037929009336331" />
    <synapse sourceNeuronName = "3" targetNeuronName = "13" weight = "0.21686205628974142" />
    <synapse sourceNeuronName = "3" targetNeuronName = "14" weight = "0.6371726646877194" />
    <synapse sourceNeuronName = "3" targetNeuronName = "15" weight = "0.2670548174960954" />
    <synapse sourceNeuronName = "4" targetNeuronName = "6" weight = "0.6948792908671786" />
    <synapse sourceNeuronName = "4" targetNeuronName = "7" weight = "-0.517528167082757" />
    <synapse sourceNeuronName = "4" targetNeuronName = "8" weight = "0.9546942510473984" />
    <synapse sourceNeuronName = "4" targetNeuronName = "9" weight = "-0.6674968022312509" />
    <synapse sourceNeuronName = "4" targetNeuronName = "10" weight = "-0.3808446096147158" />
    <synapse sourceNeuronName = "4" targetNeuronName = "11" weight = "0.4322286722078965" />
    <synapse sourceNeuronName = "4" targetNeuronName = "12" weight = "0.20060619183708273" />
    <synapse sourceNeuronName = "4" targetNeuronName = "13" weight = "0.6603460161296477" />
    <synapse sourceNeuronName = "4" targetNeuronName = "14" weight = "0.5691746550938139" />
    <synapse sourceNeuronName = "4" targetNeuronName = "15" weight = "0.5840570766184243" />
    <synapse sourceNeuronName = "5" targetNeuronName = "6" weight = "-0.809729515569179" />
    <synapse sourceNeuronName = "5" targetNeuronName = "7" weight = "-0.32316004903355044" />
    <synapse sourceNeuronName = "5" targetNeuronName = "8" weight = "0.15532679843713137" />
    <synapse sourceNeuronName = "5" targetNeuronName = "9" weight = "-0.4895597323260319" />
    <synapse sourceNeuronName = "5" targetNeuronName = "10" weight = "-0.603257079127056" />
    <synapse sourceNeuronName = "5" targetNeuronName = "11" weight = "-0.9555296254073842" />
    <synapse sourceNeuronName = "5" targetNeuronName = "12" weight = "-0.8688828799088291" />
    <synapse sourceNeuronName = "5" targetNeuronName = "13" weight = "-0.743659498685562" />
    <synapse sourceNeuronName = "5" targetNeuronName = "14" weight = "0.1807384788960258" />
    <synapse sourceNeuronName = "5" targetNeuronName = "15" weight = "-0.9513495821782041" />
</neuralNetwork>