<neuralNetwork>
    <neuron name = "0" type = "sensor" linkName = "Link0" />
    <neuron name = "1" type = "sensor" linkName = "Link1" />
    <neuron name = "2" type = "sensor" linkName = "Link3" />
    <neuron name = "3" type = "sensor" linkName = "Link5" />
    <neuron name = "4" type = "motor"  jointName = "Link0_Link1" />
    <neuron name = "5" type = "motor"  jointName = "Link0_Link2" />
    <neuron name = "6" type = "motor"  jointName = "Link0_Link3" />
    <neuron name = "7" type = "motor"  jointName = "Link3_Link4" />
    <neuron name = "8" type = "motor"  jointName = "Link4_Link5" />
    <neuron name = "9" type = "motor"  jointName = "Link0_Link6" />
    <synapse sourceNeuronName = "0" targetNeuronName = "4" weight = "-0.47449566863699455" />
    <synapse sourceNeuronName = "0" targetNeuronName = "5" weight = "-0.6666657909248814" />
    <synapse sourceNeuronName = "0" targetNeuronName = "6" weight = "0.031902102167405744" />
    <synapse sourceNeuronName = "0" targetNeuronName = "7" weight = "0.7998770625876381" />
    <synapse sourceNeuronName = "0" targetNeuronName = "8" weight = "-0.29524120829661626" />
    <synapse sourceNeuronName = "0" targetNeuronName = "9" weight = "0.6192392014091386" />
    <synapse sourceNeuronName = "1" targetNeuronName = "4" weight = "-0.2935204632184629" />
    <synapse sourceNeuronName = "1" targetNeuronName = "5" weight = "0.5365483201622541" />
    <synapse sourceNeuronName = "1" targetNeuronName = "6" weight = "0.6411572914629857" />
    <synapse sourceNeuronName = "1" targetNeuronName = "7" weight = "0.6461360007936512" />
    <synapse sourceNeuronName = "1" targetNeuronName = "8" weight = "0.7111842285745775" />
    <synapse sourceNeuronName = "1" targetNeuronName = "9" weight = "0.85986016596169" />
    <synapse sourceNeuronName = "2" targetNeuronName = "4" weight = "-0.883879932366689" />
    <synapse sourceNeuronName = "2" targetNeuronName = "5" weight = "0.7177513356987071" />
    <synapse sourceNeuronName = "2" targetNeuronName = "6" weight = "-0.31840458676697536" />
    <synapse sourceNeuronName = "2" targetNeuronName = "7" weight = "0.19594832982201815" />
    <synapse sourceNeuronName = "2" targetNeuronName = "8" weight = "0.5949385428228802" />
    <synapse sourceNeuronName = "2" targetNeuronName = "9" weight = "-0.5396876684008431" />
    <synapse sourceNeuronName = "3" targetNeuronName = "4" weight = "-0.6488977181988773" />
    <synapse sourceNeuronName = "3" targetNeuronName = "5" weight = "-0.5077384595704044" />
    <synapse sourceNeuronName = "3" targetNeuronName = "6" weight = "-0.5034571553494338" />
    <synapse sourceNeuronName = "3" targetNeuronName = "7" weight = "0.11353178022996757" />
    <synapse sourceNeuronName = "3" targetNeuronName = "8" weight = "0.5870861611035512" />
    <synapse sourceNeuronName = "3" targetNeuronName = "9" weight = "-0.4678867597346197" />
</neuralNetwork>