<neuralNetwork>
    <neuron name = "0" type = "sensor" linkName = "Link1" />
    <neuron name = "1" type = "sensor" linkName = "Link3" />
    <neuron name = "2" type = "sensor" linkName = "Link6" />
    <neuron name = "3" type = "sensor" linkName = "Link9" />
    <neuron name = "4" type = "sensor" linkName = "Link10" />
    <neuron name = "5" type = "motor"  jointName = "Link0_Link1" />
    <neuron name = "6" type = "motor"  jointName = "Link0_Link2" />
    <neuron name = "7" type = "motor"  jointName = "Link1_Link3" />
    <neuron name = "8" type = "motor"  jointName = "Link3_Link4" />
    <neuron name = "9" type = "motor"  jointName = "Link1_Link5" />
    <neuron name = "10" type = "motor"  jointName = "Link1_Link6" />
    <neuron name = "11" type = "motor"  jointName = "Link3_Link7" />
    <neuron name = "12" type = "motor"  jointName = "Link5_Link8" />
    <neuron name = "13" type = "motor"  jointName = "Link7_Link9" />
    <neuron name = "14" type = "motor"  jointName = "Link5_Link10" />
    <synapse sourceNeuronName = "0" targetNeuronName = "5" weight = "0.5220101491472282" />
    <synapse sourceNeuronName = "0" targetNeuronName = "6" weight = "-0.04626371659587081" />
    <synapse sourceNeuronName = "0" targetNeuronName = "7" weight = "0.3647234893396416" />
    <synapse sourceNeuronName = "0" targetNeuronName = "8" weight = "0.391308648501955" />
    <synapse sourceNeuronName = "0" targetNeuronName = "9" weight = "-0.2284600231108358" />
    <synapse sourceNeuronName = "0" targetNeuronName = "10" weight = "-0.2815631067968647" />
    <synapse sourceNeuronName = "0" targetNeuronName = "11" weight = "0.6647985703811254" />
    <synapse sourceNeuronName = "0" targetNeuronName = "12" weight = "-0.3137585568217507" />
    <synapse sourceNeuronName = "0" targetNeuronName = "13" weight = "-0.9538952652922272" />
    <synapse sourceNeuronName = "0" targetNeuronName = "14" weight = "0.4959363157437371" />
    <synapse sourceNeuronName = "1" targetNeuronName = "5" weight = "0.08214954545625952" />
    <synapse sourceNeuronName = "1" targetNeuronName = "6" weight = "0.6751355539441608" />
    <synapse sourceNeuronName = "1" targetNeuronName = "7" weight = "-0.8661642843458703" />
    <synapse sourceNeuronName = "1" targetNeuronName = "8" weight = "-0.5398269741015633" />
    <synapse sourceNeuronName = "1" targetNeuronName = "9" weight = "0.2656186614467715" />
    <synapse sourceNeuronName = "1" targetNeuronName = "10" weight = "0.48477588901132496" />
    <synapse sourceNeuronName = "1" targetNeuronName = "11" weight = "-0.9322931185397019" />
    <synapse sourceNeuronName = "1" targetNeuronName = "12" weight = "-0.04987575271958722" />
    <synapse sourceNeuronName = "1" targetNeuronName = "13" weight = "0.17586940625766556" />
    <synapse sourceNeuronName = "1" targetNeuronName = "14" weight = "0.45181474797738264" />
    <synapse sourceNeuronName = "2" targetNeuronName = "5" weight = "0.843588980524852" />
    <synapse sourceNeuronName = "2" targetNeuronName = "6" weight = "-0.5869617723625662" />
    <synapse sourceNeuronName = "2" targetNeuronName = "7" weight = "-0.3225397922998714" />
    <synapse sourceNeuronName = "2" targetNeuronName = "8" weight = "0.5344084512986602" />
    <synapse sourceNeuronName = "2" targetNeuronName = "9" weight = "-0.7028925179198202" />
    <synapse sourceNeuronName = "2" targetNeuronName = "10" weight = "0.6830317520495914" />
    <synapse sourceNeuronName = "2" targetNeuronName = "11" weight = "0.6868826199582438" />
    <synapse sourceNeuronName = "2" targetNeuronName = "12" weight = "-0.8521139734355339" />
    <synapse sourceNeuronName = "2" targetNeuronName = "13" weight = "0.5135979761558676" />
    <synapse sourceNeuronName = "2" targetNeuronName = "14" weight = "0.4836824780792408" />
    <synapse sourceNeuronName = "3" targetNeuronName = "5" weight = "-0.11002464974931492" />
    <synapse sourceNeuronName = "3" targetNeuronName = "6" weight = "0.5939479724303416" />
    <synapse sourceNeuronName = "3" targetNeuronName = "7" weight = "0.06633129635334223" />
    <synapse sourceNeuronName = "3" targetNeuronName = "8" weight = "-0.7791755951673043" />
    <synapse sourceNeuronName = "3" targetNeuronName = "9" weight = "0.15427377392658803" />
    <synapse sourceNeuronName = "3" targetNeuronName = "10" weight = "0.550024295661691" />
    <synapse sourceNeuronName = "3" targetNeuronName = "11" weight = "-0.4384327088333071" />
    <synapse sourceNeuronName = "3" targetNeuronName = "12" weight = "0.7098857098165954" />
    <synapse sourceNeuronName = "3" targetNeuronName = "13" weight = "0.7514820416977015" />
    <synapse sourceNeuronName = "3" targetNeuronName = "14" weight = "0.17304353631727776" />
    <synapse sourceNeuronName = "4" targetNeuronName = "5" weight = "-0.4484140082970025" />
    <synapse sourceNeuronName = "4" targetNeuronName = "6" weight = "0.3227343735753403" />
    <synapse sourceNeuronName = "4" targetNeuronName = "7" weight = "0.9165126043555842" />
    <synapse sourceNeuronName = "4" targetNeuronName = "8" weight = "0.2936154050127626" />
    <synapse sourceNeuronName = "4" targetNeuronName = "9" weight = "0.1399201826973404" />
    <synapse sourceNeuronName = "4" targetNeuronName = "10" weight = "-0.2914835207533435" />
    <synapse sourceNeuronName = "4" targetNeuronName = "11" weight = "0.4013176933393694" />
    <synapse sourceNeuronName = "4" targetNeuronName = "12" weight = "0.10583951981966866" />
    <synapse sourceNeuronName = "4" targetNeuronName = "13" weight = "-0.6422992312022595" />
    <synapse sourceNeuronName = "4" targetNeuronName = "14" weight = "-0.5680596974110561" />
</neuralNetwork>