<neuralNetwork>
    <neuron name = "0" type = "sensor" linkName = "Link0" />
    <neuron name = "1" type = "sensor" linkName = "Link1" />
    <neuron name = "2" type = "sensor" linkName = "Link2" />
    <neuron name = "3" type = "sensor" linkName = "Link8" />
    <neuron name = "4" type = "motor"  jointName = "Link0_Link1" />
    <neuron name = "5" type = "motor"  jointName = "Link0_Link2" />
    <neuron name = "6" type = "motor"  jointName = "Link1_Link3" />
    <neuron name = "7" type = "motor"  jointName = "Link2_Link4" />
    <neuron name = "8" type = "motor"  jointName = "Link3_Link5" />
    <neuron name = "9" type = "motor"  jointName = "Link4_Link6" />
    <neuron name = "10" type = "motor"  jointName = "Link6_Link7" />
    <neuron name = "11" type = "motor"  jointName = "Link5_Link8" />
    <synapse sourceNeuronName = "0" targetNeuronName = "4" weight = "0.5476207965329292" />
    <synapse sourceNeuronName = "0" targetNeuronName = "5" weight = "0.07095070501295009" />
    <synapse sourceNeuronName = "0" targetNeuronName = "6" weight = "-0.9514080611819293" />
    <synapse sourceNeuronName = "0" targetNeuronName = "7" weight = "0.7757036970179307" />
    <synapse sourceNeuronName = "0" targetNeuronName = "8" weight = "-0.64526506010982" />
    <synapse sourceNeuronName = "0" targetNeuronName = "9" weight = "-0.6608067428775299" />
    <synapse sourceNeuronName = "0" targetNeuronName = "10" weight = "0.6209169691447405" />
    <synapse sourceNeuronName = "0" targetNeuronName = "11" weight = "0.675690335007421" />
    <synapse sourceNeuronName = "1" targetNeuronName = "4" weight = "0.1187938884232358" />
    <synapse sourceNeuronName = "1" targetNeuronName = "5" weight = "-0.2606355222241592" />
    <synapse sourceNeuronName = "1" targetNeuronName = "6" weight = "-0.21387826638060203" />
    <synapse sourceNeuronName = "1" targetNeuronName = "7" weight = "-0.768059240262633" />
    <synapse sourceNeuronName = "1" targetNeuronName = "8" weight = "-0.11270078202640277" />
    <synapse sourceNeuronName = "1" targetNeuronName = "9" weight = "-0.31270437997608314" />
    <synapse sourceNeuronName = "1" targetNeuronName = "10" weight = "0.0006874838900672309" />
    <synapse sourceNeuronName = "1" targetNeuronName = "11" weight = "-0.660724411145396" />
    <synapse sourceNeuronName = "2" targetNeuronName = "4" weight = "0.46552317142806277" />
    <synapse sourceNeuronName = "2" targetNeuronName = "5" weight = "0.7113782072400145" />
    <synapse sourceNeuronName = "2" targetNeuronName = "6" weight = "0.37776055126446395" />
    <synapse sourceNeuronName = "2" targetNeuronName = "7" weight = "-0.6485032842742324" />
    <synapse sourceNeuronName = "2" targetNeuronName = "8" weight = "-0.5782247944341092" />
    <synapse sourceNeuronName = "2" targetNeuronName = "9" weight = "-0.660503426750431" />
    <synapse sourceNeuronName = "2" targetNeuronName = "10" weight = "0.23076926382172536" />
    <synapse sourceNeuronName = "2" targetNeuronName = "11" weight = "0.7078179200705494" />
    <synapse sourceNeuronName = "3" targetNeuronName = "4" weight = "0.18568246561070834" />
    <synapse sourceNeuronName = "3" targetNeuronName = "5" weight = "0.03620545007295406" />
    <synapse sourceNeuronName = "3" targetNeuronName = "6" weight = "-0.44085148315090805" />
    <synapse sourceNeuronName = "3" targetNeuronName = "7" weight = "0.7051896143583058" />
    <synapse sourceNeuronName = "3" targetNeuronName = "8" weight = "-0.6829051768450269" />
    <synapse sourceNeuronName = "3" targetNeuronName = "9" weight = "0.7787875202723324" />
    <synapse sourceNeuronName = "3" targetNeuronName = "10" weight = "0.5249362659794286" />
    <synapse sourceNeuronName = "3" targetNeuronName = "11" weight = "-0.38562737041146744" />
</neuralNetwork>