<neuralNetwork>
    <neuron name = "0" type = "sensor" linkName = "Link5" />
    <neuron name = "1" type = "sensor" linkName = "Link6" />
    <neuron name = "2" type = "sensor" linkName = "Link7" />
    <neuron name = "3" type = "sensor" linkName = "Link9" />
    <neuron name = "4" type = "motor"  jointName = "Link0_Link1" />
    <neuron name = "5" type = "motor"  jointName = "Link0_Link2" />
    <neuron name = "6" type = "motor"  jointName = "Link0_Link3" />
    <neuron name = "7" type = "motor"  jointName = "Link3_Link4" />
    <neuron name = "8" type = "motor"  jointName = "Link4_Link5" />
    <neuron name = "9" type = "motor"  jointName = "Link4_Link6" />
    <neuron name = "10" type = "motor"  jointName = "Link0_Link7" />
    <neuron name = "11" type = "motor"  jointName = "Link3_Link8" />
    <neuron name = "12" type = "motor"  jointName = "Link8_Link9" />
    <synapse sourceNeuronName = "0" targetNeuronName = "4" weight = "-0.7891358960229553" />
    <synapse sourceNeuronName = "0" targetNeuronName = "5" weight = "-0.5533331821393113" />
    <synapse sourceNeuronName = "0" targetNeuronName = "6" weight = "0.8208923976724312" />
    <synapse sourceNeuronName = "0" targetNeuronName = "7" weight = "-0.886185570947527" />
    <synapse sourceNeuronName = "0" targetNeuronName = "8" weight = "-0.7114320267259053" />
    <synapse sourceNeuronName = "0" targetNeuronName = "9" weight = "0.5228201230499343" />
    <synapse sourceNeuronName = "0" targetNeuronName = "10" weight = "0.2934450694513453" />
    <synapse sourceNeuronName = "0" targetNeuronName = "11" weight = "0.3492613532696298" />
    <synapse sourceNeuronName = "0" targetNeuronName = "12" weight = "0.20233168106360155" />
    <synapse sourceNeuronName = "1" targetNeuronName = "4" weight = "-0.7722799547881631" />
    <synapse sourceNeuronName = "1" targetNeuronName = "5" weight = "0.4516363680522708" />
    <synapse sourceNeuronName = "1" targetNeuronName = "6" weight = "-0.34682444218370856" />
    <synapse sourceNeuronName = "1" targetNeuronName = "7" weight = "0.9036043505323588" />
    <synapse sourceNeuronName = "1" targetNeuronName = "8" weight = "0.12548361113120454" />
    <synapse sourceNeuronName = "1" targetNeuronName = "9" weight = "-0.11868893799060509" />
    <synapse sourceNeuronName = "1" targetNeuronName = "10" weight = "-0.7841087192197671" />
    <synapse sourceNeuronName = "1" targetNeuronName = "11" weight = "-0.8601688973695925" />
    <synapse sourceNeuronName = "1" targetNeuronName = "12" weight = "-0.7414049825405069" />
    <synapse sourceNeuronName = "2" targetNeuronName = "4" weight = "0.7812897287782872" />
    <synapse sourceNeuronName = "2" targetNeuronName = "5" weight = "-0.04421582970651938" />
    <synapse sourceNeuronName = "2" targetNeuronName = "6" weight = "-0.4091071621566915" />
    <synapse sourceNeuronName = "2" targetNeuronName = "7" weight = "0.5710680584652064" />
    <synapse sourceNeuronName = "2" targetNeuronName = "8" weight = "-0.6721250004438633" />
    <synapse sourceNeuronName = "2" targetNeuronName = "9" weight = "0.607642152427166" />
    <synapse sourceNeuronName = "2" targetNeuronName = "10" weight = "-0.9196537959130695" />
    <synapse sourceNeuronName = "2" targetNeuronName = "11" weight = "-0.5558630339786239" />
    <synapse sourceNeuronName = "2" targetNeuronName = "12" weight = "0.5561283791565892" />
    <synapse sourceNeuronName = "3" targetNeuronName = "4" weight = "-0.14927210655564704" />
    <synapse sourceNeuronName = "3" targetNeuronName = "5" weight = "0.9245867284004903" />
    <synapse sourceNeuronName = "3" targetNeuronName = "6" weight = "0.5288712892620471" />
    <synapse sourceNeuronName = "3" targetNeuronName = "7" weight = "0.2255632088012427" />
    <synapse sourceNeuronName = "3" targetNeuronName = "8" weight = "-0.45106085942188856" />
    <synapse sourceNeuronName = "3" targetNeuronName = "9" weight = "-0.9469938194915393" />
    <synapse sourceNeuronName = "3" targetNeuronName = "10" weight = "-0.5824141266815788" />
    <synapse sourceNeuronName = "3" targetNeuronName = "11" weight = "0.5240430457116041" />
    <synapse sourceNeuronName = "3" targetNeuronName = "12" weight = "0.2824720339126112" />
</neuralNetwork>