<neuralNetwork>
    <neuron name = "0" type = "sensor" linkName = "Link3" />
    <neuron name = "1" type = "sensor" linkName = "Link4" />
    <neuron name = "2" type = "sensor" linkName = "Link5" />
    <neuron name = "3" type = "sensor" linkName = "Link7" />
    <neuron name = "4" type = "sensor" linkName = "Link9" />
    <neuron name = "5" type = "motor"  jointName = "Link0_Link1" />
    <neuron name = "6" type = "motor"  jointName = "Link1_Link2" />
    <neuron name = "7" type = "motor"  jointName = "Link0_Link3" />
    <neuron name = "8" type = "motor"  jointName = "Link0_Link4" />
    <neuron name = "9" type = "motor"  jointName = "Link4_Link5" />
    <neuron name = "10" type = "motor"  jointName = "Link3_Link6" />
    <neuron name = "11" type = "motor"  jointName = "Link0_Link7" />
    <neuron name = "12" type = "motor"  jointName = "Link7_Link8" />
    <neuron name = "13" type = "motor"  jointName = "Link4_Link9" />
    <neuron name = "14" type = "motor"  jointName = "Link5_Link10" />
    <synapse sourceNeuronName = "0" targetNeuronName = "5" weight = "0.08977174082741413" />
    <synapse sourceNeuronName = "0" targetNeuronName = "6" weight = "-0.6458579736886556" />
    <synapse sourceNeuronName = "0" targetNeuronName = "7" weight = "-0.15324548285431372" />
    <synapse sourceNeuronName = "0" targetNeuronName = "8" weight = "0.8660832746707732" />
    <synapse sourceNeuronName = "0" targetNeuronName = "9" weight = "0.9822893013548954" />
    <synapse sourceNeuronName = "0" targetNeuronName = "10" weight = "-0.3231512638050169" />
    <synapse sourceNeuronName = "0" targetNeuronName = "11" weight = "0.8431419384818053" />
    <synapse sourceNeuronName = "0" targetNeuronName = "12" weight = "0.5990238206160294" />
    <synapse sourceNeuronName = "0" targetNeuronName = "13" weight = "-0.5762548346088447" />
    <synapse sourceNeuronName = "0" targetNeuronName = "14" weight = "-0.16437693490518934" />
    <synapse sourceNeuronName = "1" targetNeuronName = "5" weight = "-0.9437416369786356" />
    <synapse sourceNeuronName = "1" targetNeuronName = "6" weight = "-0.4246890175826432" />
    <synapse sourceNeuronName = "1" targetNeuronName = "7" weight = "0.4564512710916795" />
    <synapse sourceNeuronName = "1" targetNeuronName = "8" weight = "-0.4767311421997471" />
    <synapse sourceNeuronName = "1" targetNeuronName = "9" weight = "-0.4646937633482564" />
    <synapse sourceNeuronName = "1" targetNeuronName = "10" weight = "0.7877981667711513" />
    <synapse sourceNeuronName = "1" targetNeuronName = "11" weight = "0.4976035396206746" />
    <synapse sourceNeuronName = "1" targetNeuronName = "12" weight = "0.2831044514618677" />
    <synapse sourceNeuronName = "1" targetNeuronName = "13" weight = "-0.37555717719577997" />
    <synapse sourceNeuronName = "1" targetNeuronName = "14" weight = "0.21691797604385754" />
    <synapse sourceNeuronName = "2" targetNeuronName = "5" weight = "0.3034702685719666" />
    <synapse sourceNeuronName = "2" targetNeuronName = "6" weight = "-0.6483680531662905" />
    <synapse sourceNeuronName = "2" targetNeuronName = "7" weight = "-0.16345862288233004" />
    <synapse sourceNeuronName = "2" targetNeuronName = "8" weight = "0.8458999585251912" />
    <synapse sourceNeuronName = "2" targetNeuronName = "9" weight = "-0.7704988627745701" />
    <synapse sourceNeuronName = "2" targetNeuronName = "10" weight = "0.0020249556593134876" />
    <synapse sourceNeuronName = "2" targetNeuronName = "11" weight = "0.6474656320893384" />
    <synapse sourceNeuronName = "2" targetNeuronName = "12" weight = "-0.47821370726643475" />
    <synapse sourceNeuronName = "2" targetNeuronName = "13" weight = "-0.7055038586936095" />
    <synapse sourceNeuronName = "2" targetNeuronName = "14" weight = "0.763172116351821" />
    <synapse sourceNeuronName = "3" targetNeuronName = "5" weight = "0.4682761912352362" />
    <synapse sourceNeuronName = "3" targetNeuronName = "6" weight = "-0.5197975037303229" />
    <synapse sourceNeuronName = "3" targetNeuronName = "7" weight = "0.6854780754540815" />
    <synapse sourceNeuronName = "3" targetNeuronName = "8" weight = "-0.7963866717230952" />
    <synapse sourceNeuronName = "3" targetNeuronName = "9" weight = "0.2020780113806151" />
    <synapse sourceNeuronName = "3" targetNeuronName = "10" weight = "0.8917508558267266" />
    <synapse sourceNeuronName = "3" targetNeuronName = "11" weight = "0.4634174025269626" />
    <synapse sourceNeuronName = "3" targetNeuronName = "12" weight = "0.8789234400722099" />
    <synapse sourceNeuronName = "3" targetNeuronName = "13" weight = "-0.10223792664824538" />
    <synapse sourceNeuronName = "3" targetNeuronName = "14" weight = "-0.6551199008439408" />
    <synapse sourceNeuronName = "4" targetNeuronName = "5" weight = "0.8079868421773821" />
    <synapse sourceNeuronName = "4" targetNeuronName = "6" weight = "-0.4950271795427863" />
    <synapse sourceNeuronName = "4" targetNeuronName = "7" weight = "0.6147090678793126" />
    <synapse sourceNeuronName = "4" targetNeuronName = "8" weight = "0.729164384363973" />
    <synapse sourceNeuronName = "4" targetNeuronName = "9" weight = "-0.33273893059923276" />
    <synapse sourceNeuronName = "4" targetNeuronName = "10" weight = "-0.978071558414539" />
    <synapse sourceNeuronName = "4" targetNeuronName = "11" weight = "-0.3979304020171692" />
    <synapse sourceNeuronName = "4" targetNeuronName = "12" weight = "-0.519438209588668" />
    <synapse sourceNeuronName = "4" targetNeuronName = "13" weight = "-0.3840455601526922" />
    <synapse sourceNeuronName = "4" targetNeuronName = "14" weight = "-0.8538736429451523" />
</neuralNetwork>