<neuralNetwork>
    <neuron name = "0" type = "sensor" linkName = "Link3" />
    <neuron name = "1" type = "sensor" linkName = "Link4" />
    <neuron name = "2" type = "sensor" linkName = "Link5" />
    <neuron name = "3" type = "sensor" linkName = "Link6" />
    <neuron name = "4" type = "sensor" linkName = "Link8" />
    <neuron name = "5" type = "motor"  jointName = "Link0_Link1" />
    <neuron name = "6" type = "motor"  jointName = "Link1_Link2" />
    <neuron name = "7" type = "motor"  jointName = "Link0_Link3" />
    <neuron name = "8" type = "motor"  jointName = "Link0_Link4" />
    <neuron name = "9" type = "motor"  jointName = "Link4_Link5" />
    <neuron name = "10" type = "motor"  jointName = "Link0_Link6" />
    <neuron name = "11" type = "motor"  jointName = "Link6_Link7" />
    <neuron name = "12" type = "motor"  jointName = "Link4_Link8" />
    <synapse sourceNeuronName = "0" targetNeuronName = "5" weight = "0.467137029062362" />
    <synapse sourceNeuronName = "0" targetNeuronName = "6" weight = "0.40166704709445833" />
    <synapse sourceNeuronName = "0" targetNeuronName = "7" weight = "-0.1372443347029828" />
    <synapse sourceNeuronName = "0" targetNeuronName = "8" weight = "-0.9371596357017327" />
    <synapse sourceNeuronName = "0" targetNeuronName = "9" weight = "0.09134073408717813" />
    <synapse sourceNeuronName = "0" targetNeuronName = "10" weight = "0.7132440967646829" />
    <synapse sourceNeuronName = "0" targetNeuronName = "11" weight = "-0.27265581646027903" />
    <synapse sourceNeuronName = "0" targetNeuronName = "12" weight = "0.9936036002188628" />
    <synapse sourceNeuronName = "1" targetNeuronName = "5" weight = "0.1749068682706525" />
    <synapse sourceNeuronName = "1" targetNeuronName = "6" weight = "0.8869166556488348" />
    <synapse sourceNeuronName = "1" targetNeuronName = "7" weight = "-0.8428362035674128" />
    <synapse sourceNeuronName = "1" targetNeuronName = "8" weight = "0.42971566622384527" />
    <synapse sourceNeuronName = "1" targetNeuronName = "9" weight = "-0.08767885151624744" />
    <synapse sourceNeuronName = "1" targetNeuronName = "10" weight = "0.7222438285533508" />
    <synapse sourceNeuronName = "1" targetNeuronName = "11" weight = "0.9968792236237827" />
    <synapse sourceNeuronName = "1" targetNeuronName = "12" weight = "0.6179673817224216" />
    <synapse sourceNeuronName = "2" targetNeuronName = "5" weight = "-0.25552582892055375" />
    <synapse sourceNeuronName = "2" targetNeuronName = "6" weight = "0.591770421158307" />
    <synapse sourceNeuronName = "2" targetNeuronName = "7" weight = "-0.46016089846066843" />
    <synapse sourceNeuronName = "2" targetNeuronName = "8" weight = "-0.2745396958155162" />
    <synapse sourceNeuronName = "2" targetNeuronName = "9" weight = "0.3263172677201671" />
    <synapse sourceNeuronName = "2" targetNeuronName = "10" weight = "-0.07465056935288517" />
    <synapse sourceNeuronName = "2" targetNeuronName = "11" weight = "-0.5136668644256395" />
    <synapse sourceNeuronName = "2" targetNeuronName = "12" weight = "-0.165228253419897" />
    <synapse sourceNeuronName = "3" targetNeuronName = "5" weight = "-0.13700679794148551" />
    <synapse sourceNeuronName = "3" targetNeuronName = "6" weight = "-0.32255369521673094" />
    <synapse sourceNeuronName = "3" targetNeuronName = "7" weight = "0.10058674952706537" />
    <synapse sourceNeuronName = "3" targetNeuronName = "8" weight = "0.49841470404667443" />
    <synapse sourceNeuronName = "3" targetNeuronName = "9" weight = "-0.7609805690213467" />
    <synapse sourceNeuronName = "3" targetNeuronName = "10" weight = "0.7222549762909714" />
    <synapse sourceNeuronName = "3" targetNeuronName = "11" weight = "0.07561427457341252" />
    <synapse sourceNeuronName = "3" targetNeuronName = "12" weight = "-0.35402072752205127" />
    <synapse sourceNeuronName = "4" targetNeuronName = "5" weight = "-0.4099941603592472" />
    <synapse sourceNeuronName = "4" targetNeuronName = "6" weight = "0.9232861687876417" />
    <synapse sourceNeuronName = "4" targetNeuronName = "7" weight = "0.38878999195021824" />
    <synapse sourceNeuronName = "4" targetNeuronName = "8" weight = "-0.3115617157133379" />
    <synapse sourceNeuronName = "4" targetNeuronName = "9" weight = "-0.5110243514539079" />
    <synapse sourceNeuronName = "4" targetNeuronName = "10" weight = "-0.8469327511007634" />
    <synapse sourceNeuronName = "4" targetNeuronName = "11" weight = "0.36685508059296823" />
    <synapse sourceNeuronName = "4" targetNeuronName = "12" weight = "0.3892079580317014" />
</neuralNetwork>