<neuralNetwork>
    <neuron name = "0" type = "sensor" linkName = "Link0" />
    <neuron name = "1" type = "sensor" linkName = "Link2" />
    <neuron name = "2" type = "sensor" linkName = "Link4" />
    <neuron name = "3" type = "sensor" linkName = "Link6" />
    <neuron name = "4" type = "sensor" linkName = "Link8" />
    <neuron name = "5" type = "sensor" linkName = "Link9" />
    <neuron name = "6" type = "motor"  jointName = "Link0_Link1" />
    <neuron name = "7" type = "motor"  jointName = "Link1_Link2" />
    <neuron name = "8" type = "motor"  jointName = "Link1_Link3" />
    <neuron name = "9" type = "motor"  jointName = "Link1_Link4" />
    <neuron name = "10" type = "motor"  jointName = "Link0_Link5" />
    <neuron name = "11" type = "motor"  jointName = "Link3_Link6" />
    <neuron name = "12" type = "motor"  jointName = "Link2_Link7" />
    <neuron name = "13" type = "motor"  jointName = "Link7_Link8" />
    <neuron name = "14" type = "motor"  jointName = "Link7_Link9" />
    <synapse sourceNeuronName = "0" targetNeuronName = "6" weight = "-0.48081285675942276" />
    <synapse sourceNeuronName = "0" targetNeuronName = "7" weight = "-0.7832387328758259" />
    <synapse sourceNeuronName = "0" targetNeuronName = "8" weight = "-0.5582338242821685" />
    <synapse sourceNeuronName = "0" targetNeuronName = "9" weight = "0.541784603135887" />
    <synapse sourceNeuronName = "0" targetNeuronName = "10" weight = "-0.34061842538022713" />
    <synapse sourceNeuronName = "0" targetNeuronName = "11" weight = "-0.7339008841136649" />
    <synapse sourceNeuronName = "0" targetNeuronName = "12" weight = "-0.9788352519785135" />
    <synapse sourceNeuronName = "0" targetNeuronName = "13" weight = "-0.029193219544988214" />
    <synapse sourceNeuronName = "0" targetNeuronName = "14" weight = "0.6542917264172541" />
    <synapse sourceNeuronName = "1" targetNeuronName = "6" weight = "0.22308512946856207" />
    <synapse sourceNeuronName = "1" targetNeuronName = "7" weight = "-0.38665403234792173" />
    <synapse sourceNeuronName = "1" targetNeuronName = "8" weight = "-0.9799498469953629" />
    <synapse sourceNeuronName = "1" targetNeuronName = "9" weight = "-0.011549981784484187" />
    <synapse sourceNeuronName = "1" targetNeuronName = "10" weight = "-0.5932160471694279" />
    <synapse sourceNeuronName = "1" targetNeuronName = "11" weight = "0.5646272309439222" />
    <synapse sourceNeuronName = "1" targetNeuronName = "12" weight = "0.9492841950193787" />
    <synapse sourceNeuronName = "1" targetNeuronName = "13" weight = "-0.9041208985830445" />
    <synapse sourceNeuronName = "1" targetNeuronName = "14" weight = "0.5070765133902861" />
    <synapse sourceNeuronName = "2" targetNeuronName = "6" weight = "-0.03497301980287948" />
    <synapse sourceNeuronName = "2" targetNeuronName = "7" weight = "-0.589711057395518" />
    <synapse sourceNeuronName = "2" targetNeuronName = "8" weight = "-0.20899727217162267" />
    <synapse sourceNeuronName = "2" targetNeuronName = "9" weight = "0.525130970401644" />
    <synapse sourceNeuronName = "2" targetNeuronName = "10" weight = "0.8083056893503322" />
    <synapse sourceNeuronName = "2" targetNeuronName = "11" weight = "-0.8802718760360395" />
    <synapse sourceNeuronName = "2" targetNeuronName = "12" weight = "0.27549238615121907" />
    <synapse sourceNeuronName = "2" targetNeuronName = "13" weight = "0.9548873557660853" />
    <synapse sourceNeuronName = "2" targetNeuronName = "14" weight = "0.7802820612699961" />
    <synapse sourceNeuronName = "3" targetNeuronName = "6" weight = "0.536717621151747" />
    <synapse sourceNeuronName = "3" targetNeuronName = "7" weight = "0.10751362528815411" />
    <synapse sourceNeuronName = "3" targetNeuronName = "8" weight = "-0.853054729745188" />
    <synapse sourceNeuronName = "3" targetNeuronName = "9" weight = "-0.4925094422855645" />
    <synapse sourceNeuronName = "3" targetNeuronName = "10" weight = "0.08865571887575419" />
    <synapse sourceNeuronName = "3" targetNeuronName = "11" weight = "-0.9731498033353827" />
    <synapse sourceNeuronName = "3" targetNeuronName = "12" weight = "0.5149385026855315" />
    <synapse sourceNeuronName = "3" targetNeuronName = "13" weight = "-0.23738670150741292" />
    <synapse sourceNeuronName = "3" targetNeuronName = "14" weight = "0.9696411235624263" />
    <synapse sourceNeuronName = "4" targetNeuronName = "6" weight = "0.783515816931494" />
    <synapse sourceNeuronName = "4" targetNeuronName = "7" weight = "-0.1417507637421429" />
    <synapse sourceNeuronName = "4" targetNeuronName = "8" weight = "0.3710259098009907" />
    <synapse sourceNeuronName = "4" targetNeuronName = "9" weight = "-0.3256031954011882" />
    <synapse sourceNeuronName = "4" targetNeuronName = "10" weight = "-0.35527845835842187" />
    <synapse sourceNeuronName = "4" targetNeuronName = "11" weight = "0.901608957071447" />
    <synapse sourceNeuronName = "4" targetNeuronName = "12" weight = "-0.07177642778916882" />
    <synapse sourceNeuronName = "4" targetNeuronName = "13" weight = "0.21250079561667934" />
    <synapse sourceNeuronName = "4" targetNeuronName = "14" weight = "0.17082396787973386" />
    <synapse sourceNeuronName = "5" targetNeuronName = "6" weight = "0.05419587461596698" />
    <synapse sourceNeuronName = "5" targetNeuronName = "7" weight = "0.9031854978016207" />
    <synapse sourceNeuronName = "5" targetNeuronName = "8" weight = "0.7235831446676204" />
    <synapse sourceNeuronName = "5" targetNeuronName = "9" weight = "0.7388187148066445" />
    <synapse sourceNeuronName = "5" targetNeuronName = "10" weight = "-0.7199058571590402" />
    <synapse sourceNeuronName = "5" targetNeuronName = "11" weight = "-0.46488722436858687" />
    <synapse sourceNeuronName = "5" targetNeuronName = "12" weight = "-0.12213778845464174" />
    <synapse sourceNeuronName = "5" targetNeuronName = "13" weight = "0.3115021134931617" />
    <synapse sourceNeuronName = "5" targetNeuronName = "14" weight = "-0.9019542969109475" />
</neuralNetwork>