<neuralNetwork>
    <neuron name = "0" type = "sensor" linkName = "Link0" />
    <neuron name = "1" type = "sensor" linkName = "Link1" />
    <neuron name = "2" type = "sensor" linkName = "Link2" />
    <neuron name = "3" type = "sensor" linkName = "Link3" />
    <neuron name = "4" type = "sensor" linkName = "Link4" />
    <neuron name = "5" type = "motor"  jointName = "Link0_Link1" />
    <neuron name = "6" type = "motor"  jointName = "Link1_Link2" />
    <neuron name = "7" type = "motor"  jointName = "Link2_Link3" />
    <neuron name = "8" type = "motor"  jointName = "Link3_Link4" />
    <synapse sourceNeuronName = "0" targetNeuronName = "5" weight = "0.41176833344158714" />
    <synapse sourceNeuronName = "0" targetNeuronName = "6" weight = "-0.5221713436488731" />
    <synapse sourceNeuronName = "0" targetNeuronName = "7" weight = "0.3933476072015749" />
    <synapse sourceNeuronName = "0" targetNeuronName = "8" weight = "-0.2387001204232828" />
    <synapse sourceNeuronName = "1" targetNeuronName = "5" weight = "-0.8098589290792046" />
    <synapse sourceNeuronName = "1" targetNeuronName = "6" weight = "0.2862077149787019" />
    <synapse sourceNeuronName = "1" targetNeuronName = "7" weight = "-0.36295899830123046" />
    <synapse sourceNeuronName = "1" targetNeuronName = "8" weight = "-0.9907269255709359" />
    <synapse sourceNeuronName = "2" targetNeuronName = "5" weight = "0.31623412607070844" />
    <synapse sourceNeuronName = "2" targetNeuronName = "6" weight = "-0.395296272436104" />
    <synapse sourceNeuronName = "2" targetNeuronName = "7" weight = "-0.8825836249561445" />
    <synapse sourceNeuronName = "2" targetNeuronName = "8" weight = "0.18712881704684303" />
    <synapse sourceNeuronName = "3" targetNeuronName = "5" weight = "0.23309883145742183" />
    <synapse sourceNeuronName = "3" targetNeuronName = "6" weight = "-0.575542973841715" />
    <synapse sourceNeuronName = "3" targetNeuronName = "7" weight = "-0.4641047550444817" />
    <synapse sourceNeuronName = "3" targetNeuronName = "8" weight = "0.5997105180629481" />
    <synapse sourceNeuronName = "4" targetNeuronName = "5" weight = "0.27086623051225267" />
    <synapse sourceNeuronName = "4" targetNeuronName = "6" weight = "0.8468963409888073" />
    <synapse sourceNeuronName = "4" targetNeuronName = "7" weight = "0.14193572973520174" />
    <synapse sourceNeuronName = "4" targetNeuronName = "8" weight = "-0.716907049009806" />
</neuralNetwork>