<neuralNetwork>
    <neuron name = "0" type = "sensor" linkName = "Link1" />
    <neuron name = "1" type = "sensor" linkName = "Link2" />
    <neuron name = "2" type = "sensor" linkName = "Link3" />
    <neuron name = "3" type = "sensor" linkName = "Link5" />
    <neuron name = "4" type = "sensor" linkName = "Link6" />
    <neuron name = "5" type = "sensor" linkName = "Link7" />
    <neuron name = "6" type = "motor"  jointName = "Link0_Link1" />
    <neuron name = "7" type = "motor"  jointName = "Link0_Link2" />
    <neuron name = "8" type = "motor"  jointName = "Link2_Link3" />
    <neuron name = "9" type = "motor"  jointName = "Link1_Link4" />
    <neuron name = "10" type = "motor"  jointName = "Link0_Link5" />
    <neuron name = "11" type = "motor"  jointName = "Link2_Link6" />
    <neuron name = "12" type = "motor"  jointName = "Link4_Link7" />
    <synapse sourceNeuronName = "0" targetNeuronName = "6" weight = "0.17147602013627772" />
    <synapse sourceNeuronName = "0" targetNeuronName = "7" weight = "0.48292280365564366" />
    <synapse sourceNeuronName = "0" targetNeuronName = "8" weight = "0.35300167056460685" />
    <synapse sourceNeuronName = "0" targetNeuronName = "9" weight = "-0.3115615634176183" />
    <synapse sourceNeuronName = "0" targetNeuronName = "10" weight = "-0.5737534777558781" />
    <synapse sourceNeuronName = "0" targetNeuronName = "11" weight = "-0.5064956172463586" />
    <synapse sourceNeuronName = "0" targetNeuronName = "12" weight = "-0.10902052671396101" />
    <synapse sourceNeuronName = "1" targetNeuronName = "6" weight = "-0.7108804796252417" />
    <synapse sourceNeuronName = "1" targetNeuronName = "7" weight = "-0.7834696941377903" />
    <synapse sourceNeuronName = "1" targetNeuronName = "8" weight = "0.4721013799787197" />
    <synapse sourceNeuronName = "1" targetNeuronName = "9" weight = "0.657028981961771" />
    <synapse sourceNeuronName = "1" targetNeuronName = "10" weight = "-0.31263554030395113" />
    <synapse sourceNeuronName = "1" targetNeuronName = "11" weight = "-0.38727956547801146" />
    <synapse sourceNeuronName = "1" targetNeuronName = "12" weight = "-0.976718438150707" />
    <synapse sourceNeuronName = "2" targetNeuronName = "6" weight = "-0.8050944719023838" />
    <synapse sourceNeuronName = "2" targetNeuronName = "7" weight = "0.24859139018577792" />
    <synapse sourceNeuronName = "2" targetNeuronName = "8" weight = "0.0923672398112958" />
    <synapse sourceNeuronName = "2" targetNeuronName = "9" weight = "0.2772256438682734" />
    <synapse sourceNeuronName = "2" targetNeuronName = "10" weight = "0.7426451901330859" />
    <synapse sourceNeuronName = "2" targetNeuronName = "11" weight = "-0.21979034406567122" />
    <synapse sourceNeuronName = "2" targetNeuronName = "12" weight = "-0.45621018759590704" />
    <synapse sourceNeuronName = "3" targetNeuronName = "6" weight = "-0.26509090555890147" />
    <synapse sourceNeuronName = "3" targetNeuronName = "7" weight = "0.18775211368238853" />
    <synapse sourceNeuronName = "3" targetNeuronName = "8" weight = "-0.6882321121688164" />
    <synapse sourceNeuronName = "3" targetNeuronName = "9" weight = "-0.37833945216613984" />
    <synapse sourceNeuronName = "3" targetNeuronName = "10" weight = "-0.8620700797488758" />
    <synapse sourceNeuronName = "3" targetNeuronName = "11" weight = "-0.19250685106391763" />
    <synapse sourceNeuronName = "3" targetNeuronName = "12" weight = "-0.9833842860478903" />
    <synapse sourceNeuronName = "4" targetNeuronName = "6" weight = "0.5311145799089032" />
    <synapse sourceNeuronName = "4" targetNeuronName = "7" weight = "0.7786104700937568" />
    <synapse sourceNeuronName = "4" targetNeuronName = "8" weight = "0.17318755446403822" />
    <synapse sourceNeuronName = "4" targetNeuronName = "9" weight = "-0.47279072728536486" />
    <synapse sourceNeuronName = "4" targetNeuronName = "10" weight = "0.5328868680548966" />
    <synapse sourceNeuronName = "4" targetNeuronName = "11" weight = "0.6743580274297085" />
    <synapse sourceNeuronName = "4" targetNeuronName = "12" weight = "0.40934956533388767" />
    <synapse sourceNeuronName = "5" targetNeuronName = "6" weight = "0.7851351535198574" />
    <synapse sourceNeuronName = "5" targetNeuronName = "7" weight = "0.2075143599801308" />
    <synapse sourceNeuronName = "5" targetNeuronName = "8" weight = "0.9880781581108573" />
    <synapse sourceNeuronName = "5" targetNeuronName = "9" weight = "0.9938149389204678" />
    <synapse sourceNeuronName = "5" targetNeuronName = "10" weight = "0.4597566559839221" />
    <synapse sourceNeuronName = "5" targetNeuronName = "11" weight = "-0.5847357552704975" />
    <synapse sourceNeuronName = "5" targetNeuronName = "12" weight = "-0.2524008484114675" />
</neuralNetwork>