<neuralNetwork>
    <neuron name = "0" type = "sensor" linkName = "Link5" />
    <neuron name = "1" type = "sensor" linkName = "Link6" />
    <neuron name = "2" type = "sensor" linkName = "Link7" />
    <neuron name = "3" type = "motor"  jointName = "Link0_Link1" />
    <neuron name = "4" type = "motor"  jointName = "Link0_Link2" />
    <neuron name = "5" type = "motor"  jointName = "Link0_Link3" />
    <neuron name = "6" type = "motor"  jointName = "Link3_Link4" />
    <neuron name = "7" type = "motor"  jointName = "Link4_Link5" />
    <neuron name = "8" type = "motor"  jointName = "Link4_Link6" />
    <neuron name = "9" type = "motor"  jointName = "Link0_Link7" />
    <neuron name = "10" type = "motor"  jointName = "Link3_Link8" />
    <neuron name = "11" type = "motor"  jointName = "Link5_Link9" />
    <synapse sourceNeuronName = "0" targetNeuronName = "3" weight = "-0.6459235896212479" />
    <synapse sourceNeuronName = "0" targetNeuronName = "4" weight = "-0.6934253073030232" />
    <synapse sourceNeuronName = "0" targetNeuronName = "5" weight = "0.4720781908128928" />
    <synapse sourceNeuronName = "0" targetNeuronName = "6" weight = "-0.7292712291425143" />
    <synapse sourceNeuronName = "0" targetNeuronName = "7" weight = "-0.7563060939652231" />
    <synapse sourceNeuronName = "0" targetNeuronName = "8" weight = "0.46513424438801776" />
    <synapse sourceNeuronName = "0" targetNeuronName = "9" weight = "0.9491615638863484" />
    <synapse sourceNeuronName = "0" targetNeuronName = "10" weight = "0.19726803676350313" />
    <synapse sourceNeuronName = "0" targetNeuronName = "11" weight = "-0.6492134307725943" />
    <synapse sourceNeuronName = "1" targetNeuronName = "3" weight = "0.42805557707391184" />
    <synapse sourceNeuronName = "1" targetNeuronName = "4" weight = "-0.7115289278718968" />
    <synapse sourceNeuronName = "1" targetNeuronName = "5" weight = "0.2965336630202564" />
    <synapse sourceNeuronName = "1" targetNeuronName = "6" weight = "-0.12473783724317133" />
    <synapse sourceNeuronName = "1" targetNeuronName = "7" weight = "0.8283488230583751" />
    <synapse sourceNeuronName = "1" targetNeuronName = "8" weight = "-0.12797742752417363" />
    <synapse sourceNeuronName = "1" targetNeuronName = "9" weight = "-0.31017804959573514" />
    <synapse sourceNeuronName = "1" targetNeuronName = "10" weight = "0.6195467310352916" />
    <synapse sourceNeuronName = "1" targetNeuronName = "11" weight = "0.15721787468107462" />
    <synapse sourceNeuronName = "2" targetNeuronName = "3" weight = "0.27430637634314703" />
    <synapse sourceNeuronName = "2" targetNeuronName = "4" weight = "-0.2817353337069626" />
    <synapse sourceNeuronName = "2" targetNeuronName = "5" weight = "-0.8639193545427468" />
    <synapse sourceNeuronName = "2" targetNeuronName = "6" weight = "0.09621373571584546" />
    <synapse sourceNeuronName = "2" targetNeuronName = "7" weight = "-0.15102543150959513" />
    <synapse sourceNeuronName = "2" targetNeuronName = "8" weight = "0.9411375667797424" />
    <synapse sourceNeuronName = "2" targetNeuronName = "9" weight = "0.12362688184656867" />
    <synapse sourceNeuronName = "2" targetNeuronName = "10" weight = "-0.9575716313727529" />
    <synapse sourceNeuronName = "2" targetNeuronName = "11" weight = "-0.8335746797235952" />
</neuralNetwork>