<neuralNetwork>
    <neuron name = "0" type = "sensor" linkName = "Link0" />
    <neuron name = "1" type = "sensor" linkName = "Link4" />
    <neuron name = "2" type = "sensor" linkName = "Link5" />
    <neuron name = "3" type = "sensor" linkName = "Link6" />
    <neuron name = "4" type = "motor"  jointName = "Link0_Link1" />
    <neuron name = "5" type = "motor"  jointName = "Link1_Link2" />
    <neuron name = "6" type = "motor"  jointName = "Link2_Link3" />
    <neuron name = "7" type = "motor"  jointName = "Link1_Link4" />
    <neuron name = "8" type = "motor"  jointName = "Link4_Link5" />
    <neuron name = "9" type = "motor"  jointName = "Link3_Link6" />
    <synapse sourceNeuronName = "0" targetNeuronName = "4" weight = "-0.11436517899890664" />
    <synapse sourceNeuronName = "0" targetNeuronName = "5" weight = "-0.36952243677809227" />
    <synapse sourceNeuronName = "0" targetNeuronName = "6" weight = "-0.7284726214688388" />
    <synapse sourceNeuronName = "0" targetNeuronName = "7" weight = "-0.0709426384587113" />
    <synapse sourceNeuronName = "0" targetNeuronName = "8" weight = "-0.9909036796738862" />
    <synapse sourceNeuronName = "0" targetNeuronName = "9" weight = "-0.7510927728923029" />
    <synapse sourceNeuronName = "1" targetNeuronName = "4" weight = "0.43233279344745146" />
    <synapse sourceNeuronName = "1" targetNeuronName = "5" weight = "-0.36091165923512203" />
    <synapse sourceNeuronName = "1" targetNeuronName = "6" weight = "-0.5736169089773808" />
    <synapse sourceNeuronName = "1" targetNeuronName = "7" weight = "0.16858682853436924" />
    <synapse sourceNeuronName = "1" targetNeuronName = "8" weight = "-0.4973097001081319" />
    <synapse sourceNeuronName = "1" targetNeuronName = "9" weight = "-0.35523907310636726" />
    <synapse sourceNeuronName = "2" targetNeuronName = "4" weight = "-0.8372121621150992" />
    <synapse sourceNeuronName = "2" targetNeuronName = "5" weight = "-0.3630446516348016" />
    <synapse sourceNeuronName = "2" targetNeuronName = "6" weight = "0.7477996081659155" />
    <synapse sourceNeuronName = "2" targetNeuronName = "7" weight = "0.0552009137102325" />
    <synapse sourceNeuronName = "2" targetNeuronName = "8" weight = "-0.42776447179892574" />
    <synapse sourceNeuronName = "2" targetNeuronName = "9" weight = "0.05243836792098788" />
    <synapse sourceNeuronName = "3" targetNeuronName = "4" weight = "0.6167611417652628" />
    <synapse sourceNeuronName = "3" targetNeuronName = "5" weight = "-0.6715250918484792" />
    <synapse sourceNeuronName = "3" targetNeuronName = "6" weight = "-0.9363277771689895" />
    <synapse sourceNeuronName = "3" targetNeuronName = "7" weight = "0.3527309906187035" />
    <synapse sourceNeuronName = "3" targetNeuronName = "8" weight = "-0.9884242469193443" />
    <synapse sourceNeuronName = "3" targetNeuronName = "9" weight = "0.856920564553739" />
</neuralNetwork>