<neuralNetwork>
    <neuron name = "0" type = "sensor" linkName = "Link0" />
    <neuron name = "1" type = "sensor" linkName = "Link2" />
    <neuron name = "2" type = "sensor" linkName = "Link4" />
    <neuron name = "3" type = "sensor" linkName = "Link6" />
    <neuron name = "4" type = "motor"  jointName = "Link0_Link1" />
    <neuron name = "5" type = "motor"  jointName = "Link1_Link2" />
    <neuron name = "6" type = "motor"  jointName = "Link1_Link3" />
    <neuron name = "7" type = "motor"  jointName = "Link1_Link4" />
    <neuron name = "8" type = "motor"  jointName = "Link0_Link5" />
    <neuron name = "9" type = "motor"  jointName = "Link3_Link6" />
    <neuron name = "10" type = "motor"  jointName = "Link2_Link7" />
    <neuron name = "11" type = "motor"  jointName = "Link7_Link8" />
    <synapse sourceNeuronName = "0" targetNeuronName = "4" weight = "0.17134389449434773" />
    <synapse sourceNeuronName = "0" targetNeuronName = "5" weight = "-0.4201747813365284" />
    <synapse sourceNeuronName = "0" targetNeuronName = "6" weight = "-0.35880919145338974" />
    <synapse sourceNeuronName = "0" targetNeuronName = "7" weight = "-0.7061976791667073" />
    <synapse sourceNeuronName = "0" targetNeuronName = "8" weight = "-0.5245955334055976" />
    <synapse sourceNeuronName = "0" targetNeuronName = "9" weight = "-0.9733482846391901" />
    <synapse sourceNeuronName = "0" targetNeuronName = "10" weight = "0.5527327669164761" />
    <synapse sourceNeuronName = "0" targetNeuronName = "11" weight = "0.3444916810337306" />
    <synapse sourceNeuronName = "1" targetNeuronName = "4" weight = "0.30854164803326367" />
    <synapse sourceNeuronName = "1" targetNeuronName = "5" weight = "-0.5753799716488359" />
    <synapse sourceNeuronName = "1" targetNeuronName = "6" weight = "0.23373874152794372" />
    <synapse sourceNeuronName = "1" targetNeuronName = "7" weight = "0.982945792475244" />
    <synapse sourceNeuronName = "1" targetNeuronName = "8" weight = "-0.11104229155713718" />
    <synapse sourceNeuronName = "1" targetNeuronName = "9" weight = "-0.1493015654839538" />
    <synapse sourceNeuronName = "1" targetNeuronName = "10" weight = "0.5993460260373733" />
    <synapse sourceNeuronName = "1" targetNeuronName = "11" weight = "-0.8707145257317683" />
    <synapse sourceNeuronName = "2" targetNeuronName = "4" weight = "0.7086268904008406" />
    <synapse sourceNeuronName = "2" targetNeuronName = "5" weight = "0.27515843194777845" />
    <synapse sourceNeuronName = "2" targetNeuronName = "6" weight = "-0.09926986173587293" />
    <synapse sourceNeuronName = "2" targetNeuronName = "7" weight = "-0.8379564940953264" />
    <synapse sourceNeuronName = "2" targetNeuronName = "8" weight = "0.5903760066036248" />
    <synapse sourceNeuronName = "2" targetNeuronName = "9" weight = "-0.48835734539018794" />
    <synapse sourceNeuronName = "2" targetNeuronName = "10" weight = "0.491022375467999" />
    <synapse sourceNeuronName = "2" targetNeuronName = "11" weight = "-0.5737527126147506" />
    <synapse sourceNeuronName = "3" targetNeuronName = "4" weight = "-0.0923473875100762" />
    <synapse sourceNeuronName = "3" targetNeuronName = "5" weight = "0.275878715504142" />
    <synapse sourceNeuronName = "3" targetNeuronName = "6" weight = "0.5225281033618259" />
    <synapse sourceNeuronName = "3" targetNeuronName = "7" weight = "-0.19597264659257596" />
    <synapse sourceNeuronName = "3" targetNeuronName = "8" weight = "0.7101342770881616" />
    <synapse sourceNeuronName = "3" targetNeuronName = "9" weight = "-0.2737871738366451" />
    <synapse sourceNeuronName = "3" targetNeuronName = "10" weight = "0.7362833471486425" />
    <synapse sourceNeuronName = "3" targetNeuronName = "11" weight = "-0.3669257606251688" />
</neuralNetwork>