<neuralNetwork>
    <neuron name = "0" type = "sensor" linkName = "Link3" />
    <neuron name = "1" type = "sensor" linkName = "Link4" />
    <neuron name = "2" type = "sensor" linkName = "Link5" />
    <neuron name = "3" type = "sensor" linkName = "Link7" />
    <neuron name = "4" type = "sensor" linkName = "Link9" />
    <neuron name = "5" type = "sensor" linkName = "Link10" />
    <neuron name = "6" type = "motor"  jointName = "Link0_Link1" />
    <neuron name = "7" type = "motor"  jointName = "Link1_Link2" />
    <neuron name = "8" type = "motor"  jointName = "Link0_Link3" />
    <neuron name = "9" type = "motor"  jointName = "Link0_Link4" />
    <neuron name = "10" type = "motor"  jointName = "Link4_Link5" />
    <neuron name = "11" type = "motor"  jointName = "Link3_Link6" />
    <neuron name = "12" type = "motor"  jointName = "Link0_Link7" />
    <neuron name = "13" type = "motor"  jointName = "Link7_Link8" />
    <neuron name = "14" type = "motor"  jointName = "Link4_Link9" />
    <neuron name = "15" type = "motor"  jointName = "Link0_Link10" />
    <synapse sourceNeuronName = "0" targetNeuronName = "6" weight = "0.5588901685401451" />
    <synapse sourceNeuronName = "0" targetNeuronName = "7" weight = "-0.7544444774840737" />
    <synapse sourceNeuronName = "0" targetNeuronName = "8" weight = "-0.14785793829173022" />
    <synapse sourceNeuronName = "0" targetNeuronName = "9" weight = "0.1927571252621103" />
    <synapse sourceNeuronName = "0" targetNeuronName = "10" weight = "0.7638032086378559" />
    <synapse sourceNeuronName = "0" targetNeuronName = "11" weight = "0.7620933714963334" />
    <synapse sourceNeuronName = "0" targetNeuronName = "12" weight = "0.732348120003345" />
    <synapse sourceNeuronName = "0" targetNeuronName = "13" weight = "0.8337509749878018" />
    <synapse sourceNeuronName = "0" targetNeuronName = "14" weight = "0.6170188087212003" />
    <synapse sourceNeuronName = "0" targetNeuronName = "15" weight = "-0.9293021963807129" />
    <synapse sourceNeuronName = "1" targetNeuronName = "6" weight = "0.68853014781952" />
    <synapse sourceNeuronName = "1" targetNeuronName = "7" weight = "-0.9956465173532494" />
    <synapse sourceNeuronName = "1" targetNeuronName = "8" weight = "-0.08092760093405249" />
    <synapse sourceNeuronName = "1" targetNeuronName = "9" weight = "0.5863428231305166" />
    <synapse sourceNeuronName = "1" targetNeuronName = "10" weight = "-0.83962052854754" />
    <synapse sourceNeuronName = "1" targetNeuronName = "11" weight = "0.6470330063570575" />
    <synapse sourceNeuronName = "1" targetNeuronName = "12" weight = "0.34247255672935006" />
    <synapse sourceNeuronName = "1" targetNeuronName = "13" weight = "0.21437130749752575" />
    <synapse sourceNeuronName = "1" targetNeuronName = "14" weight = "0.30713832680153175" />
    <synapse sourceNeuronName = "1" targetNeuronName = "15" weight = "0.07101186571304519" />
    <synapse sourceNeuronName = "2" targetNeuronName = "6" weight = "0.9378710653131999" />
    <synapse sourceNeuronName = "2" targetNeuronName = "7" weight = "-0.00531677075097492" />
    <synapse sourceNeuronName = "2" targetNeuronName = "8" weight = "-0.10133077540348356" />
    <synapse sourceNeuronName = "2" targetNeuronName = "9" weight = "-0.6927223662765605" />
    <synapse sourceNeuronName = "2" targetNeuronName = "10" weight = "0.5679109585426811" />
    <synapse sourceNeuronName = "2" targetNeuronName = "11" weight = "0.6610104199913984" />
    <synapse sourceNeuronName = "2" targetNeuronName = "12" weight = "-0.09487508368387099" />
    <synapse sourceNeuronName = "2" targetNeuronName = "13" weight = "-0.5952186678906324" />
    <synapse sourceNeuronName = "2" targetNeuronName = "14" weight = "-0.11838188419261875" />
    <synapse sourceNeuronName = "2" targetNeuronName = "15" weight = "-0.2226137471866032" />
    <synapse sourceNeuronName = "3" targetNeuronName = "6" weight = "0.31207531057192406" />
    <synapse sourceNeuronName = "3" targetNeuronName = "7" weight = "0.8947706906208335" />
    <synapse sourceNeuronName = "3" targetNeuronName = "8" weight = "0.32884112189996895" />
    <synapse sourceNeuronName = "3" targetNeuronName = "9" weight = "-0.3707921862075785" />
    <synapse sourceNeuronName = "3" targetNeuronName = "10" weight = "0.9464002121497914" />
    <synapse sourceNeuronName = "3" targetNeuronName = "11" weight = "0.9776054101225098" />
    <synapse sourceNeuronName = "3" targetNeuronName = "12" weight = "0.5811800021558513" />
    <synapse sourceNeuronName = "3" targetNeuronName = "13" weight = "-0.6207298368539476" />
    <synapse sourceNeuronName = "3" targetNeuronName = "14" weight = "0.13076852477407241" />
    <synapse sourceNeuronName = "3" targetNeuronName = "15" weight = "0.4675408144566504" />
    <synapse sourceNeuronName = "4" targetNeuronName = "6" weight = "0.9326863074370979" />
    <synapse sourceNeuronName = "4" targetNeuronName = "7" weight = "0.6872352310024334" />
    <synapse sourceNeuronName = "4" targetNeuronName = "8" weight = "0.45854483049034633" />
    <synapse sourceNeuronName = "4" targetNeuronName = "9" weight = "0.007347613807316744" />
    <synapse sourceNeuronName = "4" targetNeuronName = "10" weight = "0.258852120973069" />
    <synapse sourceNeuronName = "4" targetNeuronName = "11" weight = "0.48612352601907194" />
    <synapse sourceNeuronName = "4" targetNeuronName = "12" weight = "-0.7041556976839267" />
    <synapse sourceNeuronName = "4" targetNeuronName = "13" weight = "-0.7946959370315598" />
    <synapse sourceNeuronName = "4" targetNeuronName = "14" weight = "0.9187499049616843" />
    <synapse sourceNeuronName = "4" targetNeuronName = "15" weight = "0.2540088950447388" />
    <synapse sourceNeuronName = "5" targetNeuronName = "6" weight = "-0.10888138309142592" />
    <synapse sourceNeuronName = "5" targetNeuronName = "7" weight = "-0.902176989874919" />
    <synapse sourceNeuronName = "5" targetNeuronName = "8" weight = "-0.5339130767308655" />
    <synapse sourceNeuronName = "5" targetNeuronName = "9" weight = "0.38103423653688084" />
    <synapse sourceNeuronName = "5" targetNeuronName = "10" weight = "-0.2064993135730917" />
    <synapse sourceNeuronName = "5" targetNeuronName = "11" weight = "-0.10318569455484772" />
    <synapse sourceNeuronName = "5" targetNeuronName = "12" weight = "-0.17692326928980662" />
    <synapse sourceNeuronName = "5" targetNeuronName = "13" weight = "0.3818761871466674" />
    <synapse sourceNeuronName = "5" targetNeuronName = "14" weight = "0.3783996530718028" />
    <synapse sourceNeuronName = "5" targetNeuronName = "15" weight = "-0.9623767562648597" />
</neuralNetwork>