<neuralNetwork>
    <neuron name = "0" type = "sensor" linkName = "Link0" />
    <neuron name = "1" type = "sensor" linkName = "Link2" />
    <neuron name = "2" type = "sensor" linkName = "Link4" />
    <neuron name = "3" type = "sensor" linkName = "Link5" />
    <neuron name = "4" type = "sensor" linkName = "Link7" />
    <neuron name = "5" type = "motor"  jointName = "Link0_Link1" />
    <neuron name = "6" type = "motor"  jointName = "Link1_Link2" />
    <neuron name = "7" type = "motor"  jointName = "Link1_Link3" />
    <neuron name = "8" type = "motor"  jointName = "Link1_Link4" />
    <neuron name = "9" type = "motor"  jointName = "Link3_Link5" />
    <neuron name = "10" type = "motor"  jointName = "Link2_Link6" />
    <neuron name = "11" type = "motor"  jointName = "Link6_Link7" />
    <synapse sourceNeuronName = "0" targetNeuronName = "5" weight = "-0.9844077378452616" />
    <synapse sourceNeuronName = "0" targetNeuronName = "6" weight = "-0.13427647068382798" />
    <synapse sourceNeuronName = "0" targetNeuronName = "7" weight = "0.46134090425073304" />
    <synapse sourceNeuronName = "0" targetNeuronName = "8" weight = "-0.2545390801492957" />
    <synapse sourceNeuronName = "0" targetNeuronName = "9" weight = "0.4728040869708485" />
    <synapse sourceNeuronName = "0" targetNeuronName = "10" weight = "-0.9695626710490854" />
    <synapse sourceNeuronName = "0" targetNeuronName = "11" weight = "-0.9902717404255728" />
    <synapse sourceNeuronName = "1" targetNeuronName = "5" weight = "-0.3290756112258926" />
    <synapse sourceNeuronName = "1" targetNeuronName = "6" weight = "0.06507012242087318" />
    <synapse sourceNeuronName = "1" targetNeuronName = "7" weight = "-0.23015192613475466" />
    <synapse sourceNeuronName = "1" targetNeuronName = "8" weight = "0.9787759415676478" />
    <synapse sourceNeuronName = "1" targetNeuronName = "9" weight = "0.5353739724652884" />
    <synapse sourceNeuronName = "1" targetNeuronName = "10" weight = "0.10059573325398485" />
    <synapse sourceNeuronName = "1" targetNeuronName = "11" weight = "0.31658712766190256" />
    <synapse sourceNeuronName = "2" targetNeuronName = "5" weight = "0.05161377056515759" />
    <synapse sourceNeuronName = "2" targetNeuronName = "6" weight = "0.47443665353350895" />
    <synapse sourceNeuronName = "2" targetNeuronName = "7" weight = "-0.7607589512764643" />
    <synapse sourceNeuronName = "2" targetNeuronName = "8" weight = "-0.7951163021521122" />
    <synapse sourceNeuronName = "2" targetNeuronName = "9" weight = "0.6371283395984333" />
    <synapse sourceNeuronName = "2" targetNeuronName = "10" weight = "0.2966224705952041" />
    <synapse sourceNeuronName = "2" targetNeuronName = "11" weight = "-0.39140446531962003" />
    <synapse sourceNeuronName = "3" targetNeuronName = "5" weight = "-0.62317077886559" />
    <synapse sourceNeuronName = "3" targetNeuronName = "6" weight = "-0.5582664131670354" />
    <synapse sourceNeuronName = "3" targetNeuronName = "7" weight = "-0.11660102298899044" />
    <synapse sourceNeuronName = "3" targetNeuronName = "8" weight = "-0.2526968055718204" />
    <synapse sourceNeuronName = "3" targetNeuronName = "9" weight = "-0.9167272170054481" />
    <synapse sourceNeuronName = "3" targetNeuronName = "10" weight = "0.058509069161936766" />
    <synapse sourceNeuronName = "3" targetNeuronName = "11" weight = "0.6314235665017967" />
    <synapse sourceNeuronName = "4" targetNeuronName = "5" weight = "-0.7901563603159094" />
    <synapse sourceNeuronName = "4" targetNeuronName = "6" weight = "-0.15361511635787473" />
    <synapse sourceNeuronName = "4" targetNeuronName = "7" weight = "0.8580977101675762" />
    <synapse sourceNeuronName = "4" targetNeuronName = "8" weight = "0.36816444773842716" />
    <synapse sourceNeuronName = "4" targetNeuronName = "9" weight = "0.283992999177731" />
    <synapse sourceNeuronName = "4" targetNeuronName = "10" weight = "0.020296142416308616" />
    <synapse sourceNeuronName = "4" targetNeuronName = "11" weight = "-0.13851363211317902" />
</neuralNetwork>