<neuralNetwork>
    <neuron name = "0" type = "sensor" linkName = "Link0" />
    <neuron name = "1" type = "sensor" linkName = "Link2" />
    <neuron name = "2" type = "sensor" linkName = "Link4" />
    <neuron name = "3" type = "sensor" linkName = "Link6" />
    <neuron name = "4" type = "motor"  jointName = "Link0_Link1" />
    <neuron name = "5" type = "motor"  jointName = "Link1_Link2" />
    <neuron name = "6" type = "motor"  jointName = "Link1_Link3" />
    <neuron name = "7" type = "motor"  jointName = "Link1_Link4" />
    <neuron name = "8" type = "motor"  jointName = "Link0_Link5" />
    <neuron name = "9" type = "motor"  jointName = "Link3_Link6" />
    <neuron name = "10" type = "motor"  jointName = "Link2_Link7" />
    <synapse sourceNeuronName = "0" targetNeuronName = "4" weight = "-0.6742470843749986" />
    <synapse sourceNeuronName = "0" targetNeuronName = "5" weight = "-0.287156769634612" />
    <synapse sourceNeuronName = "0" targetNeuronName = "6" weight = "-0.12487355537736655" />
    <synapse sourceNeuronName = "0" targetNeuronName = "7" weight = "0.14517874889353855" />
    <synapse sourceNeuronName = "0" targetNeuronName = "8" weight = "-0.06575420561570033" />
    <synapse sourceNeuronName = "0" targetNeuronName = "9" weight = "-0.5690586879199564" />
    <synapse sourceNeuronName = "0" targetNeuronName = "10" weight = "-0.06766205324190167" />
    <synapse sourceNeuronName = "1" targetNeuronName = "4" weight = "-0.7657667119930534" />
    <synapse sourceNeuronName = "1" targetNeuronName = "5" weight = "-0.2990909126749308" />
    <synapse sourceNeuronName = "1" targetNeuronName = "6" weight = "0.4736207411062663" />
    <synapse sourceNeuronName = "1" targetNeuronName = "7" weight = "-0.8854596465525357" />
    <synapse sourceNeuronName = "1" targetNeuronName = "8" weight = "0.5109741178467975" />
    <synapse sourceNeuronName = "1" targetNeuronName = "9" weight = "0.19224467020047964" />
    <synapse sourceNeuronName = "1" targetNeuronName = "10" weight = "0.7464733053220987" />
    <synapse sourceNeuronName = "2" targetNeuronName = "4" weight = "-0.9329921883998953" />
    <synapse sourceNeuronName = "2" targetNeuronName = "5" weight = "0.995817882304395" />
    <synapse sourceNeuronName = "2" targetNeuronName = "6" weight = "0.055912482238573924" />
    <synapse sourceNeuronName = "2" targetNeuronName = "7" weight = "-0.22195287755884707" />
    <synapse sourceNeuronName = "2" targetNeuronName = "8" weight = "-0.7610720396835808" />
    <synapse sourceNeuronName = "2" targetNeuronName = "9" weight = "-0.8742906212569774" />
    <synapse sourceNeuronName = "2" targetNeuronName = "10" weight = "-0.13770446916970602" />
    <synapse sourceNeuronName = "3" targetNeuronName = "4" weight = "0.07741266392270085" />
    <synapse sourceNeuronName = "3" targetNeuronName = "5" weight = "-0.540609655892089" />
    <synapse sourceNeuronName = "3" targetNeuronName = "6" weight = "0.5209782715660274" />
    <synapse sourceNeuronName = "3" targetNeuronName = "7" weight = "0.6305806650215666" />
    <synapse sourceNeuronName = "3" targetNeuronName = "8" weight = "0.9977138089928064" />
    <synapse sourceNeuronName = "3" targetNeuronName = "9" weight = "-0.5207338178282492" />
    <synapse sourceNeuronName = "3" targetNeuronName = "10" weight = "0.273113131189596" />
</neuralNetwork>