<neuralNetwork>
    <neuron name = "0" type = "sensor" linkName = "Link1" />
    <neuron name = "1" type = "sensor" linkName = "Link2" />
    <neuron name = "2" type = "sensor" linkName = "Link3" />
    <neuron name = "3" type = "sensor" linkName = "Link5" />
    <neuron name = "4" type = "sensor" linkName = "Link6" />
    <neuron name = "5" type = "sensor" linkName = "Link7" />
    <neuron name = "6" type = "motor"  jointName = "Link0_Link1" />
    <neuron name = "7" type = "motor"  jointName = "Link0_Link2" />
    <neuron name = "8" type = "motor"  jointName = "Link2_Link3" />
    <neuron name = "9" type = "motor"  jointName = "Link1_Link4" />
    <neuron name = "10" type = "motor"  jointName = "Link0_Link5" />
    <neuron name = "11" type = "motor"  jointName = "Link2_Link6" />
    <neuron name = "12" type = "motor"  jointName = "Link4_Link7" />
    <synapse sourceNeuronName = "0" targetNeuronName = "6" weight = "0.7506323985683747" />
    <synapse sourceNeuronName = "0" targetNeuronName = "7" weight = "0.9385220815283037" />
    <synapse sourceNeuronName = "0" targetNeuronName = "8" weight = "0.9055381183192937" />
    <synapse sourceNeuronName = "0" targetNeuronName = "9" weight = "-0.40335783953073157" />
    <synapse sourceNeuronName = "0" targetNeuronName = "10" weight = "0.18439208082551017" />
    <synapse sourceNeuronName = "0" targetNeuronName = "11" weight = "-0.3511464268407565" />
    <synapse sourceNeuronName = "0" targetNeuronName = "12" weight = "0.7657897630562631" />
    <synapse sourceNeuronName = "1" targetNeuronName = "6" weight = "0.9094116204406615" />
    <synapse sourceNeuronName = "1" targetNeuronName = "7" weight = "0.05715098615588721" />
    <synapse sourceNeuronName = "1" targetNeuronName = "8" weight = "-0.8908425232308745" />
    <synapse sourceNeuronName = "1" targetNeuronName = "9" weight = "0.9708846074736004" />
    <synapse sourceNeuronName = "1" targetNeuronName = "10" weight = "-0.5878488293314137" />
    <synapse sourceNeuronName = "1" targetNeuronName = "11" weight = "-0.2245736723875209" />
    <synapse sourceNeuronName = "1" targetNeuronName = "12" weight = "-0.9649648963080992" />
    <synapse sourceNeuronName = "2" targetNeuronName = "6" weight = "0.988927436285169" />
    <synapse sourceNeuronName = "2" targetNeuronName = "7" weight = "0.3126939073209323" />
    <synapse sourceNeuronName = "2" targetNeuronName = "8" weight = "-0.5599567302167467" />
    <synapse sourceNeuronName = "2" targetNeuronName = "9" weight = "-0.26478966779561985" />
    <synapse sourceNeuronName = "2" targetNeuronName = "10" weight = "-0.06688648867053959" />
    <synapse sourceNeuronName = "2" targetNeuronName = "11" weight = "-0.42808454654777806" />
    <synapse sourceNeuronName = "2" targetNeuronName = "12" weight = "-0.308258076831341" />
    <synapse sourceNeuronName = "3" targetNeuronName = "6" weight = "-0.672390014001998" />
    <synapse sourceNeuronName = "3" targetNeuronName = "7" weight = "-0.6977171733458107" />
    <synapse sourceNeuronName = "3" targetNeuronName = "8" weight = "0.7136393078730126" />
    <synapse sourceNeuronName = "3" targetNeuronName = "9" weight = "0.13684217840698398" />
    <synapse sourceNeuronName = "3" targetNeuronName = "10" weight = "0.6024348131806054" />
    <synapse sourceNeuronName = "3" targetNeuronName = "11" weight = "0.16593274523368584" />
    <synapse sourceNeuronName = "3" targetNeuronName = "12" weight = "-0.08771739974219828" />
    <synapse sourceNeuronName = "4" targetNeuronName = "6" weight = "-0.09968628983028394" />
    <synapse sourceNeuronName = "4" targetNeuronName = "7" weight = "0.659578523991033" />
    <synapse sourceNeuronName = "4" targetNeuronName = "8" weight = "0.733336445699508" />
    <synapse sourceNeuronName = "4" targetNeuronName = "9" weight = "0.13198278087739657" />
    <synapse sourceNeuronName = "4" targetNeuronName = "10" weight = "0.8396915673818486" />
    <synapse sourceNeuronName = "4" targetNeuronName = "11" weight = "-0.27196645224300275" />
    <synapse sourceNeuronName = "4" targetNeuronName = "12" weight = "-0.3771269956930705" />
    <synapse sourceNeuronName = "5" targetNeuronName = "6" weight = "-0.9351087326005425" />
    <synapse sourceNeuronName = "5" targetNeuronName = "7" weight = "-0.09527140366960474" />
    <synapse sourceNeuronName = "5" targetNeuronName = "8" weight = "0.36444725433375447" />
    <synapse sourceNeuronName = "5" targetNeuronName = "9" weight = "0.17408779777915373" />
    <synapse sourceNeuronName = "5" targetNeuronName = "10" weight = "-0.36746482773342115" />
    <synapse sourceNeuronName = "5" targetNeuronName = "11" weight = "-0.4827282812750229" />
    <synapse sourceNeuronName = "5" targetNeuronName = "12" weight = "-0.8530865499102249" />
</neuralNetwork>