<neuralNetwork>
    <neuron name = "0" type = "sensor" linkName = "Link0" />
    <neuron name = "1" type = "sensor" linkName = "Link1" />
    <neuron name = "2" type = "sensor" linkName = "Link2" />
    <neuron name = "3" type = "sensor" linkName = "Link3" />
    <neuron name = "4" type = "sensor" linkName = "Link4" />
    <neuron name = "5" type = "sensor" linkName = "Link5" />
    <neuron name = "6" type = "motor"  jointName = "Link0_Link1" />
    <neuron name = "7" type = "motor"  jointName = "Link1_Link2" />
    <neuron name = "8" type = "motor"  jointName = "Link2_Link3" />
    <neuron name = "9" type = "motor"  jointName = "Link0_Link4" />
    <neuron name = "10" type = "motor"  jointName = "Link1_Link5" />
    <neuron name = "11" type = "motor"  jointName = "Link4_Link6" />
    <synapse sourceNeuronName = "0" targetNeuronName = "6" weight = "-0.07997178857672349" />
    <synapse sourceNeuronName = "0" targetNeuronName = "7" weight = "-0.024616665251647074" />
    <synapse sourceNeuronName = "0" targetNeuronName = "8" weight = "-0.19354288566230604" />
    <synapse sourceNeuronName = "0" targetNeuronName = "9" weight = "0.31706804643764963" />
    <synapse sourceNeuronName = "0" targetNeuronName = "10" weight = "0.7101230969585821" />
    <synapse sourceNeuronName = "0" targetNeuronName = "11" weight = "-0.23456199749758833" />
    <synapse sourceNeuronName = "1" targetNeuronName = "6" weight = "0.3466306619491337" />
    <synapse sourceNeuronName = "1" targetNeuronName = "7" weight = "-0.7594403433296311" />
    <synapse sourceNeuronName = "1" targetNeuronName = "8" weight = "-0.4722877602244393" />
    <synapse sourceNeuronName = "1" targetNeuronName = "9" weight = "0.9862537001726319" />
    <synapse sourceNeuronName = "1" targetNeuronName = "10" weight = "0.2684022177962788" />
    <synapse sourceNeuronName = "1" targetNeuronName = "11" weight = "0.24722939673192856" />
    <synapse sourceNeuronName = "2" targetNeuronName = "6" weight = "-0.20723604053536926" />
    <synapse sourceNeuronName = "2" targetNeuronName = "7" weight = "-0.20114935826923386" />
    <synapse sourceNeuronName = "2" targetNeuronName = "8" weight = "0.25520950864515424" />
    <synapse sourceNeuronName = "2" targetNeuronName = "9" weight = "-0.10565904300755125" />
    <synapse sourceNeuronName = "2" targetNeuronName = "10" weight = "0.15052480381390443" />
    <synapse sourceNeuronName = "2" targetNeuronName = "11" weight = "-0.839937172030379" />
    <synapse sourceNeuronName = "3" targetNeuronName = "6" weight = "0.563387277386322" />
    <synapse sourceNeuronName = "3" targetNeuronName = "7" weight = "-0.49071968150655754" />
    <synapse sourceNeuronName = "3" targetNeuronName = "8" weight = "0.23439159773436513" />
    <synapse sourceNeuronName = "3" targetNeuronName = "9" weight = "-0.998969936020262" />
    <synapse sourceNeuronName = "3" targetNeuronName = "10" weight = "-0.1285959853886096" />
    <synapse sourceNeuronName = "3" targetNeuronName = "11" weight = "0.12467798127007623" />
    <synapse sourceNeuronName = "4" targetNeuronName = "6" weight = "-0.39130210400238274" />
    <synapse sourceNeuronName = "4" targetNeuronName = "7" weight = "0.3240226343077699" />
    <synapse sourceNeuronName = "4" targetNeuronName = "8" weight = "0.8939151274387414" />
    <synapse sourceNeuronName = "4" targetNeuronName = "9" weight = "-0.8523567468626254" />
    <synapse sourceNeuronName = "4" targetNeuronName = "10" weight = "-0.06579064437497384" />
    <synapse sourceNeuronName = "4" targetNeuronName = "11" weight = "-0.3476420079042879" />
    <synapse sourceNeuronName = "5" targetNeuronName = "6" weight = "-0.6657937698565346" />
    <synapse sourceNeuronName = "5" targetNeuronName = "7" weight = "-0.6883421220991641" />
    <synapse sourceNeuronName = "5" targetNeuronName = "8" weight = "0.6290283266337386" />
    <synapse sourceNeuronName = "5" targetNeuronName = "9" weight = "0.9202799424871198" />
    <synapse sourceNeuronName = "5" targetNeuronName = "10" weight = "-0.09078381315076745" />
    <synapse sourceNeuronName = "5" targetNeuronName = "11" weight = "-0.7709839647948833" />
</neuralNetwork>