<neuralNetwork>
    <neuron name = "0" type = "sensor" linkName = "Link0" />
    <neuron name = "1" type = "sensor" linkName = "Link2" />
    <neuron name = "2" type = "sensor" linkName = "Link4" />
    <neuron name = "3" type = "sensor" linkName = "Link7" />
    <neuron name = "4" type = "motor"  jointName = "Link0_Link1" />
    <neuron name = "5" type = "motor"  jointName = "Link1_Link2" />
    <neuron name = "6" type = "motor"  jointName = "Link1_Link3" />
    <neuron name = "7" type = "motor"  jointName = "Link1_Link4" />
    <neuron name = "8" type = "motor"  jointName = "Link0_Link5" />
    <neuron name = "9" type = "motor"  jointName = "Link2_Link6" />
    <neuron name = "10" type = "motor"  jointName = "Link6_Link7" />
    <synapse sourceNeuronName = "0" targetNeuronName = "4" weight = "0.8693918137448722" />
    <synapse sourceNeuronName = "0" targetNeuronName = "5" weight = "0.16833705640631202" />
    <synapse sourceNeuronName = "0" targetNeuronName = "6" weight = "-0.4936564761639859" />
    <synapse sourceNeuronName = "0" targetNeuronName = "7" weight = "-0.6467473638279688" />
    <synapse sourceNeuronName = "0" targetNeuronName = "8" weight = "-0.7153783265459988" />
    <synapse sourceNeuronName = "0" targetNeuronName = "9" weight = "-0.4102250319601679" />
    <synapse sourceNeuronName = "0" targetNeuronName = "10" weight = "0.2929831439429771" />
    <synapse sourceNeuronName = "1" targetNeuronName = "4" weight = "0.12217209106681937" />
    <synapse sourceNeuronName = "1" targetNeuronName = "5" weight = "-0.7028287662592061" />
    <synapse sourceNeuronName = "1" targetNeuronName = "6" weight = "0.6994973978873562" />
    <synapse sourceNeuronName = "1" targetNeuronName = "7" weight = "0.4795283275660289" />
    <synapse sourceNeuronName = "1" targetNeuronName = "8" weight = "-0.5975057771288412" />
    <synapse sourceNeuronName = "1" targetNeuronName = "9" weight = "0.7946681795485082" />
    <synapse sourceNeuronName = "1" targetNeuronName = "10" weight = "-0.42882092314892684" />
    <synapse sourceNeuronName = "2" targetNeuronName = "4" weight = "0.833133092108121" />
    <synapse sourceNeuronName = "2" targetNeuronName = "5" weight = "-0.2670017069370796" />
    <synapse sourceNeuronName = "2" targetNeuronName = "6" weight = "0.8076251788950024" />
    <synapse sourceNeuronName = "2" targetNeuronName = "7" weight = "-0.8057005898943475" />
    <synapse sourceNeuronName = "2" targetNeuronName = "8" weight = "0.5165316185341562" />
    <synapse sourceNeuronName = "2" targetNeuronName = "9" weight = "-0.4303562406488495" />
    <synapse sourceNeuronName = "2" targetNeuronName = "10" weight = "0.6243505400172942" />
    <synapse sourceNeuronName = "3" targetNeuronName = "4" weight = "0.4950453378032471" />
    <synapse sourceNeuronName = "3" targetNeuronName = "5" weight = "0.12238878012418808" />
    <synapse sourceNeuronName = "3" targetNeuronName = "6" weight = "0.8434648816185826" />
    <synapse sourceNeuronName = "3" targetNeuronName = "7" weight = "-0.8231516964907923" />
    <synapse sourceNeuronName = "3" targetNeuronName = "8" weight = "-0.37881971814776483" />
    <synapse sourceNeuronName = "3" targetNeuronName = "9" weight = "0.08254119355554179" />
    <synapse sourceNeuronName = "3" targetNeuronName = "10" weight = "-0.04697845513352239" />
</neuralNetwork>