<neuralNetwork>
    <neuron name = "0" type = "sensor" linkName = "Link2" />
    <neuron name = "1" type = "sensor" linkName = "Link3" />
    <neuron name = "2" type = "sensor" linkName = "Link4" />
    <neuron name = "3" type = "sensor" linkName = "Link6" />
    <neuron name = "4" type = "sensor" linkName = "Link7" />
    <neuron name = "5" type = "sensor" linkName = "Link8" />
    <neuron name = "6" type = "motor"  jointName = "Link0_Link1" />
    <neuron name = "7" type = "motor"  jointName = "Link0_Link2" />
    <neuron name = "8" type = "motor"  jointName = "Link0_Link3" />
    <neuron name = "9" type = "motor"  jointName = "Link3_Link4" />
    <neuron name = "10" type = "motor"  jointName = "Link2_Link5" />
    <neuron name = "11" type = "motor"  jointName = "Link0_Link6" />
    <neuron name = "12" type = "motor"  jointName = "Link3_Link7" />
    <neuron name = "13" type = "motor"  jointName = "Link5_Link8" />
    <neuron name = "14" type = "motor"  jointName = "Link0_Link9" />
    <synapse sourceNeuronName = "0" targetNeuronName = "6" weight = "0.3797743557133664" />
    <synapse sourceNeuronName = "0" targetNeuronName = "7" weight = "-0.6390236076115738" />
    <synapse sourceNeuronName = "0" targetNeuronName = "8" weight = "-0.4645281472530103" />
    <synapse sourceNeuronName = "0" targetNeuronName = "9" weight = "0.4137600065184397" />
    <synapse sourceNeuronName = "0" targetNeuronName = "10" weight = "-0.9755109519731118" />
    <synapse sourceNeuronName = "0" targetNeuronName = "11" weight = "0.8093868832834932" />
    <synapse sourceNeuronName = "0" targetNeuronName = "12" weight = "-0.19682077181235913" />
    <synapse sourceNeuronName = "0" targetNeuronName = "13" weight = "-0.04508034129569638" />
    <synapse sourceNeuronName = "0" targetNeuronName = "14" weight = "-0.6293372076128849" />
    <synapse sourceNeuronName = "1" targetNeuronName = "6" weight = "-0.23620131359882368" />
    <synapse sourceNeuronName = "1" targetNeuronName = "7" weight = "0.3335661969555308" />
    <synapse sourceNeuronName = "1" targetNeuronName = "8" weight = "-0.5964306987692114" />
    <synapse sourceNeuronName = "1" targetNeuronName = "9" weight = "0.5048069323004098" />
    <synapse sourceNeuronName = "1" targetNeuronName = "10" weight = "0.02300919886793329" />
    <synapse sourceNeuronName = "1" targetNeuronName = "11" weight = "-0.2281064445623553" />
    <synapse sourceNeuronName = "1" targetNeuronName = "12" weight = "-0.16832639929157467" />
    <synapse sourceNeuronName = "1" targetNeuronName = "13" weight = "0.46201831333514565" />
    <synapse sourceNeuronName = "1" targetNeuronName = "14" weight = "0.6694319891618263" />
    <synapse sourceNeuronName = "2" targetNeuronName = "6" weight = "-0.12500655880688116" />
    <synapse sourceNeuronName = "2" targetNeuronName = "7" weight = "-0.7023986228760728" />
    <synapse sourceNeuronName = "2" targetNeuronName = "8" weight = "0.5526580802672549" />
    <synapse sourceNeuronName = "2" targetNeuronName = "9" weight = "0.4833447410415994" />
    <synapse sourceNeuronName = "2" targetNeuronName = "10" weight = "-0.612244770768207" />
    <synapse sourceNeuronName = "2" targetNeuronName = "11" weight = "-0.3632530199863184" />
    <synapse sourceNeuronName = "2" targetNeuronName = "12" weight = "-0.696665865907274" />
    <synapse sourceNeuronName = "2" targetNeuronName = "13" weight = "-0.3495637521096864" />
    <synapse sourceNeuronName = "2" targetNeuronName = "14" weight = "0.38334020822389414" />
    <synapse sourceNeuronName = "3" targetNeuronName = "6" weight = "0.5423737030979086" />
    <synapse sourceNeuronName = "3" targetNeuronName = "7" weight = "0.06005256560845473" />
    <synapse sourceNeuronName = "3" targetNeuronName = "8" weight = "0.9558423262251474" />
    <synapse sourceNeuronName = "3" targetNeuronName = "9" weight = "0.969696039892882" />
    <synapse sourceNeuronName = "3" targetNeuronName = "10" weight = "0.3898392978206937" />
    <synapse sourceNeuronName = "3" targetNeuronName = "11" weight = "-0.3614015849302794" />
    <synapse sourceNeuronName = "3" targetNeuronName = "12" weight = "0.711746613492168" />
    <synapse sourceNeuronName = "3" targetNeuronName = "13" weight = "0.6060633011421872" />
    <synapse sourceNeuronName = "3" targetNeuronName = "14" weight = "-0.5330051635542552" />
    <synapse sourceNeuronName = "4" targetNeuronName = "6" weight = "-0.17557432938867024" />
    <synapse sourceNeuronName = "4" targetNeuronName = "7" weight = "-0.4379106012811458" />
    <synapse sourceNeuronName = "4" targetNeuronName = "8" weight = "-0.04196352028667372" />
    <synapse sourceNeuronName = "4" targetNeuronName = "9" weight = "-0.19055843171917752" />
    <synapse sourceNeuronName = "4" targetNeuronName = "10" weight = "0.8872270274211189" />
    <synapse sourceNeuronName = "4" targetNeuronName = "11" weight = "0.0015277062505527628" />
    <synapse sourceNeuronName = "4" targetNeuronName = "12" weight = "-0.009930349045974562" />
    <synapse sourceNeuronName = "4" targetNeuronName = "13" weight = "0.8076634331111159" />
    <synapse sourceNeuronName = "4" targetNeuronName = "14" weight = "0.6896444494157519" />
    <synapse sourceNeuronName = "5" targetNeuronName = "6" weight = "-0.20362360992113482" />
    <synapse sourceNeuronName = "5" targetNeuronName = "7" weight = "0.6353295754897366" />
    <synapse sourceNeuronName = "5" targetNeuronName = "8" weight = "0.9429923258987545" />
    <synapse sourceNeuronName = "5" targetNeuronName = "9" weight = "-0.2782534153706093" />
    <synapse sourceNeuronName = "5" targetNeuronName = "10" weight = "0.038278855353331975" />
    <synapse sourceNeuronName = "5" targetNeuronName = "11" weight = "-0.7470112805387905" />
    <synapse sourceNeuronName = "5" targetNeuronName = "12" weight = "-0.7829075429192487" />
    <synapse sourceNeuronName = "5" targetNeuronName = "13" weight = "0.4697882553514001" />
    <synapse sourceNeuronName = "5" targetNeuronName = "14" weight = "0.7796930670326838" />
</neuralNetwork>