<neuralNetwork>
    <neuron name = "0" type = "sensor" linkName = "Link0" />
    <neuron name = "1" type = "sensor" linkName = "Link2" />
    <neuron name = "2" type = "sensor" linkName = "Link4" />
    <neuron name = "3" type = "sensor" linkName = "Link6" />
    <neuron name = "4" type = "sensor" linkName = "Link8" />
    <neuron name = "5" type = "sensor" linkName = "Link9" />
    <neuron name = "6" type = "motor"  jointName = "Link0_Link1" />
    <neuron name = "7" type = "motor"  jointName = "Link1_Link2" />
    <neuron name = "8" type = "motor"  jointName = "Link1_Link3" />
    <neuron name = "9" type = "motor"  jointName = "Link1_Link4" />
    <neuron name = "10" type = "motor"  jointName = "Link0_Link5" />
    <neuron name = "11" type = "motor"  jointName = "Link3_Link6" />
    <neuron name = "12" type = "motor"  jointName = "Link2_Link7" />
    <neuron name = "13" type = "motor"  jointName = "Link7_Link8" />
    <neuron name = "14" type = "motor"  jointName = "Link5_Link9" />
    <synapse sourceNeuronName = "0" targetNeuronName = "6" weight = "-0.012910571397101833" />
    <synapse sourceNeuronName = "0" targetNeuronName = "7" weight = "-0.19664484418190997" />
    <synapse sourceNeuronName = "0" targetNeuronName = "8" weight = "0.3938223654702693" />
    <synapse sourceNeuronName = "0" targetNeuronName = "9" weight = "-0.17548183540678197" />
    <synapse sourceNeuronName = "0" targetNeuronName = "10" weight = "-0.12044155791463274" />
    <synapse sourceNeuronName = "0" targetNeuronName = "11" weight = "-0.49667012397525423" />
    <synapse sourceNeuronName = "0" targetNeuronName = "12" weight = "0.9546927519578634" />
    <synapse sourceNeuronName = "0" targetNeuronName = "13" weight = "-0.64237698825159" />
    <synapse sourceNeuronName = "0" targetNeuronName = "14" weight = "-0.1978656208514853" />
    <synapse sourceNeuronName = "1" targetNeuronName = "6" weight = "0.474792448581709" />
    <synapse sourceNeuronName = "1" targetNeuronName = "7" weight = "-0.7991113026708667" />
    <synapse sourceNeuronName = "1" targetNeuronName = "8" weight = "0.36185748958316566" />
    <synapse sourceNeuronName = "1" targetNeuronName = "9" weight = "0.14679913602011152" />
    <synapse sourceNeuronName = "1" targetNeuronName = "10" weight = "-0.9349303458297789" />
    <synapse sourceNeuronName = "1" targetNeuronName = "11" weight = "-0.03814450094565425" />
    <synapse sourceNeuronName = "1" targetNeuronName = "12" weight = "-0.8530430600912728" />
    <synapse sourceNeuronName = "1" targetNeuronName = "13" weight = "-0.5760322903230517" />
    <synapse sourceNeuronName = "1" targetNeuronName = "14" weight = "0.5232757565163859" />
    <synapse sourceNeuronName = "2" targetNeuronName = "6" weight = "-0.3442588159228588" />
    <synapse sourceNeuronName = "2" targetNeuronName = "7" weight = "-0.9159087106757362" />
    <synapse sourceNeuronName = "2" targetNeuronName = "8" weight = "-0.3951014528896801" />
    <synapse sourceNeuronName = "2" targetNeuronName = "9" weight = "-0.06435850884624217" />
    <synapse sourceNeuronName = "2" targetNeuronName = "10" weight = "-0.8064582447483457" />
    <synapse sourceNeuronName = "2" targetNeuronName = "11" weight = "-0.25479388270437986" />
    <synapse sourceNeuronName = "2" targetNeuronName = "12" weight = "-0.0998685068355758" />
    <synapse sourceNeuronName = "2" targetNeuronName = "13" weight = "0.526923682687156" />
    <synapse sourceNeuronName = "2" targetNeuronName = "14" weight = "0.9050383479452324" />
    <synapse sourceNeuronName = "3" targetNeuronName = "6" weight = "-0.13369566155672175" />
    <synapse sourceNeuronName = "3" targetNeuronName = "7" weight = "0.9525913194404481" />
    <synapse sourceNeuronName = "3" targetNeuronName = "8" weight = "-0.22898182224886376" />
    <synapse sourceNeuronName = "3" targetNeuronName = "9" weight = "0.7018608217827695" />
    <synapse sourceNeuronName = "3" targetNeuronName = "10" weight = "-0.42725834226111403" />
    <synapse sourceNeuronName = "3" targetNeuronName = "11" weight = "0.4591132303719372" />
    <synapse sourceNeuronName = "3" targetNeuronName = "12" weight = "-0.42626585073803747" />
    <synapse sourceNeuronName = "3" targetNeuronName = "13" weight = "0.512419255883517" />
    <synapse sourceNeuronName = "3" targetNeuronName = "14" weight = "-0.9017352130594056" />
    <synapse sourceNeuronName = "4" targetNeuronName = "6" weight = "-0.8735276706826252" />
    <synapse sourceNeuronName = "4" targetNeuronName = "7" weight = "-0.3705007808302727" />
    <synapse sourceNeuronName = "4" targetNeuronName = "8" weight = "0.3502850431338058" />
    <synapse sourceNeuronName = "4" targetNeuronName = "9" weight = "-0.25184502265402764" />
    <synapse sourceNeuronName = "4" targetNeuronName = "10" weight = "0.7072270538422589" />
    <synapse sourceNeuronName = "4" targetNeuronName = "11" weight = "-0.8354141787511937" />
    <synapse sourceNeuronName = "4" targetNeuronName = "12" weight = "-0.5082648083873147" />
    <synapse sourceNeuronName = "4" targetNeuronName = "13" weight = "-0.4624390684338193" />
    <synapse sourceNeuronName = "4" targetNeuronName = "14" weight = "-0.3882751517293175" />
    <synapse sourceNeuronName = "5" targetNeuronName = "6" weight = "0.310902352491393" />
    <synapse sourceNeuronName = "5" targetNeuronName = "7" weight = "0.6505184563055961" />
    <synapse sourceNeuronName = "5" targetNeuronName = "8" weight = "-0.16289597464674843" />
    <synapse sourceNeuronName = "5" targetNeuronName = "9" weight = "-0.7055490291148778" />
    <synapse sourceNeuronName = "5" targetNeuronName = "10" weight = "0.4364399524242806" />
    <synapse sourceNeuronName = "5" targetNeuronName = "11" weight = "-0.2548016416735073" />
    <synapse sourceNeuronName = "5" targetNeuronName = "12" weight = "-0.34928990266989235" />
    <synapse sourceNeuronName = "5" targetNeuronName = "13" weight = "-0.7793404667743673" />
    <synapse sourceNeuronName = "5" targetNeuronName = "14" weight = "0.03794427752449714" />
</neuralNetwork>