<neuralNetwork>
    <neuron name = "0" type = "sensor" linkName = "Link2" />
    <neuron name = "1" type = "sensor" linkName = "Link3" />
    <neuron name = "2" type = "sensor" linkName = "Link4" />
    <neuron name = "3" type = "sensor" linkName = "Link6" />
    <neuron name = "4" type = "sensor" linkName = "Link7" />
    <neuron name = "5" type = "motor"  jointName = "Link0_Link1" />
    <neuron name = "6" type = "motor"  jointName = "Link0_Link2" />
    <neuron name = "7" type = "motor"  jointName = "Link0_Link3" />
    <neuron name = "8" type = "motor"  jointName = "Link3_Link4" />
    <neuron name = "9" type = "motor"  jointName = "Link2_Link5" />
    <neuron name = "10" type = "motor"  jointName = "Link3_Link6" />
    <neuron name = "11" type = "motor"  jointName = "Link5_Link7" />
    <synapse sourceNeuronName = "0" targetNeuronName = "5" weight = "0.9983659937534552" />
    <synapse sourceNeuronName = "0" targetNeuronName = "6" weight = "0.8770151166009497" />
    <synapse sourceNeuronName = "0" targetNeuronName = "7" weight = "0.001432461953867703" />
    <synapse sourceNeuronName = "0" targetNeuronName = "8" weight = "-0.5622478546045586" />
    <synapse sourceNeuronName = "0" targetNeuronName = "9" weight = "-0.21590155072288364" />
    <synapse sourceNeuronName = "0" targetNeuronName = "10" weight = "-0.5164453225738659" />
    <synapse sourceNeuronName = "0" targetNeuronName = "11" weight = "0.47432619206729765" />
    <synapse sourceNeuronName = "1" targetNeuronName = "5" weight = "-0.8160876614329458" />
    <synapse sourceNeuronName = "1" targetNeuronName = "6" weight = "0.13339399718347744" />
    <synapse sourceNeuronName = "1" targetNeuronName = "7" weight = "-0.1601879069791683" />
    <synapse sourceNeuronName = "1" targetNeuronName = "8" weight = "0.22089935841604658" />
    <synapse sourceNeuronName = "1" targetNeuronName = "9" weight = "-0.8944469435059794" />
    <synapse sourceNeuronName = "1" targetNeuronName = "10" weight = "-0.6873905895004175" />
    <synapse sourceNeuronName = "1" targetNeuronName = "11" weight = "-0.9201519422800883" />
    <synapse sourceNeuronName = "2" targetNeuronName = "5" weight = "-0.960828846976568" />
    <synapse sourceNeuronName = "2" targetNeuronName = "6" weight = "0.13484460988993274" />
    <synapse sourceNeuronName = "2" targetNeuronName = "7" weight = "-0.10167567869857108" />
    <synapse sourceNeuronName = "2" targetNeuronName = "8" weight = "-0.9029208612573918" />
    <synapse sourceNeuronName = "2" targetNeuronName = "9" weight = "-0.4583638558007437" />
    <synapse sourceNeuronName = "2" targetNeuronName = "10" weight = "-0.08230802796925896" />
    <synapse sourceNeuronName = "2" targetNeuronName = "11" weight = "-0.24634374427142602" />
    <synapse sourceNeuronName = "3" targetNeuronName = "5" weight = "-0.5839654173167921" />
    <synapse sourceNeuronName = "3" targetNeuronName = "6" weight = "0.09557365623671177" />
    <synapse sourceNeuronName = "3" targetNeuronName = "7" weight = "-0.14664696401477073" />
    <synapse sourceNeuronName = "3" targetNeuronName = "8" weight = "-0.5355554740530244" />
    <synapse sourceNeuronName = "3" targetNeuronName = "9" weight = "0.4616060334323795" />
    <synapse sourceNeuronName = "3" targetNeuronName = "10" weight = "-0.9952344816569454" />
    <synapse sourceNeuronName = "3" targetNeuronName = "11" weight = "-0.846823109313662" />
    <synapse sourceNeuronName = "4" targetNeuronName = "5" weight = "0.9481240143828054" />
    <synapse sourceNeuronName = "4" targetNeuronName = "6" weight = "-0.8129433342822869" />
    <synapse sourceNeuronName = "4" targetNeuronName = "7" weight = "0.6106365629459412" />
    <synapse sourceNeuronName = "4" targetNeuronName = "8" weight = "0.7790435985670305" />
    <synapse sourceNeuronName = "4" targetNeuronName = "9" weight = "-0.8760052233479036" />
    <synapse sourceNeuronName = "4" targetNeuronName = "10" weight = "-0.4459449636214592" />
    <synapse sourceNeuronName = "4" targetNeuronName = "11" weight = "0.11139593996314501" />
</neuralNetwork>