<neuralNetwork>
    <neuron name = "0" type = "sensor" linkName = "Link1" />
    <neuron name = "1" type = "sensor" linkName = "Link2" />
    <neuron name = "2" type = "sensor" linkName = "Link3" />
    <neuron name = "3" type = "sensor" linkName = "Link5" />
    <neuron name = "4" type = "sensor" linkName = "Link6" />
    <neuron name = "5" type = "sensor" linkName = "Link7" />
    <neuron name = "6" type = "motor"  jointName = "Link0_Link1" />
    <neuron name = "7" type = "motor"  jointName = "Link0_Link2" />
    <neuron name = "8" type = "motor"  jointName = "Link2_Link3" />
    <neuron name = "9" type = "motor"  jointName = "Link1_Link4" />
    <neuron name = "10" type = "motor"  jointName = "Link0_Link5" />
    <neuron name = "11" type = "motor"  jointName = "Link2_Link6" />
    <neuron name = "12" type = "motor"  jointName = "Link4_Link7" />
    <synapse sourceNeuronName = "0" targetNeuronName = "6" weight = "0.9756358833836576" />
    <synapse sourceNeuronName = "0" targetNeuronName = "7" weight = "0.7263297769005743" />
    <synapse sourceNeuronName = "0" targetNeuronName = "8" weight = "0.8987934256050467" />
    <synapse sourceNeuronName = "0" targetNeuronName = "9" weight = "0.14797620560178704" />
    <synapse sourceNeuronName = "0" targetNeuronName = "10" weight = "0.7339395623641811" />
    <synapse sourceNeuronName = "0" targetNeuronName = "11" weight = "0.8408643453570404" />
    <synapse sourceNeuronName = "0" targetNeuronName = "12" weight = "0.7346417160943615" />
    <synapse sourceNeuronName = "1" targetNeuronName = "6" weight = "0.12291404347040658" />
    <synapse sourceNeuronName = "1" targetNeuronName = "7" weight = "0.6473819078585075" />
    <synapse sourceNeuronName = "1" targetNeuronName = "8" weight = "0.9191115863502504" />
    <synapse sourceNeuronName = "1" targetNeuronName = "9" weight = "-0.4255355761130075" />
    <synapse sourceNeuronName = "1" targetNeuronName = "10" weight = "0.8737524100887264" />
    <synapse sourceNeuronName = "1" targetNeuronName = "11" weight = "0.1777201599811331" />
    <synapse sourceNeuronName = "1" targetNeuronName = "12" weight = "-0.452295210191084" />
    <synapse sourceNeuronName = "2" targetNeuronName = "6" weight = "0.06007111727717129" />
    <synapse sourceNeuronName = "2" targetNeuronName = "7" weight = "0.30536577035175916" />
    <synapse sourceNeuronName = "2" targetNeuronName = "8" weight = "0.44208162685546615" />
    <synapse sourceNeuronName = "2" targetNeuronName = "9" weight = "-0.7942779691999031" />
    <synapse sourceNeuronName = "2" targetNeuronName = "10" weight = "-0.7918779735330481" />
    <synapse sourceNeuronName = "2" targetNeuronName = "11" weight = "-0.047827480315093984" />
    <synapse sourceNeuronName = "2" targetNeuronName = "12" weight = "-0.32739253900109033" />
    <synapse sourceNeuronName = "3" targetNeuronName = "6" weight = "0.6138534681740673" />
    <synapse sourceNeuronName = "3" targetNeuronName = "7" weight = "-0.5828284339212941" />
    <synapse sourceNeuronName = "3" targetNeuronName = "8" weight = "-0.749910154395758" />
    <synapse sourceNeuronName = "3" targetNeuronName = "9" weight = "0.7982730402753759" />
    <synapse sourceNeuronName = "3" targetNeuronName = "10" weight = "0.5086934601698359" />
    <synapse sourceNeuronName = "3" targetNeuronName = "11" weight = "-0.33526315965107356" />
    <synapse sourceNeuronName = "3" targetNeuronName = "12" weight = "0.9420444243902233" />
    <synapse sourceNeuronName = "4" targetNeuronName = "6" weight = "0.17220845890255565" />
    <synapse sourceNeuronName = "4" targetNeuronName = "7" weight = "0.7071069983428635" />
    <synapse sourceNeuronName = "4" targetNeuronName = "8" weight = "0.2001826049103006" />
    <synapse sourceNeuronName = "4" targetNeuronName = "9" weight = "0.5708919388113609" />
    <synapse sourceNeuronName = "4" targetNeuronName = "10" weight = "0.09623417200340523" />
    <synapse sourceNeuronName = "4" targetNeuronName = "11" weight = "-0.7383742061637668" />
    <synapse sourceNeuronName = "4" targetNeuronName = "12" weight = "0.44958114899903023" />
    <synapse sourceNeuronName = "5" targetNeuronName = "6" weight = "-0.9717258137350513" />
    <synapse sourceNeuronName = "5" targetNeuronName = "7" weight = "-0.747260815489692" />
    <synapse sourceNeuronName = "5" targetNeuronName = "8" weight = "0.136103673483851" />
    <synapse sourceNeuronName = "5" targetNeuronName = "9" weight = "0.10589124497400437" />
    <synapse sourceNeuronName = "5" targetNeuronName = "10" weight = "0.6713708788178845" />
    <synapse sourceNeuronName = "5" targetNeuronName = "11" weight = "-0.12050970046643394" />
    <synapse sourceNeuronName = "5" targetNeuronName = "12" weight = "0.9819778042761289" />
</neuralNetwork>