<neuralNetwork>
    <neuron name = "0" type = "sensor" linkName = "Link3" />
    <neuron name = "1" type = "sensor" linkName = "Link4" />
    <neuron name = "2" type = "sensor" linkName = "Link7" />
    <neuron name = "3" type = "sensor" linkName = "Link8" />
    <neuron name = "4" type = "motor"  jointName = "Link0_Link1" />
    <neuron name = "5" type = "motor"  jointName = "Link1_Link2" />
    <neuron name = "6" type = "motor"  jointName = "Link0_Link3" />
    <neuron name = "7" type = "motor"  jointName = "Link0_Link4" />
    <neuron name = "8" type = "motor"  jointName = "Link1_Link5" />
    <neuron name = "9" type = "motor"  jointName = "Link2_Link6" />
    <neuron name = "10" type = "motor"  jointName = "Link4_Link7" />
    <neuron name = "11" type = "motor"  jointName = "Link3_Link8" />
    <synapse sourceNeuronName = "0" targetNeuronName = "4" weight = "0.26374344736386823" />
    <synapse sourceNeuronName = "0" targetNeuronName = "5" weight = "0.6835162900821568" />
    <synapse sourceNeuronName = "0" targetNeuronName = "6" weight = "-0.9757699015310886" />
    <synapse sourceNeuronName = "0" targetNeuronName = "7" weight = "0.5487900991989019" />
    <synapse sourceNeuronName = "0" targetNeuronName = "8" weight = "-0.9454875207423235" />
    <synapse sourceNeuronName = "0" targetNeuronName = "9" weight = "-0.004122738407713378" />
    <synapse sourceNeuronName = "0" targetNeuronName = "10" weight = "-0.5997179977100591" />
    <synapse sourceNeuronName = "0" targetNeuronName = "11" weight = "0.7594146461282445" />
    <synapse sourceNeuronName = "1" targetNeuronName = "4" weight = "0.7453884851896893" />
    <synapse sourceNeuronName = "1" targetNeuronName = "5" weight = "0.6047131481312655" />
    <synapse sourceNeuronName = "1" targetNeuronName = "6" weight = "-0.9442085302657988" />
    <synapse sourceNeuronName = "1" targetNeuronName = "7" weight = "0.7180135122556839" />
    <synapse sourceNeuronName = "1" targetNeuronName = "8" weight = "-0.9884029106460268" />
    <synapse sourceNeuronName = "1" targetNeuronName = "9" weight = "0.5772941278907242" />
    <synapse sourceNeuronName = "1" targetNeuronName = "10" weight = "0.7225812307006245" />
    <synapse sourceNeuronName = "1" targetNeuronName = "11" weight = "-0.4098124086657058" />
    <synapse sourceNeuronName = "2" targetNeuronName = "4" weight = "-0.8535496444533202" />
    <synapse sourceNeuronName = "2" targetNeuronName = "5" weight = "-0.1794508460573665" />
    <synapse sourceNeuronName = "2" targetNeuronName = "6" weight = "0.05006509428470163" />
    <synapse sourceNeuronName = "2" targetNeuronName = "7" weight = "0.9179077618168185" />
    <synapse sourceNeuronName = "2" targetNeuronName = "8" weight = "-0.8506387213733919" />
    <synapse sourceNeuronName = "2" targetNeuronName = "9" weight = "-0.2778156734838271" />
    <synapse sourceNeuronName = "2" targetNeuronName = "10" weight = "-0.7007461720786214" />
    <synapse sourceNeuronName = "2" targetNeuronName = "11" weight = "0.28751330046209556" />
    <synapse sourceNeuronName = "3" targetNeuronName = "4" weight = "-0.3206648310253222" />
    <synapse sourceNeuronName = "3" targetNeuronName = "5" weight = "-0.8488522839347408" />
    <synapse sourceNeuronName = "3" targetNeuronName = "6" weight = "-0.6620091020451064" />
    <synapse sourceNeuronName = "3" targetNeuronName = "7" weight = "-0.1454162043031948" />
    <synapse sourceNeuronName = "3" targetNeuronName = "8" weight = "-0.4083122100816783" />
    <synapse sourceNeuronName = "3" targetNeuronName = "9" weight = "0.8796263327255927" />
    <synapse sourceNeuronName = "3" targetNeuronName = "10" weight = "0.2891909885285531" />
    <synapse sourceNeuronName = "3" targetNeuronName = "11" weight = "-0.8955811995492278" />
</neuralNetwork>