<neuralNetwork>
    <neuron name = "0" type = "sensor" linkName = "Link0" />
    <neuron name = "1" type = "sensor" linkName = "Link1" />
    <neuron name = "2" type = "sensor" linkName = "Link3" />
    <neuron name = "3" type = "motor"  jointName = "Link0_Link1" />
    <neuron name = "4" type = "motor"  jointName = "Link0_Link2" />
    <neuron name = "5" type = "motor"  jointName = "Link0_Link3" />
    <neuron name = "6" type = "motor"  jointName = "Link3_Link4" />
    <neuron name = "7" type = "motor"  jointName = "Link1_Link5" />
    <neuron name = "8" type = "motor"  jointName = "Link2_Link6" />
    <neuron name = "9" type = "motor"  jointName = "Link6_Link7" />
    <synapse sourceNeuronName = "0" targetNeuronName = "3" weight = "-0.9996307325327887" />
    <synapse sourceNeuronName = "0" targetNeuronName = "4" weight = "-0.4353529565126917" />
    <synapse sourceNeuronName = "0" targetNeuronName = "5" weight = "0.32238110531842445" />
    <synapse sourceNeuronName = "0" targetNeuronName = "6" weight = "0.1929137467751707" />
    <synapse sourceNeuronName = "0" targetNeuronName = "7" weight = "0.018849342485712572" />
    <synapse sourceNeuronName = "0" targetNeuronName = "8" weight = "-0.8443180656751061" />
    <synapse sourceNeuronName = "0" targetNeuronName = "9" weight = "-0.2827356109753878" />
    <synapse sourceNeuronName = "1" targetNeuronName = "3" weight = "0.38414004779696254" />
    <synapse sourceNeuronName = "1" targetNeuronName = "4" weight = "-0.5485200727531403" />
    <synapse sourceNeuronName = "1" targetNeuronName = "5" weight = "0.8977001967079399" />
    <synapse sourceNeuronName = "1" targetNeuronName = "6" weight = "-0.12659573253181877" />
    <synapse sourceNeuronName = "1" targetNeuronName = "7" weight = "0.9194872243988461" />
    <synapse sourceNeuronName = "1" targetNeuronName = "8" weight = "0.047162599046414844" />
    <synapse sourceNeuronName = "1" targetNeuronName = "9" weight = "-0.0077166987121874975" />
    <synapse sourceNeuronName = "2" targetNeuronName = "3" weight = "0.938826309389079" />
    <synapse sourceNeuronName = "2" targetNeuronName = "4" weight = "-0.715081216875272" />
    <synapse sourceNeuronName = "2" targetNeuronName = "5" weight = "0.47618961328933906" />
    <synapse sourceNeuronName = "2" targetNeuronName = "6" weight = "-0.22354666518391975" />
    <synapse sourceNeuronName = "2" targetNeuronName = "7" weight = "0.03623752259442092" />
    <synapse sourceNeuronName = "2" targetNeuronName = "8" weight = "-0.5296587762601741" />
    <synapse sourceNeuronName = "2" targetNeuronName = "9" weight = "0.6491602619691865" />
</neuralNetwork>