<neuralNetwork>
    <neuron name = "0" type = "sensor" linkName = "Link0" />
    <neuron name = "1" type = "sensor" linkName = "Link1" />
    <neuron name = "2" type = "sensor" linkName = "Link3" />
    <neuron name = "3" type = "sensor" linkName = "Link4" />
    <neuron name = "4" type = "sensor" linkName = "Link5" />
    <neuron name = "5" type = "motor"  jointName = "Link0_Link1" />
    <neuron name = "6" type = "motor"  jointName = "Link0_Link2" />
    <neuron name = "7" type = "motor"  jointName = "Link0_Link3" />
    <neuron name = "8" type = "motor"  jointName = "Link3_Link4" />
    <neuron name = "9" type = "motor"  jointName = "Link0_Link5" />
    <synapse sourceNeuronName = "0" targetNeuronName = "5" weight = "-0.39319512510454" />
    <synapse sourceNeuronName = "0" targetNeuronName = "6" weight = "0.0733258256764171" />
    <synapse sourceNeuronName = "0" targetNeuronName = "7" weight = "0.27354933163951856" />
    <synapse sourceNeuronName = "0" targetNeuronName = "8" weight = "-0.38006714887359605" />
    <synapse sourceNeuronName = "0" targetNeuronName = "9" weight = "-0.5599437558124052" />
    <synapse sourceNeuronName = "1" targetNeuronName = "5" weight = "-0.18352890800580202" />
    <synapse sourceNeuronName = "1" targetNeuronName = "6" weight = "0.06732359381563402" />
    <synapse sourceNeuronName = "1" targetNeuronName = "7" weight = "0.36277855132279413" />
    <synapse sourceNeuronName = "1" targetNeuronName = "8" weight = "0.6133836799211154" />
    <synapse sourceNeuronName = "1" targetNeuronName = "9" weight = "-0.007771697381199871" />
    <synapse sourceNeuronName = "2" targetNeuronName = "5" weight = "0.44891298599341756" />
    <synapse sourceNeuronName = "2" targetNeuronName = "6" weight = "0.851381082645781" />
    <synapse sourceNeuronName = "2" targetNeuronName = "7" weight = "0.6225206554714118" />
    <synapse sourceNeuronName = "2" targetNeuronName = "8" weight = "0.636330243152996" />
    <synapse sourceNeuronName = "2" targetNeuronName = "9" weight = "-0.7375507330688269" />
    <synapse sourceNeuronName = "3" targetNeuronName = "5" weight = "-0.14057750057410234" />
    <synapse sourceNeuronName = "3" targetNeuronName = "6" weight = "-0.6345502942953718" />
    <synapse sourceNeuronName = "3" targetNeuronName = "7" weight = "-0.9936687356694005" />
    <synapse sourceNeuronName = "3" targetNeuronName = "8" weight = "0.34465136518464834" />
    <synapse sourceNeuronName = "3" targetNeuronName = "9" weight = "-0.9977910658695324" />
    <synapse sourceNeuronName = "4" targetNeuronName = "5" weight = "-0.9977252111669406" />
    <synapse sourceNeuronName = "4" targetNeuronName = "6" weight = "-0.07506785320171416" />
    <synapse sourceNeuronName = "4" targetNeuronName = "7" weight = "0.9561159099076739" />
    <synapse sourceNeuronName = "4" targetNeuronName = "8" weight = "-0.549036389342064" />
    <synapse sourceNeuronName = "4" targetNeuronName = "9" weight = "-0.40475955311677403" />
</neuralNetwork>