<neuralNetwork>
    <neuron name = "0" type = "sensor" linkName = "Link1" />
    <neuron name = "1" type = "sensor" linkName = "Link3" />
    <neuron name = "2" type = "sensor" linkName = "Link4" />
    <neuron name = "3" type = "sensor" linkName = "Link5" />
    <neuron name = "4" type = "motor"  jointName = "Link0_Link1" />
    <neuron name = "5" type = "motor"  jointName = "Link1_Link2" />
    <neuron name = "6" type = "motor"  jointName = "Link1_Link3" />
    <neuron name = "7" type = "motor"  jointName = "Link0_Link4" />
    <neuron name = "8" type = "motor"  jointName = "Link3_Link5" />
    <synapse sourceNeuronName = "0" targetNeuronName = "4" weight = "0.5219736750511994" />
    <synapse sourceNeuronName = "0" targetNeuronName = "5" weight = "0.785213295545143" />
    <synapse sourceNeuronName = "0" targetNeuronName = "6" weight = "-0.3049817444380447" />
    <synapse sourceNeuronName = "0" targetNeuronName = "7" weight = "0.32350773334135097" />
    <synapse sourceNeuronName = "0" targetNeuronName = "8" weight = "0.019391073648062918" />
    <synapse sourceNeuronName = "1" targetNeuronName = "4" weight = "-0.3349027840339278" />
    <synapse sourceNeuronName = "1" targetNeuronName = "5" weight = "0.5895949670787484" />
    <synapse sourceNeuronName = "1" targetNeuronName = "6" weight = "-0.2776656583037296" />
    <synapse sourceNeuronName = "1" targetNeuronName = "7" weight = "0.48112343976654515" />
    <synapse sourceNeuronName = "1" targetNeuronName = "8" weight = "-0.29941041488804965" />
    <synapse sourceNeuronName = "2" targetNeuronName = "4" weight = "0.06481950415471305" />
    <synapse sourceNeuronName = "2" targetNeuronName = "5" weight = "-0.5988688312902382" />
    <synapse sourceNeuronName = "2" targetNeuronName = "6" weight = "0.7650918188765896" />
    <synapse sourceNeuronName = "2" targetNeuronName = "7" weight = "-0.27624367019713536" />
    <synapse sourceNeuronName = "2" targetNeuronName = "8" weight = "-0.7016722145045917" />
    <synapse sourceNeuronName = "3" targetNeuronName = "4" weight = "0.11865220466958126" />
    <synapse sourceNeuronName = "3" targetNeuronName = "5" weight = "0.856168661835089" />
    <synapse sourceNeuronName = "3" targetNeuronName = "6" weight = "-0.3682293923151576" />
    <synapse sourceNeuronName = "3" targetNeuronName = "7" weight = "-0.7133566520827264" />
    <synapse sourceNeuronName = "3" targetNeuronName = "8" weight = "0.3019544331772821" />
</neuralNetwork>