<neuralNetwork>
    <neuron name = "0" type = "sensor" linkName = "Link1" />
    <neuron name = "1" type = "sensor" linkName = "Link4" />
    <neuron name = "2" type = "sensor" linkName = "Link5" />
    <neuron name = "3" type = "sensor" linkName = "Link7" />
    <neuron name = "4" type = "sensor" linkName = "Link8" />
    <neuron name = "5" type = "motor"  jointName = "Link0_Link1" />
    <neuron name = "6" type = "motor"  jointName = "Link1_Link2" />
    <neuron name = "7" type = "motor"  jointName = "Link0_Link3" />
    <neuron name = "8" type = "motor"  jointName = "Link1_Link4" />
    <neuron name = "9" type = "motor"  jointName = "Link0_Link5" />
    <neuron name = "10" type = "motor"  jointName = "Link1_Link6" />
    <neuron name = "11" type = "motor"  jointName = "Link4_Link7" />
    <neuron name = "12" type = "motor"  jointName = "Link7_Link8" />
    <synapse sourceNeuronName = "0" targetNeuronName = "5" weight = "-0.5312812530194773" />
    <synapse sourceNeuronName = "0" targetNeuronName = "6" weight = "-0.2921661651658958" />
    <synapse sourceNeuronName = "0" targetNeuronName = "7" weight = "-0.03357805957741333" />
    <synapse sourceNeuronName = "0" targetNeuronName = "8" weight = "0.7271224239112515" />
    <synapse sourceNeuronName = "0" targetNeuronName = "9" weight = "0.9535525102680005" />
    <synapse sourceNeuronName = "0" targetNeuronName = "10" weight = "-0.5071784310066638" />
    <synapse sourceNeuronName = "0" targetNeuronName = "11" weight = "-0.9738089629374624" />
    <synapse sourceNeuronName = "0" targetNeuronName = "12" weight = "0.34962885498234675" />
    <synapse sourceNeuronName = "1" targetNeuronName = "5" weight = "-0.2781801595312101" />
    <synapse sourceNeuronName = "1" targetNeuronName = "6" weight = "-0.3054595085062597" />
    <synapse sourceNeuronName = "1" targetNeuronName = "7" weight = "0.9417353795315544" />
    <synapse sourceNeuronName = "1" targetNeuronName = "8" weight = "0.028564362575630886" />
    <synapse sourceNeuronName = "1" targetNeuronName = "9" weight = "0.06280936505920764" />
    <synapse sourceNeuronName = "1" targetNeuronName = "10" weight = "0.008378010276893333" />
    <synapse sourceNeuronName = "1" targetNeuronName = "11" weight = "-0.8402069249720294" />
    <synapse sourceNeuronName = "1" targetNeuronName = "12" weight = "0.9152704538496088" />
    <synapse sourceNeuronName = "2" targetNeuronName = "5" weight = "0.5523329561790189" />
    <synapse sourceNeuronName = "2" targetNeuronName = "6" weight = "-0.5499158592176541" />
    <synapse sourceNeuronName = "2" targetNeuronName = "7" weight = "-0.5843494042598507" />
    <synapse sourceNeuronName = "2" targetNeuronName = "8" weight = "-0.9243351272820739" />
    <synapse sourceNeuronName = "2" targetNeuronName = "9" weight = "-0.8083579779016874" />
    <synapse sourceNeuronName = "2" targetNeuronName = "10" weight = "-0.3994471134241733" />
    <synapse sourceNeuronName = "2" targetNeuronName = "11" weight = "-0.6363476462833766" />
    <synapse sourceNeuronName = "2" targetNeuronName = "12" weight = "0.9729788012210647" />
    <synapse sourceNeuronName = "3" targetNeuronName = "5" weight = "-0.5027530281317996" />
    <synapse sourceNeuronName = "3" targetNeuronName = "6" weight = "0.40922970368062983" />
    <synapse sourceNeuronName = "3" targetNeuronName = "7" weight = "0.3382841590416714" />
    <synapse sourceNeuronName = "3" targetNeuronName = "8" weight = "-0.9644966323699076" />
    <synapse sourceNeuronName = "3" targetNeuronName = "9" weight = "-0.0028432283713095696" />
    <synapse sourceNeuronName = "3" targetNeuronName = "10" weight = "0.7620954615297812" />
    <synapse sourceNeuronName = "3" targetNeuronName = "11" weight = "0.48518286793291066" />
    <synapse sourceNeuronName = "3" targetNeuronName = "12" weight = "0.3673729482790782" />
    <synapse sourceNeuronName = "4" targetNeuronName = "5" weight = "-0.3095148945038011" />
    <synapse sourceNeuronName = "4" targetNeuronName = "6" weight = "0.3287164574050421" />
    <synapse sourceNeuronName = "4" targetNeuronName = "7" weight = "-0.6900871526768997" />
    <synapse sourceNeuronName = "4" targetNeuronName = "8" weight = "-0.0369457075678139" />
    <synapse sourceNeuronName = "4" targetNeuronName = "9" weight = "0.6091485094162574" />
    <synapse sourceNeuronName = "4" targetNeuronName = "10" weight = "-0.42313968643277966" />
    <synapse sourceNeuronName = "4" targetNeuronName = "11" weight = "0.13630775028466457" />
    <synapse sourceNeuronName = "4" targetNeuronName = "12" weight = "0.09416864658124724" />
</neuralNetwork>