<neuralNetwork>
    <neuron name = "0" type = "sensor" linkName = "Link0" />
    <neuron name = "1" type = "sensor" linkName = "Link1" />
    <neuron name = "2" type = "sensor" linkName = "Link2" />
    <neuron name = "3" type = "sensor" linkName = "Link3" />
    <neuron name = "4" type = "sensor" linkName = "Link5" />
    <neuron name = "5" type = "sensor" linkName = "Link6" />
    <neuron name = "6" type = "motor"  jointName = "Link0_Link1" />
    <neuron name = "7" type = "motor"  jointName = "Link0_Link2" />
    <neuron name = "8" type = "motor"  jointName = "Link1_Link3" />
    <neuron name = "9" type = "motor"  jointName = "Link2_Link4" />
    <neuron name = "10" type = "motor"  jointName = "Link2_Link5" />
    <neuron name = "11" type = "motor"  jointName = "Link2_Link6" />
    <neuron name = "12" type = "motor"  jointName = "Link5_Link7" />
    <synapse sourceNeuronName = "0" targetNeuronName = "6" weight = "0.006272384346351689" />
    <synapse sourceNeuronName = "0" targetNeuronName = "7" weight = "0.6523227024292375" />
    <synapse sourceNeuronName = "0" targetNeuronName = "8" weight = "0.1749720556144565" />
    <synapse sourceNeuronName = "0" targetNeuronName = "9" weight = "-0.6737875332995087" />
    <synapse sourceNeuronName = "0" targetNeuronName = "10" weight = "-0.09728929003743758" />
    <synapse sourceNeuronName = "0" targetNeuronName = "11" weight = "0.1458297261948791" />
    <synapse sourceNeuronName = "0" targetNeuronName = "12" weight = "-0.3415452926798279" />
    <synapse sourceNeuronName = "1" targetNeuronName = "6" weight = "0.5882109604779227" />
    <synapse sourceNeuronName = "1" targetNeuronName = "7" weight = "-0.42185972613017886" />
    <synapse sourceNeuronName = "1" targetNeuronName = "8" weight = "-0.6706117784637791" />
    <synapse sourceNeuronName = "1" targetNeuronName = "9" weight = "-0.16061998992970095" />
    <synapse sourceNeuronName = "1" targetNeuronName = "10" weight = "-0.600178236586737" />
    <synapse sourceNeuronName = "1" targetNeuronName = "11" weight = "0.7998369898932334" />
    <synapse sourceNeuronName = "1" targetNeuronName = "12" weight = "-0.2977504125647479" />
    <synapse sourceNeuronName = "2" targetNeuronName = "6" weight = "0.9625083076538625" />
    <synapse sourceNeuronName = "2" targetNeuronName = "7" weight = "0.015564735762422233" />
    <synapse sourceNeuronName = "2" targetNeuronName = "8" weight = "0.06929952519587457" />
    <synapse sourceNeuronName = "2" targetNeuronName = "9" weight = "-0.5234219404266922" />
    <synapse sourceNeuronName = "2" targetNeuronName = "10" weight = "0.21564441040898563" />
    <synapse sourceNeuronName = "2" targetNeuronName = "11" weight = "-0.34802789756817587" />
    <synapse sourceNeuronName = "2" targetNeuronName = "12" weight = "0.28947516350321956" />
    <synapse sourceNeuronName = "3" targetNeuronName = "6" weight = "0.7952213512309081" />
    <synapse sourceNeuronName = "3" targetNeuronName = "7" weight = "-0.7562043834462471" />
    <synapse sourceNeuronName = "3" targetNeuronName = "8" weight = "-0.22611796855978072" />
    <synapse sourceNeuronName = "3" targetNeuronName = "9" weight = "-0.43432507218646954" />
    <synapse sourceNeuronName = "3" targetNeuronName = "10" weight = "-0.5004068550012746" />
    <synapse sourceNeuronName = "3" targetNeuronName = "11" weight = "-0.686493492611906" />
    <synapse sourceNeuronName = "3" targetNeuronName = "12" weight = "-0.4262293227984226" />
    <synapse sourceNeuronName = "4" targetNeuronName = "6" weight = "0.18292921744052082" />
    <synapse sourceNeuronName = "4" targetNeuronName = "7" weight = "-0.7807895292069871" />
    <synapse sourceNeuronName = "4" targetNeuronName = "8" weight = "0.1426165240395605" />
    <synapse sourceNeuronName = "4" targetNeuronName = "9" weight = "0.6511296029528646" />
    <synapse sourceNeuronName = "4" targetNeuronName = "10" weight = "0.147495594641891" />
    <synapse sourceNeuronName = "4" targetNeuronName = "11" weight = "0.5873585758910216" />
    <synapse sourceNeuronName = "4" targetNeuronName = "12" weight = "0.25055249355519305" />
    <synapse sourceNeuronName = "5" targetNeuronName = "6" weight = "0.43515418332869094" />
    <synapse sourceNeuronName = "5" targetNeuronName = "7" weight = "0.4723766546231696" />
    <synapse sourceNeuronName = "5" targetNeuronName = "8" weight = "-0.398017018592723" />
    <synapse sourceNeuronName = "5" targetNeuronName = "9" weight = "-0.20016555673080982" />
    <synapse sourceNeuronName = "5" targetNeuronName = "10" weight = "0.5642969797734247" />
    <synapse sourceNeuronName = "5" targetNeuronName = "11" weight = "-0.8686641624452867" />
    <synapse sourceNeuronName = "5" targetNeuronName = "12" weight = "0.19607593109759436" />
</neuralNetwork>