<neuralNetwork>
    <neuron name = "0" type = "sensor" linkName = "Link1" />
    <neuron name = "1" type = "sensor" linkName = "Link4" />
    <neuron name = "2" type = "sensor" linkName = "Link5" />
    <neuron name = "3" type = "sensor" linkName = "Link6" />
    <neuron name = "4" type = "motor"  jointName = "Link0_Link1" />
    <neuron name = "5" type = "motor"  jointName = "Link1_Link2" />
    <neuron name = "6" type = "motor"  jointName = "Link0_Link3" />
    <neuron name = "7" type = "motor"  jointName = "Link1_Link4" />
    <neuron name = "8" type = "motor"  jointName = "Link0_Link5" />
    <neuron name = "9" type = "motor"  jointName = "Link4_Link6" />
    <synapse sourceNeuronName = "0" targetNeuronName = "4" weight = "0.5313149702227344" />
    <synapse sourceNeuronName = "0" targetNeuronName = "5" weight = "-0.37603702173439313" />
    <synapse sourceNeuronName = "0" targetNeuronName = "6" weight = "-0.2819236051527845" />
    <synapse sourceNeuronName = "0" targetNeuronName = "7" weight = "0.9788196632057475" />
    <synapse sourceNeuronName = "0" targetNeuronName = "8" weight = "0.9433723554684603" />
    <synapse sourceNeuronName = "0" targetNeuronName = "9" weight = "-0.2801435932270042" />
    <synapse sourceNeuronName = "1" targetNeuronName = "4" weight = "0.9838241878791534" />
    <synapse sourceNeuronName = "1" targetNeuronName = "5" weight = "-0.45615159278679096" />
    <synapse sourceNeuronName = "1" targetNeuronName = "6" weight = "-0.47216977047241726" />
    <synapse sourceNeuronName = "1" targetNeuronName = "7" weight = "-0.3759409407716694" />
    <synapse sourceNeuronName = "1" targetNeuronName = "8" weight = "-0.9897099134498692" />
    <synapse sourceNeuronName = "1" targetNeuronName = "9" weight = "0.0990333107293988" />
    <synapse sourceNeuronName = "2" targetNeuronName = "4" weight = "0.7464828225585429" />
    <synapse sourceNeuronName = "2" targetNeuronName = "5" weight = "0.7601802675860876" />
    <synapse sourceNeuronName = "2" targetNeuronName = "6" weight = "-0.9506631038083404" />
    <synapse sourceNeuronName = "2" targetNeuronName = "7" weight = "0.1625794626277699" />
    <synapse sourceNeuronName = "2" targetNeuronName = "8" weight = "-0.06214326273137716" />
    <synapse sourceNeuronName = "2" targetNeuronName = "9" weight = "0.19614702406147555" />
    <synapse sourceNeuronName = "3" targetNeuronName = "4" weight = "0.5846669146698138" />
    <synapse sourceNeuronName = "3" targetNeuronName = "5" weight = "0.7182008228063881" />
    <synapse sourceNeuronName = "3" targetNeuronName = "6" weight = "0.4009418879124875" />
    <synapse sourceNeuronName = "3" targetNeuronName = "7" weight = "-0.5283983731503392" />
    <synapse sourceNeuronName = "3" targetNeuronName = "8" weight = "-0.9072932851378166" />
    <synapse sourceNeuronName = "3" targetNeuronName = "9" weight = "-0.42758507708998805" />
</neuralNetwork>