<neuralNetwork>
    <neuron name = "0" type = "sensor" linkName = "Link0" />
    <neuron name = "1" type = "sensor" linkName = "Link1" />
    <neuron name = "2" type = "sensor" linkName = "Link2" />
    <neuron name = "3" type = "sensor" linkName = "Link3" />
    <neuron name = "4" type = "sensor" linkName = "Link4" />
    <neuron name = "5" type = "sensor" linkName = "Link5" />
    <neuron name = "6" type = "motor"  jointName = "Link0_Link1" />
    <neuron name = "7" type = "motor"  jointName = "Link0_Link2" />
    <neuron name = "8" type = "motor"  jointName = "Link0_Link3" />
    <neuron name = "9" type = "motor"  jointName = "Link3_Link4" />
    <neuron name = "10" type = "motor"  jointName = "Link0_Link5" />
    <synapse sourceNeuronName = "0" targetNeuronName = "6" weight = "0.04060251038424223" />
    <synapse sourceNeuronName = "0" targetNeuronName = "7" weight = "-0.8942891321126083" />
    <synapse sourceNeuronName = "0" targetNeuronName = "8" weight = "0.6483109686035344" />
    <synapse sourceNeuronName = "0" targetNeuronName = "9" weight = "0.6808938888106915" />
    <synapse sourceNeuronName = "0" targetNeuronName = "10" weight = "0.9436145585281412" />
    <synapse sourceNeuronName = "1" targetNeuronName = "6" weight = "0.9301142163128091" />
    <synapse sourceNeuronName = "1" targetNeuronName = "7" weight = "0.21876509852318526" />
    <synapse sourceNeuronName = "1" targetNeuronName = "8" weight = "-0.01131232187376785" />
    <synapse sourceNeuronName = "1" targetNeuronName = "9" weight = "-0.04157089900078148" />
    <synapse sourceNeuronName = "1" targetNeuronName = "10" weight = "0.972103401641768" />
    <synapse sourceNeuronName = "2" targetNeuronName = "6" weight = "-0.7037594335924908" />
    <synapse sourceNeuronName = "2" targetNeuronName = "7" weight = "-0.2387549885843503" />
    <synapse sourceNeuronName = "2" targetNeuronName = "8" weight = "-0.6859831680454433" />
    <synapse sourceNeuronName = "2" targetNeuronName = "9" weight = "-0.8981685142928089" />
    <synapse sourceNeuronName = "2" targetNeuronName = "10" weight = "0.6624654163847175" />
    <synapse sourceNeuronName = "3" targetNeuronName = "6" weight = "-0.2152171569036958" />
    <synapse sourceNeuronName = "3" targetNeuronName = "7" weight = "0.7196161557523648" />
    <synapse sourceNeuronName = "3" targetNeuronName = "8" weight = "0.2591045539108541" />
    <synapse sourceNeuronName = "3" targetNeuronName = "9" weight = "-0.7843981129825519" />
    <synapse sourceNeuronName = "3" targetNeuronName = "10" weight = "0.30358668608790107" />
    <synapse sourceNeuronName = "4" targetNeuronName = "6" weight = "0.42228442559890134" />
    <synapse sourceNeuronName = "4" targetNeuronName = "7" weight = "-0.1939267562008291" />
    <synapse sourceNeuronName = "4" targetNeuronName = "8" weight = "0.9769466304826977" />
    <synapse sourceNeuronName = "4" targetNeuronName = "9" weight = "0.691909700042542" />
    <synapse sourceNeuronName = "4" targetNeuronName = "10" weight = "-0.5230359629637442" />
    <synapse sourceNeuronName = "5" targetNeuronName = "6" weight = "-0.7713859272658523" />
    <synapse sourceNeuronName = "5" targetNeuronName = "7" weight = "-0.2755544268652097" />
    <synapse sourceNeuronName = "5" targetNeuronName = "8" weight = "0.48627494366039925" />
    <synapse sourceNeuronName = "5" targetNeuronName = "9" weight = "0.20382070549058318" />
    <synapse sourceNeuronName = "5" targetNeuronName = "10" weight = "0.1830120355041711" />
</neuralNetwork>