<neuralNetwork>
    <neuron name = "0" type = "sensor" linkName = "Link0" />
    <neuron name = "1" type = "sensor" linkName = "Link1" />
    <neuron name = "2" type = "sensor" linkName = "Link2" />
    <neuron name = "3" type = "sensor" linkName = "Link3" />
    <neuron name = "4" type = "sensor" linkName = "Link4" />
    <neuron name = "5" type = "motor"  jointName = "Link0_Link1" />
    <neuron name = "6" type = "motor"  jointName = "Link0_Link2" />
    <neuron name = "7" type = "motor"  jointName = "Link0_Link3" />
    <neuron name = "8" type = "motor"  jointName = "Link2_Link4" />
    <synapse sourceNeuronName = "0" targetNeuronName = "5" weight = "0.6630708145714412" />
    <synapse sourceNeuronName = "0" targetNeuronName = "6" weight = "0.7275369852587352" />
    <synapse sourceNeuronName = "0" targetNeuronName = "7" weight = "-0.13086096452336293" />
    <synapse sourceNeuronName = "0" targetNeuronName = "8" weight = "-0.6553113933460402" />
    <synapse sourceNeuronName = "1" targetNeuronName = "5" weight = "-0.0734381607489265" />
    <synapse sourceNeuronName = "1" targetNeuronName = "6" weight = "-0.4596733448344681" />
    <synapse sourceNeuronName = "1" targetNeuronName = "7" weight = "0.8117352831186784" />
    <synapse sourceNeuronName = "1" targetNeuronName = "8" weight = "0.29834798939654594" />
    <synapse sourceNeuronName = "2" targetNeuronName = "5" weight = "-0.25940756493751604" />
    <synapse sourceNeuronName = "2" targetNeuronName = "6" weight = "-0.6907220223407291" />
    <synapse sourceNeuronName = "2" targetNeuronName = "7" weight = "-0.7116330214294135" />
    <synapse sourceNeuronName = "2" targetNeuronName = "8" weight = "0.49677044320081354" />
    <synapse sourceNeuronName = "3" targetNeuronName = "5" weight = "0.6841552433521148" />
    <synapse sourceNeuronName = "3" targetNeuronName = "6" weight = "0.8319583020139631" />
    <synapse sourceNeuronName = "3" targetNeuronName = "7" weight = "0.05882763919449374" />
    <synapse sourceNeuronName = "3" targetNeuronName = "8" weight = "0.8606118762892654" />
    <synapse sourceNeuronName = "4" targetNeuronName = "5" weight = "-0.7653233637761991" />
    <synapse sourceNeuronName = "4" targetNeuronName = "6" weight = "0.9701369327209541" />
    <synapse sourceNeuronName = "4" targetNeuronName = "7" weight = "-0.6775840968489693" />
    <synapse sourceNeuronName = "4" targetNeuronName = "8" weight = "0.8407451423662964" />
</neuralNetwork>