<neuralNetwork>
    <neuron name = "0" type = "sensor" linkName = "Link3" />
    <neuron name = "1" type = "sensor" linkName = "Link5" />
    <neuron name = "2" type = "sensor" linkName = "Link6" />
    <neuron name = "3" type = "sensor" linkName = "Link7" />
    <neuron name = "4" type = "sensor" linkName = "Link8" />
    <neuron name = "5" type = "motor"  jointName = "Link0_Link1" />
    <neuron name = "6" type = "motor"  jointName = "Link1_Link2" />
    <neuron name = "7" type = "motor"  jointName = "Link2_Link3" />
    <neuron name = "8" type = "motor"  jointName = "Link3_Link4" />
    <neuron name = "9" type = "motor"  jointName = "Link1_Link5" />
    <neuron name = "10" type = "motor"  jointName = "Link1_Link6" />
    <neuron name = "11" type = "motor"  jointName = "Link2_Link7" />
    <neuron name = "12" type = "motor"  jointName = "Link7_Link8" />
    <synapse sourceNeuronName = "0" targetNeuronName = "5" weight = "0.07807803885054776" />
    <synapse sourceNeuronName = "0" targetNeuronName = "6" weight = "0.28329527953873623" />
    <synapse sourceNeuronName = "0" targetNeuronName = "7" weight = "0.548537392434461" />
    <synapse sourceNeuronName = "0" targetNeuronName = "8" weight = "-0.8068970771458444" />
    <synapse sourceNeuronName = "0" targetNeuronName = "9" weight = "0.7909428521531181" />
    <synapse sourceNeuronName = "0" targetNeuronName = "10" weight = "0.325087571383039" />
    <synapse sourceNeuronName = "0" targetNeuronName = "11" weight = "-0.6207218230929192" />
    <synapse sourceNeuronName = "0" targetNeuronName = "12" weight = "-0.8011706749112735" />
    <synapse sourceNeuronName = "1" targetNeuronName = "5" weight = "-0.5583625190100232" />
    <synapse sourceNeuronName = "1" targetNeuronName = "6" weight = "0.7307801550399324" />
    <synapse sourceNeuronName = "1" targetNeuronName = "7" weight = "0.5359005161970585" />
    <synapse sourceNeuronName = "1" targetNeuronName = "8" weight = "-0.2842234063200466" />
    <synapse sourceNeuronName = "1" targetNeuronName = "9" weight = "-0.20804537302684944" />
    <synapse sourceNeuronName = "1" targetNeuronName = "10" weight = "-0.8436598723059019" />
    <synapse sourceNeuronName = "1" targetNeuronName = "11" weight = "0.07969078685752362" />
    <synapse sourceNeuronName = "1" targetNeuronName = "12" weight = "-0.04098328783154259" />
    <synapse sourceNeuronName = "2" targetNeuronName = "5" weight = "0.2544094517421034" />
    <synapse sourceNeuronName = "2" targetNeuronName = "6" weight = "-0.8513175969603608" />
    <synapse sourceNeuronName = "2" targetNeuronName = "7" weight = "-0.6917619184082904" />
    <synapse sourceNeuronName = "2" targetNeuronName = "8" weight = "-0.9275332030730248" />
    <synapse sourceNeuronName = "2" targetNeuronName = "9" weight = "0.02591776609865981" />
    <synapse sourceNeuronName = "2" targetNeuronName = "10" weight = "-0.12450673920332966" />
    <synapse sourceNeuronName = "2" targetNeuronName = "11" weight = "-0.3618243526206313" />
    <synapse sourceNeuronName = "2" targetNeuronName = "12" weight = "0.22956269566659282" />
    <synapse sourceNeuronName = "3" targetNeuronName = "5" weight = "0.47510957081689553" />
    <synapse sourceNeuronName = "3" targetNeuronName = "6" weight = "-0.5477891403207533" />
    <synapse sourceNeuronName = "3" targetNeuronName = "7" weight = "0.876044278059062" />
    <synapse sourceNeuronName = "3" targetNeuronName = "8" weight = "-0.3154188647620455" />
    <synapse sourceNeuronName = "3" targetNeuronName = "9" weight = "0.8844256648215199" />
    <synapse sourceNeuronName = "3" targetNeuronName = "10" weight = "0.5649519174144646" />
    <synapse sourceNeuronName = "3" targetNeuronName = "11" weight = "-0.21576081077215914" />
    <synapse sourceNeuronName = "3" targetNeuronName = "12" weight = "0.730930984301092" />
    <synapse sourceNeuronName = "4" targetNeuronName = "5" weight = "-0.16362006959588493" />
    <synapse sourceNeuronName = "4" targetNeuronName = "6" weight = "-0.9622231734023263" />
    <synapse sourceNeuronName = "4" targetNeuronName = "7" weight = "-0.9192319340069977" />
    <synapse sourceNeuronName = "4" targetNeuronName = "8" weight = "-0.7972726843342852" />
    <synapse sourceNeuronName = "4" targetNeuronName = "9" weight = "0.0008815560104467046" />
    <synapse sourceNeuronName = "4" targetNeuronName = "10" weight = "-0.9343694909215539" />
    <synapse sourceNeuronName = "4" targetNeuronName = "11" weight = "0.9812889034098082" />
    <synapse sourceNeuronName = "4" targetNeuronName = "12" weight = "-0.7972197495232936" />
</neuralNetwork>