<neuralNetwork>
    <neuron name = "0" type = "sensor" linkName = "Link0" />
    <neuron name = "1" type = "sensor" linkName = "Link2" />
    <neuron name = "2" type = "sensor" linkName = "Link3" />
    <neuron name = "3" type = "sensor" linkName = "Link4" />
    <neuron name = "4" type = "sensor" linkName = "Link5" />
    <neuron name = "5" type = "motor"  jointName = "Link0_Link1" />
    <neuron name = "6" type = "motor"  jointName = "Link1_Link2" />
    <neuron name = "7" type = "motor"  jointName = "Link2_Link3" />
    <neuron name = "8" type = "motor"  jointName = "Link1_Link4" />
    <neuron name = "9" type = "motor"  jointName = "Link4_Link5" />
    <synapse sourceNeuronName = "0" targetNeuronName = "5" weight = "0.028251896736287918" />
    <synapse sourceNeuronName = "0" targetNeuronName = "6" weight = "0.6046200804179827" />
    <synapse sourceNeuronName = "0" targetNeuronName = "7" weight = "-0.69517378132791" />
    <synapse sourceNeuronName = "0" targetNeuronName = "8" weight = "-0.4302654987077321" />
    <synapse sourceNeuronName = "0" targetNeuronName = "9" weight = "0.3269464464421945" />
    <synapse sourceNeuronName = "1" targetNeuronName = "5" weight = "0.260242576800791" />
    <synapse sourceNeuronName = "1" targetNeuronName = "6" weight = "0.7373680342876798" />
    <synapse sourceNeuronName = "1" targetNeuronName = "7" weight = "0.19265624230871947" />
    <synapse sourceNeuronName = "1" targetNeuronName = "8" weight = "-0.11380466948909262" />
    <synapse sourceNeuronName = "1" targetNeuronName = "9" weight = "0.9152719319367033" />
    <synapse sourceNeuronName = "2" targetNeuronName = "5" weight = "-0.5592174864337962" />
    <synapse sourceNeuronName = "2" targetNeuronName = "6" weight = "0.26488590428461145" />
    <synapse sourceNeuronName = "2" targetNeuronName = "7" weight = "-0.5254486470600359" />
    <synapse sourceNeuronName = "2" targetNeuronName = "8" weight = "-0.02263221466999421" />
    <synapse sourceNeuronName = "2" targetNeuronName = "9" weight = "0.956738277634801" />
    <synapse sourceNeuronName = "3" targetNeuronName = "5" weight = "0.9348620572144652" />
    <synapse sourceNeuronName = "3" targetNeuronName = "6" weight = "0.35225092432265126" />
    <synapse sourceNeuronName = "3" targetNeuronName = "7" weight = "0.8348173101016676" />
    <synapse sourceNeuronName = "3" targetNeuronName = "8" weight = "0.2532495893272446" />
    <synapse sourceNeuronName = "3" targetNeuronName = "9" weight = "-0.7231067981176356" />
    <synapse sourceNeuronName = "4" targetNeuronName = "5" weight = "-0.5270657887777745" />
    <synapse sourceNeuronName = "4" targetNeuronName = "6" weight = "0.19543026741003633" />
    <synapse sourceNeuronName = "4" targetNeuronName = "7" weight = "0.1886234585453035" />
    <synapse sourceNeuronName = "4" targetNeuronName = "8" weight = "0.7323770423738332" />
    <synapse sourceNeuronName = "4" targetNeuronName = "9" weight = "-0.6893074628893212" />
</neuralNetwork>