<neuralNetwork>
    <neuron name = "0" type = "sensor" linkName = "Link1" />
    <neuron name = "1" type = "sensor" linkName = "Link3" />
    <neuron name = "2" type = "sensor" linkName = "Link4" />
    <neuron name = "3" type = "sensor" linkName = "Link5" />
    <neuron name = "4" type = "motor"  jointName = "Link0_Link1" />
    <neuron name = "5" type = "motor"  jointName = "Link1_Link2" />
    <neuron name = "6" type = "motor"  jointName = "Link1_Link3" />
    <neuron name = "7" type = "motor"  jointName = "Link0_Link4" />
    <neuron name = "8" type = "motor"  jointName = "Link3_Link5" />
    <synapse sourceNeuronName = "0" targetNeuronName = "4" weight = "0.38911938142994607" />
    <synapse sourceNeuronName = "0" targetNeuronName = "5" weight = "0.4130907770227552" />
    <synapse sourceNeuronName = "0" targetNeuronName = "6" weight = "-0.6132410268276658" />
    <synapse sourceNeuronName = "0" targetNeuronName = "7" weight = "0.42769308147329066" />
    <synapse sourceNeuronName = "0" targetNeuronName = "8" weight = "0.5683301029462289" />
    <synapse sourceNeuronName = "1" targetNeuronName = "4" weight = "0.18576751809361447" />
    <synapse sourceNeuronName = "1" targetNeuronName = "5" weight = "-0.4990529593303823" />
    <synapse sourceNeuronName = "1" targetNeuronName = "6" weight = "0.6764298188563362" />
    <synapse sourceNeuronName = "1" targetNeuronName = "7" weight = "0.26422372531767735" />
    <synapse sourceNeuronName = "1" targetNeuronName = "8" weight = "-0.11133990535089633" />
    <synapse sourceNeuronName = "2" targetNeuronName = "4" weight = "-0.5849739340953306" />
    <synapse sourceNeuronName = "2" targetNeuronName = "5" weight = "0.1084576828195174" />
    <synapse sourceNeuronName = "2" targetNeuronName = "6" weight = "-0.13080775045834003" />
    <synapse sourceNeuronName = "2" targetNeuronName = "7" weight = "0.7846878770677932" />
    <synapse sourceNeuronName = "2" targetNeuronName = "8" weight = "-0.45156918159455683" />
    <synapse sourceNeuronName = "3" targetNeuronName = "4" weight = "-0.30646944028928313" />
    <synapse sourceNeuronName = "3" targetNeuronName = "5" weight = "-0.06014418882015882" />
    <synapse sourceNeuronName = "3" targetNeuronName = "6" weight = "0.2055981889023215" />
    <synapse sourceNeuronName = "3" targetNeuronName = "7" weight = "0.12839340207559857" />
    <synapse sourceNeuronName = "3" targetNeuronName = "8" weight = "0.7905205820331842" />
</neuralNetwork>