<neuralNetwork>
    <neuron name = "0" type = "sensor" linkName = "Link0" />
    <neuron name = "1" type = "sensor" linkName = "Link1" />
    <neuron name = "2" type = "sensor" linkName = "Link2" />
    <neuron name = "3" type = "sensor" linkName = "Link3" />
    <neuron name = "4" type = "sensor" linkName = "Link5" />
    <neuron name = "5" type = "sensor" linkName = "Link6" />
    <neuron name = "6" type = "sensor" linkName = "Link8" />
    <neuron name = "7" type = "motor"  jointName = "Link0_Link1" />
    <neuron name = "8" type = "motor"  jointName = "Link0_Link2" />
    <neuron name = "9" type = "motor"  jointName = "Link1_Link3" />
    <neuron name = "10" type = "motor"  jointName = "Link2_Link4" />
    <neuron name = "11" type = "motor"  jointName = "Link2_Link5" />
    <neuron name = "12" type = "motor"  jointName = "Link2_Link6" />
    <neuron name = "13" type = "motor"  jointName = "Link5_Link7" />
    <neuron name = "14" type = "motor"  jointName = "Link4_Link8" />
    <synapse sourceNeuronName = "0" targetNeuronName = "7" weight = "0.3810006702221753" />
    <synapse sourceNeuronName = "0" targetNeuronName = "8" weight = "-0.9470081311656042" />
    <synapse sourceNeuronName = "0" targetNeuronName = "9" weight = "-0.8644817399639457" />
    <synapse sourceNeuronName = "0" targetNeuronName = "10" weight = "0.7546479317330343" />
    <synapse sourceNeuronName = "0" targetNeuronName = "11" weight = "-0.8398177262526823" />
    <synapse sourceNeuronName = "0" targetNeuronName = "12" weight = "-0.40159956713847134" />
    <synapse sourceNeuronName = "0" targetNeuronName = "13" weight = "-0.8345413886977573" />
    <synapse sourceNeuronName = "0" targetNeuronName = "14" weight = "0.948535303468425" />
    <synapse sourceNeuronName = "1" targetNeuronName = "7" weight = "-0.8720033639067342" />
    <synapse sourceNeuronName = "1" targetNeuronName = "8" weight = "-0.5991315401587864" />
    <synapse sourceNeuronName = "1" targetNeuronName = "9" weight = "0.6549636939078607" />
    <synapse sourceNeuronName = "1" targetNeuronName = "10" weight = "0.21169936209678242" />
    <synapse sourceNeuronName = "1" targetNeuronName = "11" weight = "-0.5710731181629416" />
    <synapse sourceNeuronName = "1" targetNeuronName = "12" weight = "0.7119043561954119" />
    <synapse sourceNeuronName = "1" targetNeuronName = "13" weight = "0.025022116870613953" />
    <synapse sourceNeuronName = "1" targetNeuronName = "14" weight = "-0.9357414673038995" />
    <synapse sourceNeuronName = "2" targetNeuronName = "7" weight = "-0.9900190363336514" />
    <synapse sourceNeuronName = "2" targetNeuronName = "8" weight = "-0.2490549769146957" />
    <synapse sourceNeuronName = "2" targetNeuronName = "9" weight = "-0.06983154853300033" />
    <synapse sourceNeuronName = "2" targetNeuronName = "10" weight = "0.5084830505741018" />
    <synapse sourceNeuronName = "2" targetNeuronName = "11" weight = "-0.39980883213596474" />
    <synapse sourceNeuronName = "2" targetNeuronName = "12" weight = "0.9163022097947624" />
    <synapse sourceNeuronName = "2" targetNeuronName = "13" weight = "-0.8501881932080291" />
    <synapse sourceNeuronName = "2" targetNeuronName = "14" weight = "0.7274954471489519" />
    <synapse sourceNeuronName = "3" targetNeuronName = "7" weight = "-0.03925774892389011" />
    <synapse sourceNeuronName = "3" targetNeuronName = "8" weight = "-0.43284195240478085" />
    <synapse sourceNeuronName = "3" targetNeuronName = "9" weight = "0.1691777287614482" />
    <synapse sourceNeuronName = "3" targetNeuronName = "10" weight = "-0.4227442806845898" />
    <synapse sourceNeuronName = "3" targetNeuronName = "11" weight = "-0.9334159688095076" />
    <synapse sourceNeuronName = "3" targetNeuronName = "12" weight = "0.19126896345648525" />
    <synapse sourceNeuronName = "3" targetNeuronName = "13" weight = "-0.0742771990026645" />
    <synapse sourceNeuronName = "3" targetNeuronName = "14" weight = "-0.6403690663186699" />
    <synapse sourceNeuronName = "4" targetNeuronName = "7" weight = "-0.3764434934415797" />
    <synapse sourceNeuronName = "4" targetNeuronName = "8" weight = "0.024449563923359285" />
    <synapse sourceNeuronName = "4" targetNeuronName = "9" weight = "-0.7373797973782477" />
    <synapse sourceNeuronName = "4" targetNeuronName = "10" weight = "0.10369939920989801" />
    <synapse sourceNeuronName = "4" targetNeuronName = "11" weight = "0.8901683707231123" />
    <synapse sourceNeuronName = "4" targetNeuronName = "12" weight = "0.7631495001450475" />
    <synapse sourceNeuronName = "4" targetNeuronName = "13" weight = "-0.9306078608024648" />
    <synapse sourceNeuronName = "4" targetNeuronName = "14" weight = "0.31696826470310846" />
    <synapse sourceNeuronName = "5" targetNeuronName = "7" weight = "0.5851415958144834" />
    <synapse sourceNeuronName = "5" targetNeuronName = "8" weight = "0.0922721605706378" />
    <synapse sourceNeuronName = "5" targetNeuronName = "9" weight = "-0.8950327226765538" />
    <synapse sourceNeuronName = "5" targetNeuronName = "10" weight = "-0.38628895536490626" />
    <synapse sourceNeuronName = "5" targetNeuronName = "11" weight = "-0.8362944084952286" />
    <synapse sourceNeuronName = "5" targetNeuronName = "12" weight = "0.9443805029158159" />
    <synapse sourceNeuronName = "5" targetNeuronName = "13" weight = "-0.7588576042434361" />
    <synapse sourceNeuronName = "5" targetNeuronName = "14" weight = "-0.16319295802224643" />
    <synapse sourceNeuronName = "6" targetNeuronName = "7" weight = "0.2678514542036843" />
    <synapse sourceNeuronName = "6" targetNeuronName = "8" weight = "-0.12454542300245475" />
    <synapse sourceNeuronName = "6" targetNeuronName = "9" weight = "-0.679228605339943" />
    <synapse sourceNeuronName = "6" targetNeuronName = "10" weight = "0.8055309690697112" />
    <synapse sourceNeuronName = "6" targetNeuronName = "11" weight = "-0.048080674820124125" />
    <synapse sourceNeuronName = "6" targetNeuronName = "12" weight = "-0.4951564947447886" />
    <synapse sourceNeuronName = "6" targetNeuronName = "13" weight = "0.16817053011236283" />
    <synapse sourceNeuronName = "6" targetNeuronName = "14" weight = "-0.9214501187985942" />
</neuralNetwork>