<neuralNetwork>
    <neuron name = "0" type = "sensor" linkName = "Link0" />
    <neuron name = "1" type = "sensor" linkName = "Link2" />
    <neuron name = "2" type = "sensor" linkName = "Link3" />
    <neuron name = "3" type = "sensor" linkName = "Link4" />
    <neuron name = "4" type = "sensor" linkName = "Link5" />
    <neuron name = "5" type = "sensor" linkName = "Link6" />
    <neuron name = "6" type = "motor"  jointName = "Link0_Link1" />
    <neuron name = "7" type = "motor"  jointName = "Link1_Link2" />
    <neuron name = "8" type = "motor"  jointName = "Link2_Link3" />
    <neuron name = "9" type = "motor"  jointName = "Link1_Link4" />
    <neuron name = "10" type = "motor"  jointName = "Link4_Link5" />
    <neuron name = "11" type = "motor"  jointName = "Link2_Link6" />
    <synapse sourceNeuronName = "0" targetNeuronName = "6" weight = "-0.8056351768527503" />
    <synapse sourceNeuronName = "0" targetNeuronName = "7" weight = "-0.21446845170225193" />
    <synapse sourceNeuronName = "0" targetNeuronName = "8" weight = "-0.7587856475954324" />
    <synapse sourceNeuronName = "0" targetNeuronName = "9" weight = "0.33567807168945185" />
    <synapse sourceNeuronName = "0" targetNeuronName = "10" weight = "-0.6904847365470796" />
    <synapse sourceNeuronName = "0" targetNeuronName = "11" weight = "0.40186645867545656" />
    <synapse sourceNeuronName = "1" targetNeuronName = "6" weight = "0.6450078808853874" />
    <synapse sourceNeuronName = "1" targetNeuronName = "7" weight = "0.6160700501902163" />
    <synapse sourceNeuronName = "1" targetNeuronName = "8" weight = "-0.26782310987047686" />
    <synapse sourceNeuronName = "1" targetNeuronName = "9" weight = "-0.30744717923102827" />
    <synapse sourceNeuronName = "1" targetNeuronName = "10" weight = "0.9521514118479923" />
    <synapse sourceNeuronName = "1" targetNeuronName = "11" weight = "0.17504324113659986" />
    <synapse sourceNeuronName = "2" targetNeuronName = "6" weight = "0.005751706892243025" />
    <synapse sourceNeuronName = "2" targetNeuronName = "7" weight = "0.9899676901881374" />
    <synapse sourceNeuronName = "2" targetNeuronName = "8" weight = "-0.059637507719876526" />
    <synapse sourceNeuronName = "2" targetNeuronName = "9" weight = "-0.8430566466728637" />
    <synapse sourceNeuronName = "2" targetNeuronName = "10" weight = "-0.47186250532047636" />
    <synapse sourceNeuronName = "2" targetNeuronName = "11" weight = "0.8569581440866751" />
    <synapse sourceNeuronName = "3" targetNeuronName = "6" weight = "0.3536295868761401" />
    <synapse sourceNeuronName = "3" targetNeuronName = "7" weight = "0.7804254656271936" />
    <synapse sourceNeuronName = "3" targetNeuronName = "8" weight = "-0.2905986801204816" />
    <synapse sourceNeuronName = "3" targetNeuronName = "9" weight = "0.0006495309267713356" />
    <synapse sourceNeuronName = "3" targetNeuronName = "10" weight = "-0.29570857616450574" />
    <synapse sourceNeuronName = "3" targetNeuronName = "11" weight = "-0.44865039845590804" />
    <synapse sourceNeuronName = "4" targetNeuronName = "6" weight = "0.9268019120420268" />
    <synapse sourceNeuronName = "4" targetNeuronName = "7" weight = "-0.7754564697949529" />
    <synapse sourceNeuronName = "4" targetNeuronName = "8" weight = "0.03358148295513197" />
    <synapse sourceNeuronName = "4" targetNeuronName = "9" weight = "0.2566752952583444" />
    <synapse sourceNeuronName = "4" targetNeuronName = "10" weight = "0.6579603099637883" />
    <synapse sourceNeuronName = "4" targetNeuronName = "11" weight = "-0.5633892364174904" />
    <synapse sourceNeuronName = "5" targetNeuronName = "6" weight = "0.36187875743870057" />
    <synapse sourceNeuronName = "5" targetNeuronName = "7" weight = "0.5620306678407465" />
    <synapse sourceNeuronName = "5" targetNeuronName = "8" weight = "-0.6583458883693545" />
    <synapse sourceNeuronName = "5" targetNeuronName = "9" weight = "0.4563067193894299" />
    <synapse sourceNeuronName = "5" targetNeuronName = "10" weight = "0.7677169797745749" />
    <synapse sourceNeuronName = "5" targetNeuronName = "11" weight = "-0.38243790939632527" />
</neuralNetwork>