<neuralNetwork>
    <neuron name = "0" type = "sensor" linkName = "Link1" />
    <neuron name = "1" type = "sensor" linkName = "Link4" />
    <neuron name = "2" type = "sensor" linkName = "Link5" />
    <neuron name = "3" type = "sensor" linkName = "Link6" />
    <neuron name = "4" type = "sensor" linkName = "Link8" />
    <neuron name = "5" type = "motor"  jointName = "Link0_Link1" />
    <neuron name = "6" type = "motor"  jointName = "Link0_Link2" />
    <neuron name = "7" type = "motor"  jointName = "Link2_Link3" />
    <neuron name = "8" type = "motor"  jointName = "Link2_Link4" />
    <neuron name = "9" type = "motor"  jointName = "Link3_Link5" />
    <neuron name = "10" type = "motor"  jointName = "Link5_Link6" />
    <neuron name = "11" type = "motor"  jointName = "Link0_Link7" />
    <neuron name = "12" type = "motor"  jointName = "Link7_Link8" />
    <synapse sourceNeuronName = "0" targetNeuronName = "5" weight = "-0.16376914810369603" />
    <synapse sourceNeuronName = "0" targetNeuronName = "6" weight = "-0.9975736438096965" />
    <synapse sourceNeuronName = "0" targetNeuronName = "7" weight = "0.4243656193663883" />
    <synapse sourceNeuronName = "0" targetNeuronName = "8" weight = "-0.39955811861421164" />
    <synapse sourceNeuronName = "0" targetNeuronName = "9" weight = "0.15235355186543154" />
    <synapse sourceNeuronName = "0" targetNeuronName = "10" weight = "0.8002120486640589" />
    <synapse sourceNeuronName = "0" targetNeuronName = "11" weight = "-0.13464034465400632" />
    <synapse sourceNeuronName = "0" targetNeuronName = "12" weight = "0.9719341809825355" />
    <synapse sourceNeuronName = "1" targetNeuronName = "5" weight = "0.0448749692550261" />
    <synapse sourceNeuronName = "1" targetNeuronName = "6" weight = "-0.7972224219954651" />
    <synapse sourceNeuronName = "1" targetNeuronName = "7" weight = "0.8517772693499832" />
    <synapse sourceNeuronName = "1" targetNeuronName = "8" weight = "0.06310507709672053" />
    <synapse sourceNeuronName = "1" targetNeuronName = "9" weight = "-0.6976953562714561" />
    <synapse sourceNeuronName = "1" targetNeuronName = "10" weight = "-0.5981069540252182" />
    <synapse sourceNeuronName = "1" targetNeuronName = "11" weight = "-0.6165216597461354" />
    <synapse sourceNeuronName = "1" targetNeuronName = "12" weight = "0.5826254080697708" />
    <synapse sourceNeuronName = "2" targetNeuronName = "5" weight = "0.07467411307127136" />
    <synapse sourceNeuronName = "2" targetNeuronName = "6" weight = "-0.7945744502047067" />
    <synapse sourceNeuronName = "2" targetNeuronName = "7" weight = "0.7380679602529479" />
    <synapse sourceNeuronName = "2" targetNeuronName = "8" weight = "-0.8903942445333026" />
    <synapse sourceNeuronName = "2" targetNeuronName = "9" weight = "-0.1205788057176671" />
    <synapse sourceNeuronName = "2" targetNeuronName = "10" weight = "-0.3508828724719826" />
    <synapse sourceNeuronName = "2" targetNeuronName = "11" weight = "0.9310271487880535" />
    <synapse sourceNeuronName = "2" targetNeuronName = "12" weight = "0.19665715200595524" />
    <synapse sourceNeuronName = "3" targetNeuronName = "5" weight = "0.6951977838199723" />
    <synapse sourceNeuronName = "3" targetNeuronName = "6" weight = "-0.9973517555289406" />
    <synapse sourceNeuronName = "3" targetNeuronName = "7" weight = "-0.6874805273885944" />
    <synapse sourceNeuronName = "3" targetNeuronName = "8" weight = "-0.896189475880635" />
    <synapse sourceNeuronName = "3" targetNeuronName = "9" weight = "-0.6072244498983523" />
    <synapse sourceNeuronName = "3" targetNeuronName = "10" weight = "0.7843837201061137" />
    <synapse sourceNeuronName = "3" targetNeuronName = "11" weight = "-0.06967920693869045" />
    <synapse sourceNeuronName = "3" targetNeuronName = "12" weight = "0.9930641940901823" />
    <synapse sourceNeuronName = "4" targetNeuronName = "5" weight = "0.8100470885358035" />
    <synapse sourceNeuronName = "4" targetNeuronName = "6" weight = "0.13524390493054517" />
    <synapse sourceNeuronName = "4" targetNeuronName = "7" weight = "-0.5630597155523906" />
    <synapse sourceNeuronName = "4" targetNeuronName = "8" weight = "0.957402638749562" />
    <synapse sourceNeuronName = "4" targetNeuronName = "9" weight = "0.37195164718027773" />
    <synapse sourceNeuronName = "4" targetNeuronName = "10" weight = "0.98523135491805" />
    <synapse sourceNeuronName = "4" targetNeuronName = "11" weight = "-0.6970403863344805" />
    <synapse sourceNeuronName = "4" targetNeuronName = "12" weight = "-0.09956503934165117" />
</neuralNetwork>