<neuralNetwork>
    <neuron name = "0" type = "sensor" linkName = "Link2" />
    <neuron name = "1" type = "sensor" linkName = "Link3" />
    <neuron name = "2" type = "sensor" linkName = "Link7" />
    <neuron name = "3" type = "sensor" linkName = "Link9" />
    <neuron name = "4" type = "motor"  jointName = "Link0_Link1" />
    <neuron name = "5" type = "motor"  jointName = "Link1_Link2" />
    <neuron name = "6" type = "motor"  jointName = "Link0_Link3" />
    <neuron name = "7" type = "motor"  jointName = "Link1_Link4" />
    <neuron name = "8" type = "motor"  jointName = "Link2_Link5" />
    <neuron name = "9" type = "motor"  jointName = "Link2_Link6" />
    <neuron name = "10" type = "motor"  jointName = "Link5_Link7" />
    <neuron name = "11" type = "motor"  jointName = "Link6_Link8" />
    <neuron name = "12" type = "motor"  jointName = "Link7_Link9" />
    <synapse sourceNeuronName = "0" targetNeuronName = "4" weight = "0.621995219057401" />
    <synapse sourceNeuronName = "0" targetNeuronName = "5" weight = "-0.7002684161885373" />
    <synapse sourceNeuronName = "0" targetNeuronName = "6" weight = "-0.5619966782649566" />
    <synapse sourceNeuronName = "0" targetNeuronName = "7" weight = "0.34018022849678764" />
    <synapse sourceNeuronName = "0" targetNeuronName = "8" weight = "-0.3057367296887612" />
    <synapse sourceNeuronName = "0" targetNeuronName = "9" weight = "0.4361958668903916" />
    <synapse sourceNeuronName = "0" targetNeuronName = "10" weight = "-0.7630851147268287" />
    <synapse sourceNeuronName = "0" targetNeuronName = "11" weight = "-0.5953707223491853" />
    <synapse sourceNeuronName = "0" targetNeuronName = "12" weight = "0.4406579164131892" />
    <synapse sourceNeuronName = "1" targetNeuronName = "4" weight = "0.8399478601666621" />
    <synapse sourceNeuronName = "1" targetNeuronName = "5" weight = "0.8872731181566142" />
    <synapse sourceNeuronName = "1" targetNeuronName = "6" weight = "0.1873109360698908" />
    <synapse sourceNeuronName = "1" targetNeuronName = "7" weight = "-0.46233270474489974" />
    <synapse sourceNeuronName = "1" targetNeuronName = "8" weight = "-0.8093956769690527" />
    <synapse sourceNeuronName = "1" targetNeuronName = "9" weight = "-0.7621156359922572" />
    <synapse sourceNeuronName = "1" targetNeuronName = "10" weight = "-0.24076914004464411" />
    <synapse sourceNeuronName = "1" targetNeuronName = "11" weight = "-0.36192119319249083" />
    <synapse sourceNeuronName = "1" targetNeuronName = "12" weight = "0.8533253481649696" />
    <synapse sourceNeuronName = "2" targetNeuronName = "4" weight = "-0.9503598090494161" />
    <synapse sourceNeuronName = "2" targetNeuronName = "5" weight = "0.6430436187863464" />
    <synapse sourceNeuronName = "2" targetNeuronName = "6" weight = "0.5605573529647461" />
    <synapse sourceNeuronName = "2" targetNeuronName = "7" weight = "0.6937928578405921" />
    <synapse sourceNeuronName = "2" targetNeuronName = "8" weight = "0.4963175200660823" />
    <synapse sourceNeuronName = "2" targetNeuronName = "9" weight = "-0.4934434547704625" />
    <synapse sourceNeuronName = "2" targetNeuronName = "10" weight = "0.6373633893974195" />
    <synapse sourceNeuronName = "2" targetNeuronName = "11" weight = "-0.997464318447842" />
    <synapse sourceNeuronName = "2" targetNeuronName = "12" weight = "-0.8642371268528057" />
    <synapse sourceNeuronName = "3" targetNeuronName = "4" weight = "-0.03913613506854752" />
    <synapse sourceNeuronName = "3" targetNeuronName = "5" weight = "0.465413437873732" />
    <synapse sourceNeuronName = "3" targetNeuronName = "6" weight = "0.6991723605319315" />
    <synapse sourceNeuronName = "3" targetNeuronName = "7" weight = "-0.351994310774123" />
    <synapse sourceNeuronName = "3" targetNeuronName = "8" weight = "0.196342955924923" />
    <synapse sourceNeuronName = "3" targetNeuronName = "9" weight = "0.43970103593862486" />
    <synapse sourceNeuronName = "3" targetNeuronName = "10" weight = "-0.353162331726945" />
    <synapse sourceNeuronName = "3" targetNeuronName = "11" weight = "-0.0895538653299095" />
    <synapse sourceNeuronName = "3" targetNeuronName = "12" weight = "-0.7108812713516193" />
</neuralNetwork>