<neuralNetwork>
    <neuron name = "0" type = "sensor" linkName = "Link2" />
    <neuron name = "1" type = "sensor" linkName = "Link5" />
    <neuron name = "2" type = "sensor" linkName = "Link6" />
    <neuron name = "3" type = "sensor" linkName = "Link7" />
    <neuron name = "4" type = "motor"  jointName = "Link0_Link1" />
    <neuron name = "5" type = "motor"  jointName = "Link0_Link2" />
    <neuron name = "6" type = "motor"  jointName = "Link2_Link3" />
    <neuron name = "7" type = "motor"  jointName = "Link1_Link4" />
    <neuron name = "8" type = "motor"  jointName = "Link3_Link5" />
    <neuron name = "9" type = "motor"  jointName = "Link5_Link6" />
    <neuron name = "10" type = "motor"  jointName = "Link3_Link7" />
    <neuron name = "11" type = "motor"  jointName = "Link1_Link8" />
    <neuron name = "12" type = "motor"  jointName = "Link8_Link9" />
    <synapse sourceNeuronName = "0" targetNeuronName = "4" weight = "0.2854091105514538" />
    <synapse sourceNeuronName = "0" targetNeuronName = "5" weight = "-0.17961967110313815" />
    <synapse sourceNeuronName = "0" targetNeuronName = "6" weight = "-0.09211654186060048" />
    <synapse sourceNeuronName = "0" targetNeuronName = "7" weight = "-0.02781388194806822" />
    <synapse sourceNeuronName = "0" targetNeuronName = "8" weight = "0.33640559613538823" />
    <synapse sourceNeuronName = "0" targetNeuronName = "9" weight = "0.7066385640562634" />
    <synapse sourceNeuronName = "0" targetNeuronName = "10" weight = "-0.4871244358292839" />
    <synapse sourceNeuronName = "0" targetNeuronName = "11" weight = "0.45974266281438014" />
    <synapse sourceNeuronName = "0" targetNeuronName = "12" weight = "-0.27743716313331923" />
    <synapse sourceNeuronName = "1" targetNeuronName = "4" weight = "-0.28807262463286243" />
    <synapse sourceNeuronName = "1" targetNeuronName = "5" weight = "-0.7019904951465243" />
    <synapse sourceNeuronName = "1" targetNeuronName = "6" weight = "-0.8960408659030841" />
    <synapse sourceNeuronName = "1" targetNeuronName = "7" weight = "-0.4917536578581614" />
    <synapse sourceNeuronName = "1" targetNeuronName = "8" weight = "-0.28760499032935094" />
    <synapse sourceNeuronName = "1" targetNeuronName = "9" weight = "0.32724597438162695" />
    <synapse sourceNeuronName = "1" targetNeuronName = "10" weight = "0.37938630423998565" />
    <synapse sourceNeuronName = "1" targetNeuronName = "11" weight = "-0.39138380013049123" />
    <synapse sourceNeuronName = "1" targetNeuronName = "12" weight = "0.705197159841787" />
    <synapse sourceNeuronName = "2" targetNeuronName = "4" weight = "0.47345987219310826" />
    <synapse sourceNeuronName = "2" targetNeuronName = "5" weight = "0.9799705391281848" />
    <synapse sourceNeuronName = "2" targetNeuronName = "6" weight = "-0.5193871641609036" />
    <synapse sourceNeuronName = "2" targetNeuronName = "7" weight = "0.9062406607167981" />
    <synapse sourceNeuronName = "2" targetNeuronName = "8" weight = "-0.9399350249708955" />
    <synapse sourceNeuronName = "2" targetNeuronName = "9" weight = "-0.702739888532605" />
    <synapse sourceNeuronName = "2" targetNeuronName = "10" weight = "0.06769235853037459" />
    <synapse sourceNeuronName = "2" targetNeuronName = "11" weight = "0.7136445236969846" />
    <synapse sourceNeuronName = "2" targetNeuronName = "12" weight = "-0.15878503642553654" />
    <synapse sourceNeuronName = "3" targetNeuronName = "4" weight = "0.8428115744618927" />
    <synapse sourceNeuronName = "3" targetNeuronName = "5" weight = "-0.9686487840557674" />
    <synapse sourceNeuronName = "3" targetNeuronName = "6" weight = "0.7825326160907617" />
    <synapse sourceNeuronName = "3" targetNeuronName = "7" weight = "-0.5954912021496639" />
    <synapse sourceNeuronName = "3" targetNeuronName = "8" weight = "-0.13164227636021275" />
    <synapse sourceNeuronName = "3" targetNeuronName = "9" weight = "-0.027115755945923636" />
    <synapse sourceNeuronName = "3" targetNeuronName = "10" weight = "0.5646504936797616" />
    <synapse sourceNeuronName = "3" targetNeuronName = "11" weight = "0.16482082543080834" />
    <synapse sourceNeuronName = "3" targetNeuronName = "12" weight = "0.556531520125032" />
</neuralNetwork>