<neuralNetwork>
    <neuron name = "0" type = "sensor" linkName = "Link0" />
    <neuron name = "1" type = "sensor" linkName = "Link2" />
    <neuron name = "2" type = "sensor" linkName = "Link3" />
    <neuron name = "3" type = "sensor" linkName = "Link4" />
    <neuron name = "4" type = "sensor" linkName = "Link8" />
    <neuron name = "5" type = "motor"  jointName = "Link0_Link1" />
    <neuron name = "6" type = "motor"  jointName = "Link1_Link2" />
    <neuron name = "7" type = "motor"  jointName = "Link2_Link3" />
    <neuron name = "8" type = "motor"  jointName = "Link0_Link4" />
    <neuron name = "9" type = "motor"  jointName = "Link1_Link5" />
    <neuron name = "10" type = "motor"  jointName = "Link2_Link6" />
    <neuron name = "11" type = "motor"  jointName = "Link2_Link7" />
    <neuron name = "12" type = "motor"  jointName = "Link6_Link8" />
    <synapse sourceNeuronName = "0" targetNeuronName = "5" weight = "-0.8791945221179631" />
    <synapse sourceNeuronName = "0" targetNeuronName = "6" weight = "0.0003212587010790191" />
    <synapse sourceNeuronName = "0" targetNeuronName = "7" weight = "0.6164309740962204" />
    <synapse sourceNeuronName = "0" targetNeuronName = "8" weight = "0.3784718318789988" />
    <synapse sourceNeuronName = "0" targetNeuronName = "9" weight = "0.10896759756145635" />
    <synapse sourceNeuronName = "0" targetNeuronName = "10" weight = "0.7228273939519443" />
    <synapse sourceNeuronName = "0" targetNeuronName = "11" weight = "-0.5850513937526001" />
    <synapse sourceNeuronName = "0" targetNeuronName = "12" weight = "-0.09342477370019275" />
    <synapse sourceNeuronName = "1" targetNeuronName = "5" weight = "0.6470931436357077" />
    <synapse sourceNeuronName = "1" targetNeuronName = "6" weight = "0.8308407371830484" />
    <synapse sourceNeuronName = "1" targetNeuronName = "7" weight = "0.6674791724542415" />
    <synapse sourceNeuronName = "1" targetNeuronName = "8" weight = "0.41744330213323044" />
    <synapse sourceNeuronName = "1" targetNeuronName = "9" weight = "-0.29517458824502696" />
    <synapse sourceNeuronName = "1" targetNeuronName = "10" weight = "0.8656544044557462" />
    <synapse sourceNeuronName = "1" targetNeuronName = "11" weight = "0.9881392566074225" />
    <synapse sourceNeuronName = "1" targetNeuronName = "12" weight = "0.069787893607405" />
    <synapse sourceNeuronName = "2" targetNeuronName = "5" weight = "0.6506963022498073" />
    <synapse sourceNeuronName = "2" targetNeuronName = "6" weight = "0.7618145496977666" />
    <synapse sourceNeuronName = "2" targetNeuronName = "7" weight = "0.3841052812218262" />
    <synapse sourceNeuronName = "2" targetNeuronName = "8" weight = "0.42240245991424485" />
    <synapse sourceNeuronName = "2" targetNeuronName = "9" weight = "0.36532025089783193" />
    <synapse sourceNeuronName = "2" targetNeuronName = "10" weight = "0.2881600620205558" />
    <synapse sourceNeuronName = "2" targetNeuronName = "11" weight = "-0.3487872518748447" />
    <synapse sourceNeuronName = "2" targetNeuronName = "12" weight = "-0.7089398973861647" />
    <synapse sourceNeuronName = "3" targetNeuronName = "5" weight = "0.22356583943828" />
    <synapse sourceNeuronName = "3" targetNeuronName = "6" weight = "-0.9443754454912889" />
    <synapse sourceNeuronName = "3" targetNeuronName = "7" weight = "-0.911479563374405" />
    <synapse sourceNeuronName = "3" targetNeuronName = "8" weight = "0.46151973777659117" />
    <synapse sourceNeuronName = "3" targetNeuronName = "9" weight = "0.8648916352319493" />
    <synapse sourceNeuronName = "3" targetNeuronName = "10" weight = "-0.18043230058852733" />
    <synapse sourceNeuronName = "3" targetNeuronName = "11" weight = "0.5001983448559371" />
    <synapse sourceNeuronName = "3" targetNeuronName = "12" weight = "0.38072410427166625" />
    <synapse sourceNeuronName = "4" targetNeuronName = "5" weight = "-0.5989288793735854" />
    <synapse sourceNeuronName = "4" targetNeuronName = "6" weight = "-0.4790071610452573" />
    <synapse sourceNeuronName = "4" targetNeuronName = "7" weight = "0.48528559564985785" />
    <synapse sourceNeuronName = "4" targetNeuronName = "8" weight = "0.5917814593008572" />
    <synapse sourceNeuronName = "4" targetNeuronName = "9" weight = "-0.2941123952970921" />
    <synapse sourceNeuronName = "4" targetNeuronName = "10" weight = "-0.3987927772327782" />
    <synapse sourceNeuronName = "4" targetNeuronName = "11" weight = "0.09248492062930103" />
    <synapse sourceNeuronName = "4" targetNeuronName = "12" weight = "0.6821924877269272" />
</neuralNetwork>