<neuralNetwork>
    <neuron name = "0" type = "sensor" linkName = "Link1" />
    <neuron name = "1" type = "sensor" linkName = "Link4" />
    <neuron name = "2" type = "sensor" linkName = "Link5" />
    <neuron name = "3" type = "sensor" linkName = "Link6" />
    <neuron name = "4" type = "sensor" linkName = "Link9" />
    <neuron name = "5" type = "motor"  jointName = "Link0_Link1" />
    <neuron name = "6" type = "motor"  jointName = "Link0_Link2" />
    <neuron name = "7" type = "motor"  jointName = "Link2_Link3" />
    <neuron name = "8" type = "motor"  jointName = "Link2_Link4" />
    <neuron name = "9" type = "motor"  jointName = "Link3_Link5" />
    <neuron name = "10" type = "motor"  jointName = "Link5_Link6" />
    <neuron name = "11" type = "motor"  jointName = "Link3_Link7" />
    <neuron name = "12" type = "motor"  jointName = "Link0_Link8" />
    <neuron name = "13" type = "motor"  jointName = "Link8_Link9" />
    <synapse sourceNeuronName = "0" targetNeuronName = "5" weight = "-0.7823508501816421" />
    <synapse sourceNeuronName = "0" targetNeuronName = "6" weight = "-0.643062623454939" />
    <synapse sourceNeuronName = "0" targetNeuronName = "7" weight = "-0.7448596562995413" />
    <synapse sourceNeuronName = "0" targetNeuronName = "8" weight = "0.525108036778946" />
    <synapse sourceNeuronName = "0" targetNeuronName = "9" weight = "-0.21910183272164074" />
    <synapse sourceNeuronName = "0" targetNeuronName = "10" weight = "-0.25774992387916495" />
    <synapse sourceNeuronName = "0" targetNeuronName = "11" weight = "0.8670014043634326" />
    <synapse sourceNeuronName = "0" targetNeuronName = "12" weight = "0.5929877819703189" />
    <synapse sourceNeuronName = "0" targetNeuronName = "13" weight = "-0.6497098736983185" />
    <synapse sourceNeuronName = "1" targetNeuronName = "5" weight = "0.4260694745671867" />
    <synapse sourceNeuronName = "1" targetNeuronName = "6" weight = "-0.010491785320929203" />
    <synapse sourceNeuronName = "1" targetNeuronName = "7" weight = "-0.9642991194480433" />
    <synapse sourceNeuronName = "1" targetNeuronName = "8" weight = "-0.15534660015552193" />
    <synapse sourceNeuronName = "1" targetNeuronName = "9" weight = "-0.7375513076828479" />
    <synapse sourceNeuronName = "1" targetNeuronName = "10" weight = "0.49831590506948475" />
    <synapse sourceNeuronName = "1" targetNeuronName = "11" weight = "0.9550243460973475" />
    <synapse sourceNeuronName = "1" targetNeuronName = "12" weight = "-0.8318404976432545" />
    <synapse sourceNeuronName = "1" targetNeuronName = "13" weight = "-0.778446311896646" />
    <synapse sourceNeuronName = "2" targetNeuronName = "5" weight = "0.7580422488389396" />
    <synapse sourceNeuronName = "2" targetNeuronName = "6" weight = "-0.8449306071427973" />
    <synapse sourceNeuronName = "2" targetNeuronName = "7" weight = "0.844333136124511" />
    <synapse sourceNeuronName = "2" targetNeuronName = "8" weight = "0.7831171199077136" />
    <synapse sourceNeuronName = "2" targetNeuronName = "9" weight = "-0.12025363181841908" />
    <synapse sourceNeuronName = "2" targetNeuronName = "10" weight = "-0.60159803733671" />
    <synapse sourceNeuronName = "2" targetNeuronName = "11" weight = "-0.7098036346005292" />
    <synapse sourceNeuronName = "2" targetNeuronName = "12" weight = "0.5274023256051903" />
    <synapse sourceNeuronName = "2" targetNeuronName = "13" weight = "0.5716362347292661" />
    <synapse sourceNeuronName = "3" targetNeuronName = "5" weight = "0.5967595090466977" />
    <synapse sourceNeuronName = "3" targetNeuronName = "6" weight = "-0.9838379708947236" />
    <synapse sourceNeuronName = "3" targetNeuronName = "7" weight = "-0.1423966102879206" />
    <synapse sourceNeuronName = "3" targetNeuronName = "8" weight = "-0.05631054172767991" />
    <synapse sourceNeuronName = "3" targetNeuronName = "9" weight = "-0.8413829996916009" />
    <synapse sourceNeuronName = "3" targetNeuronName = "10" weight = "0.9859339618531202" />
    <synapse sourceNeuronName = "3" targetNeuronName = "11" weight = "-0.6081878784267571" />
    <synapse sourceNeuronName = "3" targetNeuronName = "12" weight = "0.7168545056783291" />
    <synapse sourceNeuronName = "3" targetNeuronName = "13" weight = "-0.23405982843354112" />
    <synapse sourceNeuronName = "4" targetNeuronName = "5" weight = "0.79236907150397" />
    <synapse sourceNeuronName = "4" targetNeuronName = "6" weight = "-0.9121112326730343" />
    <synapse sourceNeuronName = "4" targetNeuronName = "7" weight = "-0.34347548536407446" />
    <synapse sourceNeuronName = "4" targetNeuronName = "8" weight = "0.32709061887377633" />
    <synapse sourceNeuronName = "4" targetNeuronName = "9" weight = "-0.02331247063463704" />
    <synapse sourceNeuronName = "4" targetNeuronName = "10" weight = "0.4939034886848013" />
    <synapse sourceNeuronName = "4" targetNeuronName = "11" weight = "0.5522293055983956" />
    <synapse sourceNeuronName = "4" targetNeuronName = "12" weight = "0.7032166618817957" />
    <synapse sourceNeuronName = "4" targetNeuronName = "13" weight = "0.850054263628846" />
</neuralNetwork>