<neuralNetwork>
    <neuron name = "0" type = "sensor" linkName = "Link2" />
    <neuron name = "1" type = "sensor" linkName = "Link3" />
    <neuron name = "2" type = "sensor" linkName = "Link7" />
    <neuron name = "3" type = "motor"  jointName = "Link0_Link1" />
    <neuron name = "4" type = "motor"  jointName = "Link1_Link2" />
    <neuron name = "5" type = "motor"  jointName = "Link0_Link3" />
    <neuron name = "6" type = "motor"  jointName = "Link1_Link4" />
    <neuron name = "7" type = "motor"  jointName = "Link2_Link5" />
    <neuron name = "8" type = "motor"  jointName = "Link2_Link6" />
    <neuron name = "9" type = "motor"  jointName = "Link5_Link7" />
    <neuron name = "10" type = "motor"  jointName = "Link6_Link8" />
    <synapse sourceNeuronName = "0" targetNeuronName = "3" weight = "0.9405686612560271" />
    <synapse sourceNeuronName = "0" targetNeuronName = "4" weight = "-0.2536335485254244" />
    <synapse sourceNeuronName = "0" targetNeuronName = "5" weight = "-0.3062569211770987" />
    <synapse sourceNeuronName = "0" targetNeuronName = "6" weight = "-0.5743400580398563" />
    <synapse sourceNeuronName = "0" targetNeuronName = "7" weight = "-0.5354138411515048" />
    <synapse sourceNeuronName = "0" targetNeuronName = "8" weight = "0.20953061700884446" />
    <synapse sourceNeuronName = "0" targetNeuronName = "9" weight = "0.7629318652083281" />
    <synapse sourceNeuronName = "0" targetNeuronName = "10" weight = "0.545979291787166" />
    <synapse sourceNeuronName = "1" targetNeuronName = "3" weight = "0.49423018582807376" />
    <synapse sourceNeuronName = "1" targetNeuronName = "4" weight = "0.22758084112589438" />
    <synapse sourceNeuronName = "1" targetNeuronName = "5" weight = "-0.7305360270328909" />
    <synapse sourceNeuronName = "1" targetNeuronName = "6" weight = "-0.006034096634650377" />
    <synapse sourceNeuronName = "1" targetNeuronName = "7" weight = "0.9264590112727524" />
    <synapse sourceNeuronName = "1" targetNeuronName = "8" weight = "-0.278634165818036" />
    <synapse sourceNeuronName = "1" targetNeuronName = "9" weight = "-0.35202791957013124" />
    <synapse sourceNeuronName = "1" targetNeuronName = "10" weight = "0.17965401463563913" />
    <synapse sourceNeuronName = "2" targetNeuronName = "3" weight = "-0.5596086109966971" />
    <synapse sourceNeuronName = "2" targetNeuronName = "4" weight = "0.117968363638433" />
    <synapse sourceNeuronName = "2" targetNeuronName = "5" weight = "-0.17417235348564764" />
    <synapse sourceNeuronName = "2" targetNeuronName = "6" weight = "-0.020060255396524784" />
    <synapse sourceNeuronName = "2" targetNeuronName = "7" weight = "-0.623695569797329" />
    <synapse sourceNeuronName = "2" targetNeuronName = "8" weight = "-0.35588841065475685" />
    <synapse sourceNeuronName = "2" targetNeuronName = "9" weight = "-0.31284029600959506" />
    <synapse sourceNeuronName = "2" targetNeuronName = "10" weight = "0.398004954748822" />
</neuralNetwork>