<neuralNetwork>
    <neuron name = "0" type = "sensor" linkName = "Link0" />
    <neuron name = "1" type = "sensor" linkName = "Link1" />
    <neuron name = "2" type = "sensor" linkName = "Link3" />
    <neuron name = "3" type = "sensor" linkName = "Link4" />
    <neuron name = "4" type = "sensor" linkName = "Link6" />
    <neuron name = "5" type = "sensor" linkName = "Link7" />
    <neuron name = "6" type = "motor"  jointName = "Link0_Link1" />
    <neuron name = "7" type = "motor"  jointName = "Link0_Link2" />
    <neuron name = "8" type = "motor"  jointName = "Link2_Link3" />
    <neuron name = "9" type = "motor"  jointName = "Link1_Link4" />
    <neuron name = "10" type = "motor"  jointName = "Link3_Link5" />
    <neuron name = "11" type = "motor"  jointName = "Link0_Link6" />
    <neuron name = "12" type = "motor"  jointName = "Link2_Link7" />
    <neuron name = "13" type = "motor"  jointName = "Link6_Link8" />
    <synapse sourceNeuronName = "0" targetNeuronName = "6" weight = "0.17653277859580152" />
    <synapse sourceNeuronName = "0" targetNeuronName = "7" weight = "0.07776804870270593" />
    <synapse sourceNeuronName = "0" targetNeuronName = "8" weight = "-0.05942504857211972" />
    <synapse sourceNeuronName = "0" targetNeuronName = "9" weight = "-0.22881274377018168" />
    <synapse sourceNeuronName = "0" targetNeuronName = "10" weight = "0.8738524886700767" />
    <synapse sourceNeuronName = "0" targetNeuronName = "11" weight = "-0.6538572877385502" />
    <synapse sourceNeuronName = "0" targetNeuronName = "12" weight = "-0.004375328557470137" />
    <synapse sourceNeuronName = "0" targetNeuronName = "13" weight = "0.38917910636646424" />
    <synapse sourceNeuronName = "1" targetNeuronName = "6" weight = "0.9911187643339978" />
    <synapse sourceNeuronName = "1" targetNeuronName = "7" weight = "-0.1570252610178713" />
    <synapse sourceNeuronName = "1" targetNeuronName = "8" weight = "-0.4445708408731679" />
    <synapse sourceNeuronName = "1" targetNeuronName = "9" weight = "-0.27780769657909454" />
    <synapse sourceNeuronName = "1" targetNeuronName = "10" weight = "-0.16566579432927142" />
    <synapse sourceNeuronName = "1" targetNeuronName = "11" weight = "0.23791631204420738" />
    <synapse sourceNeuronName = "1" targetNeuronName = "12" weight = "-0.00979954456647869" />
    <synapse sourceNeuronName = "1" targetNeuronName = "13" weight = "-0.5901278094338229" />
    <synapse sourceNeuronName = "2" targetNeuronName = "6" weight = "0.31266221159873586" />
    <synapse sourceNeuronName = "2" targetNeuronName = "7" weight = "0.6700322036203199" />
    <synapse sourceNeuronName = "2" targetNeuronName = "8" weight = "-0.29657615032567275" />
    <synapse sourceNeuronName = "2" targetNeuronName = "9" weight = "-0.4786172175030867" />
    <synapse sourceNeuronName = "2" targetNeuronName = "10" weight = "-0.5672069709014136" />
    <synapse sourceNeuronName = "2" targetNeuronName = "11" weight = "-0.8133308366579082" />
    <synapse sourceNeuronName = "2" targetNeuronName = "12" weight = "0.6976495018299977" />
    <synapse sourceNeuronName = "2" targetNeuronName = "13" weight = "-0.6426545552606195" />
    <synapse sourceNeuronName = "3" targetNeuronName = "6" weight = "-0.7494357573218673" />
    <synapse sourceNeuronName = "3" targetNeuronName = "7" weight = "0.08163534041884435" />
    <synapse sourceNeuronName = "3" targetNeuronName = "8" weight = "0.518393853651526" />
    <synapse sourceNeuronName = "3" targetNeuronName = "9" weight = "-0.31666855337775224" />
    <synapse sourceNeuronName = "3" targetNeuronName = "10" weight = "0.01779061787632341" />
    <synapse sourceNeuronName = "3" targetNeuronName = "11" weight = "-0.345173822503128" />
    <synapse sourceNeuronName = "3" targetNeuronName = "12" weight = "-0.5188972461458254" />
    <synapse sourceNeuronName = "3" targetNeuronName = "13" weight = "0.056163515418508725" />
    <synapse sourceNeuronName = "4" targetNeuronName = "6" weight = "0.515078305231526" />
    <synapse sourceNeuronName = "4" targetNeuronName = "7" weight = "-0.8034881833245213" />
    <synapse sourceNeuronName = "4" targetNeuronName = "8" weight = "0.2994875289655441" />
    <synapse sourceNeuronName = "4" targetNeuronName = "9" weight = "-0.11097931085057655" />
    <synapse sourceNeuronName = "4" targetNeuronName = "10" weight = "-0.9951212377052514" />
    <synapse sourceNeuronName = "4" targetNeuronName = "11" weight = "0.7245948357635001" />
    <synapse sourceNeuronName = "4" targetNeuronName = "12" weight = "-0.11772086775905843" />
    <synapse sourceNeuronName = "4" targetNeuronName = "13" weight = "-0.20473732003126788" />
    <synapse sourceNeuronName = "5" targetNeuronName = "6" weight = "0.8102712138228338" />
    <synapse sourceNeuronName = "5" targetNeuronName = "7" weight = "0.5344020107727525" />
    <synapse sourceNeuronName = "5" targetNeuronName = "8" weight = "-0.8793522883345399" />
    <synapse sourceNeuronName = "5" targetNeuronName = "9" weight = "0.7983306633010283" />
    <synapse sourceNeuronName = "5" targetNeuronName = "10" weight = "-0.5556191428044994" />
    <synapse sourceNeuronName = "5" targetNeuronName = "11" weight = "0.8148026142122062" />
    <synapse sourceNeuronName = "5" targetNeuronName = "12" weight = "0.5538630472633799" />
    <synapse sourceNeuronName = "5" targetNeuronName = "13" weight = "-0.5987764596136893" />
</neuralNetwork>