<neuralNetwork>
    <neuron name = "0" type = "sensor" linkName = "Link2" />
    <neuron name = "1" type = "sensor" linkName = "Link5" />
    <neuron name = "2" type = "sensor" linkName = "Link6" />
    <neuron name = "3" type = "sensor" linkName = "Link7" />
    <neuron name = "4" type = "motor"  jointName = "Link0_Link1" />
    <neuron name = "5" type = "motor"  jointName = "Link0_Link2" />
    <neuron name = "6" type = "motor"  jointName = "Link2_Link3" />
    <neuron name = "7" type = "motor"  jointName = "Link1_Link4" />
    <neuron name = "8" type = "motor"  jointName = "Link3_Link5" />
    <neuron name = "9" type = "motor"  jointName = "Link5_Link6" />
    <neuron name = "10" type = "motor"  jointName = "Link3_Link7" />
    <neuron name = "11" type = "motor"  jointName = "Link1_Link8" />
    <synapse sourceNeuronName = "0" targetNeuronName = "4" weight = "-0.8130759073366802" />
    <synapse sourceNeuronName = "0" targetNeuronName = "5" weight = "-0.3470707804251256" />
    <synapse sourceNeuronName = "0" targetNeuronName = "6" weight = "0.791230017416592" />
    <synapse sourceNeuronName = "0" targetNeuronName = "7" weight = "-0.9088665116407986" />
    <synapse sourceNeuronName = "0" targetNeuronName = "8" weight = "-0.7057727149498108" />
    <synapse sourceNeuronName = "0" targetNeuronName = "9" weight = "-0.7167143056893281" />
    <synapse sourceNeuronName = "0" targetNeuronName = "10" weight = "-0.550279131312023" />
    <synapse sourceNeuronName = "0" targetNeuronName = "11" weight = "0.33570720141145016" />
    <synapse sourceNeuronName = "1" targetNeuronName = "4" weight = "0.03624794977441392" />
    <synapse sourceNeuronName = "1" targetNeuronName = "5" weight = "-0.8528755958639922" />
    <synapse sourceNeuronName = "1" targetNeuronName = "6" weight = "0.379985461429033" />
    <synapse sourceNeuronName = "1" targetNeuronName = "7" weight = "0.7657800664767322" />
    <synapse sourceNeuronName = "1" targetNeuronName = "8" weight = "-0.5210870198043787" />
    <synapse sourceNeuronName = "1" targetNeuronName = "9" weight = "0.2925935836198337" />
    <synapse sourceNeuronName = "1" targetNeuronName = "10" weight = "-0.3834312918129059" />
    <synapse sourceNeuronName = "1" targetNeuronName = "11" weight = "-0.1930604248636052" />
    <synapse sourceNeuronName = "2" targetNeuronName = "4" weight = "-0.9608044993117986" />
    <synapse sourceNeuronName = "2" targetNeuronName = "5" weight = "-0.351084020622334" />
    <synapse sourceNeuronName = "2" targetNeuronName = "6" weight = "-0.24466287277788212" />
    <synapse sourceNeuronName = "2" targetNeuronName = "7" weight = "0.02698654034547121" />
    <synapse sourceNeuronName = "2" targetNeuronName = "8" weight = "0.9822827910567047" />
    <synapse sourceNeuronName = "2" targetNeuronName = "9" weight = "0.5851453602635219" />
    <synapse sourceNeuronName = "2" targetNeuronName = "10" weight = "0.46783120011722046" />
    <synapse sourceNeuronName = "2" targetNeuronName = "11" weight = "-0.13730312091703922" />
    <synapse sourceNeuronName = "3" targetNeuronName = "4" weight = "-0.0009989823491851624" />
    <synapse sourceNeuronName = "3" targetNeuronName = "5" weight = "0.932594402334739" />
    <synapse sourceNeuronName = "3" targetNeuronName = "6" weight = "-0.928409694848388" />
    <synapse sourceNeuronName = "3" targetNeuronName = "7" weight = "0.001297590883750921" />
    <synapse sourceNeuronName = "3" targetNeuronName = "8" weight = "0.9609120584493851" />
    <synapse sourceNeuronName = "3" targetNeuronName = "9" weight = "0.6678878277957376" />
    <synapse sourceNeuronName = "3" targetNeuronName = "10" weight = "-0.3552787063312841" />
    <synapse sourceNeuronName = "3" targetNeuronName = "11" weight = "0.23484871026062026" />
</neuralNetwork>