<neuralNetwork>
    <neuron name = "0" type = "sensor" linkName = "Link1" />
    <neuron name = "1" type = "sensor" linkName = "Link3" />
    <neuron name = "2" type = "sensor" linkName = "Link5" />
    <neuron name = "3" type = "sensor" linkName = "Link6" />
    <neuron name = "4" type = "sensor" linkName = "Link7" />
    <neuron name = "5" type = "sensor" linkName = "Link10" />
    <neuron name = "6" type = "motor"  jointName = "Link0_Link1" />
    <neuron name = "7" type = "motor"  jointName = "Link0_Link2" />
    <neuron name = "8" type = "motor"  jointName = "Link0_Link3" />
    <neuron name = "9" type = "motor"  jointName = "Link2_Link4" />
    <neuron name = "10" type = "motor"  jointName = "Link2_Link5" />
    <neuron name = "11" type = "motor"  jointName = "Link4_Link6" />
    <neuron name = "12" type = "motor"  jointName = "Link6_Link7" />
    <neuron name = "13" type = "motor"  jointName = "Link4_Link8" />
    <neuron name = "14" type = "motor"  jointName = "Link0_Link9" />
    <neuron name = "15" type = "motor"  jointName = "Link9_Link10" />
    <synapse sourceNeuronName = "0" targetNeuronName = "6" weight = "-0.5566422060055303" />
    <synapse sourceNeuronName = "0" targetNeuronName = "7" weight = "-0.19381596009365798" />
    <synapse sourceNeuronName = "0" targetNeuronName = "8" weight = "-0.9544782911687939" />
    <synapse sourceNeuronName = "0" targetNeuronName = "9" weight = "-0.18556871570831523" />
    <synapse sourceNeuronName = "0" targetNeuronName = "10" weight = "-0.1272087923049765" />
    <synapse sourceNeuronName = "0" targetNeuronName = "11" weight = "-0.33078938871247154" />
    <synapse sourceNeuronName = "0" targetNeuronName = "12" weight = "0.979505263472694" />
    <synapse sourceNeuronName = "0" targetNeuronName = "13" weight = "-0.6327398004562617" />
    <synapse sourceNeuronName = "0" targetNeuronName = "14" weight = "-0.051761477312975535" />
    <synapse sourceNeuronName = "0" targetNeuronName = "15" weight = "-0.4957799503882254" />
    <synapse sourceNeuronName = "1" targetNeuronName = "6" weight = "-0.8717554217528076" />
    <synapse sourceNeuronName = "1" targetNeuronName = "7" weight = "-0.2549750844650305" />
    <synapse sourceNeuronName = "1" targetNeuronName = "8" weight = "-0.5810793457700012" />
    <synapse sourceNeuronName = "1" targetNeuronName = "9" weight = "0.7150230603211736" />
    <synapse sourceNeuronName = "1" targetNeuronName = "10" weight = "0.7228122598179658" />
    <synapse sourceNeuronName = "1" targetNeuronName = "11" weight = "-0.7965598674292109" />
    <synapse sourceNeuronName = "1" targetNeuronName = "12" weight = "0.5883623496733845" />
    <synapse sourceNeuronName = "1" targetNeuronName = "13" weight = "0.6061018409379704" />
    <synapse sourceNeuronName = "1" targetNeuronName = "14" weight = "-0.2690197502593794" />
    <synapse sourceNeuronName = "1" targetNeuronName = "15" weight = "0.25815867557083005" />
    <synapse sourceNeuronName = "2" targetNeuronName = "6" weight = "0.4366447492192431" />
    <synapse sourceNeuronName = "2" targetNeuronName = "7" weight = "-0.5731777849811099" />
    <synapse sourceNeuronName = "2" targetNeuronName = "8" weight = "0.7059503955782158" />
    <synapse sourceNeuronName = "2" targetNeuronName = "9" weight = "-0.969258487098902" />
    <synapse sourceNeuronName = "2" targetNeuronName = "10" weight = "-0.7145028563921245" />
    <synapse sourceNeuronName = "2" targetNeuronName = "11" weight = "-0.7778597094960427" />
    <synapse sourceNeuronName = "2" targetNeuronName = "12" weight = "-0.9159615188804073" />
    <synapse sourceNeuronName = "2" targetNeuronName = "13" weight = "-0.1975855652602494" />
    <synapse sourceNeuronName = "2" targetNeuronName = "14" weight = "0.8918524354854009" />
    <synapse sourceNeuronName = "2" targetNeuronName = "15" weight = "-0.6601105151362712" />
    <synapse sourceNeuronName = "3" targetNeuronName = "6" weight = "0.42136163536711946" />
    <synapse sourceNeuronName = "3" targetNeuronName = "7" weight = "0.7145450794773303" />
    <synapse sourceNeuronName = "3" targetNeuronName = "8" weight = "0.5207870315803913" />
    <synapse sourceNeuronName = "3" targetNeuronName = "9" weight = "-0.679255731191521" />
    <synapse sourceNeuronName = "3" targetNeuronName = "10" weight = "0.07514488446315593" />
    <synapse sourceNeuronName = "3" targetNeuronName = "11" weight = "-0.7147011321509786" />
    <synapse sourceNeuronName = "3" targetNeuronName = "12" weight = "-0.21527364197857812" />
    <synapse sourceNeuronName = "3" targetNeuronName = "13" weight = "0.30706910556981426" />
    <synapse sourceNeuronName = "3" targetNeuronName = "14" weight = "-0.020279269860479898" />
    <synapse sourceNeuronName = "3" targetNeuronName = "15" weight = "0.8714173164640242" />
    <synapse sourceNeuronName = "4" targetNeuronName = "6" weight = "0.03297625609501642" />
    <synapse sourceNeuronName = "4" targetNeuronName = "7" weight = "0.6543710869959374" />
    <synapse sourceNeuronName = "4" targetNeuronName = "8" weight = "0.24099405787384742" />
    <synapse sourceNeuronName = "4" targetNeuronName = "9" weight = "-0.36780107474909984" />
    <synapse sourceNeuronName = "4" targetNeuronName = "10" weight = "0.4372038169659562" />
    <synapse sourceNeuronName = "4" targetNeuronName = "11" weight = "0.1687558272363061" />
    <synapse sourceNeuronName = "4" targetNeuronName = "12" weight = "0.31206969738412527" />
    <synapse sourceNeuronName = "4" targetNeuronName = "13" weight = "-0.8967225537667756" />
    <synapse sourceNeuronName = "4" targetNeuronName = "14" weight = "-0.21248232255932176" />
    <synapse sourceNeuronName = "4" targetNeuronName = "15" weight = "0.82035720243038" />
    <synapse sourceNeuronName = "5" targetNeuronName = "6" weight = "0.7068680588294334" />
    <synapse sourceNeuronName = "5" targetNeuronName = "7" weight = "0.6429747628519544" />
    <synapse sourceNeuronName = "5" targetNeuronName = "8" weight = "0.04551750217631434" />
    <synapse sourceNeuronName = "5" targetNeuronName = "9" weight = "0.8098578025315601" />
    <synapse sourceNeuronName = "5" targetNeuronName = "10" weight = "0.5800972346143956" />
    <synapse sourceNeuronName = "5" targetNeuronName = "11" weight = "0.845396385272221" />
    <synapse sourceNeuronName = "5" targetNeuronName = "12" weight = "0.8747935782087137" />
    <synapse sourceNeuronName = "5" targetNeuronName = "13" weight = "0.37055576099970766" />
    <synapse sourceNeuronName = "5" targetNeuronName = "14" weight = "0.5827520776226964" />
    <synapse sourceNeuronName = "5" targetNeuronName = "15" weight = "-0.09731139305961412" />
</neuralNetwork>