<neuralNetwork>
    <neuron name = "0" type = "sensor" linkName = "Link0" />
    <neuron name = "1" type = "sensor" linkName = "Link1" />
    <neuron name = "2" type = "sensor" linkName = "Link2" />
    <neuron name = "3" type = "sensor" linkName = "Link3" />
    <neuron name = "4" type = "sensor" linkName = "Link4" />
    <neuron name = "5" type = "motor"  jointName = "Link0_Link1" />
    <neuron name = "6" type = "motor"  jointName = "Link0_Link2" />
    <neuron name = "7" type = "motor"  jointName = "Link1_Link3" />
    <neuron name = "8" type = "motor"  jointName = "Link2_Link4" />
    <synapse sourceNeuronName = "0" targetNeuronName = "5" weight = "-0.13041454767684035" />
    <synapse sourceNeuronName = "0" targetNeuronName = "6" weight = "-0.47288280005772076" />
    <synapse sourceNeuronName = "0" targetNeuronName = "7" weight = "-0.216817929143148" />
    <synapse sourceNeuronName = "0" targetNeuronName = "8" weight = "-0.46202948061072124" />
    <synapse sourceNeuronName = "1" targetNeuronName = "5" weight = "-0.15609057784532232" />
    <synapse sourceNeuronName = "1" targetNeuronName = "6" weight = "0.5717299730408267" />
    <synapse sourceNeuronName = "1" targetNeuronName = "7" weight = "-0.2195940619170662" />
    <synapse sourceNeuronName = "1" targetNeuronName = "8" weight = "-0.3659802379958539" />
    <synapse sourceNeuronName = "2" targetNeuronName = "5" weight = "0.9524779705862918" />
    <synapse sourceNeuronName = "2" targetNeuronName = "6" weight = "0.38054675841851315" />
    <synapse sourceNeuronName = "2" targetNeuronName = "7" weight = "-0.842571691683486" />
    <synapse sourceNeuronName = "2" targetNeuronName = "8" weight = "-0.423191099556844" />
    <synapse sourceNeuronName = "3" targetNeuronName = "5" weight = "0.9542454017019855" />
    <synapse sourceNeuronName = "3" targetNeuronName = "6" weight = "0.896823689381268" />
    <synapse sourceNeuronName = "3" targetNeuronName = "7" weight = "0.23437446553105667" />
    <synapse sourceNeuronName = "3" targetNeuronName = "8" weight = "0.38059639810084445" />
    <synapse sourceNeuronName = "4" targetNeuronName = "5" weight = "0.40244363724451415" />
    <synapse sourceNeuronName = "4" targetNeuronName = "6" weight = "0.9362355750757501" />
    <synapse sourceNeuronName = "4" targetNeuronName = "7" weight = "-0.48790315530106754" />
    <synapse sourceNeuronName = "4" targetNeuronName = "8" weight = "-0.20883965084707534" />
</neuralNetwork>