<neuralNetwork>
    <neuron name = "0" type = "sensor" linkName = "Link2" />
    <neuron name = "1" type = "sensor" linkName = "Link5" />
    <neuron name = "2" type = "sensor" linkName = "Link6" />
    <neuron name = "3" type = "sensor" linkName = "Link7" />
    <neuron name = "4" type = "motor"  jointName = "Link0_Link1" />
    <neuron name = "5" type = "motor"  jointName = "Link0_Link2" />
    <neuron name = "6" type = "motor"  jointName = "Link2_Link3" />
    <neuron name = "7" type = "motor"  jointName = "Link1_Link4" />
    <neuron name = "8" type = "motor"  jointName = "Link3_Link5" />
    <neuron name = "9" type = "motor"  jointName = "Link5_Link6" />
    <neuron name = "10" type = "motor"  jointName = "Link3_Link7" />
    <neuron name = "11" type = "motor"  jointName = "Link1_Link8" />
    <neuron name = "12" type = "motor"  jointName = "Link5_Link9" />
    <synapse sourceNeuronName = "0" targetNeuronName = "4" weight = "0.6494187009197412" />
    <synapse sourceNeuronName = "0" targetNeuronName = "5" weight = "-0.6325033686333086" />
    <synapse sourceNeuronName = "0" targetNeuronName = "6" weight = "-0.05426313120680648" />
    <synapse sourceNeuronName = "0" targetNeuronName = "7" weight = "-0.2936719322333816" />
    <synapse sourceNeuronName = "0" targetNeuronName = "8" weight = "-0.6426528311629853" />
    <synapse sourceNeuronName = "0" targetNeuronName = "9" weight = "-0.46774026704690264" />
    <synapse sourceNeuronName = "0" targetNeuronName = "10" weight = "0.39702499704052285" />
    <synapse sourceNeuronName = "0" targetNeuronName = "11" weight = "0.26981087750765065" />
    <synapse sourceNeuronName = "0" targetNeuronName = "12" weight = "-0.4942700065172585" />
    <synapse sourceNeuronName = "1" targetNeuronName = "4" weight = "-0.5402473200474678" />
    <synapse sourceNeuronName = "1" targetNeuronName = "5" weight = "-0.4499366605769124" />
    <synapse sourceNeuronName = "1" targetNeuronName = "6" weight = "-0.6684360902217519" />
    <synapse sourceNeuronName = "1" targetNeuronName = "7" weight = "-0.728635988497309" />
    <synapse sourceNeuronName = "1" targetNeuronName = "8" weight = "0.3295894277247007" />
    <synapse sourceNeuronName = "1" targetNeuronName = "9" weight = "-0.956670234430236" />
    <synapse sourceNeuronName = "1" targetNeuronName = "10" weight = "0.09527305287691945" />
    <synapse sourceNeuronName = "1" targetNeuronName = "11" weight = "0.7233838880835997" />
    <synapse sourceNeuronName = "1" targetNeuronName = "12" weight = "0.6598492627790302" />
    <synapse sourceNeuronName = "2" targetNeuronName = "4" weight = "0.8417717691153015" />
    <synapse sourceNeuronName = "2" targetNeuronName = "5" weight = "-0.24156539923234166" />
    <synapse sourceNeuronName = "2" targetNeuronName = "6" weight = "-0.6942747719685249" />
    <synapse sourceNeuronName = "2" targetNeuronName = "7" weight = "-0.11327609866380617" />
    <synapse sourceNeuronName = "2" targetNeuronName = "8" weight = "0.0555895576843104" />
    <synapse sourceNeuronName = "2" targetNeuronName = "9" weight = "-0.4659344109945389" />
    <synapse sourceNeuronName = "2" targetNeuronName = "10" weight = "-0.10290528402044297" />
    <synapse sourceNeuronName = "2" targetNeuronName = "11" weight = "-0.847392554417479" />
    <synapse sourceNeuronName = "2" targetNeuronName = "12" weight = "-0.34381845907395125" />
    <synapse sourceNeuronName = "3" targetNeuronName = "4" weight = "0.8032963190248148" />
    <synapse sourceNeuronName = "3" targetNeuronName = "5" weight = "-0.7973901112776876" />
    <synapse sourceNeuronName = "3" targetNeuronName = "6" weight = "-0.6690924751499432" />
    <synapse sourceNeuronName = "3" targetNeuronName = "7" weight = "-0.8746361405547605" />
    <synapse sourceNeuronName = "3" targetNeuronName = "8" weight = "0.8613941505963387" />
    <synapse sourceNeuronName = "3" targetNeuronName = "9" weight = "-0.32061870801666936" />
    <synapse sourceNeuronName = "3" targetNeuronName = "10" weight = "0.7284431834577383" />
    <synapse sourceNeuronName = "3" targetNeuronName = "11" weight = "0.3588757348682887" />
    <synapse sourceNeuronName = "3" targetNeuronName = "12" weight = "0.12617420761567888" />
</neuralNetwork>