<neuralNetwork>
    <neuron name = "0" type = "sensor" linkName = "Link1" />
    <neuron name = "1" type = "sensor" linkName = "Link2" />
    <neuron name = "2" type = "sensor" linkName = "Link3" />
    <neuron name = "3" type = "sensor" linkName = "Link4" />
    <neuron name = "4" type = "sensor" linkName = "Link5" />
    <neuron name = "5" type = "motor"  jointName = "Link0_Link1" />
    <neuron name = "6" type = "motor"  jointName = "Link0_Link2" />
    <neuron name = "7" type = "motor"  jointName = "Link0_Link3" />
    <neuron name = "8" type = "motor"  jointName = "Link1_Link4" />
    <neuron name = "9" type = "motor"  jointName = "Link2_Link5" />
    <neuron name = "10" type = "motor"  jointName = "Link5_Link6" />
    <synapse sourceNeuronName = "0" targetNeuronName = "5" weight = "-0.257681526543577" />
    <synapse sourceNeuronName = "0" targetNeuronName = "6" weight = "0.6085837763644248" />
    <synapse sourceNeuronName = "0" targetNeuronName = "7" weight = "-0.47046174907129634" />
    <synapse sourceNeuronName = "0" targetNeuronName = "8" weight = "0.8436787485174186" />
    <synapse sourceNeuronName = "0" targetNeuronName = "9" weight = "-0.33890002520257134" />
    <synapse sourceNeuronName = "0" targetNeuronName = "10" weight = "0.9562223356310662" />
    <synapse sourceNeuronName = "1" targetNeuronName = "5" weight = "0.15940624570344708" />
    <synapse sourceNeuronName = "1" targetNeuronName = "6" weight = "-0.8578335702322981" />
    <synapse sourceNeuronName = "1" targetNeuronName = "7" weight = "0.21131515190218653" />
    <synapse sourceNeuronName = "1" targetNeuronName = "8" weight = "0.8679335790594593" />
    <synapse sourceNeuronName = "1" targetNeuronName = "9" weight = "-0.9367575920725038" />
    <synapse sourceNeuronName = "1" targetNeuronName = "10" weight = "0.2752492604424581" />
    <synapse sourceNeuronName = "2" targetNeuronName = "5" weight = "0.715607525788611" />
    <synapse sourceNeuronName = "2" targetNeuronName = "6" weight = "-0.5540598281338363" />
    <synapse sourceNeuronName = "2" targetNeuronName = "7" weight = "0.4358356363492486" />
    <synapse sourceNeuronName = "2" targetNeuronName = "8" weight = "-0.22376995698581026" />
    <synapse sourceNeuronName = "2" targetNeuronName = "9" weight = "-0.6376603255230946" />
    <synapse sourceNeuronName = "2" targetNeuronName = "10" weight = "0.26451185505351194" />
    <synapse sourceNeuronName = "3" targetNeuronName = "5" weight = "-0.12639800967691528" />
    <synapse sourceNeuronName = "3" targetNeuronName = "6" weight = "0.9240522528702348" />
    <synapse sourceNeuronName = "3" targetNeuronName = "7" weight = "-0.06582851772410137" />
    <synapse sourceNeuronName = "3" targetNeuronName = "8" weight = "-0.07467010348752745" />
    <synapse sourceNeuronName = "3" targetNeuronName = "9" weight = "-0.9870425053221723" />
    <synapse sourceNeuronName = "3" targetNeuronName = "10" weight = "-0.04242850262441067" />
    <synapse sourceNeuronName = "4" targetNeuronName = "5" weight = "0.6544479555052523" />
    <synapse sourceNeuronName = "4" targetNeuronName = "6" weight = "-0.5156813665423805" />
    <synapse sourceNeuronName = "4" targetNeuronName = "7" weight = "-0.4296874462533973" />
    <synapse sourceNeuronName = "4" targetNeuronName = "8" weight = "0.844000971149363" />
    <synapse sourceNeuronName = "4" targetNeuronName = "9" weight = "-0.25316424602542553" />
    <synapse sourceNeuronName = "4" targetNeuronName = "10" weight = "-0.6838671443876536" />
</neuralNetwork>