<neuralNetwork>
    <neuron name = "0" type = "sensor" linkName = "Link0" />
    <neuron name = "1" type = "sensor" linkName = "Link1" />
    <neuron name = "2" type = "sensor" linkName = "Link3" />
    <neuron name = "3" type = "sensor" linkName = "Link4" />
    <neuron name = "4" type = "sensor" linkName = "Link6" />
    <neuron name = "5" type = "sensor" linkName = "Link7" />
    <neuron name = "6" type = "sensor" linkName = "Link9" />
    <neuron name = "7" type = "motor"  jointName = "Link0_Link1" />
    <neuron name = "8" type = "motor"  jointName = "Link0_Link2" />
    <neuron name = "9" type = "motor"  jointName = "Link2_Link3" />
    <neuron name = "10" type = "motor"  jointName = "Link1_Link4" />
    <neuron name = "11" type = "motor"  jointName = "Link3_Link5" />
    <neuron name = "12" type = "motor"  jointName = "Link0_Link6" />
    <neuron name = "13" type = "motor"  jointName = "Link2_Link7" />
    <neuron name = "14" type = "motor"  jointName = "Link6_Link8" />
    <neuron name = "15" type = "motor"  jointName = "Link6_Link9" />
    <synapse sourceNeuronName = "0" targetNeuronName = "7" weight = "-0.21607614260270558" />
    <synapse sourceNeuronName = "0" targetNeuronName = "8" weight = "0.7104970176772738" />
    <synapse sourceNeuronName = "0" targetNeuronName = "9" weight = "-0.635543169172051" />
    <synapse sourceNeuronName = "0" targetNeuronName = "10" weight = "0.9295405573153017" />
    <synapse sourceNeuronName = "0" targetNeuronName = "11" weight = "-0.7853897161049284" />
    <synapse sourceNeuronName = "0" targetNeuronName = "12" weight = "0.38253246552439024" />
    <synapse sourceNeuronName = "0" targetNeuronName = "13" weight = "-0.4913685670291601" />
    <synapse sourceNeuronName = "0" targetNeuronName = "14" weight = "-0.27959498426513596" />
    <synapse sourceNeuronName = "0" targetNeuronName = "15" weight = "-0.20560768899796789" />
    <synapse sourceNeuronName = "1" targetNeuronName = "7" weight = "-0.009210885228026822" />
    <synapse sourceNeuronName = "1" targetNeuronName = "8" weight = "-0.7268055128467825" />
    <synapse sourceNeuronName = "1" targetNeuronName = "9" weight = "-0.39452628507769405" />
    <synapse sourceNeuronName = "1" targetNeuronName = "10" weight = "-0.7363640562014557" />
    <synapse sourceNeuronName = "1" targetNeuronName = "11" weight = "-0.31011440372004095" />
    <synapse sourceNeuronName = "1" targetNeuronName = "12" weight = "-0.48809329008004276" />
    <synapse sourceNeuronName = "1" targetNeuronName = "13" weight = "0.7729441723834183" />
    <synapse sourceNeuronName = "1" targetNeuronName = "14" weight = "-0.9395991397945445" />
    <synapse sourceNeuronName = "1" targetNeuronName = "15" weight = "-0.2817186612917677" />
    <synapse sourceNeuronName = "2" targetNeuronName = "7" weight = "0.6360993629324796" />
    <synapse sourceNeuronName = "2" targetNeuronName = "8" weight = "-0.5593496926643848" />
    <synapse sourceNeuronName = "2" targetNeuronName = "9" weight = "0.6177502440461837" />
    <synapse sourceNeuronName = "2" targetNeuronName = "10" weight = "-0.24696782535180306" />
    <synapse sourceNeuronName = "2" targetNeuronName = "11" weight = "0.5757404613783965" />
    <synapse sourceNeuronName = "2" targetNeuronName = "12" weight = "0.36584500521381513" />
    <synapse sourceNeuronName = "2" targetNeuronName = "13" weight = "0.4763935812617812" />
    <synapse sourceNeuronName = "2" targetNeuronName = "14" weight = "-0.21696944537549356" />
    <synapse sourceNeuronName = "2" targetNeuronName = "15" weight = "0.9817680141510634" />
    <synapse sourceNeuronName = "3" targetNeuronName = "7" weight = "0.5185375845477163" />
    <synapse sourceNeuronName = "3" targetNeuronName = "8" weight = "0.03894266460839324" />
    <synapse sourceNeuronName = "3" targetNeuronName = "9" weight = "0.26346504799976356" />
    <synapse sourceNeuronName = "3" targetNeuronName = "10" weight = "-0.3353543613862373" />
    <synapse sourceNeuronName = "3" targetNeuronName = "11" weight = "-0.06207852595408481" />
    <synapse sourceNeuronName = "3" targetNeuronName = "12" weight = "-0.8705091208704892" />
    <synapse sourceNeuronName = "3" targetNeuronName = "13" weight = "0.8668191102287637" />
    <synapse sourceNeuronName = "3" targetNeuronName = "14" weight = "-0.7646803556246826" />
    <synapse sourceNeuronName = "3" targetNeuronName = "15" weight = "0.8465504982159906" />
    <synapse sourceNeuronName = "4" targetNeuronName = "7" weight = "-0.1206258416314645" />
    <synapse sourceNeuronName = "4" targetNeuronName = "8" weight = "-0.11349591250614988" />
    <synapse sourceNeuronName = "4" targetNeuronName = "9" weight = "-0.09860256735360662" />
    <synapse sourceNeuronName = "4" targetNeuronName = "10" weight = "0.005468538868795614" />
    <synapse sourceNeuronName = "4" targetNeuronName = "11" weight = "0.7969029616182091" />
    <synapse sourceNeuronName = "4" targetNeuronName = "12" weight = "-0.1916195255048152" />
    <synapse sourceNeuronName = "4" targetNeuronName = "13" weight = "-0.5215913499209577" />
    <synapse sourceNeuronName = "4" targetNeuronName = "14" weight = "-0.11518334239377848" />
    <synapse sourceNeuronName = "4" targetNeuronName = "15" weight = "-0.7291230165130602" />
    <synapse sourceNeuronName = "5" targetNeuronName = "7" weight = "0.33110900676066235" />
    <synapse sourceNeuronName = "5" targetNeuronName = "8" weight = "-0.7247637218917264" />
    <synapse sourceNeuronName = "5" targetNeuronName = "9" weight = "-0.23884206732480884" />
    <synapse sourceNeuronName = "5" targetNeuronName = "10" weight = "0.7459529183217233" />
    <synapse sourceNeuronName = "5" targetNeuronName = "11" weight = "-0.6900884162339294" />
    <synapse sourceNeuronName = "5" targetNeuronName = "12" weight = "0.36788900418849413" />
    <synapse sourceNeuronName = "5" targetNeuronName = "13" weight = "0.7092278990316605" />
    <synapse sourceNeuronName = "5" targetNeuronName = "14" weight = "0.7403654953242655" />
    <synapse sourceNeuronName = "5" targetNeuronName = "15" weight = "-0.7008371743413679" />
    <synapse sourceNeuronName = "6" targetNeuronName = "7" weight = "-0.9370350617343957" />
    <synapse sourceNeuronName = "6" targetNeuronName = "8" weight = "-0.24478344718466638" />
    <synapse sourceNeuronName = "6" targetNeuronName = "9" weight = "-0.8957902261343529" />
    <synapse sourceNeuronName = "6" targetNeuronName = "10" weight = "-0.8688867297800196" />
    <synapse sourceNeuronName = "6" targetNeuronName = "11" weight = "-0.7504169593931391" />
    <synapse sourceNeuronName = "6" targetNeuronName = "12" weight = "0.1211152482862512" />
    <synapse sourceNeuronName = "6" targetNeuronName = "13" weight = "-0.027349109076752587" />
    <synapse sourceNeuronName = "6" targetNeuronName = "14" weight = "-0.7010302543781171" />
    <synapse sourceNeuronName = "6" targetNeuronName = "15" weight = "-0.876662111545303" />
</neuralNetwork>