<neuralNetwork>
    <neuron name = "0" type = "sensor" linkName = "Link2" />
    <neuron name = "1" type = "sensor" linkName = "Link3" />
    <neuron name = "2" type = "sensor" linkName = "Link7" />
    <neuron name = "3" type = "motor"  jointName = "Link0_Link1" />
    <neuron name = "4" type = "motor"  jointName = "Link1_Link2" />
    <neuron name = "5" type = "motor"  jointName = "Link0_Link3" />
    <neuron name = "6" type = "motor"  jointName = "Link1_Link4" />
    <neuron name = "7" type = "motor"  jointName = "Link2_Link5" />
    <neuron name = "8" type = "motor"  jointName = "Link2_Link6" />
    <neuron name = "9" type = "motor"  jointName = "Link5_Link7" />
    <neuron name = "10" type = "motor"  jointName = "Link6_Link8" />
    <synapse sourceNeuronName = "0" targetNeuronName = "3" weight = "0.37526663922960446" />
    <synapse sourceNeuronName = "0" targetNeuronName = "4" weight = "0.5437922226147054" />
    <synapse sourceNeuronName = "0" targetNeuronName = "5" weight = "-0.5473375083260275" />
    <synapse sourceNeuronName = "0" targetNeuronName = "6" weight = "-0.38484538673860325" />
    <synapse sourceNeuronName = "0" targetNeuronName = "7" weight = "-0.378383840608316" />
    <synapse sourceNeuronName = "0" targetNeuronName = "8" weight = "-0.34148315574698374" />
    <synapse sourceNeuronName = "0" targetNeuronName = "9" weight = "0.17801228759900112" />
    <synapse sourceNeuronName = "0" targetNeuronName = "10" weight = "0.738973098370785" />
    <synapse sourceNeuronName = "1" targetNeuronName = "3" weight = "-0.3448935657745278" />
    <synapse sourceNeuronName = "1" targetNeuronName = "4" weight = "0.3362959134592993" />
    <synapse sourceNeuronName = "1" targetNeuronName = "5" weight = "-0.9665756044534364" />
    <synapse sourceNeuronName = "1" targetNeuronName = "6" weight = "0.12203508733662738" />
    <synapse sourceNeuronName = "1" targetNeuronName = "7" weight = "-0.9033425222509617" />
    <synapse sourceNeuronName = "1" targetNeuronName = "8" weight = "0.24528589610835216" />
    <synapse sourceNeuronName = "1" targetNeuronName = "9" weight = "-0.533703352052473" />
    <synapse sourceNeuronName = "1" targetNeuronName = "10" weight = "-0.09463050428128184" />
    <synapse sourceNeuronName = "2" targetNeuronName = "3" weight = "-0.1451224631784842" />
    <synapse sourceNeuronName = "2" targetNeuronName = "4" weight = "-0.21854207329036424" />
    <synapse sourceNeuronName = "2" targetNeuronName = "5" weight = "-0.06051204323506476" />
    <synapse sourceNeuronName = "2" targetNeuronName = "6" weight = "0.8689641575031679" />
    <synapse sourceNeuronName = "2" targetNeuronName = "7" weight = "-0.7509500775757514" />
    <synapse sourceNeuronName = "2" targetNeuronName = "8" weight = "0.686254210282214" />
    <synapse sourceNeuronName = "2" targetNeuronName = "9" weight = "-0.9871743233235584" />
    <synapse sourceNeuronName = "2" targetNeuronName = "10" weight = "-0.4271554863033997" />
</neuralNetwork>