<neuralNetwork>
    <neuron name = "0" type = "sensor" linkName = "Link3" />
    <neuron name = "1" type = "sensor" linkName = "Link4" />
    <neuron name = "2" type = "sensor" linkName = "Link5" />
    <neuron name = "3" type = "sensor" linkName = "Link6" />
    <neuron name = "4" type = "sensor" linkName = "Link7" />
    <neuron name = "5" type = "motor"  jointName = "Link0_Link1" />
    <neuron name = "6" type = "motor"  jointName = "Link0_Link2" />
    <neuron name = "7" type = "motor"  jointName = "Link2_Link3" />
    <neuron name = "8" type = "motor"  jointName = "Link3_Link4" />
    <neuron name = "9" type = "motor"  jointName = "Link3_Link5" />
    <neuron name = "10" type = "motor"  jointName = "Link1_Link6" />
    <neuron name = "11" type = "motor"  jointName = "Link4_Link7" />
    <synapse sourceNeuronName = "0" targetNeuronName = "5" weight = "0.9348487677516646" />
    <synapse sourceNeuronName = "0" targetNeuronName = "6" weight = "-0.0398906267712229" />
    <synapse sourceNeuronName = "0" targetNeuronName = "7" weight = "0.8594182523281753" />
    <synapse sourceNeuronName = "0" targetNeuronName = "8" weight = "0.05346144579601697" />
    <synapse sourceNeuronName = "0" targetNeuronName = "9" weight = "-0.18091714415117144" />
    <synapse sourceNeuronName = "0" targetNeuronName = "10" weight = "0.9656751114674851" />
    <synapse sourceNeuronName = "0" targetNeuronName = "11" weight = "0.12301666255348032" />
    <synapse sourceNeuronName = "1" targetNeuronName = "5" weight = "-0.9291971573927609" />
    <synapse sourceNeuronName = "1" targetNeuronName = "6" weight = "-0.8485693965361845" />
    <synapse sourceNeuronName = "1" targetNeuronName = "7" weight = "0.37276780929239983" />
    <synapse sourceNeuronName = "1" targetNeuronName = "8" weight = "0.7567351538501934" />
    <synapse sourceNeuronName = "1" targetNeuronName = "9" weight = "-0.13731249488797825" />
    <synapse sourceNeuronName = "1" targetNeuronName = "10" weight = "0.4114293753202194" />
    <synapse sourceNeuronName = "1" targetNeuronName = "11" weight = "-0.8085124204254606" />
    <synapse sourceNeuronName = "2" targetNeuronName = "5" weight = "-0.36533836388290997" />
    <synapse sourceNeuronName = "2" targetNeuronName = "6" weight = "0.41585657294100264" />
    <synapse sourceNeuronName = "2" targetNeuronName = "7" weight = "0.24573879363705764" />
    <synapse sourceNeuronName = "2" targetNeuronName = "8" weight = "-0.6894828054166902" />
    <synapse sourceNeuronName = "2" targetNeuronName = "9" weight = "-0.9631824245719081" />
    <synapse sourceNeuronName = "2" targetNeuronName = "10" weight = "0.585391975136107" />
    <synapse sourceNeuronName = "2" targetNeuronName = "11" weight = "0.40176250948584835" />
    <synapse sourceNeuronName = "3" targetNeuronName = "5" weight = "-0.526903069664004" />
    <synapse sourceNeuronName = "3" targetNeuronName = "6" weight = "-0.20406281377486746" />
    <synapse sourceNeuronName = "3" targetNeuronName = "7" weight = "-0.7387411703285252" />
    <synapse sourceNeuronName = "3" targetNeuronName = "8" weight = "0.5473900709189157" />
    <synapse sourceNeuronName = "3" targetNeuronName = "9" weight = "-0.45172303535069624" />
    <synapse sourceNeuronName = "3" targetNeuronName = "10" weight = "0.756966202595855" />
    <synapse sourceNeuronName = "3" targetNeuronName = "11" weight = "0.3345076143254362" />
    <synapse sourceNeuronName = "4" targetNeuronName = "5" weight = "0.8781343388801046" />
    <synapse sourceNeuronName = "4" targetNeuronName = "6" weight = "-0.4206617628063103" />
    <synapse sourceNeuronName = "4" targetNeuronName = "7" weight = "0.12883677585436337" />
    <synapse sourceNeuronName = "4" targetNeuronName = "8" weight = "0.963370779553743" />
    <synapse sourceNeuronName = "4" targetNeuronName = "9" weight = "-0.23950623409774408" />
    <synapse sourceNeuronName = "4" targetNeuronName = "10" weight = "-0.0029184263307489022" />
    <synapse sourceNeuronName = "4" targetNeuronName = "11" weight = "-0.22803994567310681" />
</neuralNetwork>