<neuralNetwork>
    <neuron name = "0" type = "sensor" linkName = "Link2" />
    <neuron name = "1" type = "sensor" linkName = "Link5" />
    <neuron name = "2" type = "sensor" linkName = "Link6" />
    <neuron name = "3" type = "sensor" linkName = "Link7" />
    <neuron name = "4" type = "motor"  jointName = "Link0_Link1" />
    <neuron name = "5" type = "motor"  jointName = "Link0_Link2" />
    <neuron name = "6" type = "motor"  jointName = "Link2_Link3" />
    <neuron name = "7" type = "motor"  jointName = "Link1_Link4" />
    <neuron name = "8" type = "motor"  jointName = "Link3_Link5" />
    <neuron name = "9" type = "motor"  jointName = "Link5_Link6" />
    <neuron name = "10" type = "motor"  jointName = "Link3_Link7" />
    <neuron name = "11" type = "motor"  jointName = "Link1_Link8" />
    <synapse sourceNeuronName = "0" targetNeuronName = "4" weight = "-0.7378497027029762" />
    <synapse sourceNeuronName = "0" targetNeuronName = "5" weight = "0.8362424116190941" />
    <synapse sourceNeuronName = "0" targetNeuronName = "6" weight = "0.5161856134960405" />
    <synapse sourceNeuronName = "0" targetNeuronName = "7" weight = "0.5881284273425091" />
    <synapse sourceNeuronName = "0" targetNeuronName = "8" weight = "-0.12426039074867967" />
    <synapse sourceNeuronName = "0" targetNeuronName = "9" weight = "-0.6321296558954042" />
    <synapse sourceNeuronName = "0" targetNeuronName = "10" weight = "0.4679976368958021" />
    <synapse sourceNeuronName = "0" targetNeuronName = "11" weight = "-0.5505178796527348" />
    <synapse sourceNeuronName = "1" targetNeuronName = "4" weight = "0.21317794122727207" />
    <synapse sourceNeuronName = "1" targetNeuronName = "5" weight = "-0.47228618467907757" />
    <synapse sourceNeuronName = "1" targetNeuronName = "6" weight = "0.7410960365581947" />
    <synapse sourceNeuronName = "1" targetNeuronName = "7" weight = "0.9903489175113283" />
    <synapse sourceNeuronName = "1" targetNeuronName = "8" weight = "0.9888255952480427" />
    <synapse sourceNeuronName = "1" targetNeuronName = "9" weight = "-0.8876656403586862" />
    <synapse sourceNeuronName = "1" targetNeuronName = "10" weight = "0.7051750489418891" />
    <synapse sourceNeuronName = "1" targetNeuronName = "11" weight = "0.7869856221060165" />
    <synapse sourceNeuronName = "2" targetNeuronName = "4" weight = "0.25220319367816235" />
    <synapse sourceNeuronName = "2" targetNeuronName = "5" weight = "-0.3339507685238208" />
    <synapse sourceNeuronName = "2" targetNeuronName = "6" weight = "-0.4095253996834074" />
    <synapse sourceNeuronName = "2" targetNeuronName = "7" weight = "0.35717618966729403" />
    <synapse sourceNeuronName = "2" targetNeuronName = "8" weight = "0.4335919761309863" />
    <synapse sourceNeuronName = "2" targetNeuronName = "9" weight = "-0.41777011572585776" />
    <synapse sourceNeuronName = "2" targetNeuronName = "10" weight = "-0.4225411968675912" />
    <synapse sourceNeuronName = "2" targetNeuronName = "11" weight = "0.7026487619406847" />
    <synapse sourceNeuronName = "3" targetNeuronName = "4" weight = "0.5339171226540118" />
    <synapse sourceNeuronName = "3" targetNeuronName = "5" weight = "0.6111193748317998" />
    <synapse sourceNeuronName = "3" targetNeuronName = "6" weight = "-0.22675566766622257" />
    <synapse sourceNeuronName = "3" targetNeuronName = "7" weight = "0.6394749382102296" />
    <synapse sourceNeuronName = "3" targetNeuronName = "8" weight = "-0.5814658478088128" />
    <synapse sourceNeuronName = "3" targetNeuronName = "9" weight = "0.20804207997926505" />
    <synapse sourceNeuronName = "3" targetNeuronName = "10" weight = "0.6670856665006373" />
    <synapse sourceNeuronName = "3" targetNeuronName = "11" weight = "0.3844219286953272" />
</neuralNetwork>