<neuralNetwork>
    <neuron name = "0" type = "sensor" linkName = "Link0" />
    <neuron name = "1" type = "sensor" linkName = "Link1" />
    <neuron name = "2" type = "sensor" linkName = "Link3" />
    <neuron name = "3" type = "sensor" linkName = "Link5" />
    <neuron name = "4" type = "sensor" linkName = "Link6" />
    <neuron name = "5" type = "motor"  jointName = "Link0_Link1" />
    <neuron name = "6" type = "motor"  jointName = "Link0_Link2" />
    <neuron name = "7" type = "motor"  jointName = "Link2_Link3" />
    <neuron name = "8" type = "motor"  jointName = "Link3_Link4" />
    <neuron name = "9" type = "motor"  jointName = "Link0_Link5" />
    <neuron name = "10" type = "motor"  jointName = "Link2_Link6" />
    <neuron name = "11" type = "motor"  jointName = "Link5_Link7" />
    <synapse sourceNeuronName = "0" targetNeuronName = "5" weight = "0.8258257637848057" />
    <synapse sourceNeuronName = "0" targetNeuronName = "6" weight = "0.2558237867316515" />
    <synapse sourceNeuronName = "0" targetNeuronName = "7" weight = "-0.4728064803135177" />
    <synapse sourceNeuronName = "0" targetNeuronName = "8" weight = "-0.3165301983198525" />
    <synapse sourceNeuronName = "0" targetNeuronName = "9" weight = "0.5224143677273192" />
    <synapse sourceNeuronName = "0" targetNeuronName = "10" weight = "0.42807825123289267" />
    <synapse sourceNeuronName = "0" targetNeuronName = "11" weight = "0.8434505708279081" />
    <synapse sourceNeuronName = "1" targetNeuronName = "5" weight = "-0.469344725150296" />
    <synapse sourceNeuronName = "1" targetNeuronName = "6" weight = "-0.8780281693717609" />
    <synapse sourceNeuronName = "1" targetNeuronName = "7" weight = "0.6838042738457359" />
    <synapse sourceNeuronName = "1" targetNeuronName = "8" weight = "0.9694797125936638" />
    <synapse sourceNeuronName = "1" targetNeuronName = "9" weight = "0.8092486496547229" />
    <synapse sourceNeuronName = "1" targetNeuronName = "10" weight = "-0.721410405534805" />
    <synapse sourceNeuronName = "1" targetNeuronName = "11" weight = "-0.24223191938861977" />
    <synapse sourceNeuronName = "2" targetNeuronName = "5" weight = "0.9317200000234249" />
    <synapse sourceNeuronName = "2" targetNeuronName = "6" weight = "0.3593557290821907" />
    <synapse sourceNeuronName = "2" targetNeuronName = "7" weight = "0.6738321065948498" />
    <synapse sourceNeuronName = "2" targetNeuronName = "8" weight = "-0.5812024323378224" />
    <synapse sourceNeuronName = "2" targetNeuronName = "9" weight = "-0.5839924687784883" />
    <synapse sourceNeuronName = "2" targetNeuronName = "10" weight = "0.5921833242093615" />
    <synapse sourceNeuronName = "2" targetNeuronName = "11" weight = "0.2961212628545742" />
    <synapse sourceNeuronName = "3" targetNeuronName = "5" weight = "-0.3454570574021547" />
    <synapse sourceNeuronName = "3" targetNeuronName = "6" weight = "0.740759116138695" />
    <synapse sourceNeuronName = "3" targetNeuronName = "7" weight = "-0.5580500568338651" />
    <synapse sourceNeuronName = "3" targetNeuronName = "8" weight = "-0.6544876048068045" />
    <synapse sourceNeuronName = "3" targetNeuronName = "9" weight = "0.4601764988340762" />
    <synapse sourceNeuronName = "3" targetNeuronName = "10" weight = "0.7694153562941966" />
    <synapse sourceNeuronName = "3" targetNeuronName = "11" weight = "0.15612562019198406" />
    <synapse sourceNeuronName = "4" targetNeuronName = "5" weight = "0.19786582271929953" />
    <synapse sourceNeuronName = "4" targetNeuronName = "6" weight = "-0.2458655714551723" />
    <synapse sourceNeuronName = "4" targetNeuronName = "7" weight = "-0.21419487109188595" />
    <synapse sourceNeuronName = "4" targetNeuronName = "8" weight = "-0.2840372706661123" />
    <synapse sourceNeuronName = "4" targetNeuronName = "9" weight = "-0.7194207673156408" />
    <synapse sourceNeuronName = "4" targetNeuronName = "10" weight = "0.040458753820791005" />
    <synapse sourceNeuronName = "4" targetNeuronName = "11" weight = "-0.9437961187091739" />
</neuralNetwork>