<neuralNetwork>
    <neuron name = "0" type = "sensor" linkName = "Link1" />
    <neuron name = "1" type = "sensor" linkName = "Link2" />
    <neuron name = "2" type = "sensor" linkName = "Link3" />
    <neuron name = "3" type = "sensor" linkName = "Link4" />
    <neuron name = "4" type = "sensor" linkName = "Link5" />
    <neuron name = "5" type = "motor"  jointName = "Link0_Link1" />
    <neuron name = "6" type = "motor"  jointName = "Link0_Link2" />
    <neuron name = "7" type = "motor"  jointName = "Link0_Link3" />
    <neuron name = "8" type = "motor"  jointName = "Link1_Link4" />
    <neuron name = "9" type = "motor"  jointName = "Link2_Link5" />
    <neuron name = "10" type = "motor"  jointName = "Link3_Link6" />
    <synapse sourceNeuronName = "0" targetNeuronName = "5" weight = "0.30563516958576753" />
    <synapse sourceNeuronName = "0" targetNeuronName = "6" weight = "0.8481544058261878" />
    <synapse sourceNeuronName = "0" targetNeuronName = "7" weight = "0.7495409199937748" />
    <synapse sourceNeuronName = "0" targetNeuronName = "8" weight = "0.9489099895546225" />
    <synapse sourceNeuronName = "0" targetNeuronName = "9" weight = "-0.9271964818549678" />
    <synapse sourceNeuronName = "0" targetNeuronName = "10" weight = "0.34590436135055747" />
    <synapse sourceNeuronName = "1" targetNeuronName = "5" weight = "0.5270257567644785" />
    <synapse sourceNeuronName = "1" targetNeuronName = "6" weight = "-0.7890371373221199" />
    <synapse sourceNeuronName = "1" targetNeuronName = "7" weight = "-0.3788974252258346" />
    <synapse sourceNeuronName = "1" targetNeuronName = "8" weight = "0.5183276719982242" />
    <synapse sourceNeuronName = "1" targetNeuronName = "9" weight = "0.26630238990856436" />
    <synapse sourceNeuronName = "1" targetNeuronName = "10" weight = "-0.5305706671168691" />
    <synapse sourceNeuronName = "2" targetNeuronName = "5" weight = "0.6527861493324119" />
    <synapse sourceNeuronName = "2" targetNeuronName = "6" weight = "0.8740274285766778" />
    <synapse sourceNeuronName = "2" targetNeuronName = "7" weight = "0.3519540055161332" />
    <synapse sourceNeuronName = "2" targetNeuronName = "8" weight = "0.33188838416425437" />
    <synapse sourceNeuronName = "2" targetNeuronName = "9" weight = "-0.6566078392193635" />
    <synapse sourceNeuronName = "2" targetNeuronName = "10" weight = "0.40179652436924806" />
    <synapse sourceNeuronName = "3" targetNeuronName = "5" weight = "-0.008011175936416315" />
    <synapse sourceNeuronName = "3" targetNeuronName = "6" weight = "-0.9327098713638817" />
    <synapse sourceNeuronName = "3" targetNeuronName = "7" weight = "-0.3301806572401258" />
    <synapse sourceNeuronName = "3" targetNeuronName = "8" weight = "0.6950384335929098" />
    <synapse sourceNeuronName = "3" targetNeuronName = "9" weight = "-0.28802301915762163" />
    <synapse sourceNeuronName = "3" targetNeuronName = "10" weight = "-0.7831946267600693" />
    <synapse sourceNeuronName = "4" targetNeuronName = "5" weight = "-0.5454224987031668" />
    <synapse sourceNeuronName = "4" targetNeuronName = "6" weight = "0.3300899128125052" />
    <synapse sourceNeuronName = "4" targetNeuronName = "7" weight = "0.2735701742831891" />
    <synapse sourceNeuronName = "4" targetNeuronName = "8" weight = "0.42763346651269774" />
    <synapse sourceNeuronName = "4" targetNeuronName = "9" weight = "0.5447668715767859" />
    <synapse sourceNeuronName = "4" targetNeuronName = "10" weight = "0.4089405046021459" />
</neuralNetwork>