<neuralNetwork>
    <neuron name = "0" type = "sensor" linkName = "Link1" />
    <neuron name = "1" type = "sensor" linkName = "Link4" />
    <neuron name = "2" type = "sensor" linkName = "Link5" />
    <neuron name = "3" type = "sensor" linkName = "Link6" />
    <neuron name = "4" type = "sensor" linkName = "Link9" />
    <neuron name = "5" type = "sensor" linkName = "Link10" />
    <neuron name = "6" type = "motor"  jointName = "Link0_Link1" />
    <neuron name = "7" type = "motor"  jointName = "Link0_Link2" />
    <neuron name = "8" type = "motor"  jointName = "Link2_Link3" />
    <neuron name = "9" type = "motor"  jointName = "Link2_Link4" />
    <neuron name = "10" type = "motor"  jointName = "Link3_Link5" />
    <neuron name = "11" type = "motor"  jointName = "Link5_Link6" />
    <neuron name = "12" type = "motor"  jointName = "Link3_Link7" />
    <neuron name = "13" type = "motor"  jointName = "Link0_Link8" />
    <neuron name = "14" type = "motor"  jointName = "Link8_Link9" />
    <neuron name = "15" type = "motor"  jointName = "Link5_Link10" />
    <synapse sourceNeuronName = "0" targetNeuronName = "6" weight = "-0.9813508832932485" />
    <synapse sourceNeuronName = "0" targetNeuronName = "7" weight = "-0.7691813438786896" />
    <synapse sourceNeuronName = "0" targetNeuronName = "8" weight = "0.11647201346572467" />
    <synapse sourceNeuronName = "0" targetNeuronName = "9" weight = "0.6567059020205583" />
    <synapse sourceNeuronName = "0" targetNeuronName = "10" weight = "-0.5595774225861609" />
    <synapse sourceNeuronName = "0" targetNeuronName = "11" weight = "-0.8027761610649462" />
    <synapse sourceNeuronName = "0" targetNeuronName = "12" weight = "-0.11294021072994731" />
    <synapse sourceNeuronName = "0" targetNeuronName = "13" weight = "0.28293415804840283" />
    <synapse sourceNeuronName = "0" targetNeuronName = "14" weight = "-0.4754487561692722" />
    <synapse sourceNeuronName = "0" targetNeuronName = "15" weight = "-0.9042803216462889" />
    <synapse sourceNeuronName = "1" targetNeuronName = "6" weight = "0.6556374376781551" />
    <synapse sourceNeuronName = "1" targetNeuronName = "7" weight = "0.9196364045923302" />
    <synapse sourceNeuronName = "1" targetNeuronName = "8" weight = "-0.026264734717023952" />
    <synapse sourceNeuronName = "1" targetNeuronName = "9" weight = "0.7522575720119393" />
    <synapse sourceNeuronName = "1" targetNeuronName = "10" weight = "-0.664620340429166" />
    <synapse sourceNeuronName = "1" targetNeuronName = "11" weight = "-0.6227320577590791" />
    <synapse sourceNeuronName = "1" targetNeuronName = "12" weight = "-0.47968999043664184" />
    <synapse sourceNeuronName = "1" targetNeuronName = "13" weight = "-0.5893265305718416" />
    <synapse sourceNeuronName = "1" targetNeuronName = "14" weight = "-0.4395392173775954" />
    <synapse sourceNeuronName = "1" targetNeuronName = "15" weight = "-0.7471166645048262" />
    <synapse sourceNeuronName = "2" targetNeuronName = "6" weight = "0.021943130062329397" />
    <synapse sourceNeuronName = "2" targetNeuronName = "7" weight = "-0.8079133164329517" />
    <synapse sourceNeuronName = "2" targetNeuronName = "8" weight = "-0.6374707577642134" />
    <synapse sourceNeuronName = "2" targetNeuronName = "9" weight = "-0.8422796245493309" />
    <synapse sourceNeuronName = "2" targetNeuronName = "10" weight = "-0.8294401260197457" />
    <synapse sourceNeuronName = "2" targetNeuronName = "11" weight = "0.24789875792781646" />
    <synapse sourceNeuronName = "2" targetNeuronName = "12" weight = "0.35191345647979055" />
    <synapse sourceNeuronName = "2" targetNeuronName = "13" weight = "-0.2960750462476458" />
    <synapse sourceNeuronName = "2" targetNeuronName = "14" weight = "0.7543318253844613" />
    <synapse sourceNeuronName = "2" targetNeuronName = "15" weight = "0.3131998891479706" />
    <synapse sourceNeuronName = "3" targetNeuronName = "6" weight = "-0.573050752897726" />
    <synapse sourceNeuronName = "3" targetNeuronName = "7" weight = "-0.06546762384719029" />
    <synapse sourceNeuronName = "3" targetNeuronName = "8" weight = "0.6483623131137546" />
    <synapse sourceNeuronName = "3" targetNeuronName = "9" weight = "-0.637412006509416" />
    <synapse sourceNeuronName = "3" targetNeuronName = "10" weight = "-0.7582625909398932" />
    <synapse sourceNeuronName = "3" targetNeuronName = "11" weight = "0.7477560187207337" />
    <synapse sourceNeuronName = "3" targetNeuronName = "12" weight = "-0.6592460434024416" />
    <synapse sourceNeuronName = "3" targetNeuronName = "13" weight = "-0.5501378014375402" />
    <synapse sourceNeuronName = "3" targetNeuronName = "14" weight = "-0.4411822096737317" />
    <synapse sourceNeuronName = "3" targetNeuronName = "15" weight = "-0.4931998308572543" />
    <synapse sourceNeuronName = "4" targetNeuronName = "6" weight = "0.06752262265825726" />
    <synapse sourceNeuronName = "4" targetNeuronName = "7" weight = "-0.27025370100728185" />
    <synapse sourceNeuronName = "4" targetNeuronName = "8" weight = "-0.7351985685567701" />
    <synapse sourceNeuronName = "4" targetNeuronName = "9" weight = "0.023322642365036783" />
    <synapse sourceNeuronName = "4" targetNeuronName = "10" weight = "0.02904840238816342" />
    <synapse sourceNeuronName = "4" targetNeuronName = "11" weight = "-0.8984994674660347" />
    <synapse sourceNeuronName = "4" targetNeuronName = "12" weight = "0.4596738110393084" />
    <synapse sourceNeuronName = "4" targetNeuronName = "13" weight = "0.5233470919408065" />
    <synapse sourceNeuronName = "4" targetNeuronName = "14" weight = "-0.3052616512027917" />
    <synapse sourceNeuronName = "4" targetNeuronName = "15" weight = "0.4139123467809547" />
    <synapse sourceNeuronName = "5" targetNeuronName = "6" weight = "0.8716517391990535" />
    <synapse sourceNeuronName = "5" targetNeuronName = "7" weight = "0.07209182523519031" />
    <synapse sourceNeuronName = "5" targetNeuronName = "8" weight = "-0.5141646960689561" />
    <synapse sourceNeuronName = "5" targetNeuronName = "9" weight = "-0.12659701996078976" />
    <synapse sourceNeuronName = "5" targetNeuronName = "10" weight = "0.9959251485860878" />
    <synapse sourceNeuronName = "5" targetNeuronName = "11" weight = "-0.4327187132031436" />
    <synapse sourceNeuronName = "5" targetNeuronName = "12" weight = "0.3853807475195401" />
    <synapse sourceNeuronName = "5" targetNeuronName = "13" weight = "-0.509648622780341" />
    <synapse sourceNeuronName = "5" targetNeuronName = "14" weight = "-0.3027264663690439" />
    <synapse sourceNeuronName = "5" targetNeuronName = "15" weight = "-0.8531993696450884" />
</neuralNetwork>