<neuralNetwork>
    <neuron name = "0" type = "sensor" linkName = "Link2" />
    <neuron name = "1" type = "sensor" linkName = "Link5" />
    <neuron name = "2" type = "sensor" linkName = "Link6" />
    <neuron name = "3" type = "sensor" linkName = "Link7" />
    <neuron name = "4" type = "motor"  jointName = "Link0_Link1" />
    <neuron name = "5" type = "motor"  jointName = "Link0_Link2" />
    <neuron name = "6" type = "motor"  jointName = "Link2_Link3" />
    <neuron name = "7" type = "motor"  jointName = "Link1_Link4" />
    <neuron name = "8" type = "motor"  jointName = "Link3_Link5" />
    <neuron name = "9" type = "motor"  jointName = "Link5_Link6" />
    <neuron name = "10" type = "motor"  jointName = "Link3_Link7" />
    <neuron name = "11" type = "motor"  jointName = "Link1_Link8" />
    <neuron name = "12" type = "motor"  jointName = "Link1_Link9" />
    <synapse sourceNeuronName = "0" targetNeuronName = "4" weight = "-0.8408646881936501" />
    <synapse sourceNeuronName = "0" targetNeuronName = "5" weight = "0.9304900722677845" />
    <synapse sourceNeuronName = "0" targetNeuronName = "6" weight = "0.5592502681466565" />
    <synapse sourceNeuronName = "0" targetNeuronName = "7" weight = "-0.9084759439822605" />
    <synapse sourceNeuronName = "0" targetNeuronName = "8" weight = "0.6736999293309349" />
    <synapse sourceNeuronName = "0" targetNeuronName = "9" weight = "0.12419995136014661" />
    <synapse sourceNeuronName = "0" targetNeuronName = "10" weight = "0.6878725892603537" />
    <synapse sourceNeuronName = "0" targetNeuronName = "11" weight = "-0.13105397070446445" />
    <synapse sourceNeuronName = "0" targetNeuronName = "12" weight = "0.186864498780692" />
    <synapse sourceNeuronName = "1" targetNeuronName = "4" weight = "0.20078609779616952" />
    <synapse sourceNeuronName = "1" targetNeuronName = "5" weight = "0.9342733337416673" />
    <synapse sourceNeuronName = "1" targetNeuronName = "6" weight = "0.7675831661164552" />
    <synapse sourceNeuronName = "1" targetNeuronName = "7" weight = "0.3994251913762903" />
    <synapse sourceNeuronName = "1" targetNeuronName = "8" weight = "-0.886578999090726" />
    <synapse sourceNeuronName = "1" targetNeuronName = "9" weight = "-0.3605596566377156" />
    <synapse sourceNeuronName = "1" targetNeuronName = "10" weight = "-0.4116613988993538" />
    <synapse sourceNeuronName = "1" targetNeuronName = "11" weight = "-0.5905157242122951" />
    <synapse sourceNeuronName = "1" targetNeuronName = "12" weight = "0.33194812614923586" />
    <synapse sourceNeuronName = "2" targetNeuronName = "4" weight = "-0.6701580977658255" />
    <synapse sourceNeuronName = "2" targetNeuronName = "5" weight = "0.9048692611103406" />
    <synapse sourceNeuronName = "2" targetNeuronName = "6" weight = "-0.20547139779256685" />
    <synapse sourceNeuronName = "2" targetNeuronName = "7" weight = "0.5442604202084862" />
    <synapse sourceNeuronName = "2" targetNeuronName = "8" weight = "0.05348071826838052" />
    <synapse sourceNeuronName = "2" targetNeuronName = "9" weight = "-0.023595066200359005" />
    <synapse sourceNeuronName = "2" targetNeuronName = "10" weight = "0.7109580070307588" />
    <synapse sourceNeuronName = "2" targetNeuronName = "11" weight = "-0.3566672257879462" />
    <synapse sourceNeuronName = "2" targetNeuronName = "12" weight = "-0.9986438220685234" />
    <synapse sourceNeuronName = "3" targetNeuronName = "4" weight = "-0.35815028659361303" />
    <synapse sourceNeuronName = "3" targetNeuronName = "5" weight = "0.4674748693442117" />
    <synapse sourceNeuronName = "3" targetNeuronName = "6" weight = "0.8884981303113515" />
    <synapse sourceNeuronName = "3" targetNeuronName = "7" weight = "-0.2775363617657707" />
    <synapse sourceNeuronName = "3" targetNeuronName = "8" weight = "-0.5986031025516003" />
    <synapse sourceNeuronName = "3" targetNeuronName = "9" weight = "-0.6928713406306195" />
    <synapse sourceNeuronName = "3" targetNeuronName = "10" weight = "0.7745505748836423" />
    <synapse sourceNeuronName = "3" targetNeuronName = "11" weight = "0.5715814046861647" />
    <synapse sourceNeuronName = "3" targetNeuronName = "12" weight = "0.6127083541662259" />
</neuralNetwork>