<neuralNetwork>
    <neuron name = "0" type = "sensor" linkName = "Link2" />
    <neuron name = "1" type = "sensor" linkName = "Link4" />
    <neuron name = "2" type = "sensor" linkName = "Link5" />
    <neuron name = "3" type = "sensor" linkName = "Link6" />
    <neuron name = "4" type = "motor"  jointName = "Link0_Link1" />
    <neuron name = "5" type = "motor"  jointName = "Link0_Link2" />
    <neuron name = "6" type = "motor"  jointName = "Link2_Link3" />
    <neuron name = "7" type = "motor"  jointName = "Link3_Link4" />
    <neuron name = "8" type = "motor"  jointName = "Link4_Link5" />
    <neuron name = "9" type = "motor"  jointName = "Link3_Link6" />
    <neuron name = "10" type = "motor"  jointName = "Link1_Link7" />
    <synapse sourceNeuronName = "0" targetNeuronName = "4" weight = "0.9624801319559149" />
    <synapse sourceNeuronName = "0" targetNeuronName = "5" weight = "-0.7117411840504615" />
    <synapse sourceNeuronName = "0" targetNeuronName = "6" weight = "-0.8626303661924188" />
    <synapse sourceNeuronName = "0" targetNeuronName = "7" weight = "0.9104781897753254" />
    <synapse sourceNeuronName = "0" targetNeuronName = "8" weight = "0.23261071972925174" />
    <synapse sourceNeuronName = "0" targetNeuronName = "9" weight = "-0.7445997744497173" />
    <synapse sourceNeuronName = "0" targetNeuronName = "10" weight = "-0.7126848142606586" />
    <synapse sourceNeuronName = "1" targetNeuronName = "4" weight = "0.7368813588751295" />
    <synapse sourceNeuronName = "1" targetNeuronName = "5" weight = "-0.06132875691063844" />
    <synapse sourceNeuronName = "1" targetNeuronName = "6" weight = "0.3341955232900504" />
    <synapse sourceNeuronName = "1" targetNeuronName = "7" weight = "-0.421056111207573" />
    <synapse sourceNeuronName = "1" targetNeuronName = "8" weight = "0.7478974007811967" />
    <synapse sourceNeuronName = "1" targetNeuronName = "9" weight = "-0.06950179330151252" />
    <synapse sourceNeuronName = "1" targetNeuronName = "10" weight = "0.01799836900896512" />
    <synapse sourceNeuronName = "2" targetNeuronName = "4" weight = "-0.2514194308012565" />
    <synapse sourceNeuronName = "2" targetNeuronName = "5" weight = "-0.7990350440397418" />
    <synapse sourceNeuronName = "2" targetNeuronName = "6" weight = "-0.635204842176915" />
    <synapse sourceNeuronName = "2" targetNeuronName = "7" weight = "-0.9640536056667297" />
    <synapse sourceNeuronName = "2" targetNeuronName = "8" weight = "0.3147227186373771" />
    <synapse sourceNeuronName = "2" targetNeuronName = "9" weight = "-0.7638343414055817" />
    <synapse sourceNeuronName = "2" targetNeuronName = "10" weight = "0.18258405268696265" />
    <synapse sourceNeuronName = "3" targetNeuronName = "4" weight = "-0.5214049455018672" />
    <synapse sourceNeuronName = "3" targetNeuronName = "5" weight = "-0.974641962373304" />
    <synapse sourceNeuronName = "3" targetNeuronName = "6" weight = "0.47104828509450414" />
    <synapse sourceNeuronName = "3" targetNeuronName = "7" weight = "0.3033077131407669" />
    <synapse sourceNeuronName = "3" targetNeuronName = "8" weight = "0.4439421968468995" />
    <synapse sourceNeuronName = "3" targetNeuronName = "9" weight = "-0.607582124042992" />
    <synapse sourceNeuronName = "3" targetNeuronName = "10" weight = "-0.24395099995061265" />
</neuralNetwork>