<neuralNetwork>
    <neuron name = "0" type = "sensor" linkName = "Link1" />
    <neuron name = "1" type = "sensor" linkName = "Link3" />
    <neuron name = "2" type = "sensor" linkName = "Link4" />
    <neuron name = "3" type = "sensor" linkName = "Link5" />
    <neuron name = "4" type = "sensor" linkName = "Link6" />
    <neuron name = "5" type = "sensor" linkName = "Link7" />
    <neuron name = "6" type = "motor"  jointName = "Link0_Link1" />
    <neuron name = "7" type = "motor"  jointName = "Link0_Link2" />
    <neuron name = "8" type = "motor"  jointName = "Link0_Link3" />
    <neuron name = "9" type = "motor"  jointName = "Link2_Link4" />
    <neuron name = "10" type = "motor"  jointName = "Link2_Link5" />
    <neuron name = "11" type = "motor"  jointName = "Link4_Link6" />
    <neuron name = "12" type = "motor"  jointName = "Link6_Link7" />
    <neuron name = "13" type = "motor"  jointName = "Link4_Link8" />
    <neuron name = "14" type = "motor"  jointName = "Link8_Link9" />
    <neuron name = "15" type = "motor"  jointName = "Link0_Link10" />
    <synapse sourceNeuronName = "0" targetNeuronName = "6" weight = "0.15940766656279304" />
    <synapse sourceNeuronName = "0" targetNeuronName = "7" weight = "-0.3176266286625993" />
    <synapse sourceNeuronName = "0" targetNeuronName = "8" weight = "-0.5501273048567055" />
    <synapse sourceNeuronName = "0" targetNeuronName = "9" weight = "-0.49515479133330365" />
    <synapse sourceNeuronName = "0" targetNeuronName = "10" weight = "-0.7316734833527647" />
    <synapse sourceNeuronName = "0" targetNeuronName = "11" weight = "-0.754211559763498" />
    <synapse sourceNeuronName = "0" targetNeuronName = "12" weight = "0.6142136072711577" />
    <synapse sourceNeuronName = "0" targetNeuronName = "13" weight = "-0.8244743057519073" />
    <synapse sourceNeuronName = "0" targetNeuronName = "14" weight = "0.7327578218527142" />
    <synapse sourceNeuronName = "0" targetNeuronName = "15" weight = "-0.1420234890348453" />
    <synapse sourceNeuronName = "1" targetNeuronName = "6" weight = "0.8346448593736202" />
    <synapse sourceNeuronName = "1" targetNeuronName = "7" weight = "-0.49489202594412185" />
    <synapse sourceNeuronName = "1" targetNeuronName = "8" weight = "0.6126128800070505" />
    <synapse sourceNeuronName = "1" targetNeuronName = "9" weight = "0.12276572703710431" />
    <synapse sourceNeuronName = "1" targetNeuronName = "10" weight = "-0.9748009509747273" />
    <synapse sourceNeuronName = "1" targetNeuronName = "11" weight = "-0.3806909416673181" />
    <synapse sourceNeuronName = "1" targetNeuronName = "12" weight = "0.8517852947678766" />
    <synapse sourceNeuronName = "1" targetNeuronName = "13" weight = "0.5395488731121427" />
    <synapse sourceNeuronName = "1" targetNeuronName = "14" weight = "0.9670457067754958" />
    <synapse sourceNeuronName = "1" targetNeuronName = "15" weight = "-0.8465807337495879" />
    <synapse sourceNeuronName = "2" targetNeuronName = "6" weight = "-0.7854337297699017" />
    <synapse sourceNeuronName = "2" targetNeuronName = "7" weight = "0.11649778463941618" />
    <synapse sourceNeuronName = "2" targetNeuronName = "8" weight = "-0.8820987007382619" />
    <synapse sourceNeuronName = "2" targetNeuronName = "9" weight = "-0.02441371465287645" />
    <synapse sourceNeuronName = "2" targetNeuronName = "10" weight = "0.9975971299798367" />
    <synapse sourceNeuronName = "2" targetNeuronName = "11" weight = "0.8332835490330242" />
    <synapse sourceNeuronName = "2" targetNeuronName = "12" weight = "-0.06412644459879302" />
    <synapse sourceNeuronName = "2" targetNeuronName = "13" weight = "0.6575634604465546" />
    <synapse sourceNeuronName = "2" targetNeuronName = "14" weight = "-0.12178480955099591" />
    <synapse sourceNeuronName = "2" targetNeuronName = "15" weight = "0.7795958744092686" />
    <synapse sourceNeuronName = "3" targetNeuronName = "6" weight = "-0.6849135805434201" />
    <synapse sourceNeuronName = "3" targetNeuronName = "7" weight = "0.8192336484351439" />
    <synapse sourceNeuronName = "3" targetNeuronName = "8" weight = "-0.12466312060960338" />
    <synapse sourceNeuronName = "3" targetNeuronName = "9" weight = "0.27955134309373175" />
    <synapse sourceNeuronName = "3" targetNeuronName = "10" weight = "0.49980614538765034" />
    <synapse sourceNeuronName = "3" targetNeuronName = "11" weight = "0.2391435462941438" />
    <synapse sourceNeuronName = "3" targetNeuronName = "12" weight = "0.48255981644878454" />
    <synapse sourceNeuronName = "3" targetNeuronName = "13" weight = "-0.713226122108374" />
    <synapse sourceNeuronName = "3" targetNeuronName = "14" weight = "-0.47764682870913844" />
    <synapse sourceNeuronName = "3" targetNeuronName = "15" weight = "0.044348120002830616" />
    <synapse sourceNeuronName = "4" targetNeuronName = "6" weight = "-0.5752852899740188" />
    <synapse sourceNeuronName = "4" targetNeuronName = "7" weight = "0.5400756564683282" />
    <synapse sourceNeuronName = "4" targetNeuronName = "8" weight = "0.8593963348184266" />
    <synapse sourceNeuronName = "4" targetNeuronName = "9" weight = "0.6365376768574136" />
    <synapse sourceNeuronName = "4" targetNeuronName = "10" weight = "-0.6033945398137157" />
    <synapse sourceNeuronName = "4" targetNeuronName = "11" weight = "0.16958861397885805" />
    <synapse sourceNeuronName = "4" targetNeuronName = "12" weight = "0.05916208804771261" />
    <synapse sourceNeuronName = "4" targetNeuronName = "13" weight = "-0.7235491602409432" />
    <synapse sourceNeuronName = "4" targetNeuronName = "14" weight = "0.11964600173322881" />
    <synapse sourceNeuronName = "4" targetNeuronName = "15" weight = "0.19740679621613677" />
    <synapse sourceNeuronName = "5" targetNeuronName = "6" weight = "-0.863177530280107" />
    <synapse sourceNeuronName = "5" targetNeuronName = "7" weight = "0.10509854835428611" />
    <synapse sourceNeuronName = "5" targetNeuronName = "8" weight = "0.7788460537252229" />
    <synapse sourceNeuronName = "5" targetNeuronName = "9" weight = "-0.6845645106416327" />
    <synapse sourceNeuronName = "5" targetNeuronName = "10" weight = "-0.6974622651526923" />
    <synapse sourceNeuronName = "5" targetNeuronName = "11" weight = "0.6508452866324632" />
    <synapse sourceNeuronName = "5" targetNeuronName = "12" weight = "-0.6253482548542297" />
    <synapse sourceNeuronName = "5" targetNeuronName = "13" weight = "-0.39880835516475854" />
    <synapse sourceNeuronName = "5" targetNeuronName = "14" weight = "0.659318550905897" />
    <synapse sourceNeuronName = "5" targetNeuronName = "15" weight = "-0.6985485378927463" />
</neuralNetwork>