<neuralNetwork>
    <neuron name = "0" type = "sensor" linkName = "Link0" />
    <neuron name = "1" type = "sensor" linkName = "Link3" />
    <neuron name = "2" type = "sensor" linkName = "Link4" />
    <neuron name = "3" type = "sensor" linkName = "Link5" />
    <neuron name = "4" type = "sensor" linkName = "Link6" />
    <neuron name = "5" type = "motor"  jointName = "Link0_Link1" />
    <neuron name = "6" type = "motor"  jointName = "Link1_Link2" />
    <neuron name = "7" type = "motor"  jointName = "Link0_Link3" />
    <neuron name = "8" type = "motor"  jointName = "Link2_Link4" />
    <neuron name = "9" type = "motor"  jointName = "Link1_Link5" />
    <neuron name = "10" type = "motor"  jointName = "Link2_Link6" />
    <synapse sourceNeuronName = "0" targetNeuronName = "5" weight = "-0.14065695842142678" />
    <synapse sourceNeuronName = "0" targetNeuronName = "6" weight = "-0.6911629907136143" />
    <synapse sourceNeuronName = "0" targetNeuronName = "7" weight = "0.8789158216586279" />
    <synapse sourceNeuronName = "0" targetNeuronName = "8" weight = "0.5693246250327377" />
    <synapse sourceNeuronName = "0" targetNeuronName = "9" weight = "0.8733220826122072" />
    <synapse sourceNeuronName = "0" targetNeuronName = "10" weight = "-0.10464604664504207" />
    <synapse sourceNeuronName = "1" targetNeuronName = "5" weight = "-0.47262568032984764" />
    <synapse sourceNeuronName = "1" targetNeuronName = "6" weight = "-0.21672914345277627" />
    <synapse sourceNeuronName = "1" targetNeuronName = "7" weight = "0.16687687169914978" />
    <synapse sourceNeuronName = "1" targetNeuronName = "8" weight = "-0.3611302944814512" />
    <synapse sourceNeuronName = "1" targetNeuronName = "9" weight = "-0.781266724555087" />
    <synapse sourceNeuronName = "1" targetNeuronName = "10" weight = "-0.37441043292166354" />
    <synapse sourceNeuronName = "2" targetNeuronName = "5" weight = "-0.32353515117666376" />
    <synapse sourceNeuronName = "2" targetNeuronName = "6" weight = "0.3867060737160457" />
    <synapse sourceNeuronName = "2" targetNeuronName = "7" weight = "0.6877070520893098" />
    <synapse sourceNeuronName = "2" targetNeuronName = "8" weight = "-0.31417003541848265" />
    <synapse sourceNeuronName = "2" targetNeuronName = "9" weight = "0.6542726764323621" />
    <synapse sourceNeuronName = "2" targetNeuronName = "10" weight = "0.8406692450252773" />
    <synapse sourceNeuronName = "3" targetNeuronName = "5" weight = "0.5474854818575781" />
    <synapse sourceNeuronName = "3" targetNeuronName = "6" weight = "-0.6213020126125761" />
    <synapse sourceNeuronName = "3" targetNeuronName = "7" weight = "0.7912218315346526" />
    <synapse sourceNeuronName = "3" targetNeuronName = "8" weight = "0.7309804866194043" />
    <synapse sourceNeuronName = "3" targetNeuronName = "9" weight = "-0.06668739864794682" />
    <synapse sourceNeuronName = "3" targetNeuronName = "10" weight = "-0.19721591358080293" />
    <synapse sourceNeuronName = "4" targetNeuronName = "5" weight = "0.6078060279301798" />
    <synapse sourceNeuronName = "4" targetNeuronName = "6" weight = "-0.39124603640594713" />
    <synapse sourceNeuronName = "4" targetNeuronName = "7" weight = "-0.7711914849299406" />
    <synapse sourceNeuronName = "4" targetNeuronName = "8" weight = "0.9594906444368174" />
    <synapse sourceNeuronName = "4" targetNeuronName = "9" weight = "0.8697915054825405" />
    <synapse sourceNeuronName = "4" targetNeuronName = "10" weight = "0.4186591213421631" />
</neuralNetwork>