<neuralNetwork>
    <neuron name = "0" type = "sensor" linkName = "Link0" />
    <neuron name = "1" type = "sensor" linkName = "Link3" />
    <neuron name = "2" type = "sensor" linkName = "Link5" />
    <neuron name = "3" type = "sensor" linkName = "Link6" />
    <neuron name = "4" type = "motor"  jointName = "Link0_Link1" />
    <neuron name = "5" type = "motor"  jointName = "Link1_Link2" />
    <neuron name = "6" type = "motor"  jointName = "Link1_Link3" />
    <neuron name = "7" type = "motor"  jointName = "Link2_Link4" />
    <neuron name = "8" type = "motor"  jointName = "Link3_Link5" />
    <neuron name = "9" type = "motor"  jointName = "Link4_Link6" />
    <neuron name = "10" type = "motor"  jointName = "Link5_Link7" />
    <synapse sourceNeuronName = "0" targetNeuronName = "4" weight = "-0.3994396404841709" />
    <synapse sourceNeuronName = "0" targetNeuronName = "5" weight = "-0.42882229351744927" />
    <synapse sourceNeuronName = "0" targetNeuronName = "6" weight = "-0.6350621716986826" />
    <synapse sourceNeuronName = "0" targetNeuronName = "7" weight = "0.9097761076736368" />
    <synapse sourceNeuronName = "0" targetNeuronName = "8" weight = "0.22619024322992787" />
    <synapse sourceNeuronName = "0" targetNeuronName = "9" weight = "0.687167099704203" />
    <synapse sourceNeuronName = "0" targetNeuronName = "10" weight = "-0.5552178386119371" />
    <synapse sourceNeuronName = "1" targetNeuronName = "4" weight = "-0.8532721826046197" />
    <synapse sourceNeuronName = "1" targetNeuronName = "5" weight = "0.05835239854249896" />
    <synapse sourceNeuronName = "1" targetNeuronName = "6" weight = "-0.5425638954923693" />
    <synapse sourceNeuronName = "1" targetNeuronName = "7" weight = "-0.8556847308944082" />
    <synapse sourceNeuronName = "1" targetNeuronName = "8" weight = "-0.7478314368963759" />
    <synapse sourceNeuronName = "1" targetNeuronName = "9" weight = "0.3085119916550165" />
    <synapse sourceNeuronName = "1" targetNeuronName = "10" weight = "0.7667494839514921" />
    <synapse sourceNeuronName = "2" targetNeuronName = "4" weight = "0.880969690969742" />
    <synapse sourceNeuronName = "2" targetNeuronName = "5" weight = "0.30896785613039657" />
    <synapse sourceNeuronName = "2" targetNeuronName = "6" weight = "0.6758669756328683" />
    <synapse sourceNeuronName = "2" targetNeuronName = "7" weight = "0.3041234793221166" />
    <synapse sourceNeuronName = "2" targetNeuronName = "8" weight = "0.13294510133443804" />
    <synapse sourceNeuronName = "2" targetNeuronName = "9" weight = "-0.675653901888295" />
    <synapse sourceNeuronName = "2" targetNeuronName = "10" weight = "0.1737488345596887" />
    <synapse sourceNeuronName = "3" targetNeuronName = "4" weight = "0.7401563133906199" />
    <synapse sourceNeuronName = "3" targetNeuronName = "5" weight = "-0.44080148638115135" />
    <synapse sourceNeuronName = "3" targetNeuronName = "6" weight = "-0.7591483537290908" />
    <synapse sourceNeuronName = "3" targetNeuronName = "7" weight = "0.11102637215625655" />
    <synapse sourceNeuronName = "3" targetNeuronName = "8" weight = "0.5044929432688854" />
    <synapse sourceNeuronName = "3" targetNeuronName = "9" weight = "0.13608127896129596" />
    <synapse sourceNeuronName = "3" targetNeuronName = "10" weight = "0.1857334777756816" />
</neuralNetwork>