<neuralNetwork>
    <neuron name = "0" type = "sensor" linkName = "Link0" />
    <neuron name = "1" type = "sensor" linkName = "Link3" />
    <neuron name = "2" type = "sensor" linkName = "Link5" />
    <neuron name = "3" type = "sensor" linkName = "Link6" />
    <neuron name = "4" type = "sensor" linkName = "Link7" />
    <neuron name = "5" type = "motor"  jointName = "Link0_Link1" />
    <neuron name = "6" type = "motor"  jointName = "Link1_Link2" />
    <neuron name = "7" type = "motor"  jointName = "Link1_Link3" />
    <neuron name = "8" type = "motor"  jointName = "Link2_Link4" />
    <neuron name = "9" type = "motor"  jointName = "Link3_Link5" />
    <neuron name = "10" type = "motor"  jointName = "Link4_Link6" />
    <neuron name = "11" type = "motor"  jointName = "Link5_Link7" />
    <synapse sourceNeuronName = "0" targetNeuronName = "5" weight = "0.9937793792942113" />
    <synapse sourceNeuronName = "0" targetNeuronName = "6" weight = "-0.3584121573863186" />
    <synapse sourceNeuronName = "0" targetNeuronName = "7" weight = "0.15488691304139146" />
    <synapse sourceNeuronName = "0" targetNeuronName = "8" weight = "0.5839978519835078" />
    <synapse sourceNeuronName = "0" targetNeuronName = "9" weight = "0.8378266986947815" />
    <synapse sourceNeuronName = "0" targetNeuronName = "10" weight = "-0.7434389079190629" />
    <synapse sourceNeuronName = "0" targetNeuronName = "11" weight = "0.6796702393127678" />
    <synapse sourceNeuronName = "1" targetNeuronName = "5" weight = "0.7198924848478916" />
    <synapse sourceNeuronName = "1" targetNeuronName = "6" weight = "-0.44142501113786903" />
    <synapse sourceNeuronName = "1" targetNeuronName = "7" weight = "0.5982597667334668" />
    <synapse sourceNeuronName = "1" targetNeuronName = "8" weight = "0.46811747509710755" />
    <synapse sourceNeuronName = "1" targetNeuronName = "9" weight = "-0.016554645777482335" />
    <synapse sourceNeuronName = "1" targetNeuronName = "10" weight = "-0.051367982709022986" />
    <synapse sourceNeuronName = "1" targetNeuronName = "11" weight = "0.3054275891206313" />
    <synapse sourceNeuronName = "2" targetNeuronName = "5" weight = "0.2510068773135048" />
    <synapse sourceNeuronName = "2" targetNeuronName = "6" weight = "-0.9020427630595123" />
    <synapse sourceNeuronName = "2" targetNeuronName = "7" weight = "0.8488666262640379" />
    <synapse sourceNeuronName = "2" targetNeuronName = "8" weight = "0.08098037450812234" />
    <synapse sourceNeuronName = "2" targetNeuronName = "9" weight = "0.9730302354864142" />
    <synapse sourceNeuronName = "2" targetNeuronName = "10" weight = "0.2209642959619269" />
    <synapse sourceNeuronName = "2" targetNeuronName = "11" weight = "-0.7854446497196037" />
    <synapse sourceNeuronName = "3" targetNeuronName = "5" weight = "0.4499257297247481" />
    <synapse sourceNeuronName = "3" targetNeuronName = "6" weight = "-0.4301729679498705" />
    <synapse sourceNeuronName = "3" targetNeuronName = "7" weight = "0.08949388326985885" />
    <synapse sourceNeuronName = "3" targetNeuronName = "8" weight = "0.030932943927097334" />
    <synapse sourceNeuronName = "3" targetNeuronName = "9" weight = "-0.1312520573488445" />
    <synapse sourceNeuronName = "3" targetNeuronName = "10" weight = "-0.7327496220226959" />
    <synapse sourceNeuronName = "3" targetNeuronName = "11" weight = "0.9498866542989306" />
    <synapse sourceNeuronName = "4" targetNeuronName = "5" weight = "-0.6693205992176963" />
    <synapse sourceNeuronName = "4" targetNeuronName = "6" weight = "0.16123567595981236" />
    <synapse sourceNeuronName = "4" targetNeuronName = "7" weight = "0.08491634629444711" />
    <synapse sourceNeuronName = "4" targetNeuronName = "8" weight = "0.04122145043161862" />
    <synapse sourceNeuronName = "4" targetNeuronName = "9" weight = "-0.8023035086838655" />
    <synapse sourceNeuronName = "4" targetNeuronName = "10" weight = "0.7517363148000291" />
    <synapse sourceNeuronName = "4" targetNeuronName = "11" weight = "-0.06888755476039266" />
</neuralNetwork>