<neuralNetwork>
    <neuron name = "0" type = "sensor" linkName = "Link0" />
    <neuron name = "1" type = "sensor" linkName = "Link3" />
    <neuron name = "2" type = "sensor" linkName = "Link5" />
    <neuron name = "3" type = "sensor" linkName = "Link6" />
    <neuron name = "4" type = "sensor" linkName = "Link7" />
    <neuron name = "5" type = "sensor" linkName = "Link8" />
    <neuron name = "6" type = "sensor" linkName = "Link10" />
    <neuron name = "7" type = "motor"  jointName = "Link0_Link1" />
    <neuron name = "8" type = "motor"  jointName = "Link0_Link2" />
    <neuron name = "9" type = "motor"  jointName = "Link0_Link3" />
    <neuron name = "10" type = "motor"  jointName = "Link1_Link4" />
    <neuron name = "11" type = "motor"  jointName = "Link1_Link5" />
    <neuron name = "12" type = "motor"  jointName = "Link2_Link6" />
    <neuron name = "13" type = "motor"  jointName = "Link5_Link7" />
    <neuron name = "14" type = "motor"  jointName = "Link0_Link8" />
    <neuron name = "15" type = "motor"  jointName = "Link5_Link9" />
    <neuron name = "16" type = "motor"  jointName = "Link0_Link10" />
    <neuron name = "17" type = "motor"  jointName = "Link6_Link11" />
    <synapse sourceNeuronName = "0" targetNeuronName = "7" weight = "0.6061155524206165" />
    <synapse sourceNeuronName = "0" targetNeuronName = "8" weight = "-0.6246231036123955" />
    <synapse sourceNeuronName = "0" targetNeuronName = "9" weight = "-0.5492662139929143" />
    <synapse sourceNeuronName = "0" targetNeuronName = "10" weight = "0.6147232784516539" />
    <synapse sourceNeuronName = "0" targetNeuronName = "11" weight = "0.5719266014098259" />
    <synapse sourceNeuronName = "0" targetNeuronName = "12" weight = "-0.21668739803590986" />
    <synapse sourceNeuronName = "0" targetNeuronName = "13" weight = "0.5252415543272366" />
    <synapse sourceNeuronName = "0" targetNeuronName = "14" weight = "-0.010112475000876309" />
    <synapse sourceNeuronName = "0" targetNeuronName = "15" weight = "0.9885321551838915" />
    <synapse sourceNeuronName = "0" targetNeuronName = "16" weight = "-0.1549319555454225" />
    <synapse sourceNeuronName = "0" targetNeuronName = "17" weight = "0.354644774297334" />
    <synapse sourceNeuronName = "1" targetNeuronName = "7" weight = "-0.4954484032016888" />
    <synapse sourceNeuronName = "1" targetNeuronName = "8" weight = "0.5103038730089553" />
    <synapse sourceNeuronName = "1" targetNeuronName = "9" weight = "0.404585461020579" />
    <synapse sourceNeuronName = "1" targetNeuronName = "10" weight = "-0.546311869439339" />
    <synapse sourceNeuronName = "1" targetNeuronName = "11" weight = "0.3527398091224725" />
    <synapse sourceNeuronName = "1" targetNeuronName = "12" weight = "-0.5491226940453897" />
    <synapse sourceNeuronName = "1" targetNeuronName = "13" weight = "0.8461280984855348" />
    <synapse sourceNeuronName = "1" targetNeuronName = "14" weight = "0.8713314237073464" />
    <synapse sourceNeuronName = "1" targetNeuronName = "15" weight = "-0.6569324340858014" />
    <synapse sourceNeuronName = "1" targetNeuronName = "16" weight = "-0.7851799587614299" />
    <synapse sourceNeuronName = "1" targetNeuronName = "17" weight = "-0.9340535395456018" />
    <synapse sourceNeuronName = "2" targetNeuronName = "7" weight = "0.7959752526051305" />
    <synapse sourceNeuronName = "2" targetNeuronName = "8" weight = "0.15332736302942962" />
    <synapse sourceNeuronName = "2" targetNeuronName = "9" weight = "-0.0959280043450379" />
    <synapse sourceNeuronName = "2" targetNeuronName = "10" weight = "-0.2712337063210719" />
    <synapse sourceNeuronName = "2" targetNeuronName = "11" weight = "-0.3866401888058275" />
    <synapse sourceNeuronName = "2" targetNeuronName = "12" weight = "0.439265169771909" />
    <synapse sourceNeuronName = "2" targetNeuronName = "13" weight = "-0.8935218259082112" />
    <synapse sourceNeuronName = "2" targetNeuronName = "14" weight = "-0.988197079975023" />
    <synapse sourceNeuronName = "2" targetNeuronName = "15" weight = "0.16541213347163297" />
    <synapse sourceNeuronName = "2" targetNeuronName = "16" weight = "-0.21942354637013972" />
    <synapse sourceNeuronName = "2" targetNeuronName = "17" weight = "0.16927207924147214" />
    <synapse sourceNeuronName = "3" targetNeuronName = "7" weight = "0.19172778381906475" />
    <synapse sourceNeuronName = "3" targetNeuronName = "8" weight = "-0.030417422390974558" />
    <synapse sourceNeuronName = "3" targetNeuronName = "9" weight = "-0.035249847509511545" />
    <synapse sourceNeuronName = "3" targetNeuronName = "10" weight = "0.3578463077016498" />
    <synapse sourceNeuronName = "3" targetNeuronName = "11" weight = "-0.7187062080388564" />
    <synapse sourceNeuronName = "3" targetNeuronName = "12" weight = "0.8269689531674453" />
    <synapse sourceNeuronName = "3" targetNeuronName = "13" weight = "0.25400682820758025" />
    <synapse sourceNeuronName = "3" targetNeuronName = "14" weight = "0.8250387310713474" />
    <synapse sourceNeuronName = "3" targetNeuronName = "15" weight = "-0.6367176129689276" />
    <synapse sourceNeuronName = "3" targetNeuronName = "16" weight = "0.5675400947087961" />
    <synapse sourceNeuronName = "3" targetNeuronName = "17" weight = "-0.6371765198378392" />
    <synapse sourceNeuronName = "4" targetNeuronName = "7" weight = "0.23861099311883027" />
    <synapse sourceNeuronName = "4" targetNeuronName = "8" weight = "0.18362364106657303" />
    <synapse sourceNeuronName = "4" targetNeuronName = "9" weight = "-0.2167930339248738" />
    <synapse sourceNeuronName = "4" targetNeuronName = "10" weight = "0.7402565416312026" />
    <synapse sourceNeuronName = "4" targetNeuronName = "11" weight = "0.7508574522130769" />
    <synapse sourceNeuronName = "4" targetNeuronName = "12" weight = "0.7926318404502479" />
    <synapse sourceNeuronName = "4" targetNeuronName = "13" weight = "-0.39579409371053775" />
    <synapse sourceNeuronName = "4" targetNeuronName = "14" weight = "-0.18040797066970682" />
    <synapse sourceNeuronName = "4" targetNeuronName = "15" weight = "-0.1383759650739098" />
    <synapse sourceNeuronName = "4" targetNeuronName = "16" weight = "-0.6636701438903647" />
    <synapse sourceNeuronName = "4" targetNeuronName = "17" weight = "0.7311337209939348" />
    <synapse sourceNeuronName = "5" targetNeuronName = "7" weight = "-0.3700727033790032" />
    <synapse sourceNeuronName = "5" targetNeuronName = "8" weight = "-0.027515848632103435" />
    <synapse sourceNeuronName = "5" targetNeuronName = "9" weight = "-0.269847303082992" />
    <synapse sourceNeuronName = "5" targetNeuronName = "10" weight = "0.9237008949040137" />
    <synapse sourceNeuronName = "5" targetNeuronName = "11" weight = "-0.9289813369273885" />
    <synapse sourceNeuronName = "5" targetNeuronName = "12" weight = "-0.3616093884353766" />
    <synapse sourceNeuronName = "5" targetNeuronName = "13" weight = "-0.20707003903745824" />
    <synapse sourceNeuronName = "5" targetNeuronName = "14" weight = "0.6562059750505054" />
    <synapse sourceNeuronName = "5" targetNeuronName = "15" weight = "-0.30122182005211773" />
    <synapse sourceNeuronName = "5" targetNeuronName = "16" weight = "0.7729101550721338" />
    <synapse sourceNeuronName = "5" targetNeuronName = "17" weight = "-0.6479205159221684" />
    <synapse sourceNeuronName = "6" targetNeuronName = "7" weight = "0.8255690685413444" />
    <synapse sourceNeuronName = "6" targetNeuronName = "8" weight = "-0.3137542712670536" />
    <synapse sourceNeuronName = "6" targetNeuronName = "9" weight = "-0.8510059719857062" />
    <synapse sourceNeuronName = "6" targetNeuronName = "10" weight = "-0.07373314708663337" />
    <synapse sourceNeuronName = "6" targetNeuronName = "11" weight = "-0.14949391360720488" />
    <synapse sourceNeuronName = "6" targetNeuronName = "12" weight = "0.5292127052153821" />
    <synapse sourceNeuronName = "6" targetNeuronName = "13" weight = "0.886152424467928" />
    <synapse sourceNeuronName = "6" targetNeuronName = "14" weight = "0.7114339125777303" />
    <synapse sourceNeuronName = "6" targetNeuronName = "15" weight = "0.12438956067492879" />
    <synapse sourceNeuronName = "6" targetNeuronName = "16" weight = "-0.6666468840860162" />
    <synapse sourceNeuronName = "6" targetNeuronName = "17" weight = "-0.4899792134721115" />
</neuralNetwork>