<neuralNetwork>
    <neuron name = "0" type = "sensor" linkName = "Link0" />
    <neuron name = "1" type = "sensor" linkName = "Link3" />
    <neuron name = "2" type = "sensor" linkName = "Link4" />
    <neuron name = "3" type = "sensor" linkName = "Link5" />
    <neuron name = "4" type = "motor"  jointName = "Link0_Link1" />
    <neuron name = "5" type = "motor"  jointName = "Link1_Link2" />
    <neuron name = "6" type = "motor"  jointName = "Link0_Link3" />
    <neuron name = "7" type = "motor"  jointName = "Link2_Link4" />
    <neuron name = "8" type = "motor"  jointName = "Link1_Link5" />
    <neuron name = "9" type = "motor"  jointName = "Link1_Link6" />
    <synapse sourceNeuronName = "0" targetNeuronName = "4" weight = "-0.9288995388746828" />
    <synapse sourceNeuronName = "0" targetNeuronName = "5" weight = "0.7400218904737372" />
    <synapse sourceNeuronName = "0" targetNeuronName = "6" weight = "0.7393660733907714" />
    <synapse sourceNeuronName = "0" targetNeuronName = "7" weight = "-0.41248056527519306" />
    <synapse sourceNeuronName = "0" targetNeuronName = "8" weight = "0.37991579332321423" />
    <synapse sourceNeuronName = "0" targetNeuronName = "9" weight = "-0.8243345517512963" />
    <synapse sourceNeuronName = "1" targetNeuronName = "4" weight = "-0.4469536518159394" />
    <synapse sourceNeuronName = "1" targetNeuronName = "5" weight = "-0.0831007381675799" />
    <synapse sourceNeuronName = "1" targetNeuronName = "6" weight = "0.4133789086499513" />
    <synapse sourceNeuronName = "1" targetNeuronName = "7" weight = "0.036987806288487635" />
    <synapse sourceNeuronName = "1" targetNeuronName = "8" weight = "0.5376461922138771" />
    <synapse sourceNeuronName = "1" targetNeuronName = "9" weight = "0.2110523864501248" />
    <synapse sourceNeuronName = "2" targetNeuronName = "4" weight = "-0.38469934384685955" />
    <synapse sourceNeuronName = "2" targetNeuronName = "5" weight = "0.1434860208982307" />
    <synapse sourceNeuronName = "2" targetNeuronName = "6" weight = "-0.5711695371436383" />
    <synapse sourceNeuronName = "2" targetNeuronName = "7" weight = "0.010245276075824039" />
    <synapse sourceNeuronName = "2" targetNeuronName = "8" weight = "-0.2513755394941226" />
    <synapse sourceNeuronName = "2" targetNeuronName = "9" weight = "0.3328193518463616" />
    <synapse sourceNeuronName = "3" targetNeuronName = "4" weight = "0.3438512900770234" />
    <synapse sourceNeuronName = "3" targetNeuronName = "5" weight = "-0.6674918299442851" />
    <synapse sourceNeuronName = "3" targetNeuronName = "6" weight = "-0.43478875440158116" />
    <synapse sourceNeuronName = "3" targetNeuronName = "7" weight = "0.9424194421502301" />
    <synapse sourceNeuronName = "3" targetNeuronName = "8" weight = "0.34299428655206454" />
    <synapse sourceNeuronName = "3" targetNeuronName = "9" weight = "0.5495363543138154" />
</neuralNetwork>