<neuralNetwork>
    <neuron name = "0" type = "sensor" linkName = "Link2" />
    <neuron name = "1" type = "sensor" linkName = "Link3" />
    <neuron name = "2" type = "sensor" linkName = "Link4" />
    <neuron name = "3" type = "sensor" linkName = "Link5" />
    <neuron name = "4" type = "sensor" linkName = "Link6" />
    <neuron name = "5" type = "sensor" linkName = "Link7" />
    <neuron name = "6" type = "motor"  jointName = "Link0_Link1" />
    <neuron name = "7" type = "motor"  jointName = "Link1_Link2" />
    <neuron name = "8" type = "motor"  jointName = "Link2_Link3" />
    <neuron name = "9" type = "motor"  jointName = "Link0_Link4" />
    <neuron name = "10" type = "motor"  jointName = "Link3_Link5" />
    <neuron name = "11" type = "motor"  jointName = "Link2_Link6" />
    <neuron name = "12" type = "motor"  jointName = "Link5_Link7" />
    <synapse sourceNeuronName = "0" targetNeuronName = "6" weight = "-0.9492396713236013" />
    <synapse sourceNeuronName = "0" targetNeuronName = "7" weight = "0.6115546603351336" />
    <synapse sourceNeuronName = "0" targetNeuronName = "8" weight = "-0.1492120008702209" />
    <synapse sourceNeuronName = "0" targetNeuronName = "9" weight = "0.3820236191258226" />
    <synapse sourceNeuronName = "0" targetNeuronName = "10" weight = "0.47625650532372155" />
    <synapse sourceNeuronName = "0" targetNeuronName = "11" weight = "0.22801434191696446" />
    <synapse sourceNeuronName = "0" targetNeuronName = "12" weight = "-0.24708618984069397" />
    <synapse sourceNeuronName = "1" targetNeuronName = "6" weight = "-0.7741037891668976" />
    <synapse sourceNeuronName = "1" targetNeuronName = "7" weight = "0.46611624431186693" />
    <synapse sourceNeuronName = "1" targetNeuronName = "8" weight = "0.22213441668142608" />
    <synapse sourceNeuronName = "1" targetNeuronName = "9" weight = "0.742583487951278" />
    <synapse sourceNeuronName = "1" targetNeuronName = "10" weight = "0.6944578960476502" />
    <synapse sourceNeuronName = "1" targetNeuronName = "11" weight = "0.15595245912916034" />
    <synapse sourceNeuronName = "1" targetNeuronName = "12" weight = "-0.7462802650229738" />
    <synapse sourceNeuronName = "2" targetNeuronName = "6" weight = "0.25945088510738645" />
    <synapse sourceNeuronName = "2" targetNeuronName = "7" weight = "-0.4970376916174595" />
    <synapse sourceNeuronName = "2" targetNeuronName = "8" weight = "0.4169911911639166" />
    <synapse sourceNeuronName = "2" targetNeuronName = "9" weight = "-0.03886615530937898" />
    <synapse sourceNeuronName = "2" targetNeuronName = "10" weight = "-0.024336749743191666" />
    <synapse sourceNeuronName = "2" targetNeuronName = "11" weight = "-0.2899278718570706" />
    <synapse sourceNeuronName = "2" targetNeuronName = "12" weight = "-0.004776251592268466" />
    <synapse sourceNeuronName = "3" targetNeuronName = "6" weight = "-0.47092874523318606" />
    <synapse sourceNeuronName = "3" targetNeuronName = "7" weight = "-0.2926636338072093" />
    <synapse sourceNeuronName = "3" targetNeuronName = "8" weight = "-0.04563066208790212" />
    <synapse sourceNeuronName = "3" targetNeuronName = "9" weight = "-0.27367824496602733" />
    <synapse sourceNeuronName = "3" targetNeuronName = "10" weight = "0.19096394565490726" />
    <synapse sourceNeuronName = "3" targetNeuronName = "11" weight = "0.4486820490642016" />
    <synapse sourceNeuronName = "3" targetNeuronName = "12" weight = "0.15408094249701287" />
    <synapse sourceNeuronName = "4" targetNeuronName = "6" weight = "-0.09731666087326363" />
    <synapse sourceNeuronName = "4" targetNeuronName = "7" weight = "-0.3513690508280094" />
    <synapse sourceNeuronName = "4" targetNeuronName = "8" weight = "0.851024498860923" />
    <synapse sourceNeuronName = "4" targetNeuronName = "9" weight = "-0.050592826232948473" />
    <synapse sourceNeuronName = "4" targetNeuronName = "10" weight = "0.08979904241811898" />
    <synapse sourceNeuronName = "4" targetNeuronName = "11" weight = "0.2730755238814184" />
    <synapse sourceNeuronName = "4" targetNeuronName = "12" weight = "-0.6118936726088386" />
    <synapse sourceNeuronName = "5" targetNeuronName = "6" weight = "0.03467992581744417" />
    <synapse sourceNeuronName = "5" targetNeuronName = "7" weight = "-0.7796567033904442" />
    <synapse sourceNeuronName = "5" targetNeuronName = "8" weight = "-0.46041805775597533" />
    <synapse sourceNeuronName = "5" targetNeuronName = "9" weight = "0.15695272987161024" />
    <synapse sourceNeuronName = "5" targetNeuronName = "10" weight = "0.29984626595382613" />
    <synapse sourceNeuronName = "5" targetNeuronName = "11" weight = "0.29556183995288055" />
    <synapse sourceNeuronName = "5" targetNeuronName = "12" weight = "-0.29534719329641157" />
</neuralNetwork>