<neuralNetwork>
    <neuron name = "0" type = "sensor" linkName = "Link0" />
    <neuron name = "1" type = "sensor" linkName = "Link1" />
    <neuron name = "2" type = "sensor" linkName = "Link3" />
    <neuron name = "3" type = "sensor" linkName = "Link5" />
    <neuron name = "4" type = "sensor" linkName = "Link6" />
    <neuron name = "5" type = "motor"  jointName = "Link0_Link1" />
    <neuron name = "6" type = "motor"  jointName = "Link1_Link2" />
    <neuron name = "7" type = "motor"  jointName = "Link1_Link3" />
    <neuron name = "8" type = "motor"  jointName = "Link1_Link4" />
    <neuron name = "9" type = "motor"  jointName = "Link0_Link5" />
    <neuron name = "10" type = "motor"  jointName = "Link1_Link6" />
    <neuron name = "11" type = "motor"  jointName = "Link2_Link7" />
    <synapse sourceNeuronName = "0" targetNeuronName = "5" weight = "0.4133690274492561" />
    <synapse sourceNeuronName = "0" targetNeuronName = "6" weight = "-0.8894094502736392" />
    <synapse sourceNeuronName = "0" targetNeuronName = "7" weight = "0.04551855547553374" />
    <synapse sourceNeuronName = "0" targetNeuronName = "8" weight = "-0.8440262000864323" />
    <synapse sourceNeuronName = "0" targetNeuronName = "9" weight = "0.7761414096555019" />
    <synapse sourceNeuronName = "0" targetNeuronName = "10" weight = "-0.5557160529421963" />
    <synapse sourceNeuronName = "0" targetNeuronName = "11" weight = "-0.8198771908536151" />
    <synapse sourceNeuronName = "1" targetNeuronName = "5" weight = "0.8234664818220812" />
    <synapse sourceNeuronName = "1" targetNeuronName = "6" weight = "0.08886473115898963" />
    <synapse sourceNeuronName = "1" targetNeuronName = "7" weight = "0.9772268729284468" />
    <synapse sourceNeuronName = "1" targetNeuronName = "8" weight = "-0.08059209824427604" />
    <synapse sourceNeuronName = "1" targetNeuronName = "9" weight = "0.24912006719167334" />
    <synapse sourceNeuronName = "1" targetNeuronName = "10" weight = "-0.031454314958177854" />
    <synapse sourceNeuronName = "1" targetNeuronName = "11" weight = "-0.5378237837296529" />
    <synapse sourceNeuronName = "2" targetNeuronName = "5" weight = "-0.8852060917412015" />
    <synapse sourceNeuronName = "2" targetNeuronName = "6" weight = "-0.27228027596483106" />
    <synapse sourceNeuronName = "2" targetNeuronName = "7" weight = "-0.6754829219354106" />
    <synapse sourceNeuronName = "2" targetNeuronName = "8" weight = "0.1503213843710014" />
    <synapse sourceNeuronName = "2" targetNeuronName = "9" weight = "0.4845593970726658" />
    <synapse sourceNeuronName = "2" targetNeuronName = "10" weight = "0.7597967069246314" />
    <synapse sourceNeuronName = "2" targetNeuronName = "11" weight = "-0.23668783706551189" />
    <synapse sourceNeuronName = "3" targetNeuronName = "5" weight = "-0.2646818060854319" />
    <synapse sourceNeuronName = "3" targetNeuronName = "6" weight = "0.2910964024505516" />
    <synapse sourceNeuronName = "3" targetNeuronName = "7" weight = "0.914086901955069" />
    <synapse sourceNeuronName = "3" targetNeuronName = "8" weight = "0.5164237287838345" />
    <synapse sourceNeuronName = "3" targetNeuronName = "9" weight = "-0.9388750200936968" />
    <synapse sourceNeuronName = "3" targetNeuronName = "10" weight = "-0.4149157053895225" />
    <synapse sourceNeuronName = "3" targetNeuronName = "11" weight = "-0.8296390360044785" />
    <synapse sourceNeuronName = "4" targetNeuronName = "5" weight = "-0.8103099846510238" />
    <synapse sourceNeuronName = "4" targetNeuronName = "6" weight = "-0.8637522235762907" />
    <synapse sourceNeuronName = "4" targetNeuronName = "7" weight = "-0.4992313875250194" />
    <synapse sourceNeuronName = "4" targetNeuronName = "8" weight = "-0.811541131791736" />
    <synapse sourceNeuronName = "4" targetNeuronName = "9" weight = "-0.16369052623499547" />
    <synapse sourceNeuronName = "4" targetNeuronName = "10" weight = "0.30363758951692876" />
    <synapse sourceNeuronName = "4" targetNeuronName = "11" weight = "0.9906106388433986" />
</neuralNetwork>