<neuralNetwork>
    <neuron name = "0" type = "sensor" linkName = "Link0" />
    <neuron name = "1" type = "sensor" linkName = "Link1" />
    <neuron name = "2" type = "sensor" linkName = "Link3" />
    <neuron name = "3" type = "sensor" linkName = "Link5" />
    <neuron name = "4" type = "sensor" linkName = "Link6" />
    <neuron name = "5" type = "sensor" linkName = "Link7" />
    <neuron name = "6" type = "motor"  jointName = "Link0_Link1" />
    <neuron name = "7" type = "motor"  jointName = "Link1_Link2" />
    <neuron name = "8" type = "motor"  jointName = "Link1_Link3" />
    <neuron name = "9" type = "motor"  jointName = "Link1_Link4" />
    <neuron name = "10" type = "motor"  jointName = "Link0_Link5" />
    <neuron name = "11" type = "motor"  jointName = "Link1_Link6" />
    <neuron name = "12" type = "motor"  jointName = "Link3_Link7" />
    <synapse sourceNeuronName = "0" targetNeuronName = "6" weight = "0.27406737825207106" />
    <synapse sourceNeuronName = "0" targetNeuronName = "7" weight = "0.04130510199820825" />
    <synapse sourceNeuronName = "0" targetNeuronName = "8" weight = "0.21861897591421342" />
    <synapse sourceNeuronName = "0" targetNeuronName = "9" weight = "-0.13895679406820416" />
    <synapse sourceNeuronName = "0" targetNeuronName = "10" weight = "0.6894565479106436" />
    <synapse sourceNeuronName = "0" targetNeuronName = "11" weight = "0.544028937635672" />
    <synapse sourceNeuronName = "0" targetNeuronName = "12" weight = "-0.13003672168736524" />
    <synapse sourceNeuronName = "1" targetNeuronName = "6" weight = "-0.8225538981472815" />
    <synapse sourceNeuronName = "1" targetNeuronName = "7" weight = "0.183093842070154" />
    <synapse sourceNeuronName = "1" targetNeuronName = "8" weight = "0.9686211685458146" />
    <synapse sourceNeuronName = "1" targetNeuronName = "9" weight = "0.44102896765032784" />
    <synapse sourceNeuronName = "1" targetNeuronName = "10" weight = "0.3363711013833399" />
    <synapse sourceNeuronName = "1" targetNeuronName = "11" weight = "0.1184921360413067" />
    <synapse sourceNeuronName = "1" targetNeuronName = "12" weight = "-0.4944508393323297" />
    <synapse sourceNeuronName = "2" targetNeuronName = "6" weight = "-0.777352462542084" />
    <synapse sourceNeuronName = "2" targetNeuronName = "7" weight = "0.9946175230136365" />
    <synapse sourceNeuronName = "2" targetNeuronName = "8" weight = "-0.48547355711244955" />
    <synapse sourceNeuronName = "2" targetNeuronName = "9" weight = "-0.4272705770588334" />
    <synapse sourceNeuronName = "2" targetNeuronName = "10" weight = "-0.450923339971121" />
    <synapse sourceNeuronName = "2" targetNeuronName = "11" weight = "0.7265964723141851" />
    <synapse sourceNeuronName = "2" targetNeuronName = "12" weight = "0.9668971607187156" />
    <synapse sourceNeuronName = "3" targetNeuronName = "6" weight = "-0.9363121985535461" />
    <synapse sourceNeuronName = "3" targetNeuronName = "7" weight = "0.2648903639365412" />
    <synapse sourceNeuronName = "3" targetNeuronName = "8" weight = "-0.4752604821035702" />
    <synapse sourceNeuronName = "3" targetNeuronName = "9" weight = "0.05329725982165656" />
    <synapse sourceNeuronName = "3" targetNeuronName = "10" weight = "-0.4009295943633415" />
    <synapse sourceNeuronName = "3" targetNeuronName = "11" weight = "0.33430395532347523" />
    <synapse sourceNeuronName = "3" targetNeuronName = "12" weight = "-0.0013829125235891304" />
    <synapse sourceNeuronName = "4" targetNeuronName = "6" weight = "0.918648404653359" />
    <synapse sourceNeuronName = "4" targetNeuronName = "7" weight = "-0.29891218695198596" />
    <synapse sourceNeuronName = "4" targetNeuronName = "8" weight = "0.6825843622906729" />
    <synapse sourceNeuronName = "4" targetNeuronName = "9" weight = "2.76572384154683e-05" />
    <synapse sourceNeuronName = "4" targetNeuronName = "10" weight = "0.5975810501274237" />
    <synapse sourceNeuronName = "4" targetNeuronName = "11" weight = "-0.7655272120139376" />
    <synapse sourceNeuronName = "4" targetNeuronName = "12" weight = "-0.4493605744704774" />
    <synapse sourceNeuronName = "5" targetNeuronName = "6" weight = "0.14157922802293066" />
    <synapse sourceNeuronName = "5" targetNeuronName = "7" weight = "-0.7621374372180263" />
    <synapse sourceNeuronName = "5" targetNeuronName = "8" weight = "-0.38582551224374884" />
    <synapse sourceNeuronName = "5" targetNeuronName = "9" weight = "0.007965147283516938" />
    <synapse sourceNeuronName = "5" targetNeuronName = "10" weight = "0.6156947438326212" />
    <synapse sourceNeuronName = "5" targetNeuronName = "11" weight = "-0.7848877392732725" />
    <synapse sourceNeuronName = "5" targetNeuronName = "12" weight = "0.06996108168382231" />
</neuralNetwork>