<neuralNetwork>
    <neuron name = "0" type = "sensor" linkName = "Link2" />
    <neuron name = "1" type = "sensor" linkName = "Link3" />
    <neuron name = "2" type = "sensor" linkName = "Link4" />
    <neuron name = "3" type = "sensor" linkName = "Link5" />
    <neuron name = "4" type = "sensor" linkName = "Link6" />
    <neuron name = "5" type = "motor"  jointName = "Link0_Link1" />
    <neuron name = "6" type = "motor"  jointName = "Link1_Link2" />
    <neuron name = "7" type = "motor"  jointName = "Link2_Link3" />
    <neuron name = "8" type = "motor"  jointName = "Link0_Link4" />
    <neuron name = "9" type = "motor"  jointName = "Link3_Link5" />
    <neuron name = "10" type = "motor"  jointName = "Link5_Link6" />
    <synapse sourceNeuronName = "0" targetNeuronName = "5" weight = "-0.6951250179608655" />
    <synapse sourceNeuronName = "0" targetNeuronName = "6" weight = "0.3928982623330921" />
    <synapse sourceNeuronName = "0" targetNeuronName = "7" weight = "-0.17160651569041452" />
    <synapse sourceNeuronName = "0" targetNeuronName = "8" weight = "-0.9434790600180898" />
    <synapse sourceNeuronName = "0" targetNeuronName = "9" weight = "0.7249864930655388" />
    <synapse sourceNeuronName = "0" targetNeuronName = "10" weight = "-0.3003748001463167" />
    <synapse sourceNeuronName = "1" targetNeuronName = "5" weight = "-0.3330966937084652" />
    <synapse sourceNeuronName = "1" targetNeuronName = "6" weight = "0.563343724452088" />
    <synapse sourceNeuronName = "1" targetNeuronName = "7" weight = "0.6867602045501797" />
    <synapse sourceNeuronName = "1" targetNeuronName = "8" weight = "-0.8293220483775681" />
    <synapse sourceNeuronName = "1" targetNeuronName = "9" weight = "-0.5141235430813786" />
    <synapse sourceNeuronName = "1" targetNeuronName = "10" weight = "0.8278960162062263" />
    <synapse sourceNeuronName = "2" targetNeuronName = "5" weight = "-0.1853318044969785" />
    <synapse sourceNeuronName = "2" targetNeuronName = "6" weight = "-0.854059934267142" />
    <synapse sourceNeuronName = "2" targetNeuronName = "7" weight = "-0.26460712102471673" />
    <synapse sourceNeuronName = "2" targetNeuronName = "8" weight = "-0.4000425210382048" />
    <synapse sourceNeuronName = "2" targetNeuronName = "9" weight = "-0.24288650996639483" />
    <synapse sourceNeuronName = "2" targetNeuronName = "10" weight = "-0.6279285906972021" />
    <synapse sourceNeuronName = "3" targetNeuronName = "5" weight = "-0.027983746103068086" />
    <synapse sourceNeuronName = "3" targetNeuronName = "6" weight = "-0.5609023854756892" />
    <synapse sourceNeuronName = "3" targetNeuronName = "7" weight = "-0.7225180490591632" />
    <synapse sourceNeuronName = "3" targetNeuronName = "8" weight = "0.28410193709858444" />
    <synapse sourceNeuronName = "3" targetNeuronName = "9" weight = "0.5928883445652293" />
    <synapse sourceNeuronName = "3" targetNeuronName = "10" weight = "0.9507398848550148" />
    <synapse sourceNeuronName = "4" targetNeuronName = "5" weight = "0.14442641692082336" />
    <synapse sourceNeuronName = "4" targetNeuronName = "6" weight = "-0.14912369379516677" />
    <synapse sourceNeuronName = "4" targetNeuronName = "7" weight = "0.5045934419981648" />
    <synapse sourceNeuronName = "4" targetNeuronName = "8" weight = "0.2483909970219127" />
    <synapse sourceNeuronName = "4" targetNeuronName = "9" weight = "-0.07893897778271008" />
    <synapse sourceNeuronName = "4" targetNeuronName = "10" weight = "-0.4996878855475797" />
</neuralNetwork>