<neuralNetwork>
    <neuron name = "0" type = "sensor" linkName = "Link0" />
    <neuron name = "1" type = "sensor" linkName = "Link3" />
    <neuron name = "2" type = "sensor" linkName = "Link4" />
    <neuron name = "3" type = "sensor" linkName = "Link5" />
    <neuron name = "4" type = "sensor" linkName = "Link6" />
    <neuron name = "5" type = "motor"  jointName = "Link0_Link1" />
    <neuron name = "6" type = "motor"  jointName = "Link1_Link2" />
    <neuron name = "7" type = "motor"  jointName = "Link0_Link3" />
    <neuron name = "8" type = "motor"  jointName = "Link2_Link4" />
    <neuron name = "9" type = "motor"  jointName = "Link1_Link5" />
    <neuron name = "10" type = "motor"  jointName = "Link1_Link6" />
    <synapse sourceNeuronName = "0" targetNeuronName = "5" weight = "0.894996206204133" />
    <synapse sourceNeuronName = "0" targetNeuronName = "6" weight = "0.48689784108316214" />
    <synapse sourceNeuronName = "0" targetNeuronName = "7" weight = "-0.7793929635971706" />
    <synapse sourceNeuronName = "0" targetNeuronName = "8" weight = "-0.7895408335938539" />
    <synapse sourceNeuronName = "0" targetNeuronName = "9" weight = "0.10856552831456301" />
    <synapse sourceNeuronName = "0" targetNeuronName = "10" weight = "-0.9493259304323309" />
    <synapse sourceNeuronName = "1" targetNeuronName = "5" weight = "-0.9425092788080753" />
    <synapse sourceNeuronName = "1" targetNeuronName = "6" weight = "-0.22301056066188818" />
    <synapse sourceNeuronName = "1" targetNeuronName = "7" weight = "-0.23955011483177446" />
    <synapse sourceNeuronName = "1" targetNeuronName = "8" weight = "0.5185015661867471" />
    <synapse sourceNeuronName = "1" targetNeuronName = "9" weight = "0.060197595636106715" />
    <synapse sourceNeuronName = "1" targetNeuronName = "10" weight = "-0.1527123898730458" />
    <synapse sourceNeuronName = "2" targetNeuronName = "5" weight = "-0.353221936000252" />
    <synapse sourceNeuronName = "2" targetNeuronName = "6" weight = "-0.3542215331556162" />
    <synapse sourceNeuronName = "2" targetNeuronName = "7" weight = "-0.39149119514905606" />
    <synapse sourceNeuronName = "2" targetNeuronName = "8" weight = "0.39160993168112745" />
    <synapse sourceNeuronName = "2" targetNeuronName = "9" weight = "0.7697321891392543" />
    <synapse sourceNeuronName = "2" targetNeuronName = "10" weight = "-0.4414946222260525" />
    <synapse sourceNeuronName = "3" targetNeuronName = "5" weight = "-0.7935512902373023" />
    <synapse sourceNeuronName = "3" targetNeuronName = "6" weight = "0.8946965739771291" />
    <synapse sourceNeuronName = "3" targetNeuronName = "7" weight = "0.8022853166500339" />
    <synapse sourceNeuronName = "3" targetNeuronName = "8" weight = "0.27544003026195885" />
    <synapse sourceNeuronName = "3" targetNeuronName = "9" weight = "-0.1443927891207255" />
    <synapse sourceNeuronName = "3" targetNeuronName = "10" weight = "0.8244129717128408" />
    <synapse sourceNeuronName = "4" targetNeuronName = "5" weight = "0.7532716494574498" />
    <synapse sourceNeuronName = "4" targetNeuronName = "6" weight = "0.7538538431347419" />
    <synapse sourceNeuronName = "4" targetNeuronName = "7" weight = "-0.4163310388262589" />
    <synapse sourceNeuronName = "4" targetNeuronName = "8" weight = "-0.624436022977148" />
    <synapse sourceNeuronName = "4" targetNeuronName = "9" weight = "0.5443471919258567" />
    <synapse sourceNeuronName = "4" targetNeuronName = "10" weight = "-0.053665653822221104" />
</neuralNetwork>