<neuralNetwork>
    <neuron name = "0" type = "sensor" linkName = "Link2" />
    <neuron name = "1" type = "sensor" linkName = "Link3" />
    <neuron name = "2" type = "sensor" linkName = "Link4" />
    <neuron name = "3" type = "sensor" linkName = "Link5" />
    <neuron name = "4" type = "sensor" linkName = "Link6" />
    <neuron name = "5" type = "sensor" linkName = "Link8" />
    <neuron name = "6" type = "motor"  jointName = "Link0_Link1" />
    <neuron name = "7" type = "motor"  jointName = "Link1_Link2" />
    <neuron name = "8" type = "motor"  jointName = "Link2_Link3" />
    <neuron name = "9" type = "motor"  jointName = "Link0_Link4" />
    <neuron name = "10" type = "motor"  jointName = "Link3_Link5" />
    <neuron name = "11" type = "motor"  jointName = "Link2_Link6" />
    <neuron name = "12" type = "motor"  jointName = "Link5_Link7" />
    <neuron name = "13" type = "motor"  jointName = "Link0_Link8" />
    <synapse sourceNeuronName = "0" targetNeuronName = "6" weight = "-0.6095501533668155" />
    <synapse sourceNeuronName = "0" targetNeuronName = "7" weight = "-0.03568022336673704" />
    <synapse sourceNeuronName = "0" targetNeuronName = "8" weight = "0.48174124838315313" />
    <synapse sourceNeuronName = "0" targetNeuronName = "9" weight = "-0.71276219503895" />
    <synapse sourceNeuronName = "0" targetNeuronName = "10" weight = "0.8831535052379669" />
    <synapse sourceNeuronName = "0" targetNeuronName = "11" weight = "0.891863736229149" />
    <synapse sourceNeuronName = "0" targetNeuronName = "12" weight = "0.9361559275010822" />
    <synapse sourceNeuronName = "0" targetNeuronName = "13" weight = "0.48572945042190896" />
    <synapse sourceNeuronName = "1" targetNeuronName = "6" weight = "-0.534799612192346" />
    <synapse sourceNeuronName = "1" targetNeuronName = "7" weight = "0.7150463725079299" />
    <synapse sourceNeuronName = "1" targetNeuronName = "8" weight = "0.7351161160107165" />
    <synapse sourceNeuronName = "1" targetNeuronName = "9" weight = "0.7098362991289158" />
    <synapse sourceNeuronName = "1" targetNeuronName = "10" weight = "0.8030010067148805" />
    <synapse sourceNeuronName = "1" targetNeuronName = "11" weight = "-0.743097379557009" />
    <synapse sourceNeuronName = "1" targetNeuronName = "12" weight = "0.35441716252574884" />
    <synapse sourceNeuronName = "1" targetNeuronName = "13" weight = "-0.7384540658470069" />
    <synapse sourceNeuronName = "2" targetNeuronName = "6" weight = "0.752692675898361" />
    <synapse sourceNeuronName = "2" targetNeuronName = "7" weight = "-0.48133194700818294" />
    <synapse sourceNeuronName = "2" targetNeuronName = "8" weight = "-0.031471722310289385" />
    <synapse sourceNeuronName = "2" targetNeuronName = "9" weight = "0.17905794784571105" />
    <synapse sourceNeuronName = "2" targetNeuronName = "10" weight = "0.5083677541770528" />
    <synapse sourceNeuronName = "2" targetNeuronName = "11" weight = "-0.8921236152247649" />
    <synapse sourceNeuronName = "2" targetNeuronName = "12" weight = "0.5950113111403121" />
    <synapse sourceNeuronName = "2" targetNeuronName = "13" weight = "0.019830344597197236" />
    <synapse sourceNeuronName = "3" targetNeuronName = "6" weight = "-0.1007261925374463" />
    <synapse sourceNeuronName = "3" targetNeuronName = "7" weight = "-0.7914290393957619" />
    <synapse sourceNeuronName = "3" targetNeuronName = "8" weight = "0.03679856661762937" />
    <synapse sourceNeuronName = "3" targetNeuronName = "9" weight = "-0.734783722293042" />
    <synapse sourceNeuronName = "3" targetNeuronName = "10" weight = "-0.7422529769135511" />
    <synapse sourceNeuronName = "3" targetNeuronName = "11" weight = "0.525423301735594" />
    <synapse sourceNeuronName = "3" targetNeuronName = "12" weight = "-0.6566025301452558" />
    <synapse sourceNeuronName = "3" targetNeuronName = "13" weight = "-0.9945558806282522" />
    <synapse sourceNeuronName = "4" targetNeuronName = "6" weight = "0.30461045208482007" />
    <synapse sourceNeuronName = "4" targetNeuronName = "7" weight = "0.9723041246376891" />
    <synapse sourceNeuronName = "4" targetNeuronName = "8" weight = "-0.5487878545916172" />
    <synapse sourceNeuronName = "4" targetNeuronName = "9" weight = "-0.5530178816918334" />
    <synapse sourceNeuronName = "4" targetNeuronName = "10" weight = "-0.38319141274979285" />
    <synapse sourceNeuronName = "4" targetNeuronName = "11" weight = "-0.4889702537912588" />
    <synapse sourceNeuronName = "4" targetNeuronName = "12" weight = "-0.037970754444381916" />
    <synapse sourceNeuronName = "4" targetNeuronName = "13" weight = "-0.41785810319656713" />
    <synapse sourceNeuronName = "5" targetNeuronName = "6" weight = "-0.25206119583195497" />
    <synapse sourceNeuronName = "5" targetNeuronName = "7" weight = "-0.4816610949020306" />
    <synapse sourceNeuronName = "5" targetNeuronName = "8" weight = "0.47361229023517804" />
    <synapse sourceNeuronName = "5" targetNeuronName = "9" weight = "-0.8138154664328967" />
    <synapse sourceNeuronName = "5" targetNeuronName = "10" weight = "-0.8501536220801253" />
    <synapse sourceNeuronName = "5" targetNeuronName = "11" weight = "0.4621298362492223" />
    <synapse sourceNeuronName = "5" targetNeuronName = "12" weight = "-0.21664710185520186" />
    <synapse sourceNeuronName = "5" targetNeuronName = "13" weight = "0.917677390167118" />
</neuralNetwork>