<neuralNetwork>
    <neuron name = "0" type = "sensor" linkName = "Link0" />
    <neuron name = "1" type = "sensor" linkName = "Link3" />
    <neuron name = "2" type = "sensor" linkName = "Link5" />
    <neuron name = "3" type = "sensor" linkName = "Link6" />
    <neuron name = "4" type = "sensor" linkName = "Link7" />
    <neuron name = "5" type = "sensor" linkName = "Link8" />
    <neuron name = "6" type = "sensor" linkName = "Link10" />
    <neuron name = "7" type = "motor"  jointName = "Link0_Link1" />
    <neuron name = "8" type = "motor"  jointName = "Link0_Link2" />
    <neuron name = "9" type = "motor"  jointName = "Link0_Link3" />
    <neuron name = "10" type = "motor"  jointName = "Link1_Link4" />
    <neuron name = "11" type = "motor"  jointName = "Link1_Link5" />
    <neuron name = "12" type = "motor"  jointName = "Link2_Link6" />
    <neuron name = "13" type = "motor"  jointName = "Link5_Link7" />
    <neuron name = "14" type = "motor"  jointName = "Link0_Link8" />
    <neuron name = "15" type = "motor"  jointName = "Link5_Link9" />
    <neuron name = "16" type = "motor"  jointName = "Link0_Link10" />
    <neuron name = "17" type = "motor"  jointName = "Link6_Link11" />
    <neuron name = "18" type = "motor"  jointName = "Link10_Link12" />
    <synapse sourceNeuronName = "0" targetNeuronName = "7" weight = "-0.3722192308942356" />
    <synapse sourceNeuronName = "0" targetNeuronName = "8" weight = "-0.30611245317066804" />
    <synapse sourceNeuronName = "0" targetNeuronName = "9" weight = "-0.1024988667141693" />
    <synapse sourceNeuronName = "0" targetNeuronName = "10" weight = "-0.14674461219797696" />
    <synapse sourceNeuronName = "0" targetNeuronName = "11" weight = "0.7915641849746426" />
    <synapse sourceNeuronName = "0" targetNeuronName = "12" weight = "0.25319092202338744" />
    <synapse sourceNeuronName = "0" targetNeuronName = "13" weight = "-0.3625306251907072" />
    <synapse sourceNeuronName = "0" targetNeuronName = "14" weight = "-0.21185980014016859" />
    <synapse sourceNeuronName = "0" targetNeuronName = "15" weight = "0.4605378911900444" />
    <synapse sourceNeuronName = "0" targetNeuronName = "16" weight = "-0.9711688508640541" />
    <synapse sourceNeuronName = "0" targetNeuronName = "17" weight = "-0.36109465182594436" />
    <synapse sourceNeuronName = "0" targetNeuronName = "18" weight = "0.8130735021210873" />
    <synapse sourceNeuronName = "1" targetNeuronName = "7" weight = "-0.6966393399132234" />
    <synapse sourceNeuronName = "1" targetNeuronName = "8" weight = "-0.25786024442588107" />
    <synapse sourceNeuronName = "1" targetNeuronName = "9" weight = "-0.20535195124907646" />
    <synapse sourceNeuronName = "1" targetNeuronName = "10" weight = "-0.9945833225041556" />
    <synapse sourceNeuronName = "1" targetNeuronName = "11" weight = "-0.8576560629457453" />
    <synapse sourceNeuronName = "1" targetNeuronName = "12" weight = "-0.19999303204144647" />
    <synapse sourceNeuronName = "1" targetNeuronName = "13" weight = "-0.06658215635588483" />
    <synapse sourceNeuronName = "1" targetNeuronName = "14" weight = "0.5951804774807652" />
    <synapse sourceNeuronName = "1" targetNeuronName = "15" weight = "0.8993123495254924" />
    <synapse sourceNeuronName = "1" targetNeuronName = "16" weight = "0.6285936034319985" />
    <synapse sourceNeuronName = "1" targetNeuronName = "17" weight = "0.14926595114096242" />
    <synapse sourceNeuronName = "1" targetNeuronName = "18" weight = "-0.30452819865034275" />
    <synapse sourceNeuronName = "2" targetNeuronName = "7" weight = "0.24225148145527653" />
    <synapse sourceNeuronName = "2" targetNeuronName = "8" weight = "-0.9404945587908451" />
    <synapse sourceNeuronName = "2" targetNeuronName = "9" weight = "-0.018861479901639555" />
    <synapse sourceNeuronName = "2" targetNeuronName = "10" weight = "0.7892373333899954" />
    <synapse sourceNeuronName = "2" targetNeuronName = "11" weight = "-0.12528288160504775" />
    <synapse sourceNeuronName = "2" targetNeuronName = "12" weight = "-0.4787762033626759" />
    <synapse sourceNeuronName = "2" targetNeuronName = "13" weight = "0.5933000480796222" />
    <synapse sourceNeuronName = "2" targetNeuronName = "14" weight = "0.525517261140314" />
    <synapse sourceNeuronName = "2" targetNeuronName = "15" weight = "0.8149142692895153" />
    <synapse sourceNeuronName = "2" targetNeuronName = "16" weight = "-0.5017734657607267" />
    <synapse sourceNeuronName = "2" targetNeuronName = "17" weight = "0.6608272989963755" />
    <synapse sourceNeuronName = "2" targetNeuronName = "18" weight = "0.858453384661295" />
    <synapse sourceNeuronName = "3" targetNeuronName = "7" weight = "0.12988792128903714" />
    <synapse sourceNeuronName = "3" targetNeuronName = "8" weight = "-0.38766741535255433" />
    <synapse sourceNeuronName = "3" targetNeuronName = "9" weight = "0.6832002777050361" />
    <synapse sourceNeuronName = "3" targetNeuronName = "10" weight = "-0.24449624605792053" />
    <synapse sourceNeuronName = "3" targetNeuronName = "11" weight = "0.9454275268667007" />
    <synapse sourceNeuronName = "3" targetNeuronName = "12" weight = "0.8877979205496662" />
    <synapse sourceNeuronName = "3" targetNeuronName = "13" weight = "-0.6009730513091649" />
    <synapse sourceNeuronName = "3" targetNeuronName = "14" weight = "0.5177859053528122" />
    <synapse sourceNeuronName = "3" targetNeuronName = "15" weight = "0.8677383302079369" />
    <synapse sourceNeuronName = "3" targetNeuronName = "16" weight = "-0.06797787741221017" />
    <synapse sourceNeuronName = "3" targetNeuronName = "17" weight = "-0.35215864769575833" />
    <synapse sourceNeuronName = "3" targetNeuronName = "18" weight = "-0.3513588818953266" />
    <synapse sourceNeuronName = "4" targetNeuronName = "7" weight = "0.6604436755787315" />
    <synapse sourceNeuronName = "4" targetNeuronName = "8" weight = "-0.943006763285213" />
    <synapse sourceNeuronName = "4" targetNeuronName = "9" weight = "0.17095864499257085" />
    <synapse sourceNeuronName = "4" targetNeuronName = "10" weight = "-0.6165160919410042" />
    <synapse sourceNeuronName = "4" targetNeuronName = "11" weight = "0.9365278695257335" />
    <synapse sourceNeuronName = "4" targetNeuronName = "12" weight = "0.40303010862237465" />
    <synapse sourceNeuronName = "4" targetNeuronName = "13" weight = "-0.7208646206311815" />
    <synapse sourceNeuronName = "4" targetNeuronName = "14" weight = "-0.9602114777193664" />
    <synapse sourceNeuronName = "4" targetNeuronName = "15" weight = "-0.47795910195336244" />
    <synapse sourceNeuronName = "4" targetNeuronName = "16" weight = "0.031062316790254396" />
    <synapse sourceNeuronName = "4" targetNeuronName = "17" weight = "0.39586273791174764" />
    <synapse sourceNeuronName = "4" targetNeuronName = "18" weight = "-0.041546700610263" />
    <synapse sourceNeuronName = "5" targetNeuronName = "7" weight = "0.8034944646517368" />
    <synapse sourceNeuronName = "5" targetNeuronName = "8" weight = "0.09380889696588701" />
    <synapse sourceNeuronName = "5" targetNeuronName = "9" weight = "-0.47177694702841233" />
    <synapse sourceNeuronName = "5" targetNeuronName = "10" weight = "0.5986288035468348" />
    <synapse sourceNeuronName = "5" targetNeuronName = "11" weight = "-0.058761064198862734" />
    <synapse sourceNeuronName = "5" targetNeuronName = "12" weight = "0.18041771706067533" />
    <synapse sourceNeuronName = "5" targetNeuronName = "13" weight = "-0.30064917540964475" />
    <synapse sourceNeuronName = "5" targetNeuronName = "14" weight = "0.6453817790798448" />
    <synapse sourceNeuronName = "5" targetNeuronName = "15" weight = "0.8132620832456399" />
    <synapse sourceNeuronName = "5" targetNeuronName = "16" weight = "-0.9951220968357393" />
    <synapse sourceNeuronName = "5" targetNeuronName = "17" weight = "0.699854604625773" />
    <synapse sourceNeuronName = "5" targetNeuronName = "18" weight = "0.3189359914569576" />
    <synapse sourceNeuronName = "6" targetNeuronName = "7" weight = "0.1315663211021545" />
    <synapse sourceNeuronName = "6" targetNeuronName = "8" weight = "-0.753006962198608" />
    <synapse sourceNeuronName = "6" targetNeuronName = "9" weight = "0.8715113186701189" />
    <synapse sourceNeuronName = "6" targetNeuronName = "10" weight = "-0.12065878054063317" />
    <synapse sourceNeuronName = "6" targetNeuronName = "11" weight = "-0.1212442815719188" />
    <synapse sourceNeuronName = "6" targetNeuronName = "12" weight = "0.8990732423447794" />
    <synapse sourceNeuronName = "6" targetNeuronName = "13" weight = "0.35156772798558067" />
    <synapse sourceNeuronName = "6" targetNeuronName = "14" weight = "-0.8860004862120938" />
    <synapse sourceNeuronName = "6" targetNeuronName = "15" weight = "0.5103883879814235" />
    <synapse sourceNeuronName = "6" targetNeuronName = "16" weight = "-0.6432140662753507" />
    <synapse sourceNeuronName = "6" targetNeuronName = "17" weight = "0.5901113442035715" />
    <synapse sourceNeuronName = "6" targetNeuronName = "18" weight = "-0.9326354903298744" />
</neuralNetwork>