<neuralNetwork>
    <neuron name = "0" type = "sensor" linkName = "Link1" />
    <neuron name = "1" type = "sensor" linkName = "Link2" />
    <neuron name = "2" type = "sensor" linkName = "Link5" />
    <neuron name = "3" type = "sensor" linkName = "Link6" />
    <neuron name = "4" type = "motor"  jointName = "Link0_Link1" />
    <neuron name = "5" type = "motor"  jointName = "Link1_Link2" />
    <neuron name = "6" type = "motor"  jointName = "Link0_Link3" />
    <neuron name = "7" type = "motor"  jointName = "Link2_Link4" />
    <neuron name = "8" type = "motor"  jointName = "Link1_Link5" />
    <neuron name = "9" type = "motor"  jointName = "Link0_Link6" />
    <neuron name = "10" type = "motor"  jointName = "Link0_Link7" />
    <neuron name = "11" type = "motor"  jointName = "Link2_Link8" />
    <synapse sourceNeuronName = "0" targetNeuronName = "4" weight = "0.15744592428039206" />
    <synapse sourceNeuronName = "0" targetNeuronName = "5" weight = "0.9563674290674302" />
    <synapse sourceNeuronName = "0" targetNeuronName = "6" weight = "0.7060231944856494" />
    <synapse sourceNeuronName = "0" targetNeuronName = "7" weight = "-0.11535160201724048" />
    <synapse sourceNeuronName = "0" targetNeuronName = "8" weight = "0.300341161243034" />
    <synapse sourceNeuronName = "0" targetNeuronName = "9" weight = "0.3002928802878344" />
    <synapse sourceNeuronName = "0" targetNeuronName = "10" weight = "-0.6543960571727911" />
    <synapse sourceNeuronName = "0" targetNeuronName = "11" weight = "0.3550793043465239" />
    <synapse sourceNeuronName = "1" targetNeuronName = "4" weight = "0.774726745784907" />
    <synapse sourceNeuronName = "1" targetNeuronName = "5" weight = "0.15900413516055156" />
    <synapse sourceNeuronName = "1" targetNeuronName = "6" weight = "-0.001971107776630898" />
    <synapse sourceNeuronName = "1" targetNeuronName = "7" weight = "-0.017306412704588325" />
    <synapse sourceNeuronName = "1" targetNeuronName = "8" weight = "-0.11237557764743644" />
    <synapse sourceNeuronName = "1" targetNeuronName = "9" weight = "-0.8513661647843613" />
    <synapse sourceNeuronName = "1" targetNeuronName = "10" weight = "0.3975539502982379" />
    <synapse sourceNeuronName = "1" targetNeuronName = "11" weight = "-0.18474045352347535" />
    <synapse sourceNeuronName = "2" targetNeuronName = "4" weight = "-0.8771299619632391" />
    <synapse sourceNeuronName = "2" targetNeuronName = "5" weight = "0.6726223387437715" />
    <synapse sourceNeuronName = "2" targetNeuronName = "6" weight = "0.06520010865445469" />
    <synapse sourceNeuronName = "2" targetNeuronName = "7" weight = "0.016229263036652286" />
    <synapse sourceNeuronName = "2" targetNeuronName = "8" weight = "0.23213678201532995" />
    <synapse sourceNeuronName = "2" targetNeuronName = "9" weight = "0.5080678854607346" />
    <synapse sourceNeuronName = "2" targetNeuronName = "10" weight = "-0.3149323184106634" />
    <synapse sourceNeuronName = "2" targetNeuronName = "11" weight = "0.15297519185423702" />
    <synapse sourceNeuronName = "3" targetNeuronName = "4" weight = "0.8635198847996011" />
    <synapse sourceNeuronName = "3" targetNeuronName = "5" weight = "-0.15098638079108828" />
    <synapse sourceNeuronName = "3" targetNeuronName = "6" weight = "0.4536709356164643" />
    <synapse sourceNeuronName = "3" targetNeuronName = "7" weight = "-0.1943351221853904" />
    <synapse sourceNeuronName = "3" targetNeuronName = "8" weight = "-0.0030402165291716354" />
    <synapse sourceNeuronName = "3" targetNeuronName = "9" weight = "-0.7149699317225608" />
    <synapse sourceNeuronName = "3" targetNeuronName = "10" weight = "0.9381434894118041" />
    <synapse sourceNeuronName = "3" targetNeuronName = "11" weight = "0.39818370426366645" />
</neuralNetwork>