<neuralNetwork>
    <neuron name = "0" type = "sensor" linkName = "Link0" />
    <neuron name = "1" type = "sensor" linkName = "Link1" />
    <neuron name = "2" type = "sensor" linkName = "Link2" />
    <neuron name = "3" type = "sensor" linkName = "Link3" />
    <neuron name = "4" type = "sensor" linkName = "Link4" />
    <neuron name = "5" type = "sensor" linkName = "Link7" />
    <neuron name = "6" type = "sensor" linkName = "Link8" />
    <neuron name = "7" type = "motor"  jointName = "Link0_Link1" />
    <neuron name = "8" type = "motor"  jointName = "Link0_Link2" />
    <neuron name = "9" type = "motor"  jointName = "Link0_Link3" />
    <neuron name = "10" type = "motor"  jointName = "Link1_Link4" />
    <neuron name = "11" type = "motor"  jointName = "Link4_Link5" />
    <neuron name = "12" type = "motor"  jointName = "Link1_Link6" />
    <neuron name = "13" type = "motor"  jointName = "Link3_Link7" />
    <neuron name = "14" type = "motor"  jointName = "Link1_Link8" />
    <synapse sourceNeuronName = "0" targetNeuronName = "7" weight = "-0.7476272289512895" />
    <synapse sourceNeuronName = "0" targetNeuronName = "8" weight = "-0.7052886121775699" />
    <synapse sourceNeuronName = "0" targetNeuronName = "9" weight = "0.8454973209172243" />
    <synapse sourceNeuronName = "0" targetNeuronName = "10" weight = "-0.9894521062243871" />
    <synapse sourceNeuronName = "0" targetNeuronName = "11" weight = "-0.4412897042367465" />
    <synapse sourceNeuronName = "0" targetNeuronName = "12" weight = "-0.5043359793380526" />
    <synapse sourceNeuronName = "0" targetNeuronName = "13" weight = "0.10357701430519284" />
    <synapse sourceNeuronName = "0" targetNeuronName = "14" weight = "0.7410797822984689" />
    <synapse sourceNeuronName = "1" targetNeuronName = "7" weight = "0.6721043970209937" />
    <synapse sourceNeuronName = "1" targetNeuronName = "8" weight = "0.6356121293652488" />
    <synapse sourceNeuronName = "1" targetNeuronName = "9" weight = "0.7295235508278088" />
    <synapse sourceNeuronName = "1" targetNeuronName = "10" weight = "-0.11069517979747268" />
    <synapse sourceNeuronName = "1" targetNeuronName = "11" weight = "0.7144387908909322" />
    <synapse sourceNeuronName = "1" targetNeuronName = "12" weight = "0.2280535588665531" />
    <synapse sourceNeuronName = "1" targetNeuronName = "13" weight = "0.19955261535131674" />
    <synapse sourceNeuronName = "1" targetNeuronName = "14" weight = "0.7268845581455723" />
    <synapse sourceNeuronName = "2" targetNeuronName = "7" weight = "-0.36826478408109065" />
    <synapse sourceNeuronName = "2" targetNeuronName = "8" weight = "0.2694639306209343" />
    <synapse sourceNeuronName = "2" targetNeuronName = "9" weight = "0.5218852182245164" />
    <synapse sourceNeuronName = "2" targetNeuronName = "10" weight = "0.941146510978341" />
    <synapse sourceNeuronName = "2" targetNeuronName = "11" weight = "0.8155740140480339" />
    <synapse sourceNeuronName = "2" targetNeuronName = "12" weight = "-0.4916245460484161" />
    <synapse sourceNeuronName = "2" targetNeuronName = "13" weight = "0.6770687137955156" />
    <synapse sourceNeuronName = "2" targetNeuronName = "14" weight = "-0.6122183295562205" />
    <synapse sourceNeuronName = "3" targetNeuronName = "7" weight = "-0.5437435442245426" />
    <synapse sourceNeuronName = "3" targetNeuronName = "8" weight = "-0.45466925515865864" />
    <synapse sourceNeuronName = "3" targetNeuronName = "9" weight = "-0.7012849607176983" />
    <synapse sourceNeuronName = "3" targetNeuronName = "10" weight = "-0.4179694927505384" />
    <synapse sourceNeuronName = "3" targetNeuronName = "11" weight = "-0.8093953034782804" />
    <synapse sourceNeuronName = "3" targetNeuronName = "12" weight = "-0.292075784103661" />
    <synapse sourceNeuronName = "3" targetNeuronName = "13" weight = "-0.917631638980039" />
    <synapse sourceNeuronName = "3" targetNeuronName = "14" weight = "0.007181069318060285" />
    <synapse sourceNeuronName = "4" targetNeuronName = "7" weight = "0.06726722319932987" />
    <synapse sourceNeuronName = "4" targetNeuronName = "8" weight = "0.652464753470682" />
    <synapse sourceNeuronName = "4" targetNeuronName = "9" weight = "-0.3498585630062312" />
    <synapse sourceNeuronName = "4" targetNeuronName = "10" weight = "0.330384301198019" />
    <synapse sourceNeuronName = "4" targetNeuronName = "11" weight = "0.05154778544569316" />
    <synapse sourceNeuronName = "4" targetNeuronName = "12" weight = "0.5039486353775446" />
    <synapse sourceNeuronName = "4" targetNeuronName = "13" weight = "0.8215476779101925" />
    <synapse sourceNeuronName = "4" targetNeuronName = "14" weight = "0.9201378356714554" />
    <synapse sourceNeuronName = "5" targetNeuronName = "7" weight = "0.5589692319705337" />
    <synapse sourceNeuronName = "5" targetNeuronName = "8" weight = "-0.20505366334792874" />
    <synapse sourceNeuronName = "5" targetNeuronName = "9" weight = "-0.17596936404812413" />
    <synapse sourceNeuronName = "5" targetNeuronName = "10" weight = "-0.07351270557994871" />
    <synapse sourceNeuronName = "5" targetNeuronName = "11" weight = "-0.03182450683712568" />
    <synapse sourceNeuronName = "5" targetNeuronName = "12" weight = "0.9070048706960165" />
    <synapse sourceNeuronName = "5" targetNeuronName = "13" weight = "0.10488643473060666" />
    <synapse sourceNeuronName = "5" targetNeuronName = "14" weight = "0.06442383068523005" />
    <synapse sourceNeuronName = "6" targetNeuronName = "7" weight = "-0.4137494953343679" />
    <synapse sourceNeuronName = "6" targetNeuronName = "8" weight = "-0.05703978016449529" />
    <synapse sourceNeuronName = "6" targetNeuronName = "9" weight = "0.04171650991592846" />
    <synapse sourceNeuronName = "6" targetNeuronName = "10" weight = "0.6113883245028939" />
    <synapse sourceNeuronName = "6" targetNeuronName = "11" weight = "-0.8580596724505629" />
    <synapse sourceNeuronName = "6" targetNeuronName = "12" weight = "0.33319290989004724" />
    <synapse sourceNeuronName = "6" targetNeuronName = "13" weight = "-0.7754268570470182" />
    <synapse sourceNeuronName = "6" targetNeuronName = "14" weight = "-0.7350730065546354" />
</neuralNetwork>