<neuralNetwork>
    <neuron name = "0" type = "sensor" linkName = "Link2" />
    <neuron name = "1" type = "sensor" linkName = "Link3" />
    <neuron name = "2" type = "sensor" linkName = "Link4" />
    <neuron name = "3" type = "sensor" linkName = "Link6" />
    <neuron name = "4" type = "sensor" linkName = "Link7" />
    <neuron name = "5" type = "motor"  jointName = "Link0_Link1" />
    <neuron name = "6" type = "motor"  jointName = "Link1_Link2" />
    <neuron name = "7" type = "motor"  jointName = "Link1_Link3" />
    <neuron name = "8" type = "motor"  jointName = "Link2_Link4" />
    <neuron name = "9" type = "motor"  jointName = "Link1_Link5" />
    <neuron name = "10" type = "motor"  jointName = "Link1_Link6" />
    <neuron name = "11" type = "motor"  jointName = "Link6_Link7" />
    <neuron name = "12" type = "motor"  jointName = "Link0_Link8" />
    <neuron name = "13" type = "motor"  jointName = "Link0_Link9" />
    <synapse sourceNeuronName = "0" targetNeuronName = "5" weight = "0.7072410939144473" />
    <synapse sourceNeuronName = "0" targetNeuronName = "6" weight = "0.5840634993553651" />
    <synapse sourceNeuronName = "0" targetNeuronName = "7" weight = "-0.5610907773103793" />
    <synapse sourceNeuronName = "0" targetNeuronName = "8" weight = "-0.8080778682606171" />
    <synapse sourceNeuronName = "0" targetNeuronName = "9" weight = "0.20932127108615628" />
    <synapse sourceNeuronName = "0" targetNeuronName = "10" weight = "0.8287116563285875" />
    <synapse sourceNeuronName = "0" targetNeuronName = "11" weight = "0.741555060189973" />
    <synapse sourceNeuronName = "0" targetNeuronName = "12" weight = "-0.7185802668025036" />
    <synapse sourceNeuronName = "0" targetNeuronName = "13" weight = "-0.9023269720750111" />
    <synapse sourceNeuronName = "1" targetNeuronName = "5" weight = "0.8601296398046225" />
    <synapse sourceNeuronName = "1" targetNeuronName = "6" weight = "-0.5288582607879349" />
    <synapse sourceNeuronName = "1" targetNeuronName = "7" weight = "-0.6410236924348176" />
    <synapse sourceNeuronName = "1" targetNeuronName = "8" weight = "0.07714662445971143" />
    <synapse sourceNeuronName = "1" targetNeuronName = "9" weight = "-0.9359362667185243" />
    <synapse sourceNeuronName = "1" targetNeuronName = "10" weight = "0.7595804757763198" />
    <synapse sourceNeuronName = "1" targetNeuronName = "11" weight = "-0.3981717826080404" />
    <synapse sourceNeuronName = "1" targetNeuronName = "12" weight = "-0.4353847267922262" />
    <synapse sourceNeuronName = "1" targetNeuronName = "13" weight = "0.9354902237536167" />
    <synapse sourceNeuronName = "2" targetNeuronName = "5" weight = "0.13066311675913544" />
    <synapse sourceNeuronName = "2" targetNeuronName = "6" weight = "-0.8987582785146349" />
    <synapse sourceNeuronName = "2" targetNeuronName = "7" weight = "-0.8801485533917537" />
    <synapse sourceNeuronName = "2" targetNeuronName = "8" weight = "-0.9425188155252935" />
    <synapse sourceNeuronName = "2" targetNeuronName = "9" weight = "-0.1796370811880359" />
    <synapse sourceNeuronName = "2" targetNeuronName = "10" weight = "-0.6826649911134088" />
    <synapse sourceNeuronName = "2" targetNeuronName = "11" weight = "0.7845123370497318" />
    <synapse sourceNeuronName = "2" targetNeuronName = "12" weight = "-0.3091141054108131" />
    <synapse sourceNeuronName = "2" targetNeuronName = "13" weight = "-0.25743188633105096" />
    <synapse sourceNeuronName = "3" targetNeuronName = "5" weight = "-0.7296674464554325" />
    <synapse sourceNeuronName = "3" targetNeuronName = "6" weight = "-0.6350580954543545" />
    <synapse sourceNeuronName = "3" targetNeuronName = "7" weight = "-0.9483465431000588" />
    <synapse sourceNeuronName = "3" targetNeuronName = "8" weight = "-0.28449645956838876" />
    <synapse sourceNeuronName = "3" targetNeuronName = "9" weight = "0.8830840787779952" />
    <synapse sourceNeuronName = "3" targetNeuronName = "10" weight = "-0.42452859006714627" />
    <synapse sourceNeuronName = "3" targetNeuronName = "11" weight = "0.760019944307829" />
    <synapse sourceNeuronName = "3" targetNeuronName = "12" weight = "0.9517721562162185" />
    <synapse sourceNeuronName = "3" targetNeuronName = "13" weight = "-0.13546894132511667" />
    <synapse sourceNeuronName = "4" targetNeuronName = "5" weight = "-0.9036907480652718" />
    <synapse sourceNeuronName = "4" targetNeuronName = "6" weight = "-0.5047131043128628" />
    <synapse sourceNeuronName = "4" targetNeuronName = "7" weight = "-0.258703645808696" />
    <synapse sourceNeuronName = "4" targetNeuronName = "8" weight = "-0.6628702325529348" />
    <synapse sourceNeuronName = "4" targetNeuronName = "9" weight = "-0.9937909894702319" />
    <synapse sourceNeuronName = "4" targetNeuronName = "10" weight = "0.07345995336557753" />
    <synapse sourceNeuronName = "4" targetNeuronName = "11" weight = "-0.7412482038526116" />
    <synapse sourceNeuronName = "4" targetNeuronName = "12" weight = "0.18608683237146595" />
    <synapse sourceNeuronName = "4" targetNeuronName = "13" weight = "0.7836289439848318" />
</neuralNetwork>