<neuralNetwork>
    <neuron name = "0" type = "sensor" linkName = "Link2" />
    <neuron name = "1" type = "sensor" linkName = "Link3" />
    <neuron name = "2" type = "sensor" linkName = "Link4" />
    <neuron name = "3" type = "sensor" linkName = "Link6" />
    <neuron name = "4" type = "sensor" linkName = "Link7" />
    <neuron name = "5" type = "motor"  jointName = "Link0_Link1" />
    <neuron name = "6" type = "motor"  jointName = "Link1_Link2" />
    <neuron name = "7" type = "motor"  jointName = "Link1_Link3" />
    <neuron name = "8" type = "motor"  jointName = "Link2_Link4" />
    <neuron name = "9" type = "motor"  jointName = "Link1_Link5" />
    <neuron name = "10" type = "motor"  jointName = "Link1_Link6" />
    <neuron name = "11" type = "motor"  jointName = "Link6_Link7" />
    <neuron name = "12" type = "motor"  jointName = "Link0_Link8" />
    <neuron name = "13" type = "motor"  jointName = "Link0_Link9" />
    <synapse sourceNeuronName = "0" targetNeuronName = "5" weight = "-0.9448066914392768" />
    <synapse sourceNeuronName = "0" targetNeuronName = "6" weight = "0.9566634665610583" />
    <synapse sourceNeuronName = "0" targetNeuronName = "7" weight = "0.8600643177085834" />
    <synapse sourceNeuronName = "0" targetNeuronName = "8" weight = "-0.6077678098029795" />
    <synapse sourceNeuronName = "0" targetNeuronName = "9" weight = "0.5222945744210248" />
    <synapse sourceNeuronName = "0" targetNeuronName = "10" weight = "0.8572288018171108" />
    <synapse sourceNeuronName = "0" targetNeuronName = "11" weight = "0.884226386436942" />
    <synapse sourceNeuronName = "0" targetNeuronName = "12" weight = "0.8121262401897822" />
    <synapse sourceNeuronName = "0" targetNeuronName = "13" weight = "-0.6724601247232671" />
    <synapse sourceNeuronName = "1" targetNeuronName = "5" weight = "0.17287436221843677" />
    <synapse sourceNeuronName = "1" targetNeuronName = "6" weight = "-0.3666656870458378" />
    <synapse sourceNeuronName = "1" targetNeuronName = "7" weight = "0.7897223663235571" />
    <synapse sourceNeuronName = "1" targetNeuronName = "8" weight = "0.7159674737185093" />
    <synapse sourceNeuronName = "1" targetNeuronName = "9" weight = "-0.08266934424534478" />
    <synapse sourceNeuronName = "1" targetNeuronName = "10" weight = "0.6031682104142086" />
    <synapse sourceNeuronName = "1" targetNeuronName = "11" weight = "-0.15503046742591353" />
    <synapse sourceNeuronName = "1" targetNeuronName = "12" weight = "-0.9674174747788031" />
    <synapse sourceNeuronName = "1" targetNeuronName = "13" weight = "0.9845296770493335" />
    <synapse sourceNeuronName = "2" targetNeuronName = "5" weight = "0.9458851067293836" />
    <synapse sourceNeuronName = "2" targetNeuronName = "6" weight = "0.1897986616254559" />
    <synapse sourceNeuronName = "2" targetNeuronName = "7" weight = "0.05722845164197299" />
    <synapse sourceNeuronName = "2" targetNeuronName = "8" weight = "0.949142336990231" />
    <synapse sourceNeuronName = "2" targetNeuronName = "9" weight = "-0.0470035930333248" />
    <synapse sourceNeuronName = "2" targetNeuronName = "10" weight = "0.07958609291537755" />
    <synapse sourceNeuronName = "2" targetNeuronName = "11" weight = "0.20987656259288645" />
    <synapse sourceNeuronName = "2" targetNeuronName = "12" weight = "-0.8141256291823211" />
    <synapse sourceNeuronName = "2" targetNeuronName = "13" weight = "-0.05213086517925536" />
    <synapse sourceNeuronName = "3" targetNeuronName = "5" weight = "0.6731121535214206" />
    <synapse sourceNeuronName = "3" targetNeuronName = "6" weight = "0.5340504306567144" />
    <synapse sourceNeuronName = "3" targetNeuronName = "7" weight = "0.027274738181890967" />
    <synapse sourceNeuronName = "3" targetNeuronName = "8" weight = "0.031551579076005476" />
    <synapse sourceNeuronName = "3" targetNeuronName = "9" weight = "-0.9599574107206763" />
    <synapse sourceNeuronName = "3" targetNeuronName = "10" weight = "-0.055601442792794886" />
    <synapse sourceNeuronName = "3" targetNeuronName = "11" weight = "-0.39748533961448484" />
    <synapse sourceNeuronName = "3" targetNeuronName = "12" weight = "-0.7516427146501863" />
    <synapse sourceNeuronName = "3" targetNeuronName = "13" weight = "-0.9185947058022095" />
    <synapse sourceNeuronName = "4" targetNeuronName = "5" weight = "-0.16591713786291185" />
    <synapse sourceNeuronName = "4" targetNeuronName = "6" weight = "-0.035434735048001986" />
    <synapse sourceNeuronName = "4" targetNeuronName = "7" weight = "0.6534164598918062" />
    <synapse sourceNeuronName = "4" targetNeuronName = "8" weight = "0.041532403942133644" />
    <synapse sourceNeuronName = "4" targetNeuronName = "9" weight = "0.03334909743379333" />
    <synapse sourceNeuronName = "4" targetNeuronName = "10" weight = "-0.4322692631054912" />
    <synapse sourceNeuronName = "4" targetNeuronName = "11" weight = "0.7755320159148982" />
    <synapse sourceNeuronName = "4" targetNeuronName = "12" weight = "0.5289062772069564" />
    <synapse sourceNeuronName = "4" targetNeuronName = "13" weight = "-0.3409172042768913" />
</neuralNetwork>