<neuralNetwork>
    <neuron name = "0" type = "sensor" linkName = "Link0" />
    <neuron name = "1" type = "sensor" linkName = "Link2" />
    <neuron name = "2" type = "sensor" linkName = "Link4" />
    <neuron name = "3" type = "sensor" linkName = "Link7" />
    <neuron name = "4" type = "motor"  jointName = "Link0_Link1" />
    <neuron name = "5" type = "motor"  jointName = "Link0_Link2" />
    <neuron name = "6" type = "motor"  jointName = "Link2_Link3" />
    <neuron name = "7" type = "motor"  jointName = "Link0_Link4" />
    <neuron name = "8" type = "motor"  jointName = "Link0_Link5" />
    <neuron name = "9" type = "motor"  jointName = "Link0_Link6" />
    <neuron name = "10" type = "motor"  jointName = "Link4_Link7" />
    <synapse sourceNeuronName = "0" targetNeuronName = "4" weight = "0.4273494167729859" />
    <synapse sourceNeuronName = "0" targetNeuronName = "5" weight = "-0.6408806451498332" />
    <synapse sourceNeuronName = "0" targetNeuronName = "6" weight = "0.11218312963512722" />
    <synapse sourceNeuronName = "0" targetNeuronName = "7" weight = "-0.16484201745051785" />
    <synapse sourceNeuronName = "0" targetNeuronName = "8" weight = "-0.43073504610650226" />
    <synapse sourceNeuronName = "0" targetNeuronName = "9" weight = "0.5323162150088458" />
    <synapse sourceNeuronName = "0" targetNeuronName = "10" weight = "0.19708564419831776" />
    <synapse sourceNeuronName = "1" targetNeuronName = "4" weight = "-0.9570772818385767" />
    <synapse sourceNeuronName = "1" targetNeuronName = "5" weight = "0.7071026648329655" />
    <synapse sourceNeuronName = "1" targetNeuronName = "6" weight = "0.9154950206460313" />
    <synapse sourceNeuronName = "1" targetNeuronName = "7" weight = "-0.2861045549394985" />
    <synapse sourceNeuronName = "1" targetNeuronName = "8" weight = "-0.6424497550503738" />
    <synapse sourceNeuronName = "1" targetNeuronName = "9" weight = "-0.77752969788188" />
    <synapse sourceNeuronName = "1" targetNeuronName = "10" weight = "0.8034996925752012" />
    <synapse sourceNeuronName = "2" targetNeuronName = "4" weight = "-0.34776589082843934" />
    <synapse sourceNeuronName = "2" targetNeuronName = "5" weight = "0.5998387256891153" />
    <synapse sourceNeuronName = "2" targetNeuronName = "6" weight = "-0.3965049415288482" />
    <synapse sourceNeuronName = "2" targetNeuronName = "7" weight = "0.7576823384319695" />
    <synapse sourceNeuronName = "2" targetNeuronName = "8" weight = "0.09364023735985794" />
    <synapse sourceNeuronName = "2" targetNeuronName = "9" weight = "-0.21171168227197867" />
    <synapse sourceNeuronName = "2" targetNeuronName = "10" weight = "-0.6650418265851543" />
    <synapse sourceNeuronName = "3" targetNeuronName = "4" weight = "-0.013397130634711374" />
    <synapse sourceNeuronName = "3" targetNeuronName = "5" weight = "0.7875082191643485" />
    <synapse sourceNeuronName = "3" targetNeuronName = "6" weight = "-0.5896795681769478" />
    <synapse sourceNeuronName = "3" targetNeuronName = "7" weight = "-0.7414869364306254" />
    <synapse sourceNeuronName = "3" targetNeuronName = "8" weight = "-0.078656952747989" />
    <synapse sourceNeuronName = "3" targetNeuronName = "9" weight = "-0.49515724451208887" />
    <synapse sourceNeuronName = "3" targetNeuronName = "10" weight = "-0.6042231555652855" />
</neuralNetwork>