<neuralNetwork>
    <neuron name = "0" type = "sensor" linkName = "Link1" />
    <neuron name = "1" type = "sensor" linkName = "Link2" />
    <neuron name = "2" type = "sensor" linkName = "Link5" />
    <neuron name = "3" type = "sensor" linkName = "Link6" />
    <neuron name = "4" type = "sensor" linkName = "Link7" />
    <neuron name = "5" type = "sensor" linkName = "Link8" />
    <neuron name = "6" type = "sensor" linkName = "Link9" />
    <neuron name = "7" type = "motor"  jointName = "Link0_Link1" />
    <neuron name = "8" type = "motor"  jointName = "Link1_Link2" />
    <neuron name = "9" type = "motor"  jointName = "Link0_Link3" />
    <neuron name = "10" type = "motor"  jointName = "Link2_Link4" />
    <neuron name = "11" type = "motor"  jointName = "Link1_Link5" />
    <neuron name = "12" type = "motor"  jointName = "Link0_Link6" />
    <neuron name = "13" type = "motor"  jointName = "Link2_Link7" />
    <neuron name = "14" type = "motor"  jointName = "Link2_Link8" />
    <neuron name = "15" type = "motor"  jointName = "Link4_Link9" />
    <synapse sourceNeuronName = "0" targetNeuronName = "7" weight = "0.8092698969853052" />
    <synapse sourceNeuronName = "0" targetNeuronName = "8" weight = "-0.257355831631908" />
    <synapse sourceNeuronName = "0" targetNeuronName = "9" weight = "-0.1557467698204682" />
    <synapse sourceNeuronName = "0" targetNeuronName = "10" weight = "0.5688221354851479" />
    <synapse sourceNeuronName = "0" targetNeuronName = "11" weight = "-0.4035265599345248" />
    <synapse sourceNeuronName = "0" targetNeuronName = "12" weight = "-0.9447642880300351" />
    <synapse sourceNeuronName = "0" targetNeuronName = "13" weight = "0.26685679752382274" />
    <synapse sourceNeuronName = "0" targetNeuronName = "14" weight = "-0.2063784016377419" />
    <synapse sourceNeuronName = "0" targetNeuronName = "15" weight = "0.7648862641310981" />
    <synapse sourceNeuronName = "1" targetNeuronName = "7" weight = "-0.9082277031658927" />
    <synapse sourceNeuronName = "1" targetNeuronName = "8" weight = "0.1424385129867758" />
    <synapse sourceNeuronName = "1" targetNeuronName = "9" weight = "-0.07849911883113614" />
    <synapse sourceNeuronName = "1" targetNeuronName = "10" weight = "0.6939450194564551" />
    <synapse sourceNeuronName = "1" targetNeuronName = "11" weight = "0.9256745969083588" />
    <synapse sourceNeuronName = "1" targetNeuronName = "12" weight = "-0.5907002922386426" />
    <synapse sourceNeuronName = "1" targetNeuronName = "13" weight = "0.10676625480887658" />
    <synapse sourceNeuronName = "1" targetNeuronName = "14" weight = "0.8478501580907647" />
    <synapse sourceNeuronName = "1" targetNeuronName = "15" weight = "0.9230040695409143" />
    <synapse sourceNeuronName = "2" targetNeuronName = "7" weight = "-0.8931371267114472" />
    <synapse sourceNeuronName = "2" targetNeuronName = "8" weight = "-0.5389196134355394" />
    <synapse sourceNeuronName = "2" targetNeuronName = "9" weight = "-0.8173241054928007" />
    <synapse sourceNeuronName = "2" targetNeuronName = "10" weight = "-0.4075007975296481" />
    <synapse sourceNeuronName = "2" targetNeuronName = "11" weight = "0.05541870952217609" />
    <synapse sourceNeuronName = "2" targetNeuronName = "12" weight = "-0.6197935629821558" />
    <synapse sourceNeuronName = "2" targetNeuronName = "13" weight = "0.12774885234470612" />
    <synapse sourceNeuronName = "2" targetNeuronName = "14" weight = "0.23515724089108714" />
    <synapse sourceNeuronName = "2" targetNeuronName = "15" weight = "0.8212109686173961" />
    <synapse sourceNeuronName = "3" targetNeuronName = "7" weight = "-0.02137597473596986" />
    <synapse sourceNeuronName = "3" targetNeuronName = "8" weight = "0.9368656848156474" />
    <synapse sourceNeuronName = "3" targetNeuronName = "9" weight = "0.46192585180998336" />
    <synapse sourceNeuronName = "3" targetNeuronName = "10" weight = "0.03193070669262421" />
    <synapse sourceNeuronName = "3" targetNeuronName = "11" weight = "-0.9786566986394998" />
    <synapse sourceNeuronName = "3" targetNeuronName = "12" weight = "-0.11871973694806215" />
    <synapse sourceNeuronName = "3" targetNeuronName = "13" weight = "0.39700055142046575" />
    <synapse sourceNeuronName = "3" targetNeuronName = "14" weight = "0.4149339971409134" />
    <synapse sourceNeuronName = "3" targetNeuronName = "15" weight = "0.8085086895263691" />
    <synapse sourceNeuronName = "4" targetNeuronName = "7" weight = "0.606253970410195" />
    <synapse sourceNeuronName = "4" targetNeuronName = "8" weight = "0.5709355473285107" />
    <synapse sourceNeuronName = "4" targetNeuronName = "9" weight = "-0.9983022900921263" />
    <synapse sourceNeuronName = "4" targetNeuronName = "10" weight = "0.5611962794693868" />
    <synapse sourceNeuronName = "4" targetNeuronName = "11" weight = "-0.7649887786654697" />
    <synapse sourceNeuronName = "4" targetNeuronName = "12" weight = "0.6113670687074677" />
    <synapse sourceNeuronName = "4" targetNeuronName = "13" weight = "0.8870525629020565" />
    <synapse sourceNeuronName = "4" targetNeuronName = "14" weight = "0.4164102569941417" />
    <synapse sourceNeuronName = "4" targetNeuronName = "15" weight = "-0.896404410284759" />
    <synapse sourceNeuronName = "5" targetNeuronName = "7" weight = "0.2359069427050764" />
    <synapse sourceNeuronName = "5" targetNeuronName = "8" weight = "-0.8767232908759044" />
    <synapse sourceNeuronName = "5" targetNeuronName = "9" weight = "0.86980381245805" />
    <synapse sourceNeuronName = "5" targetNeuronName = "10" weight = "0.11535056133786781" />
    <synapse sourceNeuronName = "5" targetNeuronName = "11" weight = "-0.465524713019972" />
    <synapse sourceNeuronName = "5" targetNeuronName = "12" weight = "0.7697070313285841" />
    <synapse sourceNeuronName = "5" targetNeuronName = "13" weight = "-0.34976068104490765" />
    <synapse sourceNeuronName = "5" targetNeuronName = "14" weight = "0.6878969038405205" />
    <synapse sourceNeuronName = "5" targetNeuronName = "15" weight = "-0.6171534557987075" />
    <synapse sourceNeuronName = "6" targetNeuronName = "7" weight = "-0.029113313887358716" />
    <synapse sourceNeuronName = "6" targetNeuronName = "8" weight = "-0.8794439924109645" />
    <synapse sourceNeuronName = "6" targetNeuronName = "9" weight = "0.48990855357717766" />
    <synapse sourceNeuronName = "6" targetNeuronName = "10" weight = "0.42324309927877146" />
    <synapse sourceNeuronName = "6" targetNeuronName = "11" weight = "0.374243078067761" />
    <synapse sourceNeuronName = "6" targetNeuronName = "12" weight = "0.5481067896636778" />
    <synapse sourceNeuronName = "6" targetNeuronName = "13" weight = "0.24639825248102132" />
    <synapse sourceNeuronName = "6" targetNeuronName = "14" weight = "-0.30104375054830634" />
    <synapse sourceNeuronName = "6" targetNeuronName = "15" weight = "-0.10112061146596818" />
</neuralNetwork>