<neuralNetwork>
    <neuron name = "0" type = "sensor" linkName = "Link1" />
    <neuron name = "1" type = "sensor" linkName = "Link2" />
    <neuron name = "2" type = "sensor" linkName = "Link5" />
    <neuron name = "3" type = "sensor" linkName = "Link6" />
    <neuron name = "4" type = "sensor" linkName = "Link8" />
    <neuron name = "5" type = "motor"  jointName = "Link0_Link1" />
    <neuron name = "6" type = "motor"  jointName = "Link1_Link2" />
    <neuron name = "7" type = "motor"  jointName = "Link0_Link3" />
    <neuron name = "8" type = "motor"  jointName = "Link2_Link4" />
    <neuron name = "9" type = "motor"  jointName = "Link1_Link5" />
    <neuron name = "10" type = "motor"  jointName = "Link0_Link6" />
    <neuron name = "11" type = "motor"  jointName = "Link1_Link7" />
    <neuron name = "12" type = "motor"  jointName = "Link5_Link8" />
    <neuron name = "13" type = "motor"  jointName = "Link0_Link9" />
    <neuron name = "14" type = "motor"  jointName = "Link8_Link10" />
    <synapse sourceNeuronName = "0" targetNeuronName = "5" weight = "0.05976251896726348" />
    <synapse sourceNeuronName = "0" targetNeuronName = "6" weight = "0.916634752199541" />
    <synapse sourceNeuronName = "0" targetNeuronName = "7" weight = "0.1413791066115948" />
    <synapse sourceNeuronName = "0" targetNeuronName = "8" weight = "-0.40763894305745163" />
    <synapse sourceNeuronName = "0" targetNeuronName = "9" weight = "0.10723674812940964" />
    <synapse sourceNeuronName = "0" targetNeuronName = "10" weight = "-0.108778299016973" />
    <synapse sourceNeuronName = "0" targetNeuronName = "11" weight = "-0.1067690090285427" />
    <synapse sourceNeuronName = "0" targetNeuronName = "12" weight = "0.983951190206932" />
    <synapse sourceNeuronName = "0" targetNeuronName = "13" weight = "-0.43799136971305686" />
    <synapse sourceNeuronName = "0" targetNeuronName = "14" weight = "-0.5631948096481105" />
    <synapse sourceNeuronName = "1" targetNeuronName = "5" weight = "-0.5734690324610994" />
    <synapse sourceNeuronName = "1" targetNeuronName = "6" weight = "0.046317623437825084" />
    <synapse sourceNeuronName = "1" targetNeuronName = "7" weight = "-0.5166458283308646" />
    <synapse sourceNeuronName = "1" targetNeuronName = "8" weight = "0.5446619407070719" />
    <synapse sourceNeuronName = "1" targetNeuronName = "9" weight = "-0.6504539248342474" />
    <synapse sourceNeuronName = "1" targetNeuronName = "10" weight = "-0.39260096138472744" />
    <synapse sourceNeuronName = "1" targetNeuronName = "11" weight = "-0.5056506558176386" />
    <synapse sourceNeuronName = "1" targetNeuronName = "12" weight = "0.24984609653882894" />
    <synapse sourceNeuronName = "1" targetNeuronName = "13" weight = "-0.7778044262265249" />
    <synapse sourceNeuronName = "1" targetNeuronName = "14" weight = "0.9431144787500987" />
    <synapse sourceNeuronName = "2" targetNeuronName = "5" weight = "-0.7108419473336811" />
    <synapse sourceNeuronName = "2" targetNeuronName = "6" weight = "-0.9524328028514277" />
    <synapse sourceNeuronName = "2" targetNeuronName = "7" weight = "-0.5734308542730551" />
    <synapse sourceNeuronName = "2" targetNeuronName = "8" weight = "0.8407308426016025" />
    <synapse sourceNeuronName = "2" targetNeuronName = "9" weight = "0.9640258559428461" />
    <synapse sourceNeuronName = "2" targetNeuronName = "10" weight = "-0.5627624824128619" />
    <synapse sourceNeuronName = "2" targetNeuronName = "11" weight = "-0.6982766358428578" />
    <synapse sourceNeuronName = "2" targetNeuronName = "12" weight = "-0.13808802755779692" />
    <synapse sourceNeuronName = "2" targetNeuronName = "13" weight = "-0.03447090628047955" />
    <synapse sourceNeuronName = "2" targetNeuronName = "14" weight = "-0.21064124488498215" />
    <synapse sourceNeuronName = "3" targetNeuronName = "5" weight = "-0.32740102591825027" />
    <synapse sourceNeuronName = "3" targetNeuronName = "6" weight = "0.08027446498119639" />
    <synapse sourceNeuronName = "3" targetNeuronName = "7" weight = "-0.19766515969538956" />
    <synapse sourceNeuronName = "3" targetNeuronName = "8" weight = "-0.5890057716845878" />
    <synapse sourceNeuronName = "3" targetNeuronName = "9" weight = "-0.9564152742804679" />
    <synapse sourceNeuronName = "3" targetNeuronName = "10" weight = "-0.45926563586661406" />
    <synapse sourceNeuronName = "3" targetNeuronName = "11" weight = "0.4056417168120956" />
    <synapse sourceNeuronName = "3" targetNeuronName = "12" weight = "-0.554656253891503" />
    <synapse sourceNeuronName = "3" targetNeuronName = "13" weight = "0.435790320370248" />
    <synapse sourceNeuronName = "3" targetNeuronName = "14" weight = "0.48337841553042304" />
    <synapse sourceNeuronName = "4" targetNeuronName = "5" weight = "-0.40482392465669204" />
    <synapse sourceNeuronName = "4" targetNeuronName = "6" weight = "-0.0024818446560104235" />
    <synapse sourceNeuronName = "4" targetNeuronName = "7" weight = "0.04768230610803248" />
    <synapse sourceNeuronName = "4" targetNeuronName = "8" weight = "-0.4351251255474051" />
    <synapse sourceNeuronName = "4" targetNeuronName = "9" weight = "-0.06909399406248551" />
    <synapse sourceNeuronName = "4" targetNeuronName = "10" weight = "0.26962122904424635" />
    <synapse sourceNeuronName = "4" targetNeuronName = "11" weight = "-0.8115660837294969" />
    <synapse sourceNeuronName = "4" targetNeuronName = "12" weight = "0.9109304202452493" />
    <synapse sourceNeuronName = "4" targetNeuronName = "13" weight = "0.6635177211912968" />
    <synapse sourceNeuronName = "4" targetNeuronName = "14" weight = "0.6378925419618549" />
</neuralNetwork>