<neuralNetwork>
    <neuron name = "0" type = "sensor" linkName = "Link0" />
    <neuron name = "1" type = "sensor" linkName = "Link1" />
    <neuron name = "2" type = "sensor" linkName = "Link2" />
    <neuron name = "3" type = "sensor" linkName = "Link3" />
    <neuron name = "4" type = "sensor" linkName = "Link4" />
    <neuron name = "5" type = "sensor" linkName = "Link7" />
    <neuron name = "6" type = "motor"  jointName = "Link0_Link1" />
    <neuron name = "7" type = "motor"  jointName = "Link0_Link2" />
    <neuron name = "8" type = "motor"  jointName = "Link0_Link3" />
    <neuron name = "9" type = "motor"  jointName = "Link1_Link4" />
    <neuron name = "10" type = "motor"  jointName = "Link4_Link5" />
    <neuron name = "11" type = "motor"  jointName = "Link1_Link6" />
    <neuron name = "12" type = "motor"  jointName = "Link1_Link7" />
    <synapse sourceNeuronName = "0" targetNeuronName = "6" weight = "-0.6726645439625263" />
    <synapse sourceNeuronName = "0" targetNeuronName = "7" weight = "0.08102439586257204" />
    <synapse sourceNeuronName = "0" targetNeuronName = "8" weight = "-0.4095226303255495" />
    <synapse sourceNeuronName = "0" targetNeuronName = "9" weight = "-0.9647579042728027" />
    <synapse sourceNeuronName = "0" targetNeuronName = "10" weight = "-0.7143823961757483" />
    <synapse sourceNeuronName = "0" targetNeuronName = "11" weight = "-0.07905403337909678" />
    <synapse sourceNeuronName = "0" targetNeuronName = "12" weight = "0.047265093731433616" />
    <synapse sourceNeuronName = "1" targetNeuronName = "6" weight = "-0.21134382432631105" />
    <synapse sourceNeuronName = "1" targetNeuronName = "7" weight = "-0.6670488577066809" />
    <synapse sourceNeuronName = "1" targetNeuronName = "8" weight = "0.8524357524900843" />
    <synapse sourceNeuronName = "1" targetNeuronName = "9" weight = "0.36324318432914104" />
    <synapse sourceNeuronName = "1" targetNeuronName = "10" weight = "-0.7344551643655395" />
    <synapse sourceNeuronName = "1" targetNeuronName = "11" weight = "-0.410598334745486" />
    <synapse sourceNeuronName = "1" targetNeuronName = "12" weight = "0.27629093316854303" />
    <synapse sourceNeuronName = "2" targetNeuronName = "6" weight = "-0.4218691438200215" />
    <synapse sourceNeuronName = "2" targetNeuronName = "7" weight = "-0.6942087290562495" />
    <synapse sourceNeuronName = "2" targetNeuronName = "8" weight = "0.16861580530138198" />
    <synapse sourceNeuronName = "2" targetNeuronName = "9" weight = "0.4702417768600755" />
    <synapse sourceNeuronName = "2" targetNeuronName = "10" weight = "0.7758810594994643" />
    <synapse sourceNeuronName = "2" targetNeuronName = "11" weight = "-0.4472669599620349" />
    <synapse sourceNeuronName = "2" targetNeuronName = "12" weight = "-0.11771664366502188" />
    <synapse sourceNeuronName = "3" targetNeuronName = "6" weight = "0.9550444271911305" />
    <synapse sourceNeuronName = "3" targetNeuronName = "7" weight = "0.14895235349620362" />
    <synapse sourceNeuronName = "3" targetNeuronName = "8" weight = "0.28760059645399916" />
    <synapse sourceNeuronName = "3" targetNeuronName = "9" weight = "-0.8755048050488943" />
    <synapse sourceNeuronName = "3" targetNeuronName = "10" weight = "0.7499713761906881" />
    <synapse sourceNeuronName = "3" targetNeuronName = "11" weight = "-0.9461069798662616" />
    <synapse sourceNeuronName = "3" targetNeuronName = "12" weight = "-0.991279217898942" />
    <synapse sourceNeuronName = "4" targetNeuronName = "6" weight = "-0.8435320193831053" />
    <synapse sourceNeuronName = "4" targetNeuronName = "7" weight = "0.2302562438645832" />
    <synapse sourceNeuronName = "4" targetNeuronName = "8" weight = "-0.9034825022585538" />
    <synapse sourceNeuronName = "4" targetNeuronName = "9" weight = "-0.0790800006982928" />
    <synapse sourceNeuronName = "4" targetNeuronName = "10" weight = "0.9909787457359847" />
    <synapse sourceNeuronName = "4" targetNeuronName = "11" weight = "-0.06011789481571195" />
    <synapse sourceNeuronName = "4" targetNeuronName = "12" weight = "-0.6918644725878809" />
    <synapse sourceNeuronName = "5" targetNeuronName = "6" weight = "-0.5445978939490907" />
    <synapse sourceNeuronName = "5" targetNeuronName = "7" weight = "0.5982849593161874" />
    <synapse sourceNeuronName = "5" targetNeuronName = "8" weight = "-0.48712496350466283" />
    <synapse sourceNeuronName = "5" targetNeuronName = "9" weight = "0.16655286950718295" />
    <synapse sourceNeuronName = "5" targetNeuronName = "10" weight = "-0.9696074221361515" />
    <synapse sourceNeuronName = "5" targetNeuronName = "11" weight = "0.26395627926345244" />
    <synapse sourceNeuronName = "5" targetNeuronName = "12" weight = "-0.45424912198959455" />
</neuralNetwork>