<neuralNetwork>
    <neuron name = "0" type = "sensor" linkName = "Link1" />
    <neuron name = "1" type = "sensor" linkName = "Link2" />
    <neuron name = "2" type = "sensor" linkName = "Link5" />
    <neuron name = "3" type = "sensor" linkName = "Link6" />
    <neuron name = "4" type = "sensor" linkName = "Link7" />
    <neuron name = "5" type = "sensor" linkName = "Link8" />
    <neuron name = "6" type = "sensor" linkName = "Link9" />
    <neuron name = "7" type = "motor"  jointName = "Link0_Link1" />
    <neuron name = "8" type = "motor"  jointName = "Link1_Link2" />
    <neuron name = "9" type = "motor"  jointName = "Link0_Link3" />
    <neuron name = "10" type = "motor"  jointName = "Link2_Link4" />
    <neuron name = "11" type = "motor"  jointName = "Link1_Link5" />
    <neuron name = "12" type = "motor"  jointName = "Link0_Link6" />
    <neuron name = "13" type = "motor"  jointName = "Link2_Link7" />
    <neuron name = "14" type = "motor"  jointName = "Link2_Link8" />
    <neuron name = "15" type = "motor"  jointName = "Link1_Link9" />
    <synapse sourceNeuronName = "0" targetNeuronName = "7" weight = "0.7202023945960578" />
    <synapse sourceNeuronName = "0" targetNeuronName = "8" weight = "0.013851534230119755" />
    <synapse sourceNeuronName = "0" targetNeuronName = "9" weight = "-0.49855213838372503" />
    <synapse sourceNeuronName = "0" targetNeuronName = "10" weight = "0.4982876020371141" />
    <synapse sourceNeuronName = "0" targetNeuronName = "11" weight = "-0.8250184989092155" />
    <synapse sourceNeuronName = "0" targetNeuronName = "12" weight = "-0.36308933023494316" />
    <synapse sourceNeuronName = "0" targetNeuronName = "13" weight = "-0.6127650084449772" />
    <synapse sourceNeuronName = "0" targetNeuronName = "14" weight = "0.1631505776627178" />
    <synapse sourceNeuronName = "0" targetNeuronName = "15" weight = "0.6339478381410337" />
    <synapse sourceNeuronName = "1" targetNeuronName = "7" weight = "0.34573155061616223" />
    <synapse sourceNeuronName = "1" targetNeuronName = "8" weight = "0.42400332600962365" />
    <synapse sourceNeuronName = "1" targetNeuronName = "9" weight = "-0.8820996098320402" />
    <synapse sourceNeuronName = "1" targetNeuronName = "10" weight = "0.2857971143441238" />
    <synapse sourceNeuronName = "1" targetNeuronName = "11" weight = "0.4510076331370527" />
    <synapse sourceNeuronName = "1" targetNeuronName = "12" weight = "0.5002341097996643" />
    <synapse sourceNeuronName = "1" targetNeuronName = "13" weight = "-0.6771540942445409" />
    <synapse sourceNeuronName = "1" targetNeuronName = "14" weight = "0.9081342081462782" />
    <synapse sourceNeuronName = "1" targetNeuronName = "15" weight = "-0.6385437628571051" />
    <synapse sourceNeuronName = "2" targetNeuronName = "7" weight = "-0.525843693300093" />
    <synapse sourceNeuronName = "2" targetNeuronName = "8" weight = "-0.33280903529923744" />
    <synapse sourceNeuronName = "2" targetNeuronName = "9" weight = "-0.44302784150521335" />
    <synapse sourceNeuronName = "2" targetNeuronName = "10" weight = "0.6841835316423928" />
    <synapse sourceNeuronName = "2" targetNeuronName = "11" weight = "-0.19513300871181172" />
    <synapse sourceNeuronName = "2" targetNeuronName = "12" weight = "0.8023718350871041" />
    <synapse sourceNeuronName = "2" targetNeuronName = "13" weight = "0.6816847452261527" />
    <synapse sourceNeuronName = "2" targetNeuronName = "14" weight = "-0.04024137886208834" />
    <synapse sourceNeuronName = "2" targetNeuronName = "15" weight = "-0.4870115701431976" />
    <synapse sourceNeuronName = "3" targetNeuronName = "7" weight = "0.07390369073032788" />
    <synapse sourceNeuronName = "3" targetNeuronName = "8" weight = "-0.4004265515006422" />
    <synapse sourceNeuronName = "3" targetNeuronName = "9" weight = "0.214981549654911" />
    <synapse sourceNeuronName = "3" targetNeuronName = "10" weight = "0.008851142817418944" />
    <synapse sourceNeuronName = "3" targetNeuronName = "11" weight = "-0.12294405577699341" />
    <synapse sourceNeuronName = "3" targetNeuronName = "12" weight = "-0.6032252242110634" />
    <synapse sourceNeuronName = "3" targetNeuronName = "13" weight = "0.5226460124312937" />
    <synapse sourceNeuronName = "3" targetNeuronName = "14" weight = "-0.7667556084064571" />
    <synapse sourceNeuronName = "3" targetNeuronName = "15" weight = "0.49322521821405596" />
    <synapse sourceNeuronName = "4" targetNeuronName = "7" weight = "0.4443072734112232" />
    <synapse sourceNeuronName = "4" targetNeuronName = "8" weight = "-0.32310048373078937" />
    <synapse sourceNeuronName = "4" targetNeuronName = "9" weight = "-0.6589145772880005" />
    <synapse sourceNeuronName = "4" targetNeuronName = "10" weight = "0.5020203541851382" />
    <synapse sourceNeuronName = "4" targetNeuronName = "11" weight = "0.8700298620395293" />
    <synapse sourceNeuronName = "4" targetNeuronName = "12" weight = "-0.2886714053656163" />
    <synapse sourceNeuronName = "4" targetNeuronName = "13" weight = "0.39218246664830114" />
    <synapse sourceNeuronName = "4" targetNeuronName = "14" weight = "0.5423504022958923" />
    <synapse sourceNeuronName = "4" targetNeuronName = "15" weight = "0.8363594566705082" />
    <synapse sourceNeuronName = "5" targetNeuronName = "7" weight = "0.7698661249269241" />
    <synapse sourceNeuronName = "5" targetNeuronName = "8" weight = "0.988762442945677" />
    <synapse sourceNeuronName = "5" targetNeuronName = "9" weight = "0.6302502083245185" />
    <synapse sourceNeuronName = "5" targetNeuronName = "10" weight = "0.5874324899439474" />
    <synapse sourceNeuronName = "5" targetNeuronName = "11" weight = "0.9832480703728859" />
    <synapse sourceNeuronName = "5" targetNeuronName = "12" weight = "-0.8474320146498968" />
    <synapse sourceNeuronName = "5" targetNeuronName = "13" weight = "-0.8253061013452696" />
    <synapse sourceNeuronName = "5" targetNeuronName = "14" weight = "-0.6789973520979888" />
    <synapse sourceNeuronName = "5" targetNeuronName = "15" weight = "-0.710341231132412" />
    <synapse sourceNeuronName = "6" targetNeuronName = "7" weight = "-0.36576409359982387" />
    <synapse sourceNeuronName = "6" targetNeuronName = "8" weight = "-0.7900107593554992" />
    <synapse sourceNeuronName = "6" targetNeuronName = "9" weight = "-0.25664501912996895" />
    <synapse sourceNeuronName = "6" targetNeuronName = "10" weight = "0.8167540106030569" />
    <synapse sourceNeuronName = "6" targetNeuronName = "11" weight = "0.016683476894988836" />
    <synapse sourceNeuronName = "6" targetNeuronName = "12" weight = "0.20256450589992436" />
    <synapse sourceNeuronName = "6" targetNeuronName = "13" weight = "-0.8624285993455139" />
    <synapse sourceNeuronName = "6" targetNeuronName = "14" weight = "-0.2352986709419047" />
    <synapse sourceNeuronName = "6" targetNeuronName = "15" weight = "0.41438012043081573" />
</neuralNetwork>