<neuralNetwork>
    <neuron name = "0" type = "sensor" linkName = "Link2" />
    <neuron name = "1" type = "sensor" linkName = "Link3" />
    <neuron name = "2" type = "sensor" linkName = "Link4" />
    <neuron name = "3" type = "sensor" linkName = "Link6" />
    <neuron name = "4" type = "sensor" linkName = "Link7" />
    <neuron name = "5" type = "motor"  jointName = "Link0_Link1" />
    <neuron name = "6" type = "motor"  jointName = "Link1_Link2" />
    <neuron name = "7" type = "motor"  jointName = "Link1_Link3" />
    <neuron name = "8" type = "motor"  jointName = "Link2_Link4" />
    <neuron name = "9" type = "motor"  jointName = "Link1_Link5" />
    <neuron name = "10" type = "motor"  jointName = "Link1_Link6" />
    <neuron name = "11" type = "motor"  jointName = "Link6_Link7" />
    <neuron name = "12" type = "motor"  jointName = "Link0_Link8" />
    <neuron name = "13" type = "motor"  jointName = "Link0_Link9" />
    <neuron name = "14" type = "motor"  jointName = "Link9_Link10" />
    <synapse sourceNeuronName = "0" targetNeuronName = "5" weight = "0.9509928568681736" />
    <synapse sourceNeuronName = "0" targetNeuronName = "6" weight = "-0.8819281541709019" />
    <synapse sourceNeuronName = "0" targetNeuronName = "7" weight = "0.4509344600301506" />
    <synapse sourceNeuronName = "0" targetNeuronName = "8" weight = "-0.44211284246885696" />
    <synapse sourceNeuronName = "0" targetNeuronName = "9" weight = "-0.7861103028934342" />
    <synapse sourceNeuronName = "0" targetNeuronName = "10" weight = "0.6502352842448662" />
    <synapse sourceNeuronName = "0" targetNeuronName = "11" weight = "-0.677577850417775" />
    <synapse sourceNeuronName = "0" targetNeuronName = "12" weight = "-0.8308913740675521" />
    <synapse sourceNeuronName = "0" targetNeuronName = "13" weight = "0.4349949458732185" />
    <synapse sourceNeuronName = "0" targetNeuronName = "14" weight = "0.42090319641093865" />
    <synapse sourceNeuronName = "1" targetNeuronName = "5" weight = "0.6961603678300765" />
    <synapse sourceNeuronName = "1" targetNeuronName = "6" weight = "-0.24698625477550085" />
    <synapse sourceNeuronName = "1" targetNeuronName = "7" weight = "0.5430870649074773" />
    <synapse sourceNeuronName = "1" targetNeuronName = "8" weight = "-0.33360629006899445" />
    <synapse sourceNeuronName = "1" targetNeuronName = "9" weight = "0.1780781678304677" />
    <synapse sourceNeuronName = "1" targetNeuronName = "10" weight = "0.43998674906818813" />
    <synapse sourceNeuronName = "1" targetNeuronName = "11" weight = "-0.26780032831652134" />
    <synapse sourceNeuronName = "1" targetNeuronName = "12" weight = "0.9383455445942885" />
    <synapse sourceNeuronName = "1" targetNeuronName = "13" weight = "-0.8032899476104669" />
    <synapse sourceNeuronName = "1" targetNeuronName = "14" weight = "0.9159440987518914" />
    <synapse sourceNeuronName = "2" targetNeuronName = "5" weight = "0.06143138729312381" />
    <synapse sourceNeuronName = "2" targetNeuronName = "6" weight = "-0.19440446574523285" />
    <synapse sourceNeuronName = "2" targetNeuronName = "7" weight = "0.14539539070955732" />
    <synapse sourceNeuronName = "2" targetNeuronName = "8" weight = "0.3008568887712546" />
    <synapse sourceNeuronName = "2" targetNeuronName = "9" weight = "0.6168766423109622" />
    <synapse sourceNeuronName = "2" targetNeuronName = "10" weight = "0.49321553379510363" />
    <synapse sourceNeuronName = "2" targetNeuronName = "11" weight = "0.18853999521938247" />
    <synapse sourceNeuronName = "2" targetNeuronName = "12" weight = "-0.896059145251433" />
    <synapse sourceNeuronName = "2" targetNeuronName = "13" weight = "-0.738196241821697" />
    <synapse sourceNeuronName = "2" targetNeuronName = "14" weight = "0.5911263172885757" />
    <synapse sourceNeuronName = "3" targetNeuronName = "5" weight = "-0.8231272920489376" />
    <synapse sourceNeuronName = "3" targetNeuronName = "6" weight = "-0.530423099949153" />
    <synapse sourceNeuronName = "3" targetNeuronName = "7" weight = "-0.43755283140208645" />
    <synapse sourceNeuronName = "3" targetNeuronName = "8" weight = "0.23653072028854738" />
    <synapse sourceNeuronName = "3" targetNeuronName = "9" weight = "0.45457259027278596" />
    <synapse sourceNeuronName = "3" targetNeuronName = "10" weight = "0.4114036445113487" />
    <synapse sourceNeuronName = "3" targetNeuronName = "11" weight = "-0.5180440553867072" />
    <synapse sourceNeuronName = "3" targetNeuronName = "12" weight = "0.21474605279741033" />
    <synapse sourceNeuronName = "3" targetNeuronName = "13" weight = "-0.5004879146544159" />
    <synapse sourceNeuronName = "3" targetNeuronName = "14" weight = "-0.1631874870359844" />
    <synapse sourceNeuronName = "4" targetNeuronName = "5" weight = "0.3786821752710823" />
    <synapse sourceNeuronName = "4" targetNeuronName = "6" weight = "0.7915426123396769" />
    <synapse sourceNeuronName = "4" targetNeuronName = "7" weight = "-0.4820209205492971" />
    <synapse sourceNeuronName = "4" targetNeuronName = "8" weight = "0.37849730703953965" />
    <synapse sourceNeuronName = "4" targetNeuronName = "9" weight = "-0.6334190468563012" />
    <synapse sourceNeuronName = "4" targetNeuronName = "10" weight = "0.9322983853267834" />
    <synapse sourceNeuronName = "4" targetNeuronName = "11" weight = "-0.5731472226261292" />
    <synapse sourceNeuronName = "4" targetNeuronName = "12" weight = "0.9184660149699257" />
    <synapse sourceNeuronName = "4" targetNeuronName = "13" weight = "-0.6184790631865438" />
    <synapse sourceNeuronName = "4" targetNeuronName = "14" weight = "0.9704638209750598" />
</neuralNetwork>