<neuralNetwork>
    <neuron name = "0" type = "sensor" linkName = "Link0" />
    <neuron name = "1" type = "sensor" linkName = "Link2" />
    <neuron name = "2" type = "sensor" linkName = "Link4" />
    <neuron name = "3" type = "sensor" linkName = "Link8" />
    <neuron name = "4" type = "motor"  jointName = "Link0_Link1" />
    <neuron name = "5" type = "motor"  jointName = "Link0_Link2" />
    <neuron name = "6" type = "motor"  jointName = "Link2_Link3" />
    <neuron name = "7" type = "motor"  jointName = "Link0_Link4" />
    <neuron name = "8" type = "motor"  jointName = "Link0_Link5" />
    <neuron name = "9" type = "motor"  jointName = "Link0_Link6" />
    <neuron name = "10" type = "motor"  jointName = "Link1_Link7" />
    <neuron name = "11" type = "motor"  jointName = "Link4_Link8" />
    <neuron name = "12" type = "motor"  jointName = "Link7_Link9" />
    <neuron name = "13" type = "motor"  jointName = "Link3_Link10" />
    <neuron name = "14" type = "motor"  jointName = "Link1_Link11" />
    <synapse sourceNeuronName = "0" targetNeuronName = "4" weight = "0.045974983489607046" />
    <synapse sourceNeuronName = "0" targetNeuronName = "5" weight = "-0.9423918796052111" />
    <synapse sourceNeuronName = "0" targetNeuronName = "6" weight = "-0.3770979265192822" />
    <synapse sourceNeuronName = "0" targetNeuronName = "7" weight = "0.47988664515660995" />
    <synapse sourceNeuronName = "0" targetNeuronName = "8" weight = "-0.07130520368172055" />
    <synapse sourceNeuronName = "0" targetNeuronName = "9" weight = "0.7435292695902971" />
    <synapse sourceNeuronName = "0" targetNeuronName = "10" weight = "0.8038150557745423" />
    <synapse sourceNeuronName = "0" targetNeuronName = "11" weight = "0.7392789211916964" />
    <synapse sourceNeuronName = "0" targetNeuronName = "12" weight = "0.6047625514337713" />
    <synapse sourceNeuronName = "0" targetNeuronName = "13" weight = "-0.19214245367548144" />
    <synapse sourceNeuronName = "0" targetNeuronName = "14" weight = "0.8008886700137905" />
    <synapse sourceNeuronName = "1" targetNeuronName = "4" weight = "-0.6258729122317432" />
    <synapse sourceNeuronName = "1" targetNeuronName = "5" weight = "0.44181299625348447" />
    <synapse sourceNeuronName = "1" targetNeuronName = "6" weight = "0.09176125281737613" />
    <synapse sourceNeuronName = "1" targetNeuronName = "7" weight = "-0.8234448171001618" />
    <synapse sourceNeuronName = "1" targetNeuronName = "8" weight = "-0.7653516650390342" />
    <synapse sourceNeuronName = "1" targetNeuronName = "9" weight = "0.15112961891556154" />
    <synapse sourceNeuronName = "1" targetNeuronName = "10" weight = "0.5856902085329159" />
    <synapse sourceNeuronName = "1" targetNeuronName = "11" weight = "-0.33992869844890583" />
    <synapse sourceNeuronName = "1" targetNeuronName = "12" weight = "0.519454922663843" />
    <synapse sourceNeuronName = "1" targetNeuronName = "13" weight = "-0.6804816219574468" />
    <synapse sourceNeuronName = "1" targetNeuronName = "14" weight = "0.47272349455278717" />
    <synapse sourceNeuronName = "2" targetNeuronName = "4" weight = "0.6166135165161495" />
    <synapse sourceNeuronName = "2" targetNeuronName = "5" weight = "-0.2019294927175308" />
    <synapse sourceNeuronName = "2" targetNeuronName = "6" weight = "-0.9506951784604332" />
    <synapse sourceNeuronName = "2" targetNeuronName = "7" weight = "-0.08887851502147992" />
    <synapse sourceNeuronName = "2" targetNeuronName = "8" weight = "0.23576145265667936" />
    <synapse sourceNeuronName = "2" targetNeuronName = "9" weight = "-0.5762432709557186" />
    <synapse sourceNeuronName = "2" targetNeuronName = "10" weight = "-0.42605792869391723" />
    <synapse sourceNeuronName = "2" targetNeuronName = "11" weight = "0.07193744266860835" />
    <synapse sourceNeuronName = "2" targetNeuronName = "12" weight = "-0.015545732378680732" />
    <synapse sourceNeuronName = "2" targetNeuronName = "13" weight = "0.32821455371525765" />
    <synapse sourceNeuronName = "2" targetNeuronName = "14" weight = "-0.2955506286267955" />
    <synapse sourceNeuronName = "3" targetNeuronName = "4" weight = "0.29865603764509485" />
    <synapse sourceNeuronName = "3" targetNeuronName = "5" weight = "-0.28633478868405127" />
    <synapse sourceNeuronName = "3" targetNeuronName = "6" weight = "-0.32198719657152175" />
    <synapse sourceNeuronName = "3" targetNeuronName = "7" weight = "0.5433608961919567" />
    <synapse sourceNeuronName = "3" targetNeuronName = "8" weight = "0.09906399839277014" />
    <synapse sourceNeuronName = "3" targetNeuronName = "9" weight = "0.6366314283032173" />
    <synapse sourceNeuronName = "3" targetNeuronName = "10" weight = "0.18181036534939654" />
    <synapse sourceNeuronName = "3" targetNeuronName = "11" weight = "0.5404284874308187" />
    <synapse sourceNeuronName = "3" targetNeuronName = "12" weight = "-0.4272102271269569" />
    <synapse sourceNeuronName = "3" targetNeuronName = "13" weight = "0.5828440263962749" />
    <synapse sourceNeuronName = "3" targetNeuronName = "14" weight = "0.5448933015219495" />
</neuralNetwork>