<neuralNetwork>
    <neuron name = "0" type = "sensor" linkName = "Link1" />
    <neuron name = "1" type = "sensor" linkName = "Link2" />
    <neuron name = "2" type = "sensor" linkName = "Link5" />
    <neuron name = "3" type = "sensor" linkName = "Link6" />
    <neuron name = "4" type = "sensor" linkName = "Link7" />
    <neuron name = "5" type = "motor"  jointName = "Link0_Link1" />
    <neuron name = "6" type = "motor"  jointName = "Link1_Link2" />
    <neuron name = "7" type = "motor"  jointName = "Link0_Link3" />
    <neuron name = "8" type = "motor"  jointName = "Link2_Link4" />
    <neuron name = "9" type = "motor"  jointName = "Link1_Link5" />
    <neuron name = "10" type = "motor"  jointName = "Link0_Link6" />
    <neuron name = "11" type = "motor"  jointName = "Link5_Link7" />
    <neuron name = "12" type = "motor"  jointName = "Link2_Link8" />
    <synapse sourceNeuronName = "0" targetNeuronName = "5" weight = "-0.04370999174989998" />
    <synapse sourceNeuronName = "0" targetNeuronName = "6" weight = "-0.883809979176877" />
    <synapse sourceNeuronName = "0" targetNeuronName = "7" weight = "0.3425764291120612" />
    <synapse sourceNeuronName = "0" targetNeuronName = "8" weight = "0.21956139338196445" />
    <synapse sourceNeuronName = "0" targetNeuronName = "9" weight = "0.3695801981015201" />
    <synapse sourceNeuronName = "0" targetNeuronName = "10" weight = "-0.8356333044035553" />
    <synapse sourceNeuronName = "0" targetNeuronName = "11" weight = "0.2620942467326737" />
    <synapse sourceNeuronName = "0" targetNeuronName = "12" weight = "-0.565987565745983" />
    <synapse sourceNeuronName = "1" targetNeuronName = "5" weight = "0.37183044274221455" />
    <synapse sourceNeuronName = "1" targetNeuronName = "6" weight = "0.5982695711039452" />
    <synapse sourceNeuronName = "1" targetNeuronName = "7" weight = "-0.10748120551747076" />
    <synapse sourceNeuronName = "1" targetNeuronName = "8" weight = "0.7340474795679597" />
    <synapse sourceNeuronName = "1" targetNeuronName = "9" weight = "-0.12406252942501839" />
    <synapse sourceNeuronName = "1" targetNeuronName = "10" weight = "0.00241822034281447" />
    <synapse sourceNeuronName = "1" targetNeuronName = "11" weight = "0.5664709710811928" />
    <synapse sourceNeuronName = "1" targetNeuronName = "12" weight = "0.024312536563382503" />
    <synapse sourceNeuronName = "2" targetNeuronName = "5" weight = "-0.9509792884430457" />
    <synapse sourceNeuronName = "2" targetNeuronName = "6" weight = "-0.5129849774956876" />
    <synapse sourceNeuronName = "2" targetNeuronName = "7" weight = "-0.7116728268607209" />
    <synapse sourceNeuronName = "2" targetNeuronName = "8" weight = "0.133958200704829" />
    <synapse sourceNeuronName = "2" targetNeuronName = "9" weight = "0.7531117854157101" />
    <synapse sourceNeuronName = "2" targetNeuronName = "10" weight = "-0.5794474643187015" />
    <synapse sourceNeuronName = "2" targetNeuronName = "11" weight = "-0.7994741189023493" />
    <synapse sourceNeuronName = "2" targetNeuronName = "12" weight = "0.03677919492290993" />
    <synapse sourceNeuronName = "3" targetNeuronName = "5" weight = "0.8012197787688102" />
    <synapse sourceNeuronName = "3" targetNeuronName = "6" weight = "-0.22074907707837377" />
    <synapse sourceNeuronName = "3" targetNeuronName = "7" weight = "-0.23107904057196937" />
    <synapse sourceNeuronName = "3" targetNeuronName = "8" weight = "0.3018946684054855" />
    <synapse sourceNeuronName = "3" targetNeuronName = "9" weight = "0.7685149424324265" />
    <synapse sourceNeuronName = "3" targetNeuronName = "10" weight = "-0.5363882096603809" />
    <synapse sourceNeuronName = "3" targetNeuronName = "11" weight = "0.4862859566086559" />
    <synapse sourceNeuronName = "3" targetNeuronName = "12" weight = "0.27527752092011637" />
    <synapse sourceNeuronName = "4" targetNeuronName = "5" weight = "0.21361132640672498" />
    <synapse sourceNeuronName = "4" targetNeuronName = "6" weight = "-0.9928518459340858" />
    <synapse sourceNeuronName = "4" targetNeuronName = "7" weight = "-0.3896070839924515" />
    <synapse sourceNeuronName = "4" targetNeuronName = "8" weight = "-0.5686002491518518" />
    <synapse sourceNeuronName = "4" targetNeuronName = "9" weight = "0.3727873186217052" />
    <synapse sourceNeuronName = "4" targetNeuronName = "10" weight = "0.8933600386874256" />
    <synapse sourceNeuronName = "4" targetNeuronName = "11" weight = "0.22934317210961064" />
    <synapse sourceNeuronName = "4" targetNeuronName = "12" weight = "-0.15935395835631416" />
</neuralNetwork>