<neuralNetwork>
    <neuron name = "0" type = "sensor" linkName = "Link0" />
    <neuron name = "1" type = "sensor" linkName = "Link1" />
    <neuron name = "2" type = "sensor" linkName = "Link2" />
    <neuron name = "3" type = "sensor" linkName = "Link3" />
    <neuron name = "4" type = "sensor" linkName = "Link4" />
    <neuron name = "5" type = "sensor" linkName = "Link7" />
    <neuron name = "6" type = "sensor" linkName = "Link8" />
    <neuron name = "7" type = "motor"  jointName = "Link0_Link1" />
    <neuron name = "8" type = "motor"  jointName = "Link0_Link2" />
    <neuron name = "9" type = "motor"  jointName = "Link0_Link3" />
    <neuron name = "10" type = "motor"  jointName = "Link1_Link4" />
    <neuron name = "11" type = "motor"  jointName = "Link4_Link5" />
    <neuron name = "12" type = "motor"  jointName = "Link1_Link6" />
    <neuron name = "13" type = "motor"  jointName = "Link3_Link7" />
    <neuron name = "14" type = "motor"  jointName = "Link1_Link8" />
    <neuron name = "15" type = "motor"  jointName = "Link7_Link9" />
    <synapse sourceNeuronName = "0" targetNeuronName = "7" weight = "-0.12267620554906733" />
    <synapse sourceNeuronName = "0" targetNeuronName = "8" weight = "0.28650703176978753" />
    <synapse sourceNeuronName = "0" targetNeuronName = "9" weight = "0.4318825045324395" />
    <synapse sourceNeuronName = "0" targetNeuronName = "10" weight = "-0.23660381003936926" />
    <synapse sourceNeuronName = "0" targetNeuronName = "11" weight = "0.10436855855855942" />
    <synapse sourceNeuronName = "0" targetNeuronName = "12" weight = "0.8840038525403464" />
    <synapse sourceNeuronName = "0" targetNeuronName = "13" weight = "-0.23207877419987377" />
    <synapse sourceNeuronName = "0" targetNeuronName = "14" weight = "-0.8055368646714016" />
    <synapse sourceNeuronName = "0" targetNeuronName = "15" weight = "-0.8282941484999689" />
    <synapse sourceNeuronName = "1" targetNeuronName = "7" weight = "-0.6039743195981087" />
    <synapse sourceNeuronName = "1" targetNeuronName = "8" weight = "0.7303365270391375" />
    <synapse sourceNeuronName = "1" targetNeuronName = "9" weight = "0.4083740839382075" />
    <synapse sourceNeuronName = "1" targetNeuronName = "10" weight = "0.6169984043978669" />
    <synapse sourceNeuronName = "1" targetNeuronName = "11" weight = "0.3002499769108502" />
    <synapse sourceNeuronName = "1" targetNeuronName = "12" weight = "0.6849253661894616" />
    <synapse sourceNeuronName = "1" targetNeuronName = "13" weight = "0.397406300071643" />
    <synapse sourceNeuronName = "1" targetNeuronName = "14" weight = "-0.23083961801506403" />
    <synapse sourceNeuronName = "1" targetNeuronName = "15" weight = "0.31347556905941065" />
    <synapse sourceNeuronName = "2" targetNeuronName = "7" weight = "0.4158915125318561" />
    <synapse sourceNeuronName = "2" targetNeuronName = "8" weight = "-0.5892435637568967" />
    <synapse sourceNeuronName = "2" targetNeuronName = "9" weight = "0.35227027294436764" />
    <synapse sourceNeuronName = "2" targetNeuronName = "10" weight = "0.33021035947801725" />
    <synapse sourceNeuronName = "2" targetNeuronName = "11" weight = "-0.7009246410602636" />
    <synapse sourceNeuronName = "2" targetNeuronName = "12" weight = "0.9706615950229291" />
    <synapse sourceNeuronName = "2" targetNeuronName = "13" weight = "0.0329128309236244" />
    <synapse sourceNeuronName = "2" targetNeuronName = "14" weight = "-0.8581569433770273" />
    <synapse sourceNeuronName = "2" targetNeuronName = "15" weight = "-0.7669784980652004" />
    <synapse sourceNeuronName = "3" targetNeuronName = "7" weight = "0.5492139263068325" />
    <synapse sourceNeuronName = "3" targetNeuronName = "8" weight = "0.1888385403252355" />
    <synapse sourceNeuronName = "3" targetNeuronName = "9" weight = "-0.05696269973195833" />
    <synapse sourceNeuronName = "3" targetNeuronName = "10" weight = "-0.9169447668589621" />
    <synapse sourceNeuronName = "3" targetNeuronName = "11" weight = "0.7967856867509959" />
    <synapse sourceNeuronName = "3" targetNeuronName = "12" weight = "-0.9190803272953538" />
    <synapse sourceNeuronName = "3" targetNeuronName = "13" weight = "-0.3975660239524803" />
    <synapse sourceNeuronName = "3" targetNeuronName = "14" weight = "-0.01810967587172052" />
    <synapse sourceNeuronName = "3" targetNeuronName = "15" weight = "-0.7849756096182694" />
    <synapse sourceNeuronName = "4" targetNeuronName = "7" weight = "-0.9390228967268719" />
    <synapse sourceNeuronName = "4" targetNeuronName = "8" weight = "0.21087130307793922" />
    <synapse sourceNeuronName = "4" targetNeuronName = "9" weight = "0.9252455509627862" />
    <synapse sourceNeuronName = "4" targetNeuronName = "10" weight = "0.3260850315502093" />
    <synapse sourceNeuronName = "4" targetNeuronName = "11" weight = "0.04784234675590948" />
    <synapse sourceNeuronName = "4" targetNeuronName = "12" weight = "0.18130145546591492" />
    <synapse sourceNeuronName = "4" targetNeuronName = "13" weight = "-0.22895740809805343" />
    <synapse sourceNeuronName = "4" targetNeuronName = "14" weight = "0.41329529237564233" />
    <synapse sourceNeuronName = "4" targetNeuronName = "15" weight = "-0.7226957008960684" />
    <synapse sourceNeuronName = "5" targetNeuronName = "7" weight = "-0.14210682200032743" />
    <synapse sourceNeuronName = "5" targetNeuronName = "8" weight = "-0.5856672319872707" />
    <synapse sourceNeuronName = "5" targetNeuronName = "9" weight = "0.3897836890417561" />
    <synapse sourceNeuronName = "5" targetNeuronName = "10" weight = "0.6659551144633624" />
    <synapse sourceNeuronName = "5" targetNeuronName = "11" weight = "-0.48373938922195614" />
    <synapse sourceNeuronName = "5" targetNeuronName = "12" weight = "0.7095814068562547" />
    <synapse sourceNeuronName = "5" targetNeuronName = "13" weight = "0.00019001750315372767" />
    <synapse sourceNeuronName = "5" targetNeuronName = "14" weight = "-0.8764920322118068" />
    <synapse sourceNeuronName = "5" targetNeuronName = "15" weight = "0.8818777699716718" />
    <synapse sourceNeuronName = "6" targetNeuronName = "7" weight = "0.2851672167967536" />
    <synapse sourceNeuronName = "6" targetNeuronName = "8" weight = "-0.35580010757151537" />
    <synapse sourceNeuronName = "6" targetNeuronName = "9" weight = "0.6633229704690851" />
    <synapse sourceNeuronName = "6" targetNeuronName = "10" weight = "0.7704972606066474" />
    <synapse sourceNeuronName = "6" targetNeuronName = "11" weight = "-0.8127915656640283" />
    <synapse sourceNeuronName = "6" targetNeuronName = "12" weight = "0.4160312866793767" />
    <synapse sourceNeuronName = "6" targetNeuronName = "13" weight = "0.48434161333988035" />
    <synapse sourceNeuronName = "6" targetNeuronName = "14" weight = "0.005315367878560462" />
    <synapse sourceNeuronName = "6" targetNeuronName = "15" weight = "0.6965800686806944" />
</neuralNetwork>