<neuralNetwork>
    <neuron name = "0" type = "sensor" linkName = "Link0" />
    <neuron name = "1" type = "sensor" linkName = "Link2" />
    <neuron name = "2" type = "sensor" linkName = "Link4" />
    <neuron name = "3" type = "sensor" linkName = "Link8" />
    <neuron name = "4" type = "motor"  jointName = "Link0_Link1" />
    <neuron name = "5" type = "motor"  jointName = "Link0_Link2" />
    <neuron name = "6" type = "motor"  jointName = "Link2_Link3" />
    <neuron name = "7" type = "motor"  jointName = "Link0_Link4" />
    <neuron name = "8" type = "motor"  jointName = "Link0_Link5" />
    <neuron name = "9" type = "motor"  jointName = "Link0_Link6" />
    <neuron name = "10" type = "motor"  jointName = "Link1_Link7" />
    <neuron name = "11" type = "motor"  jointName = "Link4_Link8" />
    <synapse sourceNeuronName = "0" targetNeuronName = "4" weight = "-0.06696160565012721" />
    <synapse sourceNeuronName = "0" targetNeuronName = "5" weight = "0.32460814040616404" />
    <synapse sourceNeuronName = "0" targetNeuronName = "6" weight = "-0.7687263260586668" />
    <synapse sourceNeuronName = "0" targetNeuronName = "7" weight = "-0.9863428562894381" />
    <synapse sourceNeuronName = "0" targetNeuronName = "8" weight = "0.3132918201024879" />
    <synapse sourceNeuronName = "0" targetNeuronName = "9" weight = "-0.3417787033408528" />
    <synapse sourceNeuronName = "0" targetNeuronName = "10" weight = "0.7678169555811452" />
    <synapse sourceNeuronName = "0" targetNeuronName = "11" weight = "-0.5097274811411974" />
    <synapse sourceNeuronName = "1" targetNeuronName = "4" weight = "-0.11253522931617854" />
    <synapse sourceNeuronName = "1" targetNeuronName = "5" weight = "-0.14578963142294032" />
    <synapse sourceNeuronName = "1" targetNeuronName = "6" weight = "0.03840475920475006" />
    <synapse sourceNeuronName = "1" targetNeuronName = "7" weight = "0.8903757353942938" />
    <synapse sourceNeuronName = "1" targetNeuronName = "8" weight = "-0.5676536273791808" />
    <synapse sourceNeuronName = "1" targetNeuronName = "9" weight = "-0.447116576035439" />
    <synapse sourceNeuronName = "1" targetNeuronName = "10" weight = "-0.9649741252225865" />
    <synapse sourceNeuronName = "1" targetNeuronName = "11" weight = "0.4046830491385818" />
    <synapse sourceNeuronName = "2" targetNeuronName = "4" weight = "-0.8360090376593889" />
    <synapse sourceNeuronName = "2" targetNeuronName = "5" weight = "-0.6925876594431799" />
    <synapse sourceNeuronName = "2" targetNeuronName = "6" weight = "-0.0551406120089486" />
    <synapse sourceNeuronName = "2" targetNeuronName = "7" weight = "-0.5898874620460282" />
    <synapse sourceNeuronName = "2" targetNeuronName = "8" weight = "0.4554138694334302" />
    <synapse sourceNeuronName = "2" targetNeuronName = "9" weight = "-0.49464072238373924" />
    <synapse sourceNeuronName = "2" targetNeuronName = "10" weight = "0.4613313141714692" />
    <synapse sourceNeuronName = "2" targetNeuronName = "11" weight = "0.7084269559312766" />
    <synapse sourceNeuronName = "3" targetNeuronName = "4" weight = "0.010558526861625506" />
    <synapse sourceNeuronName = "3" targetNeuronName = "5" weight = "0.6055452312979952" />
    <synapse sourceNeuronName = "3" targetNeuronName = "6" weight = "-0.9737275859716477" />
    <synapse sourceNeuronName = "3" targetNeuronName = "7" weight = "0.4352202775420029" />
    <synapse sourceNeuronName = "3" targetNeuronName = "8" weight = "0.9837624768172966" />
    <synapse sourceNeuronName = "3" targetNeuronName = "9" weight = "0.8641452448267863" />
    <synapse sourceNeuronName = "3" targetNeuronName = "10" weight = "0.8768587024801331" />
    <synapse sourceNeuronName = "3" targetNeuronName = "11" weight = "-0.0624464387129986" />
</neuralNetwork>