<neuralNetwork>
    <neuron name = "0" type = "sensor" linkName = "Link0" />
    <neuron name = "1" type = "sensor" linkName = "Link2" />
    <neuron name = "2" type = "sensor" linkName = "Link4" />
    <neuron name = "3" type = "sensor" linkName = "Link8" />
    <neuron name = "4" type = "motor"  jointName = "Link0_Link1" />
    <neuron name = "5" type = "motor"  jointName = "Link0_Link2" />
    <neuron name = "6" type = "motor"  jointName = "Link2_Link3" />
    <neuron name = "7" type = "motor"  jointName = "Link0_Link4" />
    <neuron name = "8" type = "motor"  jointName = "Link0_Link5" />
    <neuron name = "9" type = "motor"  jointName = "Link0_Link6" />
    <neuron name = "10" type = "motor"  jointName = "Link1_Link7" />
    <neuron name = "11" type = "motor"  jointName = "Link4_Link8" />
    <neuron name = "12" type = "motor"  jointName = "Link7_Link9" />
    <neuron name = "13" type = "motor"  jointName = "Link3_Link10" />
    <synapse sourceNeuronName = "0" targetNeuronName = "4" weight = "0.5711364858349957" />
    <synapse sourceNeuronName = "0" targetNeuronName = "5" weight = "0.6027701512517158" />
    <synapse sourceNeuronName = "0" targetNeuronName = "6" weight = "-0.09796289578429818" />
    <synapse sourceNeuronName = "0" targetNeuronName = "7" weight = "0.08159297034825697" />
    <synapse sourceNeuronName = "0" targetNeuronName = "8" weight = "0.7817580696025404" />
    <synapse sourceNeuronName = "0" targetNeuronName = "9" weight = "-0.3913321366717031" />
    <synapse sourceNeuronName = "0" targetNeuronName = "10" weight = "-0.4577237093404565" />
    <synapse sourceNeuronName = "0" targetNeuronName = "11" weight = "-0.6918361291402588" />
    <synapse sourceNeuronName = "0" targetNeuronName = "12" weight = "0.3877079978033675" />
    <synapse sourceNeuronName = "0" targetNeuronName = "13" weight = "-0.8635786069630982" />
    <synapse sourceNeuronName = "1" targetNeuronName = "4" weight = "0.7118335666470186" />
    <synapse sourceNeuronName = "1" targetNeuronName = "5" weight = "0.4749118272477961" />
    <synapse sourceNeuronName = "1" targetNeuronName = "6" weight = "0.007051664729500473" />
    <synapse sourceNeuronName = "1" targetNeuronName = "7" weight = "-0.9888726248576276" />
    <synapse sourceNeuronName = "1" targetNeuronName = "8" weight = "0.019201558286145115" />
    <synapse sourceNeuronName = "1" targetNeuronName = "9" weight = "0.2052276590762201" />
    <synapse sourceNeuronName = "1" targetNeuronName = "10" weight = "0.10369535188214063" />
    <synapse sourceNeuronName = "1" targetNeuronName = "11" weight = "-0.850551061050707" />
    <synapse sourceNeuronName = "1" targetNeuronName = "12" weight = "-0.6040603501484141" />
    <synapse sourceNeuronName = "1" targetNeuronName = "13" weight = "0.8182164200844317" />
    <synapse sourceNeuronName = "2" targetNeuronName = "4" weight = "0.7782899709203217" />
    <synapse sourceNeuronName = "2" targetNeuronName = "5" weight = "0.48066485933678926" />
    <synapse sourceNeuronName = "2" targetNeuronName = "6" weight = "-0.9326404521218092" />
    <synapse sourceNeuronName = "2" targetNeuronName = "7" weight = "0.5373663198924747" />
    <synapse sourceNeuronName = "2" targetNeuronName = "8" weight = "-0.7111408928975209" />
    <synapse sourceNeuronName = "2" targetNeuronName = "9" weight = "0.5815697644797382" />
    <synapse sourceNeuronName = "2" targetNeuronName = "10" weight = "-0.2958428050357811" />
    <synapse sourceNeuronName = "2" targetNeuronName = "11" weight = "-0.6915531092804283" />
    <synapse sourceNeuronName = "2" targetNeuronName = "12" weight = "0.8822970465701356" />
    <synapse sourceNeuronName = "2" targetNeuronName = "13" weight = "-0.05759811708964779" />
    <synapse sourceNeuronName = "3" targetNeuronName = "4" weight = "0.6793607233509913" />
    <synapse sourceNeuronName = "3" targetNeuronName = "5" weight = "0.8441620596624286" />
    <synapse sourceNeuronName = "3" targetNeuronName = "6" weight = "0.12341343368834057" />
    <synapse sourceNeuronName = "3" targetNeuronName = "7" weight = "-0.9666645199909125" />
    <synapse sourceNeuronName = "3" targetNeuronName = "8" weight = "0.22962123981933535" />
    <synapse sourceNeuronName = "3" targetNeuronName = "9" weight = "0.24493766196125222" />
    <synapse sourceNeuronName = "3" targetNeuronName = "10" weight = "-0.3748763478782515" />
    <synapse sourceNeuronName = "3" targetNeuronName = "11" weight = "0.5696121245456851" />
    <synapse sourceNeuronName = "3" targetNeuronName = "12" weight = "0.7871173208597229" />
    <synapse sourceNeuronName = "3" targetNeuronName = "13" weight = "0.5752889119262641" />
</neuralNetwork>