<neuralNetwork>
    <neuron name = "0" type = "sensor" linkName = "Link2" />
    <neuron name = "1" type = "sensor" linkName = "Link3" />
    <neuron name = "2" type = "sensor" linkName = "Link4" />
    <neuron name = "3" type = "sensor" linkName = "Link6" />
    <neuron name = "4" type = "sensor" linkName = "Link7" />
    <neuron name = "5" type = "motor"  jointName = "Link0_Link1" />
    <neuron name = "6" type = "motor"  jointName = "Link1_Link2" />
    <neuron name = "7" type = "motor"  jointName = "Link1_Link3" />
    <neuron name = "8" type = "motor"  jointName = "Link2_Link4" />
    <neuron name = "9" type = "motor"  jointName = "Link1_Link5" />
    <neuron name = "10" type = "motor"  jointName = "Link1_Link6" />
    <neuron name = "11" type = "motor"  jointName = "Link6_Link7" />
    <neuron name = "12" type = "motor"  jointName = "Link0_Link8" />
    <synapse sourceNeuronName = "0" targetNeuronName = "5" weight = "-0.2787678196635719" />
    <synapse sourceNeuronName = "0" targetNeuronName = "6" weight = "-0.581089500363936" />
    <synapse sourceNeuronName = "0" targetNeuronName = "7" weight = "0.389896474906158" />
    <synapse sourceNeuronName = "0" targetNeuronName = "8" weight = "0.44006224555613893" />
    <synapse sourceNeuronName = "0" targetNeuronName = "9" weight = "-0.7457039846478801" />
    <synapse sourceNeuronName = "0" targetNeuronName = "10" weight = "0.8158264272761355" />
    <synapse sourceNeuronName = "0" targetNeuronName = "11" weight = "0.7447940694884527" />
    <synapse sourceNeuronName = "0" targetNeuronName = "12" weight = "-0.2513378476854138" />
    <synapse sourceNeuronName = "1" targetNeuronName = "5" weight = "-0.7281412902508668" />
    <synapse sourceNeuronName = "1" targetNeuronName = "6" weight = "0.6733773597402752" />
    <synapse sourceNeuronName = "1" targetNeuronName = "7" weight = "0.3462518148239415" />
    <synapse sourceNeuronName = "1" targetNeuronName = "8" weight = "-0.557965059689602" />
    <synapse sourceNeuronName = "1" targetNeuronName = "9" weight = "0.361479444997749" />
    <synapse sourceNeuronName = "1" targetNeuronName = "10" weight = "0.4391524399961395" />
    <synapse sourceNeuronName = "1" targetNeuronName = "11" weight = "-0.44683581429627717" />
    <synapse sourceNeuronName = "1" targetNeuronName = "12" weight = "0.8677791819759089" />
    <synapse sourceNeuronName = "2" targetNeuronName = "5" weight = "0.747735973864255" />
    <synapse sourceNeuronName = "2" targetNeuronName = "6" weight = "0.8964687824675646" />
    <synapse sourceNeuronName = "2" targetNeuronName = "7" weight = "0.679929639879618" />
    <synapse sourceNeuronName = "2" targetNeuronName = "8" weight = "-0.9494076535088647" />
    <synapse sourceNeuronName = "2" targetNeuronName = "9" weight = "0.23040746348018426" />
    <synapse sourceNeuronName = "2" targetNeuronName = "10" weight = "-0.575113988383648" />
    <synapse sourceNeuronName = "2" targetNeuronName = "11" weight = "0.9769777960976718" />
    <synapse sourceNeuronName = "2" targetNeuronName = "12" weight = "-0.4045645868876291" />
    <synapse sourceNeuronName = "3" targetNeuronName = "5" weight = "0.7663044713027936" />
    <synapse sourceNeuronName = "3" targetNeuronName = "6" weight = "0.4506344775760531" />
    <synapse sourceNeuronName = "3" targetNeuronName = "7" weight = "-0.8871945063967719" />
    <synapse sourceNeuronName = "3" targetNeuronName = "8" weight = "0.8958859520163911" />
    <synapse sourceNeuronName = "3" targetNeuronName = "9" weight = "-0.2852902067332479" />
    <synapse sourceNeuronName = "3" targetNeuronName = "10" weight = "0.6780291379153267" />
    <synapse sourceNeuronName = "3" targetNeuronName = "11" weight = "0.6238359781305809" />
    <synapse sourceNeuronName = "3" targetNeuronName = "12" weight = "0.3900733210006022" />
    <synapse sourceNeuronName = "4" targetNeuronName = "5" weight = "0.14473034419746234" />
    <synapse sourceNeuronName = "4" targetNeuronName = "6" weight = "-0.18559934866516525" />
    <synapse sourceNeuronName = "4" targetNeuronName = "7" weight = "0.6543144137221604" />
    <synapse sourceNeuronName = "4" targetNeuronName = "8" weight = "-0.7759395040486659" />
    <synapse sourceNeuronName = "4" targetNeuronName = "9" weight = "0.8030274114851972" />
    <synapse sourceNeuronName = "4" targetNeuronName = "10" weight = "0.6327713129431969" />
    <synapse sourceNeuronName = "4" targetNeuronName = "11" weight = "-0.7571753328252966" />
    <synapse sourceNeuronName = "4" targetNeuronName = "12" weight = "-0.6037578920141413" />
</neuralNetwork>