<neuralNetwork>
    <neuron name = "0" type = "sensor" linkName = "Link2" />
    <neuron name = "1" type = "sensor" linkName = "Link3" />
    <neuron name = "2" type = "sensor" linkName = "Link6" />
    <neuron name = "3" type = "sensor" linkName = "Link8" />
    <neuron name = "4" type = "motor"  jointName = "Link0_Link1" />
    <neuron name = "5" type = "motor"  jointName = "Link0_Link2" />
    <neuron name = "6" type = "motor"  jointName = "Link1_Link3" />
    <neuron name = "7" type = "motor"  jointName = "Link1_Link4" />
    <neuron name = "8" type = "motor"  jointName = "Link3_Link5" />
    <neuron name = "9" type = "motor"  jointName = "Link4_Link6" />
    <neuron name = "10" type = "motor"  jointName = "Link2_Link7" />
    <neuron name = "11" type = "motor"  jointName = "Link5_Link8" />
    <synapse sourceNeuronName = "0" targetNeuronName = "4" weight = "-0.2856042082926402" />
    <synapse sourceNeuronName = "0" targetNeuronName = "5" weight = "0.20905675531521029" />
    <synapse sourceNeuronName = "0" targetNeuronName = "6" weight = "-0.13071502274957125" />
    <synapse sourceNeuronName = "0" targetNeuronName = "7" weight = "-0.8169310469795494" />
    <synapse sourceNeuronName = "0" targetNeuronName = "8" weight = "-0.15954251638807193" />
    <synapse sourceNeuronName = "0" targetNeuronName = "9" weight = "0.8463174693962523" />
    <synapse sourceNeuronName = "0" targetNeuronName = "10" weight = "-0.9678996158569337" />
    <synapse sourceNeuronName = "0" targetNeuronName = "11" weight = "-0.47061122534299993" />
    <synapse sourceNeuronName = "1" targetNeuronName = "4" weight = "-0.11988733845405841" />
    <synapse sourceNeuronName = "1" targetNeuronName = "5" weight = "0.3315110095620648" />
    <synapse sourceNeuronName = "1" targetNeuronName = "6" weight = "-0.4402341656575832" />
    <synapse sourceNeuronName = "1" targetNeuronName = "7" weight = "-0.3061636310687035" />
    <synapse sourceNeuronName = "1" targetNeuronName = "8" weight = "0.08033821979360822" />
    <synapse sourceNeuronName = "1" targetNeuronName = "9" weight = "-0.7377286706811446" />
    <synapse sourceNeuronName = "1" targetNeuronName = "10" weight = "0.32812578834683204" />
    <synapse sourceNeuronName = "1" targetNeuronName = "11" weight = "-0.24165196901736175" />
    <synapse sourceNeuronName = "2" targetNeuronName = "4" weight = "-0.8280119408456701" />
    <synapse sourceNeuronName = "2" targetNeuronName = "5" weight = "0.5860054127841843" />
    <synapse sourceNeuronName = "2" targetNeuronName = "6" weight = "-0.0491717261417961" />
    <synapse sourceNeuronName = "2" targetNeuronName = "7" weight = "0.0750616243612292" />
    <synapse sourceNeuronName = "2" targetNeuronName = "8" weight = "0.812493638691981" />
    <synapse sourceNeuronName = "2" targetNeuronName = "9" weight = "-0.014935698928071561" />
    <synapse sourceNeuronName = "2" targetNeuronName = "10" weight = "0.828021659657777" />
    <synapse sourceNeuronName = "2" targetNeuronName = "11" weight = "-0.6841304279893521" />
    <synapse sourceNeuronName = "3" targetNeuronName = "4" weight = "-0.18862072974286237" />
    <synapse sourceNeuronName = "3" targetNeuronName = "5" weight = "0.9141266747923595" />
    <synapse sourceNeuronName = "3" targetNeuronName = "6" weight = "-0.6688431834970718" />
    <synapse sourceNeuronName = "3" targetNeuronName = "7" weight = "0.34492039773587124" />
    <synapse sourceNeuronName = "3" targetNeuronName = "8" weight = "-0.6710409775248787" />
    <synapse sourceNeuronName = "3" targetNeuronName = "9" weight = "-0.3331593627509939" />
    <synapse sourceNeuronName = "3" targetNeuronName = "10" weight = "0.6884369069080387" />
    <synapse sourceNeuronName = "3" targetNeuronName = "11" weight = "-0.5745980892241065" />
</neuralNetwork>