<neuralNetwork>
    <neuron name = "0" type = "sensor" linkName = "Link1" />
    <neuron name = "1" type = "sensor" linkName = "Link2" />
    <neuron name = "2" type = "sensor" linkName = "Link5" />
    <neuron name = "3" type = "sensor" linkName = "Link6" />
    <neuron name = "4" type = "sensor" linkName = "Link7" />
    <neuron name = "5" type = "sensor" linkName = "Link8" />
    <neuron name = "6" type = "motor"  jointName = "Link0_Link1" />
    <neuron name = "7" type = "motor"  jointName = "Link1_Link2" />
    <neuron name = "8" type = "motor"  jointName = "Link0_Link3" />
    <neuron name = "9" type = "motor"  jointName = "Link2_Link4" />
    <neuron name = "10" type = "motor"  jointName = "Link1_Link5" />
    <neuron name = "11" type = "motor"  jointName = "Link0_Link6" />
    <neuron name = "12" type = "motor"  jointName = "Link1_Link7" />
    <neuron name = "13" type = "motor"  jointName = "Link5_Link8" />
    <neuron name = "14" type = "motor"  jointName = "Link0_Link9" />
    <synapse sourceNeuronName = "0" targetNeuronName = "6" weight = "-0.3108114710677743" />
    <synapse sourceNeuronName = "0" targetNeuronName = "7" weight = "-0.28250764228097225" />
    <synapse sourceNeuronName = "0" targetNeuronName = "8" weight = "0.9955663446949363" />
    <synapse sourceNeuronName = "0" targetNeuronName = "9" weight = "0.6972402704737981" />
    <synapse sourceNeuronName = "0" targetNeuronName = "10" weight = "0.3093019825404113" />
    <synapse sourceNeuronName = "0" targetNeuronName = "11" weight = "0.9928377028463136" />
    <synapse sourceNeuronName = "0" targetNeuronName = "12" weight = "-0.11573155137543956" />
    <synapse sourceNeuronName = "0" targetNeuronName = "13" weight = "0.4115168428638847" />
    <synapse sourceNeuronName = "0" targetNeuronName = "14" weight = "-0.47816162798268613" />
    <synapse sourceNeuronName = "1" targetNeuronName = "6" weight = "-0.9130901216786149" />
    <synapse sourceNeuronName = "1" targetNeuronName = "7" weight = "0.020230302650132703" />
    <synapse sourceNeuronName = "1" targetNeuronName = "8" weight = "0.798489289391523" />
    <synapse sourceNeuronName = "1" targetNeuronName = "9" weight = "-0.4833994609772354" />
    <synapse sourceNeuronName = "1" targetNeuronName = "10" weight = "0.7050414150921611" />
    <synapse sourceNeuronName = "1" targetNeuronName = "11" weight = "0.819700854000244" />
    <synapse sourceNeuronName = "1" targetNeuronName = "12" weight = "-0.4729002782893299" />
    <synapse sourceNeuronName = "1" targetNeuronName = "13" weight = "0.04067921122966789" />
    <synapse sourceNeuronName = "1" targetNeuronName = "14" weight = "0.16382094278713244" />
    <synapse sourceNeuronName = "2" targetNeuronName = "6" weight = "-0.7915367398459814" />
    <synapse sourceNeuronName = "2" targetNeuronName = "7" weight = "-0.6409395342909334" />
    <synapse sourceNeuronName = "2" targetNeuronName = "8" weight = "-0.9259303361038378" />
    <synapse sourceNeuronName = "2" targetNeuronName = "9" weight = "0.8563191365689058" />
    <synapse sourceNeuronName = "2" targetNeuronName = "10" weight = "0.23024418000282765" />
    <synapse sourceNeuronName = "2" targetNeuronName = "11" weight = "0.22325570720001942" />
    <synapse sourceNeuronName = "2" targetNeuronName = "12" weight = "-0.9726369566730491" />
    <synapse sourceNeuronName = "2" targetNeuronName = "13" weight = "0.6595690525400675" />
    <synapse sourceNeuronName = "2" targetNeuronName = "14" weight = "0.33865349144231915" />
    <synapse sourceNeuronName = "3" targetNeuronName = "6" weight = "-0.8443807833052916" />
    <synapse sourceNeuronName = "3" targetNeuronName = "7" weight = "0.8474779884304029" />
    <synapse sourceNeuronName = "3" targetNeuronName = "8" weight = "-0.5768248276720218" />
    <synapse sourceNeuronName = "3" targetNeuronName = "9" weight = "-0.813233263758308" />
    <synapse sourceNeuronName = "3" targetNeuronName = "10" weight = "0.5932888617820256" />
    <synapse sourceNeuronName = "3" targetNeuronName = "11" weight = "-0.13509496486880535" />
    <synapse sourceNeuronName = "3" targetNeuronName = "12" weight = "-0.8611053927802135" />
    <synapse sourceNeuronName = "3" targetNeuronName = "13" weight = "0.1775303185036039" />
    <synapse sourceNeuronName = "3" targetNeuronName = "14" weight = "-0.9321255153323156" />
    <synapse sourceNeuronName = "4" targetNeuronName = "6" weight = "-0.2513264650012401" />
    <synapse sourceNeuronName = "4" targetNeuronName = "7" weight = "0.4026710304671177" />
    <synapse sourceNeuronName = "4" targetNeuronName = "8" weight = "-0.8675880777943299" />
    <synapse sourceNeuronName = "4" targetNeuronName = "9" weight = "-0.8335046930531129" />
    <synapse sourceNeuronName = "4" targetNeuronName = "10" weight = "0.7651191571156237" />
    <synapse sourceNeuronName = "4" targetNeuronName = "11" weight = "-0.7639445728132848" />
    <synapse sourceNeuronName = "4" targetNeuronName = "12" weight = "0.48487740175805816" />
    <synapse sourceNeuronName = "4" targetNeuronName = "13" weight = "-0.11337640131986126" />
    <synapse sourceNeuronName = "4" targetNeuronName = "14" weight = "-0.004165100537665278" />
    <synapse sourceNeuronName = "5" targetNeuronName = "6" weight = "-0.8950870815155532" />
    <synapse sourceNeuronName = "5" targetNeuronName = "7" weight = "-0.7231375765788453" />
    <synapse sourceNeuronName = "5" targetNeuronName = "8" weight = "0.14527377721081258" />
    <synapse sourceNeuronName = "5" targetNeuronName = "9" weight = "0.42037055286745506" />
    <synapse sourceNeuronName = "5" targetNeuronName = "10" weight = "0.6269052696416353" />
    <synapse sourceNeuronName = "5" targetNeuronName = "11" weight = "-0.35858550007175194" />
    <synapse sourceNeuronName = "5" targetNeuronName = "12" weight = "0.567535827413369" />
    <synapse sourceNeuronName = "5" targetNeuronName = "13" weight = "-0.09369774904544159" />
    <synapse sourceNeuronName = "5" targetNeuronName = "14" weight = "-0.9432446930501008" />
</neuralNetwork>