<neuralNetwork>
    <neuron name = "0" type = "sensor" linkName = "Link1" />
    <neuron name = "1" type = "sensor" linkName = "Link2" />
    <neuron name = "2" type = "sensor" linkName = "Link5" />
    <neuron name = "3" type = "sensor" linkName = "Link6" />
    <neuron name = "4" type = "sensor" linkName = "Link7" />
    <neuron name = "5" type = "sensor" linkName = "Link8" />
    <neuron name = "6" type = "motor"  jointName = "Link0_Link1" />
    <neuron name = "7" type = "motor"  jointName = "Link1_Link2" />
    <neuron name = "8" type = "motor"  jointName = "Link0_Link3" />
    <neuron name = "9" type = "motor"  jointName = "Link2_Link4" />
    <neuron name = "10" type = "motor"  jointName = "Link1_Link5" />
    <neuron name = "11" type = "motor"  jointName = "Link0_Link6" />
    <neuron name = "12" type = "motor"  jointName = "Link2_Link7" />
    <neuron name = "13" type = "motor"  jointName = "Link2_Link8" />
    <synapse sourceNeuronName = "0" targetNeuronName = "6" weight = "0.38909311794039847" />
    <synapse sourceNeuronName = "0" targetNeuronName = "7" weight = "0.7001051926537216" />
    <synapse sourceNeuronName = "0" targetNeuronName = "8" weight = "-0.8844844092932684" />
    <synapse sourceNeuronName = "0" targetNeuronName = "9" weight = "0.023326312666964055" />
    <synapse sourceNeuronName = "0" targetNeuronName = "10" weight = "0.33933017508592145" />
    <synapse sourceNeuronName = "0" targetNeuronName = "11" weight = "0.5380095135245182" />
    <synapse sourceNeuronName = "0" targetNeuronName = "12" weight = "-0.255455678242966" />
    <synapse sourceNeuronName = "0" targetNeuronName = "13" weight = "0.47018727017406037" />
    <synapse sourceNeuronName = "1" targetNeuronName = "6" weight = "-0.5114651358733009" />
    <synapse sourceNeuronName = "1" targetNeuronName = "7" weight = "0.6934794589331392" />
    <synapse sourceNeuronName = "1" targetNeuronName = "8" weight = "-0.7792718481881755" />
    <synapse sourceNeuronName = "1" targetNeuronName = "9" weight = "-0.2353137564326544" />
    <synapse sourceNeuronName = "1" targetNeuronName = "10" weight = "-0.6689960064451581" />
    <synapse sourceNeuronName = "1" targetNeuronName = "11" weight = "-0.7846815733409758" />
    <synapse sourceNeuronName = "1" targetNeuronName = "12" weight = "0.057483952099667945" />
    <synapse sourceNeuronName = "1" targetNeuronName = "13" weight = "0.3109411860207367" />
    <synapse sourceNeuronName = "2" targetNeuronName = "6" weight = "0.7114261092829017" />
    <synapse sourceNeuronName = "2" targetNeuronName = "7" weight = "-0.6616279152861988" />
    <synapse sourceNeuronName = "2" targetNeuronName = "8" weight = "-0.8811689928817152" />
    <synapse sourceNeuronName = "2" targetNeuronName = "9" weight = "0.9012073102248663" />
    <synapse sourceNeuronName = "2" targetNeuronName = "10" weight = "-0.5558820278064869" />
    <synapse sourceNeuronName = "2" targetNeuronName = "11" weight = "-0.42063274790920624" />
    <synapse sourceNeuronName = "2" targetNeuronName = "12" weight = "-0.8314910524306633" />
    <synapse sourceNeuronName = "2" targetNeuronName = "13" weight = "0.029837958982000146" />
    <synapse sourceNeuronName = "3" targetNeuronName = "6" weight = "0.953013455618092" />
    <synapse sourceNeuronName = "3" targetNeuronName = "7" weight = "-0.8574995765987792" />
    <synapse sourceNeuronName = "3" targetNeuronName = "8" weight = "0.543993524512896" />
    <synapse sourceNeuronName = "3" targetNeuronName = "9" weight = "-0.3929262756574363" />
    <synapse sourceNeuronName = "3" targetNeuronName = "10" weight = "0.22627900770588671" />
    <synapse sourceNeuronName = "3" targetNeuronName = "11" weight = "0.7956416642784283" />
    <synapse sourceNeuronName = "3" targetNeuronName = "12" weight = "-0.34389928181651563" />
    <synapse sourceNeuronName = "3" targetNeuronName = "13" weight = "0.2572582591107231" />
    <synapse sourceNeuronName = "4" targetNeuronName = "6" weight = "-0.6938961331929512" />
    <synapse sourceNeuronName = "4" targetNeuronName = "7" weight = "0.8898663848382422" />
    <synapse sourceNeuronName = "4" targetNeuronName = "8" weight = "-0.8122387438488112" />
    <synapse sourceNeuronName = "4" targetNeuronName = "9" weight = "-0.5368277165679265" />
    <synapse sourceNeuronName = "4" targetNeuronName = "10" weight = "0.3509551392400443" />
    <synapse sourceNeuronName = "4" targetNeuronName = "11" weight = "-0.7354946095443851" />
    <synapse sourceNeuronName = "4" targetNeuronName = "12" weight = "-0.435167464660553" />
    <synapse sourceNeuronName = "4" targetNeuronName = "13" weight = "0.07456224730939764" />
    <synapse sourceNeuronName = "5" targetNeuronName = "6" weight = "0.19955048837274103" />
    <synapse sourceNeuronName = "5" targetNeuronName = "7" weight = "0.8587788055934582" />
    <synapse sourceNeuronName = "5" targetNeuronName = "8" weight = "-0.5408178540146358" />
    <synapse sourceNeuronName = "5" targetNeuronName = "9" weight = "-0.44952736612835564" />
    <synapse sourceNeuronName = "5" targetNeuronName = "10" weight = "-0.7041362291011453" />
    <synapse sourceNeuronName = "5" targetNeuronName = "11" weight = "-0.6465539777270448" />
    <synapse sourceNeuronName = "5" targetNeuronName = "12" weight = "0.6504080091068734" />
    <synapse sourceNeuronName = "5" targetNeuronName = "13" weight = "0.3568840623929821" />
</neuralNetwork>