<neuralNetwork>
    <neuron name = "0" type = "sensor" linkName = "Link0" />
    <neuron name = "1" type = "sensor" linkName = "Link2" />
    <neuron name = "2" type = "sensor" linkName = "Link3" />
    <neuron name = "3" type = "sensor" linkName = "Link4" />
    <neuron name = "4" type = "sensor" linkName = "Link5" />
    <neuron name = "5" type = "motor"  jointName = "Link0_Link1" />
    <neuron name = "6" type = "motor"  jointName = "Link1_Link2" />
    <neuron name = "7" type = "motor"  jointName = "Link2_Link3" />
    <neuron name = "8" type = "motor"  jointName = "Link3_Link4" />
    <neuron name = "9" type = "motor"  jointName = "Link0_Link5" />
    <synapse sourceNeuronName = "0" targetNeuronName = "5" weight = "-0.3782922597336069" />
    <synapse sourceNeuronName = "0" targetNeuronName = "6" weight = "-0.6149495794540571" />
    <synapse sourceNeuronName = "0" targetNeuronName = "7" weight = "-0.14691704653831117" />
    <synapse sourceNeuronName = "0" targetNeuronName = "8" weight = "0.06921811972342429" />
    <synapse sourceNeuronName = "0" targetNeuronName = "9" weight = "-0.12691696111914696" />
    <synapse sourceNeuronName = "1" targetNeuronName = "5" weight = "-0.8797483840669889" />
    <synapse sourceNeuronName = "1" targetNeuronName = "6" weight = "0.45526417368628525" />
    <synapse sourceNeuronName = "1" targetNeuronName = "7" weight = "0.3749893681001877" />
    <synapse sourceNeuronName = "1" targetNeuronName = "8" weight = "0.3774023949806513" />
    <synapse sourceNeuronName = "1" targetNeuronName = "9" weight = "-0.5944309936093943" />
    <synapse sourceNeuronName = "2" targetNeuronName = "5" weight = "0.8312106577455074" />
    <synapse sourceNeuronName = "2" targetNeuronName = "6" weight = "0.4131389003261794" />
    <synapse sourceNeuronName = "2" targetNeuronName = "7" weight = "-0.8105711504299726" />
    <synapse sourceNeuronName = "2" targetNeuronName = "8" weight = "-0.8944096665832442" />
    <synapse sourceNeuronName = "2" targetNeuronName = "9" weight = "-0.23417251370601466" />
    <synapse sourceNeuronName = "3" targetNeuronName = "5" weight = "-0.3567870690639403" />
    <synapse sourceNeuronName = "3" targetNeuronName = "6" weight = "0.5441367010714007" />
    <synapse sourceNeuronName = "3" targetNeuronName = "7" weight = "-0.30668378427075926" />
    <synapse sourceNeuronName = "3" targetNeuronName = "8" weight = "-0.7460526093187745" />
    <synapse sourceNeuronName = "3" targetNeuronName = "9" weight = "0.9060811436479554" />
    <synapse sourceNeuronName = "4" targetNeuronName = "5" weight = "-0.010416103241800645" />
    <synapse sourceNeuronName = "4" targetNeuronName = "6" weight = "-0.2099974728138616" />
    <synapse sourceNeuronName = "4" targetNeuronName = "7" weight = "-0.8701516132184444" />
    <synapse sourceNeuronName = "4" targetNeuronName = "8" weight = "0.2613700233505629" />
    <synapse sourceNeuronName = "4" targetNeuronName = "9" weight = "-0.7500713385142128" />
</neuralNetwork>