<neuralNetwork>
    <neuron name = "0" type = "sensor" linkName = "Link0" />
    <neuron name = "1" type = "sensor" linkName = "Link1" />
    <neuron name = "2" type = "sensor" linkName = "Link2" />
    <neuron name = "3" type = "sensor" linkName = "Link3" />
    <neuron name = "4" type = "sensor" linkName = "Link4" />
    <neuron name = "5" type = "sensor" linkName = "Link6" />
    <neuron name = "6" type = "sensor" linkName = "Link7" />
    <neuron name = "7" type = "motor"  jointName = "Link0_Link1" />
    <neuron name = "8" type = "motor"  jointName = "Link0_Link2" />
    <neuron name = "9" type = "motor"  jointName = "Link0_Link3" />
    <neuron name = "10" type = "motor"  jointName = "Link1_Link4" />
    <neuron name = "11" type = "motor"  jointName = "Link1_Link5" />
    <neuron name = "12" type = "motor"  jointName = "Link3_Link6" />
    <neuron name = "13" type = "motor"  jointName = "Link1_Link7" />
    <synapse sourceNeuronName = "0" targetNeuronName = "7" weight = "0.9689534241544342" />
    <synapse sourceNeuronName = "0" targetNeuronName = "8" weight = "0.2643616417972996" />
    <synapse sourceNeuronName = "0" targetNeuronName = "9" weight = "0.44470097791257035" />
    <synapse sourceNeuronName = "0" targetNeuronName = "10" weight = "-0.8143407998182282" />
    <synapse sourceNeuronName = "0" targetNeuronName = "11" weight = "0.28933901635037373" />
    <synapse sourceNeuronName = "0" targetNeuronName = "12" weight = "0.2648764272561219" />
    <synapse sourceNeuronName = "0" targetNeuronName = "13" weight = "-0.903503269331442" />
    <synapse sourceNeuronName = "1" targetNeuronName = "7" weight = "-0.7083442324009741" />
    <synapse sourceNeuronName = "1" targetNeuronName = "8" weight = "0.47853368374481464" />
    <synapse sourceNeuronName = "1" targetNeuronName = "9" weight = "0.4424076260702854" />
    <synapse sourceNeuronName = "1" targetNeuronName = "10" weight = "0.253124237148612" />
    <synapse sourceNeuronName = "1" targetNeuronName = "11" weight = "0.04862038297608229" />
    <synapse sourceNeuronName = "1" targetNeuronName = "12" weight = "-0.21661933556529944" />
    <synapse sourceNeuronName = "1" targetNeuronName = "13" weight = "-0.6230590061274524" />
    <synapse sourceNeuronName = "2" targetNeuronName = "7" weight = "0.4784814706680669" />
    <synapse sourceNeuronName = "2" targetNeuronName = "8" weight = "-0.10520885594855711" />
    <synapse sourceNeuronName = "2" targetNeuronName = "9" weight = "-0.28980771625650337" />
    <synapse sourceNeuronName = "2" targetNeuronName = "10" weight = "0.14061438494632128" />
    <synapse sourceNeuronName = "2" targetNeuronName = "11" weight = "-0.24680348290870335" />
    <synapse sourceNeuronName = "2" targetNeuronName = "12" weight = "-0.3551449330427252" />
    <synapse sourceNeuronName = "2" targetNeuronName = "13" weight = "0.5037792592195922" />
    <synapse sourceNeuronName = "3" targetNeuronName = "7" weight = "0.23190166763835363" />
    <synapse sourceNeuronName = "3" targetNeuronName = "8" weight = "-0.5794855276417001" />
    <synapse sourceNeuronName = "3" targetNeuronName = "9" weight = "0.6849244621435049" />
    <synapse sourceNeuronName = "3" targetNeuronName = "10" weight = "0.311392718356333" />
    <synapse sourceNeuronName = "3" targetNeuronName = "11" weight = "-0.6791075647916727" />
    <synapse sourceNeuronName = "3" targetNeuronName = "12" weight = "-0.6778960013406872" />
    <synapse sourceNeuronName = "3" targetNeuronName = "13" weight = "-0.06381594978886662" />
    <synapse sourceNeuronName = "4" targetNeuronName = "7" weight = "-0.34997517886494434" />
    <synapse sourceNeuronName = "4" targetNeuronName = "8" weight = "-0.8029449488293656" />
    <synapse sourceNeuronName = "4" targetNeuronName = "9" weight = "0.43597778324777936" />
    <synapse sourceNeuronName = "4" targetNeuronName = "10" weight = "0.5785695064337868" />
    <synapse sourceNeuronName = "4" targetNeuronName = "11" weight = "0.06322896482535056" />
    <synapse sourceNeuronName = "4" targetNeuronName = "12" weight = "0.5561557326669133" />
    <synapse sourceNeuronName = "4" targetNeuronName = "13" weight = "0.7630099436516722" />
    <synapse sourceNeuronName = "5" targetNeuronName = "7" weight = "-0.6667080783888335" />
    <synapse sourceNeuronName = "5" targetNeuronName = "8" weight = "0.05091628131599868" />
    <synapse sourceNeuronName = "5" targetNeuronName = "9" weight = "0.5962031251559392" />
    <synapse sourceNeuronName = "5" targetNeuronName = "10" weight = "0.9168811475825351" />
    <synapse sourceNeuronName = "5" targetNeuronName = "11" weight = "-0.6799642290629422" />
    <synapse sourceNeuronName = "5" targetNeuronName = "12" weight = "-0.9651368000926575" />
    <synapse sourceNeuronName = "5" targetNeuronName = "13" weight = "0.8552944034654362" />
    <synapse sourceNeuronName = "6" targetNeuronName = "7" weight = "0.5575509536667791" />
    <synapse sourceNeuronName = "6" targetNeuronName = "8" weight = "0.221260454558309" />
    <synapse sourceNeuronName = "6" targetNeuronName = "9" weight = "0.2452268419479191" />
    <synapse sourceNeuronName = "6" targetNeuronName = "10" weight = "-0.16262642696025398" />
    <synapse sourceNeuronName = "6" targetNeuronName = "11" weight = "0.27185566751581036" />
    <synapse sourceNeuronName = "6" targetNeuronName = "12" weight = "-0.1071444755447215" />
    <synapse sourceNeuronName = "6" targetNeuronName = "13" weight = "-0.9006564699313695" />
</neuralNetwork>