<neuralNetwork>
    <neuron name = "0" type = "sensor" linkName = "Link1" />
    <neuron name = "1" type = "sensor" linkName = "Link2" />
    <neuron name = "2" type = "sensor" linkName = "Link5" />
    <neuron name = "3" type = "sensor" linkName = "Link6" />
    <neuron name = "4" type = "sensor" linkName = "Link7" />
    <neuron name = "5" type = "sensor" linkName = "Link8" />
    <neuron name = "6" type = "motor"  jointName = "Link0_Link1" />
    <neuron name = "7" type = "motor"  jointName = "Link1_Link2" />
    <neuron name = "8" type = "motor"  jointName = "Link0_Link3" />
    <neuron name = "9" type = "motor"  jointName = "Link2_Link4" />
    <neuron name = "10" type = "motor"  jointName = "Link1_Link5" />
    <neuron name = "11" type = "motor"  jointName = "Link0_Link6" />
    <neuron name = "12" type = "motor"  jointName = "Link2_Link7" />
    <neuron name = "13" type = "motor"  jointName = "Link2_Link8" />
    <neuron name = "14" type = "motor"  jointName = "Link1_Link9" />
    <synapse sourceNeuronName = "0" targetNeuronName = "6" weight = "0.8383446158633132" />
    <synapse sourceNeuronName = "0" targetNeuronName = "7" weight = "-0.5786835583501859" />
    <synapse sourceNeuronName = "0" targetNeuronName = "8" weight = "0.6578482983739666" />
    <synapse sourceNeuronName = "0" targetNeuronName = "9" weight = "0.010174813664995508" />
    <synapse sourceNeuronName = "0" targetNeuronName = "10" weight = "-0.2894956383385636" />
    <synapse sourceNeuronName = "0" targetNeuronName = "11" weight = "0.015436892904240995" />
    <synapse sourceNeuronName = "0" targetNeuronName = "12" weight = "-0.5146660134711769" />
    <synapse sourceNeuronName = "0" targetNeuronName = "13" weight = "0.44067417290665634" />
    <synapse sourceNeuronName = "0" targetNeuronName = "14" weight = "-0.5712340596992229" />
    <synapse sourceNeuronName = "1" targetNeuronName = "6" weight = "0.84258950089768" />
    <synapse sourceNeuronName = "1" targetNeuronName = "7" weight = "0.1370342575732102" />
    <synapse sourceNeuronName = "1" targetNeuronName = "8" weight = "0.979211800035017" />
    <synapse sourceNeuronName = "1" targetNeuronName = "9" weight = "0.6478973261345522" />
    <synapse sourceNeuronName = "1" targetNeuronName = "10" weight = "0.6389445283517341" />
    <synapse sourceNeuronName = "1" targetNeuronName = "11" weight = "-0.6322590598017288" />
    <synapse sourceNeuronName = "1" targetNeuronName = "12" weight = "0.8870302332103419" />
    <synapse sourceNeuronName = "1" targetNeuronName = "13" weight = "-0.09961278792622119" />
    <synapse sourceNeuronName = "1" targetNeuronName = "14" weight = "-0.5998014211788341" />
    <synapse sourceNeuronName = "2" targetNeuronName = "6" weight = "-0.5862739673824131" />
    <synapse sourceNeuronName = "2" targetNeuronName = "7" weight = "-0.6588970061601074" />
    <synapse sourceNeuronName = "2" targetNeuronName = "8" weight = "-0.5236930920078269" />
    <synapse sourceNeuronName = "2" targetNeuronName = "9" weight = "-0.3928764485691463" />
    <synapse sourceNeuronName = "2" targetNeuronName = "10" weight = "0.23681559375148864" />
    <synapse sourceNeuronName = "2" targetNeuronName = "11" weight = "0.39431119699315165" />
    <synapse sourceNeuronName = "2" targetNeuronName = "12" weight = "0.9790900898279422" />
    <synapse sourceNeuronName = "2" targetNeuronName = "13" weight = "0.43800977197774893" />
    <synapse sourceNeuronName = "2" targetNeuronName = "14" weight = "0.390824526076063" />
    <synapse sourceNeuronName = "3" targetNeuronName = "6" weight = "-0.73334163336343" />
    <synapse sourceNeuronName = "3" targetNeuronName = "7" weight = "-0.7474202925905102" />
    <synapse sourceNeuronName = "3" targetNeuronName = "8" weight = "0.6934089874858782" />
    <synapse sourceNeuronName = "3" targetNeuronName = "9" weight = "0.5654286049329853" />
    <synapse sourceNeuronName = "3" targetNeuronName = "10" weight = "0.3078065135736199" />
    <synapse sourceNeuronName = "3" targetNeuronName = "11" weight = "0.6838886524371008" />
    <synapse sourceNeuronName = "3" targetNeuronName = "12" weight = "-0.10266370108944955" />
    <synapse sourceNeuronName = "3" targetNeuronName = "13" weight = "0.3061358500191256" />
    <synapse sourceNeuronName = "3" targetNeuronName = "14" weight = "0.9948546761245429" />
    <synapse sourceNeuronName = "4" targetNeuronName = "6" weight = "-0.2838585816838721" />
    <synapse sourceNeuronName = "4" targetNeuronName = "7" weight = "0.8904134067086016" />
    <synapse sourceNeuronName = "4" targetNeuronName = "8" weight = "0.4388398210082478" />
    <synapse sourceNeuronName = "4" targetNeuronName = "9" weight = "0.4336876002838117" />
    <synapse sourceNeuronName = "4" targetNeuronName = "10" weight = "-0.9375384086735488" />
    <synapse sourceNeuronName = "4" targetNeuronName = "11" weight = "-0.2822783037468588" />
    <synapse sourceNeuronName = "4" targetNeuronName = "12" weight = "-0.3656869220387353" />
    <synapse sourceNeuronName = "4" targetNeuronName = "13" weight = "-0.6660807274996714" />
    <synapse sourceNeuronName = "4" targetNeuronName = "14" weight = "0.06871489133058772" />
    <synapse sourceNeuronName = "5" targetNeuronName = "6" weight = "-0.9055343449068811" />
    <synapse sourceNeuronName = "5" targetNeuronName = "7" weight = "0.9867776754766124" />
    <synapse sourceNeuronName = "5" targetNeuronName = "8" weight = "-0.9626653026588965" />
    <synapse sourceNeuronName = "5" targetNeuronName = "9" weight = "0.9811440095201605" />
    <synapse sourceNeuronName = "5" targetNeuronName = "10" weight = "-0.6680635239751136" />
    <synapse sourceNeuronName = "5" targetNeuronName = "11" weight = "0.4412232152330491" />
    <synapse sourceNeuronName = "5" targetNeuronName = "12" weight = "0.7620914745691809" />
    <synapse sourceNeuronName = "5" targetNeuronName = "13" weight = "-0.3458770357247385" />
    <synapse sourceNeuronName = "5" targetNeuronName = "14" weight = "-0.38366577893635156" />
</neuralNetwork>