<neuralNetwork>
    <neuron name = "0" type = "sensor" linkName = "Link0" />
    <neuron name = "1" type = "sensor" linkName = "Link2" />
    <neuron name = "2" type = "sensor" linkName = "Link3" />
    <neuron name = "3" type = "sensor" linkName = "Link4" />
    <neuron name = "4" type = "sensor" linkName = "Link5" />
    <neuron name = "5" type = "motor"  jointName = "Link0_Link1" />
    <neuron name = "6" type = "motor"  jointName = "Link1_Link2" />
    <neuron name = "7" type = "motor"  jointName = "Link2_Link3" />
    <neuron name = "8" type = "motor"  jointName = "Link1_Link4" />
    <neuron name = "9" type = "motor"  jointName = "Link3_Link5" />
    <neuron name = "10" type = "motor"  jointName = "Link0_Link6" />
    <synapse sourceNeuronName = "0" targetNeuronName = "5" weight = "0.5686809585977544" />
    <synapse sourceNeuronName = "0" targetNeuronName = "6" weight = "-0.8376747301856275" />
    <synapse sourceNeuronName = "0" targetNeuronName = "7" weight = "-0.7047787918473887" />
    <synapse sourceNeuronName = "0" targetNeuronName = "8" weight = "0.03182751864284383" />
    <synapse sourceNeuronName = "0" targetNeuronName = "9" weight = "0.5879289484825703" />
    <synapse sourceNeuronName = "0" targetNeuronName = "10" weight = "0.8837747365538406" />
    <synapse sourceNeuronName = "1" targetNeuronName = "5" weight = "0.022446605570138223" />
    <synapse sourceNeuronName = "1" targetNeuronName = "6" weight = "0.024239232092673646" />
    <synapse sourceNeuronName = "1" targetNeuronName = "7" weight = "0.4554955489047581" />
    <synapse sourceNeuronName = "1" targetNeuronName = "8" weight = "-0.047573869430104665" />
    <synapse sourceNeuronName = "1" targetNeuronName = "9" weight = "-0.4258773954693835" />
    <synapse sourceNeuronName = "1" targetNeuronName = "10" weight = "-0.026523489200954486" />
    <synapse sourceNeuronName = "2" targetNeuronName = "5" weight = "0.6179889356894277" />
    <synapse sourceNeuronName = "2" targetNeuronName = "6" weight = "0.8273063829796132" />
    <synapse sourceNeuronName = "2" targetNeuronName = "7" weight = "0.07519795930118667" />
    <synapse sourceNeuronName = "2" targetNeuronName = "8" weight = "0.7694743898620191" />
    <synapse sourceNeuronName = "2" targetNeuronName = "9" weight = "-0.13469612162707967" />
    <synapse sourceNeuronName = "2" targetNeuronName = "10" weight = "-0.45649364567214223" />
    <synapse sourceNeuronName = "3" targetNeuronName = "5" weight = "0.09884149957800159" />
    <synapse sourceNeuronName = "3" targetNeuronName = "6" weight = "0.09795036708121341" />
    <synapse sourceNeuronName = "3" targetNeuronName = "7" weight = "-0.7341832368309043" />
    <synapse sourceNeuronName = "3" targetNeuronName = "8" weight = "0.009710713658619197" />
    <synapse sourceNeuronName = "3" targetNeuronName = "9" weight = "-0.28302400494211444" />
    <synapse sourceNeuronName = "3" targetNeuronName = "10" weight = "0.5630527553740363" />
    <synapse sourceNeuronName = "4" targetNeuronName = "5" weight = "-0.523521192741224" />
    <synapse sourceNeuronName = "4" targetNeuronName = "6" weight = "-0.5989971325094481" />
    <synapse sourceNeuronName = "4" targetNeuronName = "7" weight = "-0.8236032036790932" />
    <synapse sourceNeuronName = "4" targetNeuronName = "8" weight = "-0.9883670639902011" />
    <synapse sourceNeuronName = "4" targetNeuronName = "9" weight = "0.9051521529488793" />
    <synapse sourceNeuronName = "4" targetNeuronName = "10" weight = "0.452443319819944" />
</neuralNetwork>