<neuralNetwork>
    <neuron name = "0" type = "sensor" linkName = "Link1" />
    <neuron name = "1" type = "sensor" linkName = "Link2" />
    <neuron name = "2" type = "sensor" linkName = "Link5" />
    <neuron name = "3" type = "sensor" linkName = "Link6" />
    <neuron name = "4" type = "sensor" linkName = "Link7" />
    <neuron name = "5" type = "sensor" linkName = "Link8" />
    <neuron name = "6" type = "motor"  jointName = "Link0_Link1" />
    <neuron name = "7" type = "motor"  jointName = "Link1_Link2" />
    <neuron name = "8" type = "motor"  jointName = "Link0_Link3" />
    <neuron name = "9" type = "motor"  jointName = "Link2_Link4" />
    <neuron name = "10" type = "motor"  jointName = "Link1_Link5" />
    <neuron name = "11" type = "motor"  jointName = "Link0_Link6" />
    <neuron name = "12" type = "motor"  jointName = "Link2_Link7" />
    <neuron name = "13" type = "motor"  jointName = "Link2_Link8" />
    <synapse sourceNeuronName = "0" targetNeuronName = "6" weight = "0.5419892841233436" />
    <synapse sourceNeuronName = "0" targetNeuronName = "7" weight = "-0.8040794420603754" />
    <synapse sourceNeuronName = "0" targetNeuronName = "8" weight = "-0.8492622432811554" />
    <synapse sourceNeuronName = "0" targetNeuronName = "9" weight = "-0.43936608523990506" />
    <synapse sourceNeuronName = "0" targetNeuronName = "10" weight = "0.2625827549330686" />
    <synapse sourceNeuronName = "0" targetNeuronName = "11" weight = "0.5377886657694331" />
    <synapse sourceNeuronName = "0" targetNeuronName = "12" weight = "0.129487078548997" />
    <synapse sourceNeuronName = "0" targetNeuronName = "13" weight = "-0.832487107006743" />
    <synapse sourceNeuronName = "1" targetNeuronName = "6" weight = "0.2967239818916021" />
    <synapse sourceNeuronName = "1" targetNeuronName = "7" weight = "0.15530219835454995" />
    <synapse sourceNeuronName = "1" targetNeuronName = "8" weight = "-0.8173042826098413" />
    <synapse sourceNeuronName = "1" targetNeuronName = "9" weight = "0.016751788837019888" />
    <synapse sourceNeuronName = "1" targetNeuronName = "10" weight = "0.6438652061457415" />
    <synapse sourceNeuronName = "1" targetNeuronName = "11" weight = "0.18460575311245409" />
    <synapse sourceNeuronName = "1" targetNeuronName = "12" weight = "-0.40055315693227933" />
    <synapse sourceNeuronName = "1" targetNeuronName = "13" weight = "-0.8920889649218029" />
    <synapse sourceNeuronName = "2" targetNeuronName = "6" weight = "0.06317489746101534" />
    <synapse sourceNeuronName = "2" targetNeuronName = "7" weight = "-0.25094988299824617" />
    <synapse sourceNeuronName = "2" targetNeuronName = "8" weight = "-0.5993277400223846" />
    <synapse sourceNeuronName = "2" targetNeuronName = "9" weight = "-0.48894860892486447" />
    <synapse sourceNeuronName = "2" targetNeuronName = "10" weight = "0.1876700709407093" />
    <synapse sourceNeuronName = "2" targetNeuronName = "11" weight = "0.23780427245007707" />
    <synapse sourceNeuronName = "2" targetNeuronName = "12" weight = "0.7957833016963995" />
    <synapse sourceNeuronName = "2" targetNeuronName = "13" weight = "-0.10223797127827194" />
    <synapse sourceNeuronName = "3" targetNeuronName = "6" weight = "-0.1365606864729061" />
    <synapse sourceNeuronName = "3" targetNeuronName = "7" weight = "0.08944296421750031" />
    <synapse sourceNeuronName = "3" targetNeuronName = "8" weight = "0.19759275241246033" />
    <synapse sourceNeuronName = "3" targetNeuronName = "9" weight = "0.42840444985500614" />
    <synapse sourceNeuronName = "3" targetNeuronName = "10" weight = "-0.4547849891652722" />
    <synapse sourceNeuronName = "3" targetNeuronName = "11" weight = "0.850245449521579" />
    <synapse sourceNeuronName = "3" targetNeuronName = "12" weight = "-0.9504617636724118" />
    <synapse sourceNeuronName = "3" targetNeuronName = "13" weight = "-0.7717364954613435" />
    <synapse sourceNeuronName = "4" targetNeuronName = "6" weight = "-0.32922984638167985" />
    <synapse sourceNeuronName = "4" targetNeuronName = "7" weight = "-0.6659772894288039" />
    <synapse sourceNeuronName = "4" targetNeuronName = "8" weight = "0.3432717151389464" />
    <synapse sourceNeuronName = "4" targetNeuronName = "9" weight = "0.04038336732723269" />
    <synapse sourceNeuronName = "4" targetNeuronName = "10" weight = "0.2037435370508165" />
    <synapse sourceNeuronName = "4" targetNeuronName = "11" weight = "-0.23686118276321033" />
    <synapse sourceNeuronName = "4" targetNeuronName = "12" weight = "-0.599638494398741" />
    <synapse sourceNeuronName = "4" targetNeuronName = "13" weight = "-0.01034483372682704" />
    <synapse sourceNeuronName = "5" targetNeuronName = "6" weight = "0.4872188300320157" />
    <synapse sourceNeuronName = "5" targetNeuronName = "7" weight = "-0.5074124956517994" />
    <synapse sourceNeuronName = "5" targetNeuronName = "8" weight = "-0.35297830576543965" />
    <synapse sourceNeuronName = "5" targetNeuronName = "9" weight = "0.20160628035594463" />
    <synapse sourceNeuronName = "5" targetNeuronName = "10" weight = "0.7584115148350217" />
    <synapse sourceNeuronName = "5" targetNeuronName = "11" weight = "0.8532468196665488" />
    <synapse sourceNeuronName = "5" targetNeuronName = "12" weight = "-0.8554401394384743" />
    <synapse sourceNeuronName = "5" targetNeuronName = "13" weight = "-0.039558298198243635" />
</neuralNetwork>