<neuralNetwork>
    <neuron name = "0" type = "sensor" linkName = "Link1" />
    <neuron name = "1" type = "sensor" linkName = "Link2" />
    <neuron name = "2" type = "sensor" linkName = "Link5" />
    <neuron name = "3" type = "sensor" linkName = "Link6" />
    <neuron name = "4" type = "sensor" linkName = "Link7" />
    <neuron name = "5" type = "motor"  jointName = "Link0_Link1" />
    <neuron name = "6" type = "motor"  jointName = "Link1_Link2" />
    <neuron name = "7" type = "motor"  jointName = "Link0_Link3" />
    <neuron name = "8" type = "motor"  jointName = "Link2_Link4" />
    <neuron name = "9" type = "motor"  jointName = "Link1_Link5" />
    <neuron name = "10" type = "motor"  jointName = "Link0_Link6" />
    <neuron name = "11" type = "motor"  jointName = "Link5_Link7" />
    <neuron name = "12" type = "motor"  jointName = "Link0_Link8" />
    <synapse sourceNeuronName = "0" targetNeuronName = "5" weight = "0.41597862825456167" />
    <synapse sourceNeuronName = "0" targetNeuronName = "6" weight = "-0.9341133174915892" />
    <synapse sourceNeuronName = "0" targetNeuronName = "7" weight = "0.6226099518002985" />
    <synapse sourceNeuronName = "0" targetNeuronName = "8" weight = "0.4078267593011202" />
    <synapse sourceNeuronName = "0" targetNeuronName = "9" weight = "-0.7480349309994145" />
    <synapse sourceNeuronName = "0" targetNeuronName = "10" weight = "-0.1851494063271908" />
    <synapse sourceNeuronName = "0" targetNeuronName = "11" weight = "0.044845974843729985" />
    <synapse sourceNeuronName = "0" targetNeuronName = "12" weight = "0.4258700311982613" />
    <synapse sourceNeuronName = "1" targetNeuronName = "5" weight = "-0.2484766563361498" />
    <synapse sourceNeuronName = "1" targetNeuronName = "6" weight = "-0.8019449198388686" />
    <synapse sourceNeuronName = "1" targetNeuronName = "7" weight = "-0.649546424480316" />
    <synapse sourceNeuronName = "1" targetNeuronName = "8" weight = "-0.4703983344950693" />
    <synapse sourceNeuronName = "1" targetNeuronName = "9" weight = "0.1349856824829152" />
    <synapse sourceNeuronName = "1" targetNeuronName = "10" weight = "-0.09299101096659634" />
    <synapse sourceNeuronName = "1" targetNeuronName = "11" weight = "0.024959547490598144" />
    <synapse sourceNeuronName = "1" targetNeuronName = "12" weight = "0.161852718351986" />
    <synapse sourceNeuronName = "2" targetNeuronName = "5" weight = "0.0911792070046098" />
    <synapse sourceNeuronName = "2" targetNeuronName = "6" weight = "-0.653532561938486" />
    <synapse sourceNeuronName = "2" targetNeuronName = "7" weight = "-0.885108164186029" />
    <synapse sourceNeuronName = "2" targetNeuronName = "8" weight = "0.7549150665775513" />
    <synapse sourceNeuronName = "2" targetNeuronName = "9" weight = "-0.9044045306661181" />
    <synapse sourceNeuronName = "2" targetNeuronName = "10" weight = "0.7706648230148421" />
    <synapse sourceNeuronName = "2" targetNeuronName = "11" weight = "-0.04847996354188888" />
    <synapse sourceNeuronName = "2" targetNeuronName = "12" weight = "-0.8822597276278776" />
    <synapse sourceNeuronName = "3" targetNeuronName = "5" weight = "-0.7691650334767017" />
    <synapse sourceNeuronName = "3" targetNeuronName = "6" weight = "0.30764679163437414" />
    <synapse sourceNeuronName = "3" targetNeuronName = "7" weight = "0.032125943433251924" />
    <synapse sourceNeuronName = "3" targetNeuronName = "8" weight = "0.6409608663381414" />
    <synapse sourceNeuronName = "3" targetNeuronName = "9" weight = "0.23496879616441246" />
    <synapse sourceNeuronName = "3" targetNeuronName = "10" weight = "-0.894129071212967" />
    <synapse sourceNeuronName = "3" targetNeuronName = "11" weight = "0.6430258717069128" />
    <synapse sourceNeuronName = "3" targetNeuronName = "12" weight = "-0.8307574842215424" />
    <synapse sourceNeuronName = "4" targetNeuronName = "5" weight = "0.3464437130318325" />
    <synapse sourceNeuronName = "4" targetNeuronName = "6" weight = "0.029963095965571673" />
    <synapse sourceNeuronName = "4" targetNeuronName = "7" weight = "-0.31469847309229326" />
    <synapse sourceNeuronName = "4" targetNeuronName = "8" weight = "-0.004186627132405807" />
    <synapse sourceNeuronName = "4" targetNeuronName = "9" weight = "0.9186187483511956" />
    <synapse sourceNeuronName = "4" targetNeuronName = "10" weight = "-0.8214340434065819" />
    <synapse sourceNeuronName = "4" targetNeuronName = "11" weight = "-0.9734113416347194" />
    <synapse sourceNeuronName = "4" targetNeuronName = "12" weight = "0.3450205070818675" />
</neuralNetwork>