<neuralNetwork>
    <neuron name = "0" type = "sensor" linkName = "Link1" />
    <neuron name = "1" type = "sensor" linkName = "Link2" />
    <neuron name = "2" type = "sensor" linkName = "Link5" />
    <neuron name = "3" type = "sensor" linkName = "Link6" />
    <neuron name = "4" type = "sensor" linkName = "Link7" />
    <neuron name = "5" type = "motor"  jointName = "Link0_Link1" />
    <neuron name = "6" type = "motor"  jointName = "Link1_Link2" />
    <neuron name = "7" type = "motor"  jointName = "Link0_Link3" />
    <neuron name = "8" type = "motor"  jointName = "Link2_Link4" />
    <neuron name = "9" type = "motor"  jointName = "Link1_Link5" />
    <neuron name = "10" type = "motor"  jointName = "Link0_Link6" />
    <neuron name = "11" type = "motor"  jointName = "Link2_Link7" />
    <synapse sourceNeuronName = "0" targetNeuronName = "5" weight = "-0.28083986938693184" />
    <synapse sourceNeuronName = "0" targetNeuronName = "6" weight = "-0.13381395724461642" />
    <synapse sourceNeuronName = "0" targetNeuronName = "7" weight = "0.6355026047097432" />
    <synapse sourceNeuronName = "0" targetNeuronName = "8" weight = "-0.7866275040325841" />
    <synapse sourceNeuronName = "0" targetNeuronName = "9" weight = "0.0744952354959918" />
    <synapse sourceNeuronName = "0" targetNeuronName = "10" weight = "0.351991118470244" />
    <synapse sourceNeuronName = "0" targetNeuronName = "11" weight = "-0.43247368369865" />
    <synapse sourceNeuronName = "1" targetNeuronName = "5" weight = "-0.28357821026194974" />
    <synapse sourceNeuronName = "1" targetNeuronName = "6" weight = "-0.4511159042821451" />
    <synapse sourceNeuronName = "1" targetNeuronName = "7" weight = "0.8635269126189158" />
    <synapse sourceNeuronName = "1" targetNeuronName = "8" weight = "0.3622652893857159" />
    <synapse sourceNeuronName = "1" targetNeuronName = "9" weight = "-0.24839668013374805" />
    <synapse sourceNeuronName = "1" targetNeuronName = "10" weight = "-0.9543405052215026" />
    <synapse sourceNeuronName = "1" targetNeuronName = "11" weight = "0.4113159834416018" />
    <synapse sourceNeuronName = "2" targetNeuronName = "5" weight = "0.700847141372164" />
    <synapse sourceNeuronName = "2" targetNeuronName = "6" weight = "-0.20403587505814524" />
    <synapse sourceNeuronName = "2" targetNeuronName = "7" weight = "-0.9952133552484355" />
    <synapse sourceNeuronName = "2" targetNeuronName = "8" weight = "0.3295701724061133" />
    <synapse sourceNeuronName = "2" targetNeuronName = "9" weight = "0.49779514854906837" />
    <synapse sourceNeuronName = "2" targetNeuronName = "10" weight = "0.5456281989930618" />
    <synapse sourceNeuronName = "2" targetNeuronName = "11" weight = "0.2618578515545076" />
    <synapse sourceNeuronName = "3" targetNeuronName = "5" weight = "-0.854966644027005" />
    <synapse sourceNeuronName = "3" targetNeuronName = "6" weight = "0.556524889035944" />
    <synapse sourceNeuronName = "3" targetNeuronName = "7" weight = "-0.25726008146678425" />
    <synapse sourceNeuronName = "3" targetNeuronName = "8" weight = "-0.3345199079506207" />
    <synapse sourceNeuronName = "3" targetNeuronName = "9" weight = "0.8414251575866245" />
    <synapse sourceNeuronName = "3" targetNeuronName = "10" weight = "-0.3951885528870134" />
    <synapse sourceNeuronName = "3" targetNeuronName = "11" weight = "0.059765607103711815" />
    <synapse sourceNeuronName = "4" targetNeuronName = "5" weight = "0.950124434666145" />
    <synapse sourceNeuronName = "4" targetNeuronName = "6" weight = "0.9447825227280033" />
    <synapse sourceNeuronName = "4" targetNeuronName = "7" weight = "-0.12586609564283435" />
    <synapse sourceNeuronName = "4" targetNeuronName = "8" weight = "0.03523492246955473" />
    <synapse sourceNeuronName = "4" targetNeuronName = "9" weight = "0.4360468761181593" />
    <synapse sourceNeuronName = "4" targetNeuronName = "10" weight = "-0.16342947976483813" />
    <synapse sourceNeuronName = "4" targetNeuronName = "11" weight = "-0.057257926117177504" />
</neuralNetwork>