<neuralNetwork>
    <neuron name = "0" type = "sensor" linkName = "Link1" />
    <neuron name = "1" type = "sensor" linkName = "Link2" />
    <neuron name = "2" type = "sensor" linkName = "Link5" />
    <neuron name = "3" type = "sensor" linkName = "Link6" />
    <neuron name = "4" type = "sensor" linkName = "Link7" />
    <neuron name = "5" type = "sensor" linkName = "Link8" />
    <neuron name = "6" type = "motor"  jointName = "Link0_Link1" />
    <neuron name = "7" type = "motor"  jointName = "Link1_Link2" />
    <neuron name = "8" type = "motor"  jointName = "Link0_Link3" />
    <neuron name = "9" type = "motor"  jointName = "Link2_Link4" />
    <neuron name = "10" type = "motor"  jointName = "Link1_Link5" />
    <neuron name = "11" type = "motor"  jointName = "Link0_Link6" />
    <neuron name = "12" type = "motor"  jointName = "Link2_Link7" />
    <neuron name = "13" type = "motor"  jointName = "Link2_Link8" />
    <synapse sourceNeuronName = "0" targetNeuronName = "6" weight = "0.9962959839223342" />
    <synapse sourceNeuronName = "0" targetNeuronName = "7" weight = "-0.8990522172802187" />
    <synapse sourceNeuronName = "0" targetNeuronName = "8" weight = "-0.34908553743253523" />
    <synapse sourceNeuronName = "0" targetNeuronName = "9" weight = "-0.2321814865382288" />
    <synapse sourceNeuronName = "0" targetNeuronName = "10" weight = "0.19052815578279803" />
    <synapse sourceNeuronName = "0" targetNeuronName = "11" weight = "0.658442810595973" />
    <synapse sourceNeuronName = "0" targetNeuronName = "12" weight = "-0.27616875998643975" />
    <synapse sourceNeuronName = "0" targetNeuronName = "13" weight = "0.40649866071796126" />
    <synapse sourceNeuronName = "1" targetNeuronName = "6" weight = "-0.8691522275552774" />
    <synapse sourceNeuronName = "1" targetNeuronName = "7" weight = "0.04472782033328038" />
    <synapse sourceNeuronName = "1" targetNeuronName = "8" weight = "0.09362954714330884" />
    <synapse sourceNeuronName = "1" targetNeuronName = "9" weight = "-0.13239742785981745" />
    <synapse sourceNeuronName = "1" targetNeuronName = "10" weight = "0.4541085901655013" />
    <synapse sourceNeuronName = "1" targetNeuronName = "11" weight = "-0.14684137334679037" />
    <synapse sourceNeuronName = "1" targetNeuronName = "12" weight = "-0.23758687203375262" />
    <synapse sourceNeuronName = "1" targetNeuronName = "13" weight = "0.3468258236046293" />
    <synapse sourceNeuronName = "2" targetNeuronName = "6" weight = "0.10360350527149031" />
    <synapse sourceNeuronName = "2" targetNeuronName = "7" weight = "0.6088428499703873" />
    <synapse sourceNeuronName = "2" targetNeuronName = "8" weight = "0.24443785675004914" />
    <synapse sourceNeuronName = "2" targetNeuronName = "9" weight = "0.09803529506348552" />
    <synapse sourceNeuronName = "2" targetNeuronName = "10" weight = "0.9503398427527516" />
    <synapse sourceNeuronName = "2" targetNeuronName = "11" weight = "-0.5044017053877432" />
    <synapse sourceNeuronName = "2" targetNeuronName = "12" weight = "0.029830219789184653" />
    <synapse sourceNeuronName = "2" targetNeuronName = "13" weight = "0.8206375216866877" />
    <synapse sourceNeuronName = "3" targetNeuronName = "6" weight = "-0.28109384299873263" />
    <synapse sourceNeuronName = "3" targetNeuronName = "7" weight = "-0.4871438626593838" />
    <synapse sourceNeuronName = "3" targetNeuronName = "8" weight = "-0.8218225290243752" />
    <synapse sourceNeuronName = "3" targetNeuronName = "9" weight = "-0.526050932675459" />
    <synapse sourceNeuronName = "3" targetNeuronName = "10" weight = "-0.9208581959159141" />
    <synapse sourceNeuronName = "3" targetNeuronName = "11" weight = "-0.5889419803288474" />
    <synapse sourceNeuronName = "3" targetNeuronName = "12" weight = "0.0990432501544325" />
    <synapse sourceNeuronName = "3" targetNeuronName = "13" weight = "-0.9704686565038934" />
    <synapse sourceNeuronName = "4" targetNeuronName = "6" weight = "0.017667627750471038" />
    <synapse sourceNeuronName = "4" targetNeuronName = "7" weight = "-0.008716182870556644" />
    <synapse sourceNeuronName = "4" targetNeuronName = "8" weight = "-0.6664309917112239" />
    <synapse sourceNeuronName = "4" targetNeuronName = "9" weight = "0.18846685542362906" />
    <synapse sourceNeuronName = "4" targetNeuronName = "10" weight = "-0.6386663448307006" />
    <synapse sourceNeuronName = "4" targetNeuronName = "11" weight = "0.7069798976566739" />
    <synapse sourceNeuronName = "4" targetNeuronName = "12" weight = "0.2569495569296807" />
    <synapse sourceNeuronName = "4" targetNeuronName = "13" weight = "-0.05177123824153185" />
    <synapse sourceNeuronName = "5" targetNeuronName = "6" weight = "-0.19459144334664646" />
    <synapse sourceNeuronName = "5" targetNeuronName = "7" weight = "0.7616988660898383" />
    <synapse sourceNeuronName = "5" targetNeuronName = "8" weight = "-0.7325090529877163" />
    <synapse sourceNeuronName = "5" targetNeuronName = "9" weight = "0.9647245261183479" />
    <synapse sourceNeuronName = "5" targetNeuronName = "10" weight = "-0.32384509733499756" />
    <synapse sourceNeuronName = "5" targetNeuronName = "11" weight = "-0.9899080373128784" />
    <synapse sourceNeuronName = "5" targetNeuronName = "12" weight = "0.8016726821588083" />
    <synapse sourceNeuronName = "5" targetNeuronName = "13" weight = "0.7164347567165723" />
</neuralNetwork>