<neuralNetwork>
    <neuron name = "0" type = "sensor" linkName = "Link0" />
    <neuron name = "1" type = "sensor" linkName = "Link2" />
    <neuron name = "2" type = "sensor" linkName = "Link3" />
    <neuron name = "3" type = "sensor" linkName = "Link4" />
    <neuron name = "4" type = "sensor" linkName = "Link5" />
    <neuron name = "5" type = "sensor" linkName = "Link6" />
    <neuron name = "6" type = "motor"  jointName = "Link0_Link1" />
    <neuron name = "7" type = "motor"  jointName = "Link1_Link2" />
    <neuron name = "8" type = "motor"  jointName = "Link2_Link3" />
    <neuron name = "9" type = "motor"  jointName = "Link1_Link4" />
    <neuron name = "10" type = "motor"  jointName = "Link3_Link5" />
    <neuron name = "11" type = "motor"  jointName = "Link0_Link6" />
    <synapse sourceNeuronName = "0" targetNeuronName = "6" weight = "-0.283110749577713" />
    <synapse sourceNeuronName = "0" targetNeuronName = "7" weight = "-0.6902920086714008" />
    <synapse sourceNeuronName = "0" targetNeuronName = "8" weight = "0.4972607899681578" />
    <synapse sourceNeuronName = "0" targetNeuronName = "9" weight = "0.1541341887179899" />
    <synapse sourceNeuronName = "0" targetNeuronName = "10" weight = "0.8866032828186454" />
    <synapse sourceNeuronName = "0" targetNeuronName = "11" weight = "-0.5995103860069058" />
    <synapse sourceNeuronName = "1" targetNeuronName = "6" weight = "0.8012155257595386" />
    <synapse sourceNeuronName = "1" targetNeuronName = "7" weight = "0.5281993130490632" />
    <synapse sourceNeuronName = "1" targetNeuronName = "8" weight = "-0.2850914592732743" />
    <synapse sourceNeuronName = "1" targetNeuronName = "9" weight = "-0.8991658688874831" />
    <synapse sourceNeuronName = "1" targetNeuronName = "10" weight = "-0.9477336006029096" />
    <synapse sourceNeuronName = "1" targetNeuronName = "11" weight = "0.757424773717795" />
    <synapse sourceNeuronName = "2" targetNeuronName = "6" weight = "-0.1929563894519264" />
    <synapse sourceNeuronName = "2" targetNeuronName = "7" weight = "0.7794805407926038" />
    <synapse sourceNeuronName = "2" targetNeuronName = "8" weight = "0.1109731409279422" />
    <synapse sourceNeuronName = "2" targetNeuronName = "9" weight = "-0.37876138633212575" />
    <synapse sourceNeuronName = "2" targetNeuronName = "10" weight = "-0.6001350004657826" />
    <synapse sourceNeuronName = "2" targetNeuronName = "11" weight = "-0.5703065448293487" />
    <synapse sourceNeuronName = "3" targetNeuronName = "6" weight = "0.4848969369819549" />
    <synapse sourceNeuronName = "3" targetNeuronName = "7" weight = "0.4699871523945347" />
    <synapse sourceNeuronName = "3" targetNeuronName = "8" weight = "0.6755837283970212" />
    <synapse sourceNeuronName = "3" targetNeuronName = "9" weight = "-0.3580452913887209" />
    <synapse sourceNeuronName = "3" targetNeuronName = "10" weight = "-0.12942120724761064" />
    <synapse sourceNeuronName = "3" targetNeuronName = "11" weight = "0.6124892543160192" />
    <synapse sourceNeuronName = "4" targetNeuronName = "6" weight = "0.497006879384011" />
    <synapse sourceNeuronName = "4" targetNeuronName = "7" weight = "-0.10875505122031814" />
    <synapse sourceNeuronName = "4" targetNeuronName = "8" weight = "0.008365879041722257" />
    <synapse sourceNeuronName = "4" targetNeuronName = "9" weight = "0.712586976555831" />
    <synapse sourceNeuronName = "4" targetNeuronName = "10" weight = "-0.540095888700072" />
    <synapse sourceNeuronName = "4" targetNeuronName = "11" weight = "-0.3229882166789664" />
    <synapse sourceNeuronName = "5" targetNeuronName = "6" weight = "-0.2738488151283134" />
    <synapse sourceNeuronName = "5" targetNeuronName = "7" weight = "-0.11871667716259249" />
    <synapse sourceNeuronName = "5" targetNeuronName = "8" weight = "0.9150477234691061" />
    <synapse sourceNeuronName = "5" targetNeuronName = "9" weight = "-0.36836646132345674" />
    <synapse sourceNeuronName = "5" targetNeuronName = "10" weight = "-0.5945229357735611" />
    <synapse sourceNeuronName = "5" targetNeuronName = "11" weight = "-0.5240469450409435" />
</neuralNetwork>